-1.56875e+07 -6.86421e+07 -1.33402e+07 -6.67727e+06 -1.82908e+07 -9.88119e+06 4.99849e+06 -1.78923e+07 -2.02063e+06 -729809 -9.94914e+06 -4.51127e+06 5.70321e+06 -4.14364e+06 6.51231e+06 -4.27457e+06 1.64362e+06 -2.63827e+06 -3.46866e+06 6.68635e+06 35590.8 -220236 909778 -416872 669900 1.82098e+06 4.92438e+06 648670 5.55826e+06 -24277.2 2.32329e+06 -65328.3 -662289 951010 -2.32537e+06 -215035 -1.31782e+06 176041 879651 2.46915e+06 2.45467e+06 3.00201e+06 952982 971267 163041 1.12547e+06 1.69572e+06 2.35922e+06 -2.03426e+06 392454 1.37302e+06 -907100 -84988.2 -1.19799e+06 -73864.6 1.21151e+06 6635.33 -1.50259e+06 1.43329e+06 -978012 150051 -298276 -713796 -320200 -2.17715e+06 -1.00137e+06 1.59423e+06 -827913 498011 -182193 880010 595762 -1.19153e+06 1.45501e+06 -848855 2.45502e+06 -1.26639e+06 948250 1.3676e+06 206042 1.31938e+06 902995 -1.06534e+06 -226810 -47319.1 66616 -131984 875937 -782773 -1.05163e+06 -149817 -1.78746e+06 827436 -183353 768613 -244807 -60915.2 369493 -340438 481838 227113 1.05459e+06 -461627 -400992 -491057 -373936 -67177.1 180937 37430.7 162432 -755041 42998 -783108 -718785 60963 -301862 -176890 773518 137691 153881 195055 -208291 -304645 215763 215986 -134929 -73156.2 186771 -235277 218127 -65441.1 33957 -16057.8 -150603 -47137.9 99785.4 1187.11 11777.2 172195 -1602.35 -160096 149235 -101106 -113073 42050.7 -2470.04 25543 -75033.5 101010 61780.2 
-4.50043e+07 -2.02792e+07 -3.07701e+07 -1.78809e+07 -1.92389e+06 2.54916e+06 -6.34001e+06 1.32176e+06 3.15476e+06 -782682 1.87078e+06 1.12485e+07 -115551 6.023e+06 1.14239e+06 2.12877e+06 -1.0947e+06 -699838 723629 261659 1.06695e+06 3504.51 2.45324e+06 2.31417e+06 463054 -461380 843524 -1.90537e+06 -1.8926e+06 -192984 -2.14016e+06 -548317 -829527 711878 -2.34041e+06 -1.1566e+06 -240937 897432 -112542 189888 -236880 221108 -181309 909423 32941.1 31193.5 -256548 -96884.7 -325533 -544851 1.1279e+06 271721 907534 -60288.5 76311.1 51637.1 1.24264e+06 -370862 962566 693840 -792672 -1.33647e+06 568747 -509934 219893 -681137 -38151.9 -524847 -563457 392910 -87579.6 -856986 -758745 -203321 -474616 -221324 -1.1989e+06 189189 -140846 -480787 -112273 -169600 -547478 -456081 -773280 -359932 163653 -321297 775656 464061 -475029 -244523 1.07471e+06 -978774 165309 40115.8 -98335.1 505739 -561899 199851 -33751.7 -489886 -791001 -190588 -70477.2 339456 72524.2 220166 147658 78440.1 360771 -780121 91122.9 -469734 360255 154664 289109 50999.4 -267214 260703 720120 -192516 1.18646e+06 130735 44256.9 508622 -374048 -99675.6 -174950 -681835 -310211 61766.5 502916 322772 -652492 -23101.6 333546 221787 -1.27191e+06 124282 332444 754399 -334859 381378 -18579.4 -220651 -145253 86742.7 -322357 129284 
-4.00286e+07 -1.44366e+07 -3.18036e+07 -1.49493e+07 -2.92275e+06 1.6312e+06 -5.84573e+06 -2.40509e+06 6.30029e+06 -1.15293e+06 -2.71419e+06 1.02285e+07 -671548 7.71855e+06 3.74131e+06 3.19326e+06 -2.82574e+06 390891 -2.57618e+06 1.79086e+06 2.69829e+06 -54919.7 -17932 2.3712e+06 -1.37366e+06 -749397 3.29333e+06 -845239 745800 -155320 -1.04228e+06 -784470 154250 1.74381e+06 -2.10516e+06 -490272 486934 1.67195e+06 -621890 -1.36667e+06 1.34124e+06 123743 716630 -388898 1.15945e+06 -825682 1.14751e+06 467522 -1.12147e+06 154412 1.65137e+06 1.50592e+06 -1.36563e+06 2269.97 406872 4036.55 -530067 1.50822e+06 -115457 369730 -936451 127745 -205670 661522 1.19029e+06 -24584.2 -839491 381216 -1.16931e+06 51632.9 -538332 -239786 -132599 -277073 -640143 -741322 -639193 160425 -429095 -1.1691e+06 -336626 112224 -501998 -437062 763258 -742093 -925068 -78118.3 667381 524288 1.10323e+06 820363 833690 -933587 530595 607259 260934 451292 -490346 -127400 -57406.3 85224.1 326851 230540 -185138 757954 81267.1 -104528 302684 -605074 -828958 -1.24427e+06 -450164 11945.5 -343903 -50011.4 -861111 -202362 440563 170527 -661822 165769 356075 335287 -13525.4 286531 205921 -434185 40627.3 341060 -143843 887824 -34252.2 -61359.5 92802.4 -254136 -946989 -813153 409925 -32340 -389935 195419 242360 32519.4 146745 -157023 101110 41065.2 460148 -46203 
-3.16552e+07 -1.1031e+07 -2.6046e+07 -2.05629e+07 -7.43471e+06 3.34708e+06 -3.89545e+06 5.53298e+06 -2.35561e+06 -7.90126e+06 284257 1.31828e+07 -324203 2.29713e+06 -899267 2.04472e+06 -5.40904e+06 -301259 2.79308e+06 1.18003e+06 -3.91703e+06 2.85976e+06 3.94073e+06 2.21044e+06 2.70006e+06 -2.61611e+06 2.39027e+06 -606126 933260 -705205 2.73189e+06 4.01269e+06 -1.1987e+06 -208263 -2.32733e+06 -1.12013e+06 474211 -535986 278791 2.22206e+06 -533539 716016 -75792.9 1.22512e+06 111054 1.22145e+06 2.19146e+06 1.42574e+06 682226 -180196 1.04317e+06 -614033 -2.37667e+06 -272634 -1.01379e+06 1.55571e+06 -264819 -60498.6 1.1365e+06 356761 -1.75765e+06 85481.9 332550 714493 127123 358387 -1.11589e+06 1.32492e+06 1.49057e+06 -457479 792696 -1.08731e+06 204550 -394585 -1.25197e+06 -1.81524e+06 1.61723e+06 -373436 214818 -71076.7 1.39007e+06 -1.3423e+06 -318902 -422712 -545563 -854409 -880149 1.01531e+06 -1.49056e+06 -1.15166e+06 59252.2 1.72305e+06 -663662 -862029 721836 -88750.8 -1.33054e+06 -1.7649e+06 -191345 -330732 -197453 66963.5 613239 -158663 -17171.1 -891564 -459203 260112 229959 -29569.3 122514 225035 45229.7 -123363 -108914 -143636 121928 -6845.55 -144244 -539554 -347888 41907.4 -336890 251283 -203477 -272794 -193527 267600 -85364.9 -144637 366913 122312 85359.1 -257226 -305744 -177581 -288877 516572 -267401 -130714 -154253 63721.1 -168760 36949.1 -41675.9 42510.1 9724.18 -42616.9 -80118.8 2092.62 
-4.44304e+07 -1.74231e+07 -3.22149e+07 -3.36132e+07 -2.95949e+06 2.20896e+06 -4.38586e+06 -2.06906e+06 3.66826e+06 -6.32266e+06 -2.17541e+06 1.33643e+07 -391433 5.2423e+06 1.30802e+06 -1.37878e+06 4230.67 -1.40974e+06 2.42714e+06 2.02787e+06 -2.84254e+06 -190263 924625 3.60405e+06 187690 -497120 2.78136e+06 813698 -838343 86822.5 947636 1.81475e+06 621532 72069.3 641716 -1.16894e+06 -1.71476e+06 128365 835765 1.93319e+06 113329 1.20093e+06 -1.26737e+06 201834 -967438 -634680 802682 -207863 -791300 -918148 786134 -414176 367827 -542838 341049 367042 869386 -796264 350909 -409992 -1.29993e+06 483708 945185 -895823 599867 34262.7 -919960 -84949.7 276291 -817313 541669 -640203 -137991 -489377 509783 581982 661888 -12345.3 -530063 582645 328428 55464.5 -604031 63471.1 -986591 -903296 658616 -124.376 412454 -796330 1.39645e+06 -96675.8 -589799 528677 969652 -55835.1 -205650 397479 -319209 417980 -899533 -1.39141e+06 618735 -263601 -644678 288288 449276 -349072 413632 1.26776e+06 42090.1 533823 705111 -8434.35 -146113 -364713 -9693.24 202292 -198453 -139422 1.09321e+06 299955 245223 -727383 252367 -294320 868672 42018.2 672302 60449.4 -202244 27997.8 2214.6 816994 175577 272553 364134 -741926 475823 210134 277542 -94317.9 262849 -200085 -71650 25386.9 -49068.9 77872.1 58586.7 -50520 
-2.76491e+07 -2.29119e+07 -3.42178e+07 -382778 -1.03904e+07 -6.50772e+06 -7.39009e+06 -6.75125e+06 346635 1.98757e+06 -1.12391e+07 -8.98825e+06 -1.92772e+06 3.95203e+06 1.59278e+06 -780709 1.85868e+06 709298 -4.49007e+06 4.49884e+06 -1.56536e+06 133693 -1.95754e+06 458633 -2.99578e+06 435036 371321 -1.11141e+06 2.70559e+06 -2.25629e+06 3.41452e+06 1.85701e+06 -637260 -137672 19158.2 -218960 -583782 -827131 389737 951598 -2.47177e+06 1.83183e+06 -186325 837881 -932407 331040 -326194 362063 581684 1.72272e+06 -208930 1.82658e+06 -1.29079e+06 -1.27429e+06 672735 146342 57566.3 788983 -391546 -203264 792049 849051 -68970.9 105955 -726829 1.53621e+06 -337269 95241.6 242088 -1.19317e+06 -894250 -1.07958e+06 489552 -317424 -522636 529773 -1.25325e+06 -225630 -832419 535942 -897182 677906 1.17894e+06 640916 306280 -42338.6 193544 -286707 -251636 -246573 -463586 544152 -459581 15597.5 -209887 1.42866e+06 -265311 -426674 1.68223e+06 798771 -133556 -241828 -676912 -187714 32281.3 905065 -401563 499184 530046 212678 346709 -20131.2 -50779.5 -155888 71316 387969 -1.23102e+06 -769225 -575382 -1.09338e+06 290097 -278784 627069 -514251 30301 -589479 -144190 596615 -637627 -33623.3 -413644 -327798 83379.5 -297179 159695 -315241 -94152.4 -182435 19986.8 293641 -177032 185223 -202824 -54293.8 240307 -76721.7 224272 54332.1 -125157 59315.3 
-3.78426e+07 -1.53037e+07 -3.842e+07 1.02369e+07 -7.36562e+06 -1.1146e+07 -1.70091e+06 -9.23412e+06 -7.71733e+06 -4.00082e+06 -6.49995e+06 -4.6085e+06 -4.54917e+06 4.92291e+06 346116 -3.96714e+06 4.55946e+06 -2.55443e+06 -2.72669e+06 -575491 -2.75321e+06 3.11674e+06 -617409 -107571 1.26624e+06 142524 -566817 -1.55963e+06 -1.89933e+06 -1.18393e+06 1.25285e+06 2.52743e+06 -512561 -234475 431139 -2.95972e+06 1.62395e+06 400698 2.10382e+06 1.41149e+06 -1.98032e+06 547319 -782968 -630003 -611791 439999 -70922.1 -31911.9 -93798.5 705737 -787557 -970211 -178789 -623608 842026 95761.8 -328748 609050 694610 287157 8271.55 41209.6 -1.42918e+06 -38053.8 260727 324461 -1.65734e+06 652246 -47937.4 -2.24539e+06 243561 808246 -348844 116533 1.37009e+06 -911558 -356757 -1.30147e+06 57732.7 -308339 -676474 316701 214416 -130162 -593163 885623 -259058 -306031 438703 -170014 -271151 -144772 -108965 -58031 -165963 299819 -449300 448441 -358964 426221 -93983.7 -641702 -1.05978e+06 825260 -212446 -241191 -854378 -1.21054e+06 -552195 525826 -294066 195594 428045 -469919 797605 -397762 -877132 320016 1.27743e+06 256113 -120067 -401416 -282158 67525.3 -186053 97307 47194.5 -410542 832552 323387 -53092.4 -782842 -488807 -435340 -539262 14197.3 -375301 109404 -207590 -526550 58594.9 75223.4 58865.7 307038 -27126.3 133939 -250965 128626 87052.1 30465.1 
-2.69425e+07 -1.812e+07 -3.4204e+07 8.84645e+06 -9.44049e+06 -1.39042e+07 1.5019e+06 -1.50384e+07 -8.18905e+06 -6.30652e+06 -5.24039e+06 -1.32542e+06 -2.92454e+06 6.72414e+06 353034 -4.09606e+06 6.43153e+06 -3.21057e+06 762487 386737 -4.53403e+06 2.54852e+06 -2.20928e+06 -1.30362e+06 2.37723e+06 201710 -1.35932e+06 1.28277e+06 -466987 -685534 1.60983e+06 -339181 542193 -311815 -668554 -2.40807e+06 1.125e+06 -932264 299825 2.10747e+06 324675 -1.98569e+06 580424 -437950 -89755.4 72196.4 -230292 -1.15561e+06 -741136 -1.21719e+06 -2.03106e+06 -1.48808e+06 367124 1.89044e+06 -54717.9 -859376 19876.6 -1.73225e+06 664014 42353.8 -181758 -39815.1 851288 -184423 764660 1.65087e+06 -1.1892e+06 425432 -3940.24 663484 -859589 2.71672e+06 -1.42968e+06 -355353 986348 214595 -27043.3 996189 759698 -624128 17151.5 -159802 -314921 -1.16496e+06 -1.15262e+06 297170 -19870.9 50395.9 -180821 -112141 -149365 1.07403e+06 -388842 1.10025e+06 -606778 -638597 -1.27817e+06 566560 -1.2822e+06 -975538 649846 833757 -178375 107805 107699 1.52306e+06 946460 1.23961e+06 442210 63425.7 1.01154e+06 -363033 116385 -493322 60788.2 178525 -110091 -219831 133326 -418282 21935.9 133734 -142145 251938 286423 187974 10746.3 164891 -280175 -592973 -256574 -78142.5 109381 6432.46 171395 144408 -283823 -92680.8 195695 -181920 -299533 -110612 26456.7 -198177 -47414 29000.6 43882.9 15930 -77982.9 -1813.35 
-1.73912e+07 -2.00136e+07 -3.60577e+07 5.71196e+06 -1.00987e+07 -1.30165e+07 -3.69954e+06 -8.01256e+06 -6.33077e+06 1.17798e+06 -7.6304e+06 -8.95194e+06 -4.64758e+06 2.24157e+06 -486871 -2.45664e+06 7.28908e+06 -3.16022e+06 -2.05107e+06 879591 -2.87897e+06 4.53753e+06 -491963 -2.15043e+06 440939 -47911.2 -749764 -1.10187e+06 1.14369e+06 -1.00989e+06 -38055.7 760384 -1.26029e+06 1.15387e+06 691585 -2.28103e+06 493430 -2.18425e+06 1.0473e+06 833812 -2.04792e+06 -607170 832040 285001 324049 148291 -1.18675e+06 -116026 152808 -89373.1 -899826 -1.87518e+06 807128 1.47434e+06 1.50987e+06 -358836 -1.60883e+06 -90220.3 1.39044e+06 985173 -503939 -724490 -728770 -1.22712e+06 1.43861e+06 -480875 -2.34418e+06 1.32702e+06 429781 -2.76442e+06 1.8218e+06 2.39468e+06 -1.04615e+06 -964260 843003 -133536 -797334 -404135 -1.23746e+06 -992990 -165945 741520 -593319 586972 629601 -809141 -657337 799936 -537835 83364.4 161283 -323350 533734 -149306 1.02005e+06 665208 1.82309e+06 -16700 414457 -1.00848e+06 263761 -27168.8 90508.1 322381 -51386.3 -518068 242740 -624774 302022 -256675 -224472 310783 -440402 1.2431e+06 -442340 334276 603926 -147890 -1.01269e+06 -66344.1 -130271 -55944.7 -41090.7 114818 22523.6 12656.7 -119264 68351 -295458 172760 177870 455543 330264 303353 157183 33756.2 351502 120573 -177804 172935 98085.7 -81227.7 -15175.7 127531 14910.8 -148188 -13598.8 -1724.88 -18611.5 -21628.8 
-4.76937e+07 -1.7918e+07 -2.78739e+07 -2.0302e+07 -1.18587e+06 5.38317e+06 -6.58397e+06 1.24928e+07 -811414 -6.78351e+06 3.14626e+06 1.04127e+07 -3.38579e+06 1.62336e+06 -4.98835e+06 1.8236e+06 -680128 555195 6.48906e+06 -1.78139e+06 -2.39247e+06 2.63702e+06 5.81596e+06 20732.8 2.9513e+06 -668328 -1.11913e+06 -519797 -2.67758e+06 158317 -998105 119228 -1.55809e+06 -1.0362e+06 -308690 -1.12988e+06 221745 -1.06067e+06 -355681 1.36147e+06 -1.20905e+06 107927 -1.30768e+06 -1.39807e+06 -1.05204e+06 1.06099e+06 80434.7 1.31297e+06 1.545e+06 1.18277e+06 -700942 -1.78751e+06 2.50102e+06 -580026 -1.20955e+06 894595 1.34776e+06 -1.06052e+06 1.40018e+06 -763609 1.64756e+06 469772 -1.6767e+06 -436969 -439458 -1.69741e+06 1.68474e+06 542175 423042 -239201 -333408 -640514 87460.7 350030 377630 -516530 653350 -678727 63563.2 138568 944166 209387 264689 -370677 727031 202433 -671501 331153 -153617 331156 -542259 196347 -203645 -362909 -110643 284022 -216932 -208216 491240 20043.5 569573 760839 -584488 246092 595087 560466 611063 127760 -3975.65 -553389 253948 -455554 -463367 430424 -188671 828141 -571982 -135184 646614 -111180 -283604 -116450 -812149 230325 -168964 117901 612680 132265 -410446 569424 -99875.6 -480541 -54738.2 296473 -47521.6 271799 648953 -719552 70261.2 321727 618254 588214 517441 -15375.7 -72897.6 -130403 124819 -140261 29457 -77006.8 
-4.8599e+07 -3.218e+07 -2.48861e+07 -2.42347e+07 -1.35979e+06 -8.8887e+06 -8.7724e+06 6.73666e+06 -2.75146e+06 5.77423e+06 -1.04102e+06 -9.62201e+06 2.58491e+06 -7.67313e+06 -2.65559e+06 -4.27721e+06 3.37174e+06 494094 2.79597e+06 1.40335e+06 880130 751769 386810 -226965 -448583 250744 -4.03696e+06 817123 2.3772e+06 -529754 -2.37181e+06 -1.40646e+06 1.15016e+06 543718 2.38185e+06 390301 1.34011e+06 -1.03052e+06 1.05638e+06 -142868 -264450 -479103 -200033 -56804.7 -1.62577e+06 -806796 1.43688e+06 420389 200222 637414 -910692 -191368 378620 1.30773e+06 164502 -695056 740338 -361987 -1.33345e+06 -1.21818e+06 255764 1.41406e+06 -1.56685e+06 1.45144e+06 -701683 1.04525e+06 -315158 664573 -220486 220415 200082 585335 800690 -291231 -872832 161419 720576 749698 803040 388383 -247770 411511 -334190 -901504 -604999 -991134 324535 560678 -61271.5 162214 614689 24463 -110765 -201501 89862.7 412382 -542106 -292434 -186400 -741469 -594539 201457 144675 -723708 930862 -241676 -633181 -215297 -344820 -410008 -1.27095e+06 -211018 87706.3 -157797 -657623 -341764 767465 -12152.1 190395 -480105 133918 -549011 1.13894e+06 289228 513399 -4201.66 126690 -184072 -406793 -65480.1 -914139 -159673 -277280 -311300 204307 -289270 -139498 -11630.8 212591 -216613 840030 -99170.1 498602 328689 -244802 118710 -199286 182891 -288107 -40128.2 
-4.49744e+07 -5.32279e+06 -4.9745e+07 -1.43662e+07 -1.70545e+06 3.96593e+06 -1.08687e+07 1.04247e+07 7.41224e+06 -1.6393e+06 -2.07494e+06 5.48631e+06 -1.4281e+06 7.26586e+06 -886458 -3.22355e+06 2.37593e+06 747258 986051 -2.835e+06 -1.91924e+06 -1.4452e+06 -59934.9 2.66592e+06 311406 894104 -4.05707e+06 -2.10875e+06 -2.27302e+06 1.07214e+06 -2.80471e+06 -934609 -497280 -1.06545e+06 -18305.2 1.65666e+06 -115247 -281480 1.07797e+06 833716 2.40088e+06 -2.02312e+06 -1.36346e+06 2.40159e+06 -1.0316e+06 1.00126e+06 725558 -554827 1.4135e+06 380033 -659721 640156 766922 382545 -314272 -1.78658e+06 2.48394e+06 -1.28236e+06 -86649.3 -2.06229e+06 1.57004e+06 -1.36754e+06 -631920 -264187 -614491 -288727 -1.03674e+06 -1.37332e+06 -513895 553628 -92761 113756 23925.4 -1.30076e+06 -991577 -587476 296060 -458767 -123349 -170056 -327291 -494615 -530410 24022.2 -667386 433176 1.04473e+06 -20529.8 169401 578378 19094.3 -1.43653e+06 500791 560569 -842763 986929 242119 -763132 -706467 185326 -757186 -381632 307757 80537 -780745 186247 -114475 127173 644896 698801 -140029 648808 -974780 280980 203193 211647 229215 731984 -439232 -290860 -1.04667e+06 315826 -449259 506786 165677 -645574 -195901 132659 186372 356777 -139910 -202436 21188.9 -253329 543874 -438571 -191010 -242803 -167455 -136812 -455452 152322 -291645 65524.6 -272110 -228533 -38816.2 -121088 -88584.3 167949 
-5.00294e+07 -2.0959e+07 -3.13363e+06 -1.23616e+07 7.92921e+06 2.65067e+06 -7.44882e+06 1.90274e+07 -1.36993e+06 5.57326e+06 4.84016e+06 -4.34733e+06 -605421 -8.53393e+06 -7.04836e+06 212938 492475 1.36079e+06 3.51926e+06 -942881 -1.50698e+06 -79835.9 1.78941e+06 -437474 294855 -938823 635754 1.89436e+06 79710.9 -500750 681620 -2.31378e+06 734033 -258929 1.09213e+06 -3.64454e+06 -2.03471e+06 944712 421291 -682704 -1.73639e+06 1.42538e+06 -148240 -1.88316e+06 -1.02223e+06 403343 -1.2787e+06 933610 166820 334402 -260437 428654 590477 924496 -666890 42665.2 1.47433e+06 -38438.5 1495.72 366269 -1.08804e+06 -1.23716e+06 1.03726e+06 220787 426888 -482693 367632 52094 -232384 282394 169308 -512577 220181 -582850 -1.48495e+06 104564 180392 -421830 -511701 544792 -331738 883799 311300 -859166 -817771 -810184 611554 -56296.5 -260533 -575724 -654480 108144 118543 -4056.27 105875 -288236 -153602 1.28396e+06 -613225 -506410 -141589 -280674 -526396 860540 -72028.4 236357 -323282 197190 245281 -333391 -48852.2 179107 171509 64070.7 96898.9 -425713 -20782.2 -189703 -547509 68089.9 -299874 -145663 -301726 -919139 -399925 -129189 -197895 -60077.5 -617538 1.0337e+06 -773522 610182 -103997 -697286 -889673 611481 277727 -3868.62 -11457.9 -7924.25 -598839 -391608 -32590.2 -256610 -507324 -136209 -145752 19153 85353.4 63339.7 
-4.09634e+07 -3.6272e+07 -1.57871e+06 -2.95328e+07 1.09926e+06 -5.95566e+06 -5.49525e+06 4.35635e+06 -4.20948e+06 8.29159e+06 3.24776e+06 -1.16004e+07 3.82217e+06 -1.00288e+07 -1.26824e+06 -5.27458e+06 3.15746e+06 128996 1.73492e+06 659502 334784 1.71993e+06 -1.41729e+06 -2.36539e+06 1.57068e+06 2.0004e+06 -4.67321e+06 1.30328e+06 1.25808e+06 153108 -1.68392e+06 -264692 1.47268e+06 416951 1.85234e+06 342975 1.08336e+06 -479380 231660 -444381 -994935 -342693 -14189.7 -638541 -1.03803e+06 -631084 832146 -172318 374054 -908030 -901948 -426964 -694458 1.17777e+06 22582.9 122517 1.01967e+06 379097 -1.5558e+06 -919995 -878020 841481 -1.14076e+06 1.04956e+06 2572.22 974390 -289493 580775 -224114 440472 875375 678707 1.11186e+06 227170 -187710 -470495 422996 360413 524721 162584 -5721.22 467986 -151025 -202510 -240228 -480774 -371735 221966 860471 736699 389976 168997 -590456 -249512 325047 421359 -448940 357788 258678 -59123.9 -556195 -172530 -216844 -895129 284417 113562 -362146 -536164 56796.3 623264 -440330 -841993 -388975 4920.72 -190129 -134883 235127 -45893.5 242552 -147023 82880.6 11576.7 -174439 227360 72477.2 300102 770770 45491.3 253496 -291321 770030 -327847 -148219 154435 -241074 501542 496826 184292 -494226 516176 -1.08968e+06 453189 -381792 -502892 366958 -92403.9 357215 -315406 336376 58942.6 
-4.63113e+07 -2.89026e+07 -3.30413e+07 -2.23302e+07 -1.04826e+06 -3.30119e+06 -1.11822e+07 3.61232e+06 1.72149e+06 375065 -455716 2.61798e+06 -1.24138e+06 605048 -934598 -576679 1.92304e+06 548467 1.64136e+06 -1.2779e+06 192115 -1.08553e+06 2.03394e+06 1.48133e+06 732385 -150829 -1.95684e+06 -178523 -780195 -736271 -338267 -1.31979e+06 596051 41064.5 716058 422346 -86214 -173152 -288095 1.03561e+06 -467107 329720 40012.6 282345 -1.08632e+06 495684 -394316 247318 -302690 127513 -275567 92746.9 957987 -662862 71499.3 -1.50273e+06 1.1475e+06 -1.61554e+06 725381 333.894 -494440 -1.84208e+06 399355 181341 -235157 265326 -230922 -502427 -800348 840140 507663 -1.299e+06 -977765 -269921 -453466 -66823.4 -131433 69770.4 -337396 798864 67587.4 490044 -427237 -691478 -326034 -75414.4 744645 -94880 -333884 -439126 -620964 -311054 60354.8 609995 -243818 -6429.28 234004 -31947.5 415066 -725472 187695 -915972 53577.6 208240 289962 -187382 271236 177725 -397602 -475107 54732 86812.8 275986 251947 117206 162141 79752.5 21636.5 87849.4 306331 -84450 -108376 -174642 55237.6 -148836 -275176 116458 -40929 147016 -312163 -213177 356986 302559 -538774 58877.6 16374.3 137482 438775 294529 -356110 240150 102646 -697.353 193231 1.56634e+06 556363 491282 239780 576659 -254966 
-4.70943e+07 -2.75092e+07 -3.26056e+07 -6.21988e+06 -2.10572e+06 -3.15503e+06 -7.2286e+06 5.93306e+06 1.30961e+06 -1.78129e+06 -1.10018e+06 3.69422e+06 -748078 7.92099e+06 -912615 2.72444e+06 -1.80604e+06 4.30173e+06 -988764 -2.4622e+06 60663.6 -2.12155e+06 2.47596e+06 2.73857e+06 2.03711e+06 522343 -1.398e+06 -301337 -1.92372e+06 1.31534e+06 -1.31913e+06 108522 -127078 -153078 -1.04219e+06 558303 737617 838244 -856492 -84348.8 2.05274e+06 -424271 -439275 711323 -326776 -1.01728e+06 534703 -683930 -249624 -259372 903230 363232 -132785 -463819 -1.04203e+06 239624 283197 579934 647327 -502804 107481 -889195 -1.10428e+06 224469 448509 946691 74036.4 47816.9 -792576 66996.9 107058 259507 -536774 380137 -449995 -687230 -922445 45233 -1.17215e+06 -585310 -529186 655039 -187722 34690 709361 107363 -353713 -109338 -4532.24 356522 -174216 -107272 768896 79729.8 -165506 103347 -48769.9 522497 -661411 -161400 -203357 630650 147326 -305051 353745 -279208 -209147 -226150 -46860.8 -418932 -7166.72 20007.6 551874 -58296.9 -315629 -706853 335585 -634034 75665.7 -223735 313690 -168274 -537073 -311196 -154413 58315.9 152583 207682 242110 522168 370014 21997.9 -162911 15899.4 -83606.8 -7420.32 4894.33 100303 374020 35257.8 42633.7 -16012.9 48290.4 -369537 616614 393846 -179647 -294955 -908050 910268 
-4.39305e+07 -2.09978e+07 -3.12625e+07 -94976.1 -2.03955e+06 -3.16703e+06 -3.33943e+06 605502 -1.77507e+06 -610635 -1.74343e+06 4.67574e+06 2.8349e+06 8.07028e+06 -1.50525e+06 2.03493e+06 -5.43901e+06 4.8295e+06 -2.64379e+06 -2.43387e+06 1.12206e+06 -2.11668e+06 1.23393e+06 766755 2.44924e+06 206274 -2.61081e+06 180728 -1.3255e+06 669727 -2.7135e+06 276648 -1.92945e+06 671279 -1.78074e+06 1.18283e+06 2.28669e+06 1.4151e+06 -766510 -169981 2.03862e+06 145087 620961 1.42358e+06 -37032.1 -811478 817077 604720 -896542 -441680 1.45997e+06 831857 -657067 -21055.4 -38427.5 464372 -114766 481649 734081 -719312 -139804 -805017 -1.45129e+06 286261 578676 900324 371537 257417 -96914.2 1182.4 -231101 -22640.1 -839138 390949 -751235 -878633 -697004 -420135 -1.01548e+06 -600952 -1.03276e+06 528808 530798 84120.9 388991 687352 -1.05526e+06 -553774 -6761.96 552190 -230714 -208802 72574.6 175296 -217191 285849 -249061 409293 -1.18976e+06 247970 -402761 758074 -504629 -686962 397886 -795989 -298666 154084 -388163 -468142 138822 534870 283133 99246.2 101919 -678674 404271 -598694 -316673 -322621 824974 -329550 -408936 -306614 248801 183597 -112986 758638 -93311.5 111856 -164251 -725503 670498 309959 251348 -38299.4 106522 118847 177893 178026 -229339 -286495 -36561.3 -11939.8 -372512 35416.5 27774.1 236052 526076 -798205 
-2.49876e+07 -1.61691e+07 -2.53779e+07 -3.38872e+07 -4.37398e+06 8.86663e+06 -7.06793e+06 7.41511e+06 4.15802e+06 -8.9075e+06 -2.98932e+06 1.17653e+07 -2.6727e+06 927894 -797211 1.93978e+06 1.86493e+06 -1.70291e+06 3.59393e+06 -344475 -2.02019e+06 2.74734e+06 3.32111e+06 807858 1.28114e+06 -346176 3.88673e+06 1.45638e+06 -1.17442e+06 560008 703671 1.26793e+06 -1.31522e+06 -1.02611e+06 940143 -2.23914e+06 -1.80683e+06 -857587 1.47964e+06 3.1634e+06 -447546 1.09328e+06 -1.26675e+06 -436952 -1.71379e+06 -1.7913e+06 615480 -632680 595412 -786484 -105717 -451327 155950 -1.31207e+06 -837610 1.15703e+06 -208377 -584405 -157519 -1.81308e+06 1.15301e+06 2.11924e+06 509513 67131.5 1.27785e+06 -319508 316151 -320001 -123247 629082 -1.1904e+06 1.40373e+06 1.08793e+06 64870.1 1.17308e+06 558120 1.50493e+06 -584887 -749180 522115 461867 -326470 1.16992e+06 985284 1.05461e+06 239966 534270 -613495 1.34205e+06 -9444.46 1.7637e+06 21370.4 -1.03593e+06 1.36006e+06 89600.1 -541687 833517 1.20611e+06 203472 -173618 203073 511801 27461.8 85338.1 -238882 -35629.2 -688284 57191.9 215827 -147149 -852241 13160.4 -519358 -117852 108832 -733587 60304.8 -242156 -416211 695405 403571 89750.7 169049 629718 -535888 54029.1 -888940 301742 -731836 -133398 171864 -117183 105816 -249660 45084.7 -95771.8 -276769 303978 -250788 -49116.3 -116869 85258.7 43378.4 92202.9 192804 146558 -42337.3 -30013.5 45723.9 -27905.1 
-3.38148e+07 -3.29171e+07 -1.81389e+07 -3.60536e+07 -1.01533e+06 3.83827e+06 -1.17307e+07 -799367 1.11002e+07 3.77644e+06 -4.9022e+06 2.55764e+06 -1.13697e+06 259407 -1.4375e+06 3.90474e+06 4.00633e+06 -2.12422e+06 -251392 2.9289e+06 5.52859e+06 2.75703e+06 -3.38776e+06 2.02854e+06 -3.63071e+06 828095 -1.86444e+06 500714 3.61731e+06 -1.42117e+06 -3.90418e+06 -1.16604e+06 2.09482e+06 2.32666e+06 2.37469e+06 70573.7 13812.7 -417398 -1.08968e+06 -2.46224e+06 -1.79141e+06 523554 529692 849976 133362 71641.3 851156 1.88082e+06 38049.8 -741756 1.28364e+06 969659 -345359 1.78342e+06 2.00856e+06 -572984 -404954 -208473 -300799 -88180.4 -939303 412655 1.01741e+06 -11393.8 1.68618e+06 -818816 682339 478493 -1.51465e+06 58805 -1404.85 -228069 -291848 -175964 523852 807295 199940 883905 88583.2 -548645 411775 -297266 1.39743e+06 -65307.2 1.17547e+06 -164851 -682532 -1.07939e+06 736766 684519 -465952 1.2148e+06 296865 -426444 -715942 80574.8 499066 17759.4 -536692 -504956 277091 1.19409e+06 383125 465510 -139340 -1.268e+06 350889 304954 745072 758770 -229774 955670 519673 -12104.3 93628.5 478787 -666325 1.10319e+06 867679 -365370 303015 266154 12044.1 350431 -217520 -936555 189547 344985 818.092 -192449 -284807 -100015 51926.6 -100948 -269204 330128 338518 141602 30218.6 -130082 144297 -91003 -219140 843.323 -34569.5 -5324.27 3774.58 -102214 -68646.7 69202.2 
-3.67533e+07 -3.28003e+07 -1.99621e+07 -3.66708e+07 -2.1814e+06 4.58437e+06 -1.05195e+07 -1.1017e+06 9.04171e+06 2.65858e+06 -2.70857e+06 3.06383e+06 -3.5886e+06 -980830 -1.9183e+06 4.70688e+06 5.00048e+06 -3.45283e+06 1.22886e+06 3.12526e+06 5.26046e+06 2.06711e+06 -3.91963e+06 -1.25633e+06 -3.29073e+06 717350 -1.9543e+06 1.11011e+06 2.42395e+06 -2.19555e+06 -4.35919e+06 -1.64638e+06 1.5074e+06 1.04819e+06 486397 -164704 -251746 -515606 -851967 -1.57087e+06 -2.92295e+06 -68138.7 637915 -855418 -1.04293e+06 714579 307411 1.81852e+06 -274701 322538 723666 858615 1.10827e+06 240823 1.58795e+06 -848221 -773142 -794343 382185 -384029 -794201 517338 372518 45198.6 784754 -1.72938e+06 1.56592e+06 751078 -2.25988e+06 -983742 -867107 -900954 -1.25485e+06 449084 56727.9 679839 1.3458e+06 364657 583119 -360216 170427 527302 -30263.3 -1.37328e+06 648825 -86107.8 -195408 416861 -769244 -663212 -259449 -199941 162910 43106.9 -128234 -1.02131e+06 -514410 -113916 719855 540821 -120472 -503100 -317261 123200 -353109 763853 -189742 -611977 93459.6 103768 617066 783170 911179 -454467 32062 -535335 404444 -799518 -1.09041e+06 382598 -850080 -409955 -199483 565687 377496 855409 -181851 239647 316490 127278 662161 -382057 -140262 -46691.8 325745 -303201 -388493 -162673 -117946 166584 10605.2 -21504.1 37577.2 -90728.8 -60646.5 -69301.9 25044.7 31194.8 -101168 -71165.1 
-5.48842e+07 -3.28387e+06 -2.95222e+07 -9.83112e+06 -2.00688e+06 -9.8804e+06 -4.31802e+06 8.01592e+06 -7.68393e+06 5.20842e+06 97088.4 -7.15289e+06 -6.68375e+06 -1.38642e+07 -3.14234e+06 -1.53244e+06 2.00434e+06 673578 1.06957e+06 -2.61779e+06 -1.59547e+06 2.77139e+06 -1.12742e+06 -5.334e+06 -1.1137e+06 -886171 1.85037e+06 235962 -1.27545e+06 999421 2.12745e+06 -2.47595e+06 -2.78626e+06 -2.12247e+06 479023 -2.06002e+06 -1.61042e+06 1.01288e+06 885466 -2.1081e+06 1.50032e+06 -451600 818242 -2.18609e+06 -1.68134e+06 1.02071e+06 -4.02142e+06 -862285 2.38034e+06 1.21235e+06 -1.30749e+06 14978.3 -713838 -1.07595e+06 -3.48346e+06 746959 13074.7 1.37942e+06 -871802 -81163.8 553972 -839482 -535736 24291.4 194255 -1.2349e+06 358211 1.21611e+06 -74718 -55901.8 -913436 -51910.2 622054 -1.08133e+06 -1.02961e+06 964464 -1218.18 698426 -1.75713e+06 -1.07387e+06 -168501 886436 -623059 349221 900799 1.08224e+06 -1.40829e+06 1.38243e+06 -550198 334735 694219 146891 949021 -231268 -538900 -1.52751e+06 -903642 115808 -341209 399161 -169928 294756 1.15623e+06 742819 -313299 -182151 -439939 129342 -267321 594209 141467 36884 -384294 -468227 120951 -367185 -478724 13179.3 -213810 -177255 406467 472952 152575 48881.2 269494 -355253 511129 -105712 392779 -390414 -34944.5 117305 343411 -160542 288925 -181916 151454 -154972 -305042 -37620.6 161433 -14907.4 -97325.9 211499 147446 49383.3 8617.55 108543 2105.97 -124285 
-5.05825e+07 -3.43013e+07 -3.41831e+07 -1.1954e+07 -5.03991e+06 -2.452e+06 -1.20677e+07 3.59406e+06 4.99324e+06 1.26837e+06 -6.37486e+06 -338328 -549883 4.07573e+06 -1.73335e+06 843048 2.49264e+06 445260 -1.16355e+06 1.75162e+06 745473 699802 -1.75698e+06 18210 -2.37156e+06 89987.9 -1.81713e+06 -1.26873e+06 2.00262e+06 544473 -321288 156766 1.10565e+06 -832070 -1.5661e+06 581036 439728 -1.46281e+06 -181755 -1.27741e+06 -1.08571e+06 -924614 557886 3.55276e+06 422151 636959 -2.30668e+06 -933746 1.4578e+06 -851021 166453 419492 -846823 -981310 1.35704e+06 -904629 -568837 73991.8 366225 2.15894e+06 1.53915e+06 498039 763579 -552258 -811593 682358 -877338 -1.07426e+06 213643 -1.26432e+06 1.02429e+06 -10307.3 211372 549992 1.22366e+06 742182 2.04337e+06 203066 -993166 36130.1 1.07343e+06 -910122 -1.42481e+06 502749 -13994.3 1.2819e+06 149618 -63201.8 842225 526395 -233511 -174582 492019 -576828 -1.09314e+06 -1.44661e+06 -573382 -844648 -55467.9 249796 998237 -686614 267341 -96790.9 -573743 -727082 236287 -488352 -434898 -921014 196951 -879407 -216028 -122664 -199372 -146258 564160 365929 -76594.2 78003.5 268348 100332 491271 -619646 -383361 295079 151642 693976 -320854 154718 -559277 -192941 -367816 -244255 -206162 -105927 39671.9 893.841 443772 164871 -515434 325072 354584 -180590 -100657 26820.6 -73440.8 -139244 66427 -39576.6 
-3.71733e+07 -3.91535e+07 -1.71329e+07 -2.90556e+07 -3.38797e+06 -1.40752e+06 -1.16514e+07 440732 339457 8.3132e+06 -653808 -5.78929e+06 2.95285e+06 -3.75183e+06 -2.1947e+06 -765702 3.61794e+06 -309321 2.19949e+06 3.80361e+06 570946 514670 -542063 -791474 349113 1.31483e+06 -2.78945e+06 650870 3.06669e+06 -2.55138e+06 -2.41588e+06 -240744 1.83709e+06 422994 204710 148978 671077 -1.34404e+06 -454686 -2.28323e+06 -2.29644e+06 -1.10451e+06 -566364 2.45732e+06 -286420 354708 -44506.1 -1.23817e+06 652901 -1.36355e+06 -888798 -532218 -130220 2.46054e+06 17459.2 -137850 734700 482623 -535378 313878 -431841 608999 160429 614959 -421348 232393 659017 880622 1.46917e+06 -363575 -95992.9 294396 961394 478447 -577780 -356609 -318687 -1.02722e+06 1.34547e+06 1.041e+06 -3007.51 592624 650490 587543 -267563 139948 506538 344374 -255197 -823042 -602110 395836 -1.13202e+06 -376648 556946 -320496 127816 574420 -956020 575004 -131728 216231 -570785 312546 202812 -799496 389309 840067 -480584 -212159 490960 -312489 -461351 458416 676402 -190062 36224.5 353995 84512.5 676805 477217 233046 -352813 -711692 -904298 133814 -226557 -360741 425790 16337.1 206484 293519 723156 42921.4 598154 -869765 -506883 -673626 71349 334366 126738 124387 -198912 299937 109860 -47820.9 -93061.8 -111854 -130729 89314.5 
-5.97879e+07 -3.00214e+07 -3.83089e+07 -3.31992e+06 -2.07437e+06 -5.01708e+06 -1.15171e+07 7.66059e+06 509984 4.49385e+06 -3.29269e+06 -4.23617e+06 -2.3304e+06 717486 -4.14839e+06 492209 1.10387e+06 -890390 55458.6 228259 -854523 -1.86642e+06 570651 799142 15885 -311710 -1.50275e+06 130065 235803 -745043 45707.3 -301583 480474 -2.04039e+06 -1.87794e+06 10842.1 145551 -379335 -2.02888e+06 -2.35952e+06 194647 -1.60993e+06 -555221 394665 -630050 1.12336e+06 -892199 -2.30225e+06 2.50082e+06 1.19368e+06 -488619 -95516.5 -563727 18740.9 -1.57993e+06 -749397 167240 1.14974e+06 -985114 -386740 387963 -144471 538677 253229 -228257 -406559 23353.1 765177 773067 -57746.6 -335307 -251794 416368 -173047 -547378 562723 -521794 113869 663587 1.06954e+06 -72807.4 -137968 -305.51 161625 262173 -387180 747723 74768.6 -292614 -442706 -79639 449428 832033 -415941 468396 -237969 722102 -442540 128914 -379138 -890828 211521 59410.2 842881 -333501 346834 -278940 160705 298177 10849.4 109824 365045 -59727.6 101013 355992 48927.7 -122243 -48839.4 914146 -21911.1 433302 -473835 -64838.5 89330.3 893790 267234 -1.77865e+06 50223.8 252921 -187935 188017 118385 -415984 1.20143e+06 -242603 235971 108088 462060 589663 -113403 -214918 337904 490771 -251260 24236.3 -131942 -581.503 -51969.8 180784 -35962.7 
-5.19482e+07 -3.82722e+07 -2.97202e+07 -7.37524e+06 -3.78663e+06 -2.58016e+06 -9.34098e+06 1.93862e+06 5.45298e+06 -365245 -7.09715e+06 288779 -1.30649e+06 9.37727e+06 -1.20861e+06 1.67813e+06 1.54423e+06 -58818.7 -1.15476e+06 3.00548e+06 552184 207758 -2.59384e+06 -318145 -1.98511e+06 550217 -3.89152e+06 981134 2.42888e+06 -851702 310141 -398660 475495 -1.03318e+06 -1.23576e+06 1.11685e+06 254412 -167598 -545722 138635 -1.00218e+06 120162 34614 2.13269e+06 -471228 -9127.87 -1.89864e+06 411930 348840 327988 -172072 2.28188e+06 -628492 -975408 1.15352e+06 -102794 1.27862e+06 712530 -441572 230624 461585 1.27501e+06 -838745 247095 -807814 1.95987e+06 -1.85384e+06 -561263 47561.5 -1.26723e+06 -331308 -501054 1.62697e+06 8838.75 -251265 503471 917562 -145417 -626930 1.21431e+06 244871 -74976.7 -375058 878326 139502 467423 6679.61 22347 629717 -8171.26 344297 -164719 454687 -408293 748430 -320249 -107807 95861.4 19911.3 968797 -308409 545801 -74690.9 -1.20846e+06 142749 878790 516370 621490 -124797 -215529 516798 -371094 -256434 -174859 77524.4 -149440 -428570 -62503.9 84262.7 639039 -722930 -64341.9 -577035 468356 238176 -6195.32 344836 -351413 -96520.4 145099 395336 608349 527264 286099 -277111 710161 363447 450157 -212648 -453975 530385 -880947 -165500 93712.5 -162300 219834 -153338 -3239.72 -35087.3 22371.8 
-3.89219e+07 -2.73923e+07 -3.16095e+07 1.03177e+07 -2.62405e+06 -5.38943e+06 -8.94838e+06 1.05185e+07 284590 4.24983e+06 -1.49851e+06 -7.07615e+06 1.62261e+06 3.18434e+06 -959946 1.16077e+06 -1.11424e+06 5.68193e+06 -693470 -5.26218e+06 -738771 -1.38414e+06 -250167 1.02727e+06 2.21877e+06 154429 -56950.5 -1.75578e+06 239259 2.67936e+06 -769678 33205.2 -459383 -799504 -1.24432e+06 838251 313801 -130532 -149648 478656 -828439 -1.87793e+06 640210 -22353.6 575256 1.23792e+06 -1.13717e+06 -736036 -621032 -1.1125e+06 276266 -1.46752e+06 -198341 -654986 -177825 -338524 -1.56623e+06 -619549 -470858 1.553e+06 422950 -274355 -617709 -486766 -153560 -117224 1.73091e+06 109919 -456227 1.28679e+06 942572 -7484.09 -651416 1.3518e+06 495858 -318676 229493 -638822 549971 472613 -224782 -326493 -173248 131440 -106109 -555011 7630.24 -169641 164018 -51748 1.1457e+06 214154 185488 -327799 903629 -181621 51139.2 666466 976965 63270.6 -161701 328359 35431.5 -72226.9 -486016 74217.1 73925 -353602 -17893.7 379204 130870 -145113 -31649 -100269 -36469.7 34586.5 -99545.8 179894 265323 65802.7 -374471 -55544.9 -2164.38 146744 -452706 -457961 28999.4 -315351 112443 -19132.5 -231222 -9279.75 151987 -16562.4 -147383 -21363.3 -56909.5 -29754.4 186994 -67362.1 -412686 -141318 -68978.4 -194418 88854.3 -170440 617729 624948 -1.12917e+06 -693523 
-4.60287e+07 -2.50419e+07 -3.49267e+07 4.01426e+06 -3.76922e+06 -7.75668e+06 -9.35966e+06 5.78062e+06 -1.08618e+06 5.66292e+06 -625455 -6.02499e+06 1.87666e+06 594482 -949651 -1.19567e+06 304392 4.07117e+06 607075 -4.50249e+06 -1.23163e+06 -1.9896e+06 -196279 1.57895e+06 972847 -451914 -516408 -1.50763e+06 229454 1.98926e+06 -695614 -453807 -262850 -410522 -1.11586e+06 1.3953e+06 618067 -734629 170720 -177827 -775553 -1.88671e+06 653403 182007 648711 1.53079e+06 -753968 -1.59907e+06 -169141 -773334 -66370.7 -1.81691e+06 -367471 -791064 -1.22591e+06 -521140 -1.56524e+06 -438902 -523356 829224 473217 -135690 69382.4 -412613 -180911 -447812 1.96302e+06 -23622.6 -135788 2.02524e+06 569736 -233032 -882833 972286 582190 -41432.9 -215472 -289288 582712 365406 -102150 -262216 -293450 411125 -150682 -740199 258524 71527.1 -61113.1 84126.6 1.02902e+06 758276 -244709 -419111 576782 -52458.3 129536 -276554 594964 -137939 270132 206367 373272 255974 -440203 140961 -45772.5 -385531 68159 -388577 207930 -329092 345216 25184.9 -307676 118239 -33813.6 329405 -90652.9 -438790 6405.55 -403250 101584 -67677.7 82848.4 170640 -245571 457338 -235119 335463 -139773 -489863 -328640 313500 173200 320433 -134845 -802745 -481971 -211221 172446 -548803 -1.06579e+06 230241 19221.3 645685 -497690 66749.5 571448 395594 
-4.64189e+07 -2.45528e+07 -2.26126e+07 1.3996e+07 1.15381e+06 -6.35197e+06 -6.83756e+06 1.17011e+07 -1.18662e+06 4.07564e+06 -202546 -5.39542e+06 1.25701e+06 3.8641e+06 -1.9009e+06 1.5446e+06 -3.11486e+06 8.09792e+06 667808 -6.5228e+06 -974973 -1.77995e+06 -264328 -17451.8 2.15938e+06 -1.04733e+06 891007 -871902 218966 1.89035e+06 -884148 -420750 -692235 -343841 244018 200691 144398 101620 474853 73745.1 -701659 -1.1651e+06 946539 -169930 1.28138e+06 347159 -651152 -77525.5 -1.20817e+06 -1.52943e+06 32664.5 -1.17511e+06 -84406.9 -386084 551730 501315 -1.58503e+06 -849707 377241 1.3986e+06 440711 -218532 -735705 104546 -240524 43641.9 1.17299e+06 237177 217378 716075 695977 26886.7 -87074.7 1.00564e+06 -18505.1 -476169 -117815 -410956 287038 -417538 435907 -240307 -6384.08 12202.1 492262 -505529 -286227 -386837 -126891 -151111 593602 39398.3 62041.9 47481.4 328462 -440421 -283287 1.02987e+06 928812 478536 -988836 -55771 -623163 -343947 -25934.6 -62077.8 506310 -89803.8 555780 693750 133747 299371 15040.6 -90642.4 255943 -43758.9 -104939 -503968 -128596 -134511 -971142 344213 306898 -3251.06 -348760 -139017 161843 -246025 334258 -727250 -729451 -121344 674344 -337346 261670 -185703 197864 825255 501769 -21809.8 157440 234259 423448 78310.6 -249100 -320086 -434144 -635319 535287 364972 
-4.03362e+07 -1.10991e+07 -4.07262e+06 2.91483e+07 5.95705e+06 -5.7969e+06 -4.67772e+06 1.4059e+07 -1.63029e+06 4.14731e+06 -1.08979e+06 -4.12331e+06 622081 -2.63064e+06 -8.31643e+06 2.64542e+06 851879 1.35014e+07 995785 -3.74521e+06 -774697 -426806 246015 650845 334997 -1.57232e+06 2.31884e+06 926833 1.09098e+06 885144 -1.66292e+06 1.11082e+06 67106.5 564363 2.03495e+06 11180.6 -723078 786996 1.56834e+06 -1.38304e+06 -198046 1.706e+06 -777598 160740 1.37387e+06 -2.10177e+06 658983 -724798 -1.29918e+06 -1.34407e+06 -218668 -884275 875767 332629 -13366.7 869005 -530480 397547 1.95528e+06 -360258 -167897 171807 1.49361e+06 1.72516e+06 6708.97 418288 -1.64314e+06 -229458 552442 -1.20153e+06 -966288 -73110.5 -326350 524279 256521 280184 167216 449259 1.36154e+06 -105768 318658 -514733 -427636 -785550 284719 518391 -61210.1 -395247 138660 -279657 140004 -19374.6 284118 -637248 -482213 31656.3 -120618 410462 -57460.7 1.33451e+06 209626 123028 25687.2 -8238.2 -662037 1.16738e+06 -419288 584289 -1.03197e+06 -1.35328e+06 -512106 530588 681389 1.59252e+06 -339434 -212210 -139456 829504 -788043 -567383 437025 -46863.6 -188712 462036 188647 -790017 -108773 -545823 187652 -470421 332601 -163020 -161789 -71114.4 -184834 49123 139876 -186544 -83423.1 -38951.6 -92314.9 200513 54626.3 23239 -18204.1 6199.3 117048 -40098.4 25340.3 56142.2 
-3.61368e+07 2.3145e+06 -2.75918e+06 2.84993e+07 8.19786e+06 -8.47634e+06 -2.33797e+06 1.01224e+07 -3.31728e+06 5.20074e+06 -968359 -5.12671e+06 -350414 -7.82194e+06 -8.49978e+06 2.74642e+06 3.44081e+06 1.24283e+07 1.28414e+06 85131.1 -1.07652e+06 1.52194e+06 256795 2.7516e+06 57665.7 -717876 2.94526e+06 -325214 382625 8344.41 -2.76964e+06 1.67194e+06 707255 -12808.3 2.7642e+06 -844513 -648119 532763 1.29233e+06 -1.651e+06 141868 2.33497e+06 -2.38102e+06 385956 -125035 -3.20934e+06 1.48396e+06 -1.29082e+06 -451781 -415001 -502472 -304074 1.84173e+06 993587 -1.63644e+06 901209 -1.26252e+06 1.85747e+06 1.29231e+06 -1.43697e+06 -561024 -116926 2.06218e+06 1.78883e+06 -294075 -32150.9 -1.46343e+06 -178655 -947847 -1.51681e+06 -1.36389e+06 -499161 -1.02737e+06 -244285 309135 -11592.1 -445742 -24223.8 1.57862e+06 257593 -307708 -631527 217646 60401.5 290317 604782 -544583 -289506 -41528.2 -6550.4 151292 -168163 363028 214488 437620 971546 499073 -1.64497e+06 340573 -612566 218194 623924 181081 -19590.9 -574442 -154331 543889 -22475.8 604081 351331 468288 -368884 -1.00418e+06 -1.55068e+06 260488 -345742 682991 -667170 97350.4 1.01617e+06 -347668 -69779.5 74087.8 -571096 -242148 -32074.8 364528 260258 160039 32055.6 -371872 -170192 34516.7 121380 1168.13 166338 119104 -66565.2 -2980.43 -108308 65739 -1497.19 -53115.7 -47196.3 86781.1 99611.9 -22712.4 107895 19410 -65212.8 
-4.30973e+07 -2.03508e+07 -7.76543e+06 2.26998e+07 3.7419e+06 -7.77837e+06 -4.54086e+06 1.33508e+07 -1.78079e+06 2.33089e+06 1.44176e+06 -5.22766e+06 -183625 2.77616e+06 -4.49231e+06 1.93063e+06 -4.39301e+06 1.09017e+07 937736 -5.5618e+06 -776719 -1.51686e+06 -190972 -1.89881e+06 776679 -2.22727e+06 1.34439e+06 780396 1.11685e+06 666804 532144 400587 60176.1 1.37346e+06 2.20143e+06 -423361 -684192 434691 1.47557e+06 765340 -1.16309e+06 375020 546231 -228419 2.00902e+06 -527531 265055 1.12303e+06 -2.83553e+06 -975869 -297250 -405721 624672 38597.8 1.66522e+06 628132 -417604 -658832 1.42783e+06 854272 84079.5 -172260 -836553 355759 343956 80940.2 -728700 -37751.3 451223 -827980 378222 121229 122897 -1421.04 -211183 437883 237500 444505 303076 -942805 328218 -176140 -329745 -592029 159650 123122 285226 -267149 -43747.9 383055 -284157 -404460 -176158 632370 -1.54572e+06 -352495 -1.06188e+06 95078.8 928031 385445 -1.08858e+06 -959860 223442 366514 1.00477e+06 -788103 -3834.27 970301 487910 724550 -551529 43414.1 -515019 529742 788078 -104167 -307865 189014 974762 185692 23435.7 579913 235409 66772 501889 929759 -311446 716831 -548841 559638 336776 706338 -171955 393248 185706 10037.8 -181022 -193340 -304656 153584 172638 -204644 -170593 -54662.9 68890.4 147139 119279 106624 -138981 -101253 
-2.41979e+07 1.1101e+07 -2.36085e+07 -3.17306e+07 -1.16447e+07 2.24728e+06 -3.34151e+06 -145145 486305 -5.12759e+06 960936 6.66775e+06 -3.69824e+06 -7.06512e+06 5.2045e+06 5.00307e+06 -2.51276e+06 -2.07698e+06 2.03179e+06 683490 2.58516e+06 1.56469e+06 1.40358e+06 -1.55588e+06 794472 181900 7.13224e+06 720215 -70622.3 736331 936926 -1.40501e+06 -1.1577e+06 -1.4786e+06 -734357 -1.67247e+06 1.95011e+06 -443581 1.82626e+06 1.76593e+06 -848576 -269565 1.37725e+06 -634278 -956752 -541274 -639207 -1.76335e+06 -2.45563e+06 223658 -1.22631e+06 1.19891e+06 -444871 -717123 -1.07971e+06 -971758 909224 310087 -1.23074e+06 1.56995e+06 1.42566e+06 -824400 -2.36419e+06 2.26016e+06 -1.32854e+06 1.97267e+06 -792552 -607130 1.11129e+06 531318 -305275 1.47436e+06 1.04402e+06 -144061 -1.00767e+06 -1.03408e+06 -234051 2.32426e+06 1.64525e+06 -1.5449e+06 954903 -198723 -103256 -1.21435e+06 990859 -329231 42061.2 -1.81469e+06 705582 -346604 -1.12185e+06 345420 54817.4 -55049.5 -274316 -959172 1.76651e+06 -272587 823081 -602306 -176022 -134170 -358788 -660325 -241064 -80567.7 123547 -764696 -568681 550502 875288 279908 73012.2 -50848.7 66530.9 128503 40543.7 -37985.1 -237720 52043.7 183916 -165323 -189812 -199192 52037.6 -416617 -29765.6 130845 166463 260556 116973 190308 -56680.4 -22870.5 -100872 -203292 -16738.9 -299012 -82318.9 -17683 86709 -32322.1 -39465.3 -56779.5 -166552 58676.1 -19297.4 45428.5 32343.3 -52806.4 
-2.72642e+07 2.9335e+06 -1.41752e+07 -3.9118e+07 -5.29356e+06 6.63617e+06 -5.59836e+06 -2.92797e+06 7.84544e+06 -4.8914e+06 -1.93417e+06 8.54758e+06 -694990 -3.93013e+06 4.28904e+06 449036 3.75986e+06 -1.47481e+06 2.30011e+06 605873 1.41078e+06 1.70528e+06 -2.36074e+06 406763 -1.40779e+06 -330478 5.80831e+06 871594 566567 -68597.5 -226566 -1.73693e+06 816018 1.14594e+06 1.52412e+06 -726374 -2.32502e+06 -1.52136e+06 2.65776e+06 1.12345e+06 2.0143e+06 -608745 44515.3 -3.07522e+06 -856223 -1.75282e+06 -743593 -2.52092e+06 -45906.1 -3.84839e+06 -130743 -501957 -16716.1 -1.99046e+06 972357 297712 -1.4108e+06 441391 -1.97423e+06 85939.4 -83478.6 1.81349e+06 856508 -411356 533076 696024 -826267 -896216 -67688 1.34342e+06 -807186 294856 254563 93438 1.2328e+06 80941.3 -1.08225e+06 -365788 272996 1.16976e+06 -499605 682278 -503852 587680 -226945 787346 244540 183939 -1.28298e+06 -332515 -184186 -566559 463570 867575 -592745 422296 -310866 -737972 619294 121412 222800 804951 541023 -46682.7 551039 -560855 -376337 384456 -362301 -369627 -52083.9 269606 619414 472333 -250793 40335.3 47370.3 89251.2 403308 -833162 -756628 -528626 -135539 -208363 8074.81 735884 220164 18887.1 731796 430372 -548584 303524 742724 387668 -517983 -144612 -11105.1 114772 -241707 64384.5 -127768 221855 -97055.4 -3429.25 -79115.3 -242725 107842 -28138.2 6484.58 58040 
-3.97802e+07 -2.47795e+07 -2.84156e+07 -2.74567e+07 -450332 2.69574e+06 -7.60557e+06 6.25216e+06 1.44711e+06 -4.85444e+06 1.41626e+06 6.09233e+06 -3.2544e+06 1.77791e+06 -4.43047e+06 2.92388e+06 406613 -385886 4.82731e+06 678343 -586328 1.78445e+06 4.8323e+06 532241 2.00956e+06 -1.1218e+06 -1.38837e+06 555238 -1.37891e+06 100687 -1.45993e+06 -855476 -1.52924e+06 -448731 894932 -808400 -483070 -1.4416e+06 -252129 1.27177e+06 -1.74142e+06 701005 -312274 -750528 -1.61285e+06 -90227 150206 749085 900258 682270 -541617 -1.20187e+06 2.09222e+06 -215182 -1.4363e+06 718831 972060 -1.54325e+06 2.09821e+06 -1.08474e+06 1.06469e+06 102211 -404246 -90352.4 -817035 -1.22042e+06 984905 -644387 611033 -399098 156368 -1.07639e+06 330165 167519 647045 678808 -310857 -95426.3 -449954 -339732 775672 532633 1.01951e+06 93394.1 265503 409305 -1.03485e+06 -51463.9 -272850 565207 -551009 -336850 225250 -94489.5 48069.2 865600 198140 -161845 436072 163949 1.00799e+06 196933 -43874 -769330 277674 -1781.14 607438 107785 -360513 269699 -179823 -215832 289752 520806 119823 819056 394274 -159173 401173 -120222 396917 64577.5 1.15976e+06 -668687 426656 229765 23628.3 -605334 719785 -418519 378171 463504 -320578 -194037 210755 -42073 -651321 424055 244847 -267811 -723233 -708044 -314566 -89948.8 -336980 -34768.6 -134104 150023 24480.7 29339.5 
-3.03136e+07 -1.21736e+06 -1.52498e+07 -4.23835e+07 -1.27465e+06 6.10903e+06 -6.09859e+06 -1.7498e+06 6.12938e+06 -2.37105e+06 -1.21725e+06 1.08801e+07 -788109 -3642.12 2.50824e+06 2.14991e+06 2.065e+06 -239042 1.6227e+06 -74978.7 2.12522e+06 3.06599e+06 -1.40305e+06 -618314 -475442 364340 5.50263e+06 -1.15708e+06 -434088 360884 -773394 -1.18075e+06 -381019 454202 796454 -874684 -2.47254e+06 -179826 1.39554e+06 1.08037e+06 983247 -1.09041e+06 473532 -3.02265e+06 -1.24337e+06 -1.64191e+06 -736256 -1.41096e+06 -260896 -2.78611e+06 647746 306661 -973543 -403428 720832 435081 -129495 1.17175e+06 -1.53628e+06 993566 -212926 640623 840175 -460716 815874 544802 -443643 473429 -29725.8 377806 -1.11549e+06 -264154 -126566 -6694.12 381025 -541580 -1.65771e+06 -281715 290964 1.23516e+06 -1.02932e+06 -237324 -948016 -106633 -977704 -97161.9 -295630 -198875 -206876 -57295.5 -617719 -407876 1.32122e+06 -1.26505e+06 605031 253383 -1.07173e+06 135688 -116474 413007 -339240 -335817 -911836 750142 1.04017e+06 -382393 454183 -510345 -58091.2 -80208.2 9253.26 -218352 -559099 88860.5 -47958.7 542593 410203 -25186.2 -38531.3 345345 48299.6 762261 -191058 88761.9 -55014.3 -491481 -312597 -30024.3 -703253 -360860 568968 -516234 -892561 -380548 885589 159239 398358 143928 266930 13367.4 31528.1 -371904 -20413.8 2818.65 -124662 109747 -476.408 -22993.6 -14597 -106827 
-6.24725e+07 -7.78932e+07 -1.34445e+07 -642923 -7.21717e+06 3.74977e+06 -1.15153e+06 2.52185e+06 -1.04953e+06 -509621 3.23862e+06 -5.4768e+06 962805 -544963 2.43041e+06 -1.89274e+06 -4.6341e+06 -2.6761e+06 -2.68831e+06 268394 71171.4 -3.90818e+06 293867 1.25454e+06 1.04393e+06 1.71852e+06 1.62069e+06 2.96469e+06 -1.21916e+06 -105565 114078 351802 2.34062e+06 -778415 -504128 -1.84142e+06 -5444.09 2.51406e+06 -2.00759e+06 -840619 3.44001e+06 -562809 -977240 -665939 -22684.9 -703757 3.29158e+06 437767 -825396 2.92511e+06 96311.3 814248 1.03882e+06 -7931.7 500061 -348671 1.14867e+06 809541 -828918 -1.2823e+06 -634716 315944 20908.8 135972 -256736 227859 -736502 162183 -877764 -686343 -61853.2 -229841 -321286 158214 177113 -493618 625116 -418134 -155855 -239932 -657622 286029 -184928 -777851 -117854 -79451.6 50733.9 952207 -281224 -304214 4884.67 -635097 177922 743354 59132.6 -599534 -182742 6437.35 1.80853e+06 -1.31543e+06 596495 -778138 100320 867943 -129261 -28785.6 408868 -194440 -1.17469e+06 -708154 -189858 -685961 889469 -36814.9 -127495 81245.8 -480803 254844 766900 568585 107277 335503 65924.1 93996.4 -203046 -817418 41583 359279 -360319 -236098 107981 -225031 907029 530639 420146 -174778 19788.9 228458 -86991.6 40749.7 -277207 -138295 -251565 -9765.24 -516620 -65254.2 -102487 -228783 -112129 132382 
-7.23331e+07 -8.06312e+07 -1.00204e+07 -142206 -6.6812e+06 4.69343e+06 -373936 4.16222e+06 -207247 -2.06317e+06 3.65917e+06 -4.90033e+06 1.51059e+06 955475 1.10608e+06 -3.17069e+06 -3.1799e+06 -1.23282e+06 1.42114e+06 -1.67619e+06 -1.08709e+06 -3.66677e+06 -235985 -930959 1.81841e+06 2.0452e+06 109706 4.90573e+06 -637933 872616 -1.50334e+06 -1.45573e+06 1.78056e+06 -1.89194e+06 536791 406042 597622 1.54033e+06 -1.84044e+06 -1.56704e+06 3.93362e+06 -1.28466e+06 -551638 27667.8 593343 -744742 2.4358e+06 -961202 414667 562419 -365881 -382461 -260499 614780 -609867 -26814.3 628355 1.62041e+06 -1.40474e+06 -2.39458e+06 47321.6 281470 -48136.8 213243 9721.89 378182 -1.01137e+06 102197 46377.8 -991911 178111 683640 610514 542939 564356 -330808 -567176 -343213 -452104 -754221 1.04245e+06 -221449 432604 423768 293708 -612497 -820594 173207 178764 -124084 -263165 -1.12191e+06 362903 -235179 -145644 -172208 -178110 279439 415965 34290.2 93246.2 -160283 156291 -187549 -170913 246145 862387 155052 729306 528966 -91308 -5249.98 461968 -464505 -554420 342976 -458800 921075 -852748 -923939 -242916 221939 -464835 -751942 -1.13358e+06 1.06221e+06 -550653 -19275.8 35143.4 -410789 131056 15003.6 -717024 -291120 -467573 -149408 -115559 146163 -32405.6 139636 572033 -127126 10956 85942.7 82224.7 62985 128171 208543 81615.3 -235362 
-5.62118e+07 -6.73712e+07 -1.02984e+07 -1.56431e+06 -8.0496e+06 9.17032e+06 991870 3.59768e+06 2.23955e+06 2.68615e+06 8.15334e+06 3.95618e+06 340957 -303730 1.15334e+06 2.07223e+06 -3.95366e+06 -5.45947e+06 2.58994e+06 -411991 545128 334814 -1.40134e+06 -2.2919e+06 -165820 175853 2.25243e+06 2.41611e+06 -1.34414e+06 399765 -596712 -2.25498e+06 -766960 -307212 -2.38804e+06 -2.25988e+06 716921 749737 -2.9806e+06 -1.37264e+06 775456 -528740 2.18608e+06 -1.92342e+06 -1.6424e+06 591628 -1.2412e+06 -166493 166268 1.43352e+06 368186 456935 3.03271e+06 -425850 -265209 761852 -504049 451559 -261976 3.25502e+06 689728 -243020 -567117 -1.41816e+06 -1.29828e+06 -1.26832e+06 1.15119e+06 314739 1.4403e+06 -1.06575e+06 643511 1.16346e+06 895066 -474665 1.85618e+06 1.13072e+06 -458255 621452 1.74242e+06 -560591 -331398 -146255 410553 495299 -247021 1.2258e+06 -414022 -883256 -574806 396827 -748109 978688 -844113 98417.1 82476.7 2.18852e+06 -154969 -365146 -762007 -8125.25 -1.03657e+06 -1.11437e+06 840069 -448029 -90525.8 320186 -66588.8 291596 530970 -771787 -673193 -94238.3 486627 -468905 -377853 -1.05309e+06 -98448.1 505216 -268705 477512 -420570 172897 -123410 -40109.1 25094.8 -112024 -21762.1 25260.7 -226454 -145557 -71019.3 -196705 203160 40793.7 82199.6 -7608.01 130383 154459 59745.6 -10513.6 -56178.3 -21784.7 -81420.9 -4721.86 120380 75172.6 83289.5 -13941 -64761.5 16313.3 
-5.49289e+07 -7.26765e+07 -1.50628e+07 -5.86182e+06 -9.79068e+06 8.52306e+06 -597439 -126966 3.57696e+06 196036 4.58522e+06 2.72243e+06 437779 3.66065e+06 1.06543e+06 2.58646e+06 -4.06594e+06 -3.6234e+06 -1.757e+06 -282922 2.2243e+06 -1.49103e+06 -487002 1.11682e+06 -340131 728142 1.07554e+06 2.55266e+06 14474.2 51967.8 -1.83108e+06 572658 295622 803699 -1.82634e+06 -1.3505e+06 1.80416e+06 2.56329e+06 -3.36807e+06 -2.06747e+06 3.16302e+06 73702.2 1.08177e+06 -637713 -1.27779e+06 -441576 2.23057e+06 1.14686e+06 -739666 1.72235e+06 828045 1.69127e+06 1.23931e+06 215736 1.49108e+06 204480 407272 17007 324262 495635 -1.00192e+06 -300609 -906005 -180126 -2352.62 697248 531189 512350 -1.47141e+06 246630 300151 658509 -940057 338706 1.21827e+06 512242 497060 265550 999274 -150533 -1.92068e+06 4634.78 -652132 -73475.2 -152623 771819 485728 200114 -700046 -658180 775468 1.16637e+06 -1.39607e+06 607008 -520296 -471335 138378 -439601 146847 1.17351e+06 284866 505337 497585 345185 -353055 152230 -422723 -539935 -667388 670652 244442 -67598.9 -2.06281e+06 985326 255586 740928 412158 -700137 -54739.5 -558516 346369 171248 6615.95 -447475 -74739.9 104454 -171837 -480961 98448 843.235 -217848 231336 -295220 -277610 -217534 197232 337860 232530 -141052 -61472.3 158912 -23397.1 23207.1 8932.05 43580.9 33513.7 -140690 58733.5 3593.6 70826.8 
-7.00226e+07 -7.52658e+07 -1.08018e+07 3.01584e+06 -8.73086e+06 5.42629e+06 485332 5.25856e+06 -927418 508335 4.01717e+06 -2.69455e+06 1.52557e+06 669082 -1.62922e+06 -1.93222e+06 -4.24386e+06 -565770 1.37726e+06 -4.00879e+06 -1.62916e+06 -3.296e+06 -335398 -119429 2.83278e+06 517837 458148 3.57048e+06 -584400 1.74764e+06 -1.6481e+06 2054.9 -245976 -1.67283e+06 -827064 -477538 931631 999821 -2.55255e+06 -1.75798e+06 3.61832e+06 -1.62752e+06 56047 95948 332877 -431063 820948 -979396 927955 -217659 551944 -42388.7 -517408 637860 200393 662453 -234370 1.1613e+06 -1.46853e+06 -807511 55391.6 157580 526857 -660863 -575722 981111 308309 180222 1.13624e+06 -595507 949319 1.21594e+06 306320 816843 725753 -390443 -439799 -576564 -359722 158184 44117.5 -924827 698271 1.35328e+06 86501.9 -141279 -55374.4 -48526 -493087 -841551 -524624 -881259 -383920 76229.8 158839 -435719 -64849.6 -246895 -140724 295751 485975 324262 -825862 367670 412994 -649263 -305347 364724 674668 49477.4 1.26585e+06 836426 687991 176781 194705 45851.9 204182 -334212 -268441 803724 18930.3 -143771 1.27498e+06 1.04323e+06 836236 -530965 877259 -114858 -234077 439742 27543.5 408304 -420244 -311087 -225099 302616 -287332 -431558 -133942 -50865.2 -130757 230582 164995 62426.2 164364 -83488.9 171056 11754.2 139614 51890.7 
-6.77247e+07 -5.82668e+07 -1.01038e+07 1.16815e+06 -5.57219e+06 4.83707e+06 1.69329e+06 1.06278e+07 -3.53286e+06 5.69504e+06 5.17614e+06 -4.43189e+06 3.21678e+06 -6.44206e+06 -675760 -1.50415e+06 -2.30145e+06 -3.07126e+06 5.49547e+06 -1.54367e+06 -3.62546e+06 1.05901e+06 -2.20291e+06 -2.10613e+06 113468 -928121 3.97281e+06 1.39281e+06 -34073.8 2.0807e+06 740060 23610.7 -825523 -1.52334e+06 -415258 -4.25886e+06 -852168 2.45317e+06 -1.15139e+06 -1.00333e+06 1.45567e+06 2.29166e+06 1.69636e+06 -1.65752e+06 597310 259702 -4.02558e+06 312624 -448987 968165 -363320 1.87886e+06 -2118.6 -1.30995e+06 -253683 638458 812747 88678.8 486853 2.91281e+06 -2.00199e+06 -1.6174e+06 3.49889e+06 -760660 -545010 823480 -1.36692e+06 -909609 -460909 -465919 1.1067e+06 -815628 -1.13121e+06 -238690 -508916 45379.1 582944 -516017 -1.20103e+06 653702 -207311 -1.12465e+06 1.02586e+06 -237014 -974002 -919923 772048 631853 1.61826e+06 653528 -456388 -245304 -1.07607e+06 -525793 -334490 -148903 857368 -36110.7 48675.8 -266643 339059 1.46662e+06 -657094 -813590 278977 86316.8 -137167 -31584.8 -208757 290402 -862506 270309 -178932 -76687.8 141401 373741 74276.9 212925 87356.2 -246898 -330523 -253855 -256804 204286 317761 461092 130350 160379 297473 -47118.2 195162 -524954 66629.8 182506 458492 -335396 -335421 -86615.9 191333 87413.1 176057 -22163.6 3442.54 -19376.6 26647.7 -23129.4 45767.6 -67521.5 -73842.4 29485.2 
-5.56275e+07 -7.58535e+07 -8.86663e+06 1.12129e+07 -1.4743e+07 -9.91357e+06 2.14149e+06 -7.77717e+06 -4.09965e+06 4.38079e+06 -659886 -1.01873e+07 4.17722e+06 -1.11549e+07 3.42154e+06 -7.95138e+06 4.05233e+06 -752735 -179281 -28602.1 -1.0655e+06 1.73331e+06 -1.8404e+06 -1.36693e+06 -13146.1 1.29591e+06 1.68351e+06 -1.81587e+06 1.18428e+06 14260.5 -365733 2.36847e+06 -298054 764573 86697.9 1.70505e+06 447147 -366281 2.21793e+06 -1.08368e+06 802668 429584 -644684 -398694 1.84675e+06 535474 2.32548e+06 115836 2.34221e+06 -325207 449492 -1.03892e+06 -1.33517e+06 -62465.1 -1.42371e+06 741718 -56736.8 1.20851e+06 -240645 -1.83007e+06 224307 780515 1.05958e+06 -590516 -800871 -1.6374e+06 621912 -1.43578e+06 54187.6 1.37667e+06 -1.61629e+06 5618.27 627759 -334601 860661 -801325 -66014.9 315288 -159043 -670374 379059 -1.37117e+06 444215 -855738 -995226 141941 -876764 -1.25683e+06 861260 -389728 -954143 171776 -928810 -957840 179157 -202782 -86602.2 468487 -901683 1.02821e+06 942307 -1.04003e+06 252601 -29800.5 -115333 181660 580071 -1.34246e+06 256135 -26834.3 -501135 329159 32134 464201 -108489 392322 -111204 -838847 146896 -209333 -201264 115273 -195824 -7089.23 544783 161077 -154925 469629 -168537 480969 -210241 523120 708929 211794 308747 -96799.7 224530 312077 -15927.7 -270631 19626.4 -143962 123414 47144.4 251040 22684 -64071.4 14754.6 -201253 10405.1 
-3.1706e+07 -6.45767e+07 -1.51196e+07 1.71327e+06 -2.18488e+07 -1.03962e+07 2.72376e+06 -1.23133e+07 -5.63702e+06 7.27502e+06 138954 -9.40241e+06 5.37058e+06 -1.44307e+07 6.60369e+06 -6.86013e+06 5.83282e+06 -2.85393e+06 -252129 4.09343e+06 -891667 2.50024e+06 -1.58715e+06 -2.37562e+06 -1.00545e+06 2.92995e+06 4.31914e+06 -2.45186e+06 3.76243e+06 -1.32929e+06 754877 1.69493e+06 -324067 3.66531e+06 -1.242e+06 -1.55901e+06 -567494 -298599 1.79992e+06 2.03667e+06 1.03651e+06 1.0907e+06 1.26096e+06 -1.36868e+06 -311795 196596 1.0351e+06 2.58674e+06 1.18412e+06 818913 -352770 67382.1 -478415 -1.80074e+06 649529 835163 1.12057e+06 -184626 1.50219e+06 -486665 -482157 -1.97247e+06 -1.23109e+06 971990 -704695 -22377.8 1.75116e+06 184410 -981751 504360 -1.36138e+06 -572844 -1.18438e+06 184760 -114450 -2.33133e+06 857362 -1.94105e+06 -234190 390227 -385162 -595269 -901924 1.41531e+06 1.25227e+06 302363 1.33811e+06 -1.04969e+06 343511 1.15165e+06 135321 51481.3 118041 33888.9 -660990 -212664 381724 -72329 163149 -398066 -605057 -570294 518956 -81349.7 546590 -138472 140304 907236 836618 -734897 786740 5263.22 131126 368707 -328853 -327130 457362 99.3108 15809.3 46683.1 119627 327483 -129804 -112311 -24816 -18532.7 81573.5 -395962 245332 -513724 90429.5 -87221.6 -381957 187914 -365484 251087 -267259 -130300 111387 -72016 68881.6 -82243.9 34059.8 98896.4 -213277 -142076 -9572.92 -33686.5 -42724.3 -31001.2 
-6.51318e+07 -7.10611e+07 9.44515e+06 1.64287e+07 -2.95928e+06 -4.67988e+06 -644977 3.82197e+06 -2.03571e+06 145797 587261 -53567 530837 1.87818e+06 -2.88907e+06 -1.9534e+06 -2.14243e+06 6.35019e+06 3.35755e+06 -6.32387e+06 -1.79508e+06 -2.71151e+06 -1.65522e+06 -3.10223e+06 1.13185e+06 -3.11879e+06 2.36056e+06 2.5771e+06 1.43855e+06 -363549 990637 1.64471e+06 927903 71056 638193 1.00358e+06 -1.10925e+06 1.3818e+06 728654 1.42649e+06 -1.8551e+06 448608 -333080 -455296 2.87752e+06 -149662 -599196 2.10203e+06 -2.97308e+06 -849914 1.2164e+06 554496 -805282 732930 2.57871e+06 735961 1.41782e+06 -1.12643e+06 -980457 -170554 232428 1.19762e+06 -1.07763e+06 -1.77946e+06 200589 -651072 -218391 -393448 76560.6 494516 -248858 -41951.7 1.50315e+06 -1.03108e+06 -327939 -365760 -75192 827119 -721208 -475959 301759 -7957.07 97526 659985 762975 581328 689085 141588 -62264.4 178.465 -99710 260461 -222625 312979 -457579 -38719.7 -361246 -647166 -504844 -67030.9 220308 -54054.2 262699 1.13675e+06 749772 -218948 345073 -393292 448961 302979 -219664 -1.21256e+06 44320.2 -664919 -471909 763443 112690 37590.8 -875834 529788 393311 -1.80578e+06 -474808 64343.7 287127 -382804 -467570 -507924 622867 -179942 87415.4 -150766 192745 -130637 103390 85363.7 124066 -85902.5 345446 67625.4 -94019.1 84028.9 -156941 28377.2 -34906.6 -84606.9 -92187.6 122599 -44894.3 43553.6 
-3.29884e+07 -1.46319e+07 -3.07511e+07 1.17401e+07 -2.3801e+06 -7.21707e+06 -5.78912e+06 -3.55224e+06 -2.91515e+06 2.746e+06 -4.89744e+06 -2.10626e+06 -3.48322e+06 7.30581e+06 -1.56196e+06 7.03587e+06 -5.75524e+06 522561 -5.90276e+06 1.01707e+06 1.3417e+06 -508678 -2.62589e+06 -3.14333e+06 -1.15047e+06 -1.09694e+06 -409632 -1.2661e+06 -2.62987e+06 -2.34527e+06 265743 2.51214e+06 -1.06251e+06 -78727.8 -2.2821e+06 -1.31796e+06 283637 -888210 -1.15476e+06 604379 -2.6404e+06 -909821 -1.44119e+06 -1.32787e+06 -183780 -1.30544e+06 -548537 -608680 599411 1.23649e+06 650121 1.19436e+06 -1.38219e+06 1.18328e+06 -926994 -918181 -2.85033e+06 1.26055e+06 -900464 1.6933e+06 -1.07983e+06 1.01124e+06 1.86421e+06 921587 -1.01354e+06 -214466 2.41516e+06 597553 2.07902e+06 -688771 -1.92669e+06 -717472 -433022 639203 -1.22836e+06 -428478 1.16927e+06 -2.33751e+06 953109 205923 -269984 -53681.7 -479304 -1.09488e+06 44346.9 1.12629e+06 -58866.6 -223143 -317851 392722 -58286.6 -1.36998e+06 369647 2.14858e+06 -256703 -238888 -133956 175422 -1.08566e+06 -915331 -2805.57 -87944.8 20718.7 -1.08165e+06 67267.3 -205718 117104 -541606 41344.9 658108 -694993 -64216.8 84078.3 146181 -649105 1.01414e+06 -291207 110108 -275544 -26373.6 217416 -190311 42.2827 188811 -111454 -125415 82737.2 -211818 -122876 27310.2 8900.53 411671 -256460 80796.8 -49943.6 91.0566 173902 -26530.1 -143215 92642.1 91690.8 50382.7 -114209 -11988.2 38425.9 -26699.7 66204.8 -19222.1 54504.6 92760.5 
-6.41715e+07 -7.23508e+07 4.56179e+06 1.26312e+07 -3.86632e+06 -6.75193e+06 -1.61551e+06 3.07116e+06 -2.65343e+06 1.34976e+06 1.7603e+06 -2.7558e+06 -46641.2 1.66307e+06 -1.32012e+06 -395740 -3.78621e+06 5.19592e+06 2.32882e+06 -5.49663e+06 -1.77956e+06 -2.90819e+06 -2.20112e+06 -3.35764e+06 360143 -3.07048e+06 1.97817e+06 1.58198e+06 1.12474e+06 -1.07107e+06 1.66852e+06 2.3017e+06 1.58133e+06 202225 -204917 360597 -1.49822e+06 754584 525189 1.58656e+06 -2.04758e+06 -205815 -1.06466e+06 -512227 2.77403e+06 -562703 -1.12358e+06 2.55766e+06 -2.37154e+06 -167619 1.1307e+06 1.242e+06 -682302 1.21622e+06 1.9507e+06 266687 1.18697e+06 -1.02907e+06 -887202 -480246 -14883.7 1.76497e+06 -571178 -1.36703e+06 286740 -631394 571500 -54177.6 251000 867775 -380637 -222654 2.29649e+06 -753008 -653774 -438221 50147.1 800635 -357323 650383 217076 535421 -321450 804679 478190 429974 848617 700263 -931803 -43966 -726891 344782 856257 289933 618116 398841 993921 -247143 -1.11279e+06 -934713 322906 353866 -608647 -241220 -1.44394e+06 602728 -287713 -569777 -530287 -506219 350300 953501 -74912.5 131781 -184457 -208897 36696.7 -432002 706268 -274223 -314190 1.50889e+06 437366 -299444 -148833 540055 271878 202875 6869.94 -334766 -29671.2 -362589 -308279 106301 62100.6 -88886.4 -37152.2 -39955.8 -275783 -104868 17330.4 71075.1 46387.9 39106.9 101036 135666 85666.1 55357.1 -45120 -46113.9 
-3.10248e+07 -1.44578e+07 1.43336e+07 -4.26377e+07 319852 -8.86099e+06 413943 -5.80599e+06 -3.686e+06 6.96043e+06 6.31595e+06 -4.57344e+06 1.60682e+06 -9.744e+06 3.04323e+06 -878795 -3.41651e+06 -848362 -288356 -2.20647e+06 3.40151e+06 115890 -1.68984e+06 -2.83989e+06 1.25284e+06 45005.4 -3.52176e+06 188290 664943 1.57436e+06 27582.4 -1.91512e+06 -705456 330555 1.02697e+06 -509086 -520130 238830 1.13037e+06 -1.5335e+06 -928959 -226830 1.75132e+06 -6419.6 883868 -1.98616e+06 -1.3734e+06 -588916 -1.00677e+06 -1.32265e+06 -1.26675e+06 -571339 387706 58595.9 -360205 173164 -150957 -265457 1.17183e+06 211276 -2.9792e+06 -883747 160188 552264 1.39046e+06 461813 -387311 -61891.6 -538601 1.90883e+06 354481 -968207 289531 -556724 -690210 -140781 -36132.6 479967 -2.02125e+06 -1.23426e+06 247234 1.01379e+06 -945500 661460 -483100 953578 -1.63239e+06 -456304 -306608 -948339 572216 -285439 -1.00478e+06 1.46661e+06 665066 1.00721e+06 -63083.7 -36228.8 33678.9 609777 683811 -921782 -8123.61 -1.25538e+06 -606036 -441701 453792 487106 -342180 -478760 602492 172146 -361488 -400724 244580 493322 -315528 261544 325492 151934 -322486 -308011 349776 410902 -305106 -408935 -877754 -65298.1 -254751 330571 251037 -383315 -402784 291152 -160818 70689.9 -57542.2 -134496 220225 -107063 209995 219607 236296 -98302.8 -180597 -21111.3 -17418.7 -24829.6 -81754.8 119594 
-3.98342e+07 -2.21802e+07 -4.01728e+07 -1.38415e+07 -4.89978e+06 -9.28199e+06 -1.06256e+07 -7.34273e+06 403682 1.71814e+06 -8.34653e+06 -3.31372e+06 -578583 2.89003e+06 799294 -792875 592555 3.00327e+06 -3.57618e+06 526456 -1.61651e+06 -2.99618e+06 1.5093e+06 3.55468e+06 -1.6076e+06 -87252.3 1.33549e+06 -820833 1.18471e+06 -354891 1.96605e+06 -2756.7 360615 -546601 -921516 1.97938e+06 -183105 -604681 304830 -1.63219e+06 -215696 464182 338621 1.97367e+06 547296 685146 670770 -1.29921e+06 321740 -325941 803609 -448102 -1.63459e+06 -461527 -1.50125e+06 -71545.8 -1.94574e+06 221282 327956 -76760.6 627425 -622824 1.5924e+06 -533231 252556 35020.5 317052 -568775 948398 1.08885e+06 333887 -159939 -850623 -200597 -701217 1.01564e+06 -1.38887e+06 1.12058e+06 -814297 -261055 422308 166685 1.05417e+06 -148987 132512 -125377 598218 -109619 -462673 262686 -488324 605779 -465993 872422 -390681 485713 276098 53884.4 529733 -417142 172209 -544373 262403 533933 436830 -29679.6 -691962 170733 -189797 -44675.2 -267826 -257185 -68943.7 -15544.2 164584 -26855.9 107971 -201741 -167301 376795 140015 408528 -292450 -121662 7350.29 375205 547752 -284520 47667.7 -490939 622907 -157245 -188163 -502633 56773.9 234174 -115050 -37349 -124504 112988 399535 -107264 367584 -464080 -246830 -47357.2 -91416.3 -353197 -168130 197021 
-4.4872e+07 -2.63299e+07 -3.77155e+07 -1.51456e+07 -3.63779e+06 -6.59983e+06 -1.1784e+07 -4.41819e+06 1.58739e+06 595072 -4.97752e+06 -56090.3 518274 4.17531e+06 973068 -1.60288e+06 1.25294e+06 979079 -2.29628e+06 837457 -756770 -3.1615e+06 1.28491e+06 3.26206e+06 -576523 420469 -996182 -820483 1.63009e+06 -242319 641693 -354472 1.19014e+06 -1.14151e+06 -1.05743e+06 2.32716e+06 541350 -94694.7 -201758 -1.67255e+06 624984 143193 209965 2.37296e+06 398875 739381 593866 -1.58792e+06 211430 -644302 173578 -359668 -1.40442e+06 -369668 -823106 -715644 -950838 -79804.9 -326964 -590322 156835 -725743 1.63934e+06 -26382.8 81610.1 111517 126066 -743145 836084 1.21768e+06 236796 -248379 -543453 -101507 -519649 421596 -615466 1.06729e+06 -684449 -89234 761449 -79794.7 779838 -228130 124688 202799 410642 -229820 -8381.64 95153.1 -317373 392677 -665998 771440 139887 522600 316908 -55968.9 -27410.4 -370333 91182.8 -635486 217459 544033 235871 180444 -528839 -126656 -419620 -346461 -395860 -146559 -379439 -30164.6 100690 -15394.1 280350 -88128.3 195785 169015 -342122 69859.7 -374786 307166 -52449.5 237778 553026 -395257 173288 -5939.94 323798 -141731 3250.23 -158054 -317059 224779 290766 -13081.6 -223666 117177 179914 -45966.9 61657.3 366434 -579230 -301936 124394 389225 116200 -363343 
-4.17931e+07 -2.53167e+07 -2.95508e+07 1.34453e+07 -4.00199e+06 -1.33805e+07 -4.79525e+06 -1.29735e+06 -4.83591e+06 494166 -3.76548e+06 -9.05005e+06 -1.60907e+06 2.82922e+06 -440859 -1.08365e+06 327839 3.42176e+06 -2.29494e+06 -4.11286e+06 -1.59269e+06 -393041 -1.20613e+06 183609 -351534 -1.41887e+06 -509170 -2.15984e+06 -1.59841e+06 514645 543239 2.37375e+06 -78146.5 251508 824777 1.14721e+06 1.4403e+06 1.05936e+06 2.40796e+06 1.49806e+06 -1.68226e+06 -403768 -432000 -1.33893e+06 -149105 1.34646e+06 -385969 919949 -1.54865e+06 1.88507e+06 393014 773823 485730 -1.80001e+06 -179047 -394483 -182391 -731938 -762009 -62001.1 1.53366e+06 587887 -1.48943e+06 -783535 -428409 199097 77655.2 -675405 -1.24501e+06 1.21659e+06 -1.08999e+06 -878460 -562379 -1.24277e+06 853274 214800 -153603 -29382.9 667489 212951 -1.59396e+06 419665 -1844.33 -540416 -2.04142e+06 194662 -80186.4 437027 341670 513779 215689 439379 -269831 -999341 137613 761537 33237.5 -122478 42787 37056.2 950763 1.02788e+06 1.11055e+06 -219731 187421 -211279 -152764 133708 -333198 672395 600651 267161 964620 -469695 339900 -222544 480674 696682 -461175 435424 366708 283745 113362 222820 -731319 -180620 -131423 -129062 -358743 517475 632506 700017 -277180 195804 -257308 -414920 -85454.2 237955 -44238.7 495058 179836 28250 479670 -94420.2 -70943.9 -225662 97923.3 -247307 347791 -35349.7 
9.54164e+07 2.02455e+07 2.08968e+07 -285800 -5.74807e+07 2.27603e+06 36584.7 1.41419e+07 -1.69365e+07 -4.9436e+06 1.44581e+06 96127.2 615724 3.46114e+06 489132 -110351 2.01148e+06 -207506 463664 -5.22242e+06 -299348 -4.51107e+06 3.63164e+06 -2.12166e+06 -786048 339287 71860.5 -3.47786e+06 -1.03075e+06 -1.30378e+06 5.44352e+06 -4.28039e+06 6.33523e+06 -1.39205e+06 -3.78825e+06 893142 2.31403e+06 -3.45084e+06 4.48866e+06 -2.34732e+06 1.67529e+06 1.33242e+06 757183 635135 -2.25205e+06 112222 501480 1.06315e+06 -609276 -634291 -153425 1.11601e+06 1.03734e+06 1.27227e+06 -521020 278588 -76322.2 -547156 -95038.4 612877 -1.00389e+06 2.05299e+06 711438 143501 -176937 -474696 200813 -126805 -875467 -566396 115301 230665 -329138 23628.2 -49192.7 -102415 98989 -269477 -370774 125930 -82801.1 -57985 160916 -85854.5 167455 68477.2 -151143 -393701 -196027 128878 87605.2 -122074 71624.4 -236377 -13809.7 34118.5 138410 -49717.1 -26742.5 108662 -151466 18541 14042.3 -5298.85 103239 2418.89 31999.9 -5064.63 19717.2 63403.7 72544.7 41604 -28899 8671.1 10075.4 51400.6 -28689.3 8513.95 6761.53 6060.49 68604.4 -1422.41 57719.7 37755.8 -483 -62299.1 -49164.4 709.41 58433.9 -7376.58 46297.5 -11700 -13121.6 936.99 10711.3 -10206.7 16329.9 -11997 -18618.8 14207.9 -10719 -13304.5 -7121.45 -13858.5 25878.4 4154.5 6645.94 -3986.63 16786.3 -7169.55 
1.59335e+08 -1.47166e+07 4.53025e+06 1.17742e+07 8.6575e+06 6.33524e+06 -1.95598e+07 -3.86911e+06 5.35766e+06 -147476 5.06022e+06 -1.28031e+06 3.24935e+06 191791 -1.41178e+06 -1.68101e+06 4.04856e+06 -1.19126e+06 -2.27627e+06 -1.34673e+06 3.35341e+06 1.24142e+06 650295 43714.9 -845054 3.32453e+06 173753 -1.54372e+06 -279195 -1.13618e+06 -232800 604445 181122 1.51775e+06 2.57589e+06 660206 2.50456e+06 3.41289e+06 548597 469033 1.30796e+06 91087.8 298837 190916 480456 1.07182e+06 -224136 -1.71607e+06 -450349 -164962 385451 410227 825160 -1.72337e+06 -2.08843e+06 -1.43036e+06 -1.20314e+06 -3.31898e+06 467874 560420 -650412 -251376 1.28398e+06 -824259 -1.75397e+06 358039 -1.13897e+06 -725281 114949 108471 411812 694385 191359 -1.68404e+06 -433567 -599632 3.43214e+06 607828 1.32817e+06 766202 -860905 151842 -412920 1.65189e+06 1.63074e+06 -1.23653e+06 -895527 -680299 -643034 -466152 -1.11914e+06 -955661 208418 -198630 209167 1.11261e+06 -407038 981581 -429537 195101 145418 283277 70762.8 850870 -348162 -689819 45659 416871 -653056 661444 -244452 -864296 376185 -141712 -26717.6 124399 -447391 -1.00492e+06 -207162 -315249 34572.5 203472 72975.9 167297 64417.6 131242 -74736.5 27785.6 -72317.3 -151497 145022 -78416.7 -151215 141755 -185419 -113668 130014 -156496 17078.3 -92884.7 48529.5 -39624.6 54420.9 -11827.9 -65498.9 40732.7 15382 8385.99 16140.8 11330.9 
1.63049e+08 -9.38878e+06 7.70117e+06 1.3186e+07 5.21808e+06 4.23299e+06 -2.11444e+07 -5.02623e+06 627759 -6.51733e+06 6.50515e+06 2.27644e+06 9.92267e+06 1.869e+06 -7.97653e+06 -3.26018e+06 738402 -3.10265e+06 668374 -3.37733e+06 2.7284e+06 3.52094e+06 -283558 -1.66953e+06 -4.02491e+06 267485 1.51851e+06 -2.02796e+06 1.70181e+06 -1.76489e+06 962439 2.59659e+06 -534463 -337853 1.84004e+06 -13984.4 -130352 1.06805e+06 -320339 -977517 486077 -141988 509546 -781081 190722 666633 23456.9 -2.82989e+06 -707460 -46464.7 -192553 1.82184e+06 610896 612394 -289166 991524 895626 -477976 -203286 -332334 576633 567655 -468009 821721 12927.9 136063 729226 212125 241264 -411110 -135268 95049.6 248911 821663 268076 448736 234776 -192334 -170597 -1.14122e+06 467735 -101713 -471388 -40199.8 -840929 -64831.8 520556 340381 -209396 -689378 62528.7 -258743 569781 -231857 -283275 96465.2 535697 141099 -268950 -378865 -319899 -14999.6 690073 -482807 -386439 -279472 -216975 -411742 612110 -949191 -92315.8 -518838 449960 -101253 1.84665e+06 651378 2880.34 -303249 -151062 -616047 107804 -23321.9 -138065 65794.6 -306788 -268570 24218.7 -178050 244600 234271 -249426 -192621 95024.8 -28893.5 676012 1.28224e+06 -807941 311512 -269933 630101 234336 -1479.46 113254 14982.5 72771.3 -28554.1 100631 -71316.8 -61926 -105078 
1.60572e+08 -5.40055e+06 9.08838e+06 1.25604e+07 3.26126e+06 1.21049e+06 -2.13563e+07 -5.40021e+06 -204158 -7.09566e+06 6.22297e+06 3.41163e+06 1.02626e+07 2.94244e+06 -9.23002e+06 -2.95125e+06 -884900 -3.99455e+06 816900 -3.74529e+06 2.20438e+06 2.48232e+06 220143 -2.13928e+06 -3.86094e+06 289312 1.67903e+06 -2.26094e+06 2.89675e+06 -1.73186e+06 1.40841e+06 2.66369e+06 -712137 -389960 1.70897e+06 -546022 -352591 573627 -486874 -1.2836e+06 300491 -614411 200557 -821733 79323 692437 334082 -2.46183e+06 -687063 -278111 -406863 1.54209e+06 321292 881708 351461 1.54406e+06 1.25846e+06 -283366 -235650 -698398 385378 -102640 -583165 684422 849056 -4691.86 1.08754e+06 187003 222252 -769720 -343047 -135253 -41850.7 1.34459e+06 79005.7 685509 -522242 -718964 -500992 -1.36969e+06 695024 172173 -80283.1 -20941.5 -1.30283e+06 9897.8 771812 302894 110071 -240675 349245 165028 182975 -30578 -199352 117668 506152 200845 104444 -89740 72733.9 -34616.1 207424 -157721 68542.5 -296927 -417679 124800 449958 -349979 -94397.2 -164672 92202.7 -253492 712025 225214 148090 -483731 30119 -139484 -215826 -87091.2 -66082.7 367087 -36934.9 127523 417562 70170.5 -301478 -481342 390297 65396.6 -124407 212360 -737519 -1.40004e+06 1.07587e+06 -383821 488040 -684772 -249038 -241072 -153702 -56067.2 -69561.9 73143.9 -40996.8 166954 80525 94202.4 
1.47285e+08 -7.81122e+06 1.77324e+07 4.55567e+06 -2.18498e+07 -5.28257e+06 -8.63684e+06 3.39806e+06 7.0423e+06 -9.13369e+06 6.96029e+06 -1.60813e+06 5.79203e+06 5.12406e+06 -9.01058e+06 -1.16675e+06 596610 -2.13013e+06 2.81843e+06 -2.7874e+06 4.58802e+06 -2.10059e+06 930127 -1.60688e+06 2.10248e+06 -3.94822e+06 -3.89362e+06 -3.40512e+06 1.71525e+06 1.97198e+06 2.55693e+06 1.3466e+06 -1.45216e+06 -343851 -2.15873e+06 -1.91332e+06 -1.141e+06 -6.16989e+06 -643363 592607 -152452 -81415.8 110554 1.06748e+06 -3.04948e+06 -2.88819e+06 812260 3.30703e+06 132723 2.26601e+06 -569724 -1.36376e+06 -1.94981e+06 576361 2.46217e+06 108066 -189613 2.87133e+06 898473 394277 1.58385e+06 -4.84006e+06 2.257e+06 -1.88344e+06 130900 1.75541e+06 137306 -98649.4 -327096 1.52171e+06 -2.73718e+06 -190524 2.34708e+06 291575 1.3994e+06 312194 309586 897607 940505 -446772 -612708 402771 -859044 306951 378528 -1.54529e+06 -1.00245e+06 355724 354098 -404724 -314455 -625426 -204941 316171 231399 74488.9 -363657 10899.4 265582 -124195 -11598.5 249752 55162.5 198292 -89402.1 -113134 -219099 -150156 37416.4 -60336.1 -223250 63958.4 22745 17545.8 247158 -111024 12267.5 240440 -71862 112784 43727.5 -16433.4 -121951 -96892.5 71000.3 131099 140178 -79694.4 175002 -35810.6 -55030.9 -74344 60361.4 51279.5 -16859.8 -26237.4 -38996.8 -62919.1 32130.6 56647 44264.3 18940 -30176.5 24492 -14084 -41250.4 6116.96 15029.1 11694.4 16033.7 
1.6263e+08 -1.64751e+07 3.78368e+06 1.59032e+07 5.52645e+06 3.16564e+06 -1.67348e+07 -2.20682e+06 1.04119e+06 -7.10433e+06 1.00097e+07 -1.59631e+06 5.07923e+06 429776 -6.50824e+06 -1.88937e+06 1.03359e+06 -3.26009e+06 172625 -3.5424e+06 2.04771e+06 3.62182e+06 -1.54097e+06 -1.1859e+06 1.70212e+06 -1.74791e+06 -2.8175e+06 -3.23942e+06 2.40367e+06 3.09921e+06 -87143.9 1.24117e+06 -2.57712e+06 2.14262e+06 -269289 -2.11271e+06 -512353 -4.36519e+06 -2.82062e+06 962968 1.2712e+06 -736838 -247807 -971730 -547512 -1.36394e+06 595056 1.48276e+06 -914194 1.71835e+06 1.356e+06 -2.19025e+06 337204 863443 -750909 -980042 974871 3.33476e+06 352398 854278 -181602 1.92693e+06 -1.11164e+06 407172 175019 -754246 -1.65088e+06 -673479 427330 1.0943e+06 1.18309e+06 355845 -1.53956e+06 -840771 -628708 54205.7 -305430 145886 -441831 1.01184e+06 -193082 -580278 503681 -926137 357157 1.35767e+06 935881 -79608.1 -475519 -292956 -110174 653267 732575 -51798 272991 -642366 1.32847e+06 259488 130331 1.3456e+06 561560 -695987 -404761 -144519 -354563 -425216 -853134 1.36345e+06 107837 862294 -242637 -633897 730474 -674682 -1.12739e+06 278097 410118 -217675 271400 -182268 -124357 261155 -183332 85913.2 -160109 63393.6 -103709 10389.6 36665.6 113399 -76858.2 -89960.4 67146 -88728 308916 178160 4709.49 -116187 -34735.7 -22561.2 -10231.6 -44495.4 84927.3 36416.2 -16088.7 -866.397 74362.9 -32652.2 49640.5 -18054.7 
9.45139e+07 5.3628e+07 1.19682e+07 -9.41937e+06 2.48854e+07 -4.07455e+06 -2.10715e+07 -5.03996e+06 -6.25594e+06 -9.40869e+06 8.78923e+06 -5.62647e+06 -9.53288e+06 157725 -3.421e+06 -7.035e+06 3.28967e+06 4.02343e+06 -4.10731e+06 8.0044e+06 2.54621e+06 -4.03903e+06 3.35545e+06 -1.15156e+06 -802351 -3.84878e+06 4.05563e+06 8.81417e+06 -3.68017e+06 916198 6.38211e+06 -3.5876e+06 -165437 -951000 4.71503e+06 -5.3923e+06 -2.31807e+06 1.64512e+06 -1.08249e+06 -5.05179e+06 120591 -3.04792e+06 323082 5.1978e+06 -843748 1.48179e+06 -1.47488e+06 1.9256e+06 2.13401e+06 1.72808e+06 21818.7 -1.89767e+06 -657890 -807722 3.05346e+06 1.0251e+06 280044 -891281 1.06674e+06 -1.12124e+06 1.64151e+06 2.38866e+06 107532 -1.3125e+06 -697483 456869 -77617.3 357430 -554705 535104 175996 -727091 -1.1719e+06 201447 -938884 -987108 -780372 -558504 606062 -471884 17063 -937139 -1.31689e+06 -236821 -161115 172030 -270731 -1.70501e+06 11033.4 124880 146785 278971 -221210 383380 565922 187732 10046.5 185386 -225522 46901.1 -224765 502210 -24588 -173134 241328 -162869 -261748 -249879 -240713 -60361.9 -164099 3827.01 164110 -185865 -81243.6 229851 149517 -44473.9 -180891 51855.4 -228367 207336 27659 -32330.6 74392 227.223 -61617.2 129004 139461 -33645.2 68515.2 68529.8 -9385.6 118247 -8152.98 6974.19 -15659.2 -56135.9 2103.25 119358 24674.4 25407.6 -118670 16521.6 79956.8 18901.2 28005.7 1198.8 -21789.9 -23954.7 
1.61768e+08 -1.42147e+07 -7.8097e+06 8.22134e+06 1.04576e+07 -3.30177e+06 -1.36681e+07 -9.01166e+06 -976738 -4.59911e+06 1.18698e+07 1.22408e+06 2.16173e+06 2.32129e+06 -3.11121e+06 -4.15633e+06 -535080 -3.43351e+06 -1.02518e+06 -775637 1.73354e+06 2.19268e+06 -2.24333e+06 -137388 736633 -1.0006e+06 -2.4695e+06 -3.4584e+06 2.01416e+06 72268.7 -534383 508184 -2.48023e+06 2.65357e+06 796701 -1.34661e+06 -729603 -2.80412e+06 -1.90181e+06 640204 2.77045e+06 114240 336627 -411787 896301 254256 223403 97383.4 -2.40636e+06 1.36735e+06 2.6711e+06 -2.23816e+06 -403415 780528 -1.84886e+06 -990653 413283 2.66483e+06 113931 1.243e+06 -386538 2.94971e+06 -572692 -188681 -363179 -1.05927e+06 -1.70897e+06 -602104 -172649 836919 633040 -1.26613e+06 -1.51847e+06 -955131 -721196 -170128 -61163.3 415062 187903 1.14621e+06 1.32086e+06 331009 643591 979321 239932 519772 7727.76 -231215 489181 273894 -160265 -374315 -498622 257064 -434768 -125557 -919916 293359 233314 -898896 -904372 651201 660802 149984 617990 611988 1.36394e+06 -1.29776e+06 -437312 -475789 506774 861056 -698574 457579 798121 -784976 -510480 249204 -342834 49113 -40816.1 -367335 526898 -224946 80122.5 -47727.8 -20241.8 -210605 -148018 -32189.1 99324 -23749 -106937 -136110 -182266 -173292 28877.9 -6005.33 -42212 36804.2 -35187.8 95672.7 -101266 -98814.3 -17141.2 -14414.7 17614.8 19217.3 -13035.2 42731.5 
1.54574e+08 -4.68404e+06 5.38514e+06 1.41733e+07 8.12658e+06 1.09649e+07 -2.09029e+07 -4.88462e+06 2.75974e+06 -1.91648e+06 6.56943e+06 -1.92288e+06 2.20856e+06 811652 -2.47008e+06 -3.41368e+06 1.83247e+06 -1.70698e+06 -778245 -171239 867685 -1.38903e+06 -869407 188942 66870.6 646465 2.07346e+06 878318 133297 1.64108e+06 163230 114420 1.34272e+06 -1.44317e+06 153918 72026.1 1.00478e+06 1.70205e+06 -96819.9 807383 -604817 -99484.5 -683602 899132 -318382 226065 96516.5 1.37217e+06 778142 -38347.2 916186 -889001 -214437 -2.2045e+06 738635 478569 -2.16646e+06 -2.67062e+06 -1.10864e+06 -235714 -1.25931e+06 -2.03311e+06 -22298.1 873158 -254897 -1.01371e+06 -276213 -189464 -307259 371083 1.12323e+06 2.65366e+06 1.08317e+06 -1.25187e+06 -435750 -1.11406e+06 -1.24093e+06 574222 -566766 3.31101e+06 -1.03176e+06 -25516.5 1.03651e+06 -2.3349e+06 1.54949e+06 1.15771e+06 -1.39807e+06 846828 693509 184808 507286 -168401 -116915 210924 -2080.54 -601102 -528621 -966992 19018.3 215335 -58281.6 -281944 -198737 -748679 -240124 338820 -109484 -348517 1.0784e+06 -811171 -65100.6 105004 234018 155821 944983 344376 1350.33 207385 16438 224452 337363 51144.5 -49752.6 -177049 -174057 -3817.16 78733.9 -184461 -82796.5 -78824.6 -105000 257028 -192076 147518 -22137.6 -267922 126606 -63800.2 84281.6 18658.8 53069 -15686.1 -104162 -7207.97 -112721 13921.7 -15755.8 18955.3 -14266.7 62768.3 
1.49272e+08 -3.09339e+07 -1.1332e+07 4.07289e+06 2.34094e+07 1.0788e+07 1.01008e+07 5.9221e+06 -8.4343e+06 -1.57802e+06 -3.2977e+06 -875099 4.46265e+06 -7.07656e+06 563844 3.76199e+06 1.6965e+06 -1.6207e+06 -6.11292e+06 -1.19439e+06 3.06844e+06 1.04866e+07 -5.27129e+06 7.93299e+06 3.10924e+06 -8.86564e+06 -633099 1.63227e+06 764785 -1.69394e+06 1.20187e+06 -5.02389e+06 3.76013e+06 -4.98826e+06 -74341.9 -966467 3.17837e+06 -2.27171e+06 -1.9873e+06 1.92507e+06 1.07687e+06 914150 -1.15326e+06 365110 2.67861e+06 197828 -446805 -429648 -111291 -1.21536e+06 571575 488345 -301465 -665036 -96584.3 179603 -491981 133783 293589 -974662 -357579 -510674 -888344 -338101 -571030 -52223 843172 -51620.9 205077 -614212 -484829 -357010 170266 -249423 81861.6 -289236 11026.7 36204.5 -284490 -238251 -261489 -20456.6 -390215 58093.1 -180788 -199249 263411 -43301 51244 150252 -70670.6 58988.2 -119416 134814 -11348.9 100392 -69937.3 146210 68298.2 39649.2 73067.2 27830.4 14688.8 49065.7 51597.9 81177.9 -73156.1 61184.5 -5150 54427.4 -76688.7 38993 -33387.8 85611.4 -13541.2 21006.8 56885.6 96224.2 -32086.6 88276.2 -36273.3 75589.6 54730.9 -78066.6 31444.4 -17115.6 -41715.4 -23882 7569.41 -18084.4 17119.3 -42616.3 -5970.93 28892.1 32883.7 -7690.67 40408 -25197.6 -8211.2 33068.7 2504.47 3687.61 3181.61 12471.1 30608.7 1981.31 -24536.5 -2248.56 -6304.62 -9515.14 
1.49272e+08 -3.09339e+07 -1.1332e+07 4.07289e+06 2.34094e+07 1.0788e+07 1.01008e+07 5.9221e+06 -8.4343e+06 -1.57802e+06 -3.2977e+06 -875099 4.46265e+06 -7.07656e+06 563844 3.76199e+06 1.6965e+06 -1.6207e+06 -6.11292e+06 -1.19439e+06 3.06844e+06 1.04866e+07 -5.27129e+06 7.93299e+06 3.10924e+06 -8.86564e+06 -633099 1.63227e+06 764785 -1.69394e+06 1.20187e+06 -5.02389e+06 3.76013e+06 -4.98826e+06 -74341.9 -966467 3.17837e+06 -2.27171e+06 -1.9873e+06 1.92507e+06 1.07687e+06 914150 -1.15326e+06 365110 2.67861e+06 197828 -446805 -429648 -111291 -1.21536e+06 571575 488345 -301465 -665036 -96584.3 179603 -491981 133783 293589 -974662 -357579 -510674 -888344 -338101 -571030 -52223 843172 -51620.9 205077 -614212 -484829 -357010 170266 -249423 81861.6 -289236 11026.7 36204.5 -284490 -238251 -261489 -20456.6 -390215 58093.1 -180788 -199249 263411 -43301 51244 150252 -70670.6 58988.2 -119416 134814 -11348.9 100392 -69937.3 146210 68298.2 39649.2 73067.2 27830.4 14688.8 49065.7 51597.9 81177.9 -73156.1 61184.5 -5150 54427.4 -76688.7 38993 -33387.8 85611.4 -13541.2 21006.8 56885.6 96224.2 -32086.6 88276.2 -36273.3 75589.6 54730.9 -78066.6 31444.4 -17115.6 -41715.4 -23882 7569.41 -18084.4 17119.3 -42616.3 -5970.93 28892.1 32883.7 -7690.67 40408 -25197.6 -8211.2 33068.7 2504.47 3687.61 3181.61 12471.1 30608.7 1981.31 -24536.5 -2248.56 -6304.62 -9515.14 
9.40381e+07 2.46158e+07 2.32832e+07 -7.35193e+06 -6.79806e+07 1.5646e+06 732642 1.24371e+07 -2.28248e+07 -463532 1.17356e+06 812584 618565 2.49407e+06 2.74988e+06 2.55519e+06 1.55525e+06 1.50649e+06 -2.57866e+06 2.99376e+06 521799 10054.7 -1.15984e+06 1.67869e+06 -2.68961e+06 1.15293e+06 -745066 1.3345e+06 -797997 407206 -3.12792e+06 360445 -1.45946e+06 -153945 1.31739e+06 -162484 -914354 1.75569e+06 -1.33358e+06 1.09739e+06 -981103 -203200 -465283 -564744 1.00886e+06 381494 -313445 -161983 472741 -351848 -119926 -285486 -179182 -347737 -18659.1 -123828 135706 112252 -112146 -436885 302972 -29625.1 -428455 -362893 342428 -460186 134989 125198 149012 346040 489150 -107267 -488471 158854 -367922 -212182 -219935 5564.89 828838 2575.5 63313.3 -462350 -179725 741850 -35695.7 -167673 -343872 1.31114e+06 2.17802e+06 -1.08469e+06 -913255 969079 999418 1.13744e+06 -257549 337802 -221513 30239.3 136796 257107 40073.7 -130757 174687 -95513.1 47085.7 -66278.9 -187104 47681.8 -114366 -56721.3 -42389.9 126527 -19225.7 29939.4 -118109 -17598.8 60954.9 -43465.1 -93988.5 63670.4 -44527.3 9545.22 7796.97 -80327.8 40598.5 24355.8 22567.8 -72578.3 -31833 35896.8 -60863.3 49415.6 -18337.4 16431 51175 24426.8 -11702.5 9081.2 52568.6 -13844 14247.1 -28768 -14906.6 7693.82 -14321.5 -33013.8 -4758.5 -13498.7 16740.6 -20020.7 
1.50928e+08 8.09354e+06 5.56398e+06 1.06609e+07 1.40564e+06 1.6407e+07 -2.18382e+07 -1.23983e+07 3.92464e+06 9.67732e+06 9.25177e+06 -832696 -8.50756e+06 967018 4.83791e+06 7.21867e+06 -920189 3.07736e+06 -4.2835e+06 1.65943e+06 -5.62982e+06 -1.13071e+06 -1.53068e+06 1.1084e+06 3.13305e+06 657339 631753 -204036 2.14928e+06 -1.0052e+06 837912 1.46677e+06 -600601 1.44249e+06 106116 156468 2.39433e+06 1.85862e+06 1.92399e+06 -662055 347503 -2.1164e+06 -1.68015e+06 31676.4 -751556 -3.95202e+06 -486149 4.21558e+06 2.0982e+06 -2.86092e+06 -1.87474e+06 456047 778636 -1.04161e+06 -1.40337e+06 -1.72708e+06 901294 248227 -350780 134717 -1.33532e+06 27077.1 -668864 -1.7073e+06 -1.08242e+06 87648.3 53574.9 649706 789142 -171185 -450684 -265460 -135866 522314 119131 694546 -350000 380524 -79616.3 -687450 456539 -8317.4 471052 -44197.9 -387470 -256356 367751 278056 147711 178694 408581 58812.9 -46708.2 -140878 -150353 -132295 102331 -45748.9 102757 -85242.7 -79549.5 62359.1 25872.4 97296.7 -102856 -98344.9 123878 -44309.4 -40799.5 -108359 22723.4 -2068.07 90513.8 37104.3 31948.4 -5654.57 8635.75 -25759.2 -10428.8 31257.7 -64213.5 -36597.3 -74057.4 7049.98 76846.1 17009.4 -32557.8 -32317.5 -43881.5 64011.8 -37452.4 -74336.6 -45447.8 -52632.5 -12135.4 11133.7 -15050 42952.5 -7490.83 -7242.17 -35684.1 -4042.41 20460.7 32100.1 21361 -12593 2086.62 1050.89 11923.1 -8005.11 
1.50928e+08 8.09354e+06 5.56398e+06 1.06609e+07 1.40564e+06 1.6407e+07 -2.18382e+07 -1.23983e+07 3.92464e+06 9.67732e+06 9.25177e+06 -832696 -8.50756e+06 967018 4.83791e+06 7.21867e+06 -920189 3.07736e+06 -4.2835e+06 1.65943e+06 -5.62982e+06 -1.13071e+06 -1.53068e+06 1.1084e+06 3.13305e+06 657339 631753 -204036 2.14928e+06 -1.0052e+06 837912 1.46677e+06 -600601 1.44249e+06 106116 156468 2.39433e+06 1.85862e+06 1.92399e+06 -662055 347503 -2.1164e+06 -1.68015e+06 31676.4 -751556 -3.95202e+06 -486149 4.21558e+06 2.0982e+06 -2.86092e+06 -1.87474e+06 456047 778636 -1.04161e+06 -1.40337e+06 -1.72708e+06 901294 248227 -350780 134717 -1.33532e+06 27077.1 -668864 -1.7073e+06 -1.08242e+06 87648.3 53574.9 649706 789142 -171185 -450684 -265460 -135866 522314 119131 694546 -350000 380524 -79616.3 -687450 456539 -8317.4 471052 -44197.9 -387470 -256356 367751 278056 147711 178694 408581 58812.9 -46708.2 -140878 -150353 -132295 102331 -45748.9 102757 -85242.7 -79549.5 62359.1 25872.4 97296.7 -102856 -98344.9 123878 -44309.4 -40799.5 -108359 22723.4 -2068.07 90513.8 37104.3 31948.4 -5654.57 8635.75 -25759.2 -10428.8 31257.7 -64213.5 -36597.3 -74057.4 7049.98 76846.1 17009.4 -32557.8 -32317.5 -43881.5 64011.8 -37452.4 -74336.6 -45447.8 -52632.5 -12135.4 11133.7 -15050 42952.5 -7490.83 -7242.17 -35684.1 -4042.41 20460.7 32100.1 21361 -12593 2086.62 1050.89 11923.1 -8005.11 
1.15876e+08 1.0249e+07 1.25691e+07 -1.06043e+07 -2.95397e+07 -1.01554e+07 3.6012e+06 -1.48294e+07 2.64937e+07 3.34844e+06 -225992 -2.01771e+06 -1.09199e+06 -283294 5.92525e+06 899565 6.82865e+06 9.13845e+06 5.96329e+06 7.38886e+06 5.63823e+06 -1.08022e+07 -5.20988e+06 -101540 3.25611e+06 -8.96191e+06 -1.3289e+06 -1.48877e+06 -1.75106e+06 5.02439e+06 570251 1.95284e+06 -1.1964e+06 -1.39949e+06 546419 -1.31583e+06 2.91496e+06 327069 -291123 1.30477e+06 937646 1.39863e+06 780863 -1.45382e+06 21096 1.79066e+06 289977 -1.66953e+06 618002 272103 -774076 1.04209e+06 912756 864455 -380285 1.01956e+06 -173724 -78504.8 142135 -166694 -487058 261994 -335231 73491.2 346612 -482944 93012.9 566886 99606.5 -397553 186806 52019.2 199392 -36367.8 -62971.3 -198997 332495 -135132 -285266 115048 265588 45715.8 147734 -38554.8 -270856 65128.5 247805 -40336.4 -13526 69875.4 -47465.7 33067.4 127282 -40260 -35502.5 -64432.5 76716.9 35856.4 10008.2 -8211.45 2723.43 30709.8 -17446 127302 10373.9 -16750.7 71687.5 33924.5 6079.99 -37308.3 -44703.1 -49822.5 -15544.8 31559.1 4658.23 -15277.1 -314.294 -1396.13 -1797.84 -17580.2 2866.54 6011.08 5299.48 -1138.98 -30908.5 -1761.56 5226.8 28176.5 -30744.2 -4999.37 1700.13 4716.56 5829.96 -72620.3 -11610.7 6272.11 43042.4 22628.3 -32871.5 285.455 -11501.9 -6324.34 10578.3 -45.8186 -4537.03 -3123.76 2451.16 9346.01 3374.62 -600.011 
1.15876e+08 1.0249e+07 1.25691e+07 -1.06043e+07 -2.95397e+07 -1.01554e+07 3.6012e+06 -1.48294e+07 2.64937e+07 3.34844e+06 -225992 -2.01771e+06 -1.09199e+06 -283294 5.92525e+06 899565 6.82865e+06 9.13845e+06 5.96329e+06 7.38886e+06 5.63823e+06 -1.08022e+07 -5.20988e+06 -101540 3.25611e+06 -8.96191e+06 -1.3289e+06 -1.48877e+06 -1.75106e+06 5.02439e+06 570251 1.95284e+06 -1.1964e+06 -1.39949e+06 546419 -1.31583e+06 2.91496e+06 327069 -291123 1.30477e+06 937646 1.39863e+06 780863 -1.45382e+06 21096 1.79066e+06 289977 -1.66953e+06 618002 272103 -774076 1.04209e+06 912756 864455 -380285 1.01956e+06 -173724 -78504.8 142135 -166694 -487058 261994 -335231 73491.2 346612 -482944 93012.9 566886 99606.5 -397553 186806 52019.2 199392 -36367.8 -62971.3 -198997 332495 -135132 -285266 115048 265588 45715.8 147734 -38554.8 -270856 65128.5 247805 -40336.4 -13526 69875.4 -47465.7 33067.4 127282 -40260 -35502.5 -64432.5 76716.9 35856.4 10008.2 -8211.45 2723.43 30709.8 -17446 127302 10373.9 -16750.7 71687.5 33924.5 6079.99 -37308.3 -44703.1 -49822.5 -15544.8 31559.1 4658.23 -15277.1 -314.294 -1396.13 -1797.84 -17580.2 2866.54 6011.08 5299.48 -1138.98 -30908.5 -1761.56 5226.8 28176.5 -30744.2 -4999.37 1700.13 4716.56 5829.96 -72620.3 -11610.7 6272.11 43042.4 22628.3 -32871.5 285.455 -11501.9 -6324.34 10578.3 -45.8186 -4537.03 -3123.76 2451.16 9346.01 3374.62 -600.011 
1.48966e+08 -8.90204e+06 -873070 1.56755e+07 1.47302e+07 1.28247e+07 -1.76465e+07 -1.15691e+07 -5.86341e+06 5.93024e+06 -53413.6 1.50999e+06 -566810 -3.00023e+06 2.95147e+06 -4.26217e+06 231966 -978137 -182115 92458 -2.41938e+06 -2.96254e+06 1.03174e+06 -2.02387e+06 3.0726e+06 -80252.6 1.6344e+06 1.80547e+06 -1.0973e+06 5.03949e+06 -3.4707e+06 -3.54032e+06 2.50701e+06 1.26853e+06 -1.84965e+06 2.26547e+06 759756 110913 -1.11859e+06 2.7701e+06 -2.35628e+06 1.21606e+06 260113 392885 287663 -25452.3 155448 2.16945e+06 686097 692019 445915 -1.54815e+06 -426157 -491311 -501635 659200 507180 -792327 -2.64162e+06 1.31221e+06 2.34339e+06 25205.5 1.43194e+06 3.06066e+06 2.19142e+06 -140738 -147102 -573813 -87183.9 -1.30937e+06 -285192 -787795 -460052 -79822.7 289331 207778 147991 -90931.2 -272328 -887901 -416786 12349.6 -287570 515932 -339052 -155402 105615 91578.4 -292458 -431411 -154383 -64424.2 -77973.3 114654 46331.9 197958 -22574.6 11073.7 -205109 4213.83 34482.7 67691.4 -52904.7 474.204 61969.6 23528.7 -35577.5 -50583.1 -15571.6 32293.2 125672 8609.98 -250254 54611.8 -92809.5 -50615.1 -48730.7 22734.3 111418 -37692.5 59281 25586.7 -4848.68 39814.2 48208.1 4210.84 -14484.6 37172.1 69141.4 -20353.9 14167.4 19507.3 81579 28758.1 10424.2 43158.2 5382.52 29496.6 10471.1 -17059.1 28297 8271.7 14347 -23130.4 -6242.85 2040.76 -5592.41 7081.31 -18643.7 30886.1 
1.48966e+08 -8.90204e+06 -873070 1.56755e+07 1.47302e+07 1.28247e+07 -1.76465e+07 -1.15691e+07 -5.86341e+06 5.93024e+06 -53413.6 1.50999e+06 -566810 -3.00023e+06 2.95147e+06 -4.26217e+06 231966 -978137 -182115 92458 -2.41938e+06 -2.96254e+06 1.03174e+06 -2.02387e+06 3.0726e+06 -80252.6 1.6344e+06 1.80547e+06 -1.0973e+06 5.03949e+06 -3.4707e+06 -3.54032e+06 2.50701e+06 1.26853e+06 -1.84965e+06 2.26547e+06 759756 110913 -1.11859e+06 2.7701e+06 -2.35628e+06 1.21606e+06 260113 392885 287663 -25452.3 155448 2.16945e+06 686097 692019 445915 -1.54815e+06 -426157 -491311 -501635 659200 507180 -792327 -2.64162e+06 1.31221e+06 2.34339e+06 25205.5 1.43194e+06 3.06066e+06 2.19142e+06 -140738 -147102 -573813 -87183.9 -1.30937e+06 -285192 -787795 -460052 -79822.7 289331 207778 147991 -90931.2 -272328 -887901 -416786 12349.6 -287570 515932 -339052 -155402 105615 91578.4 -292458 -431411 -154383 -64424.2 -77973.3 114654 46331.9 197958 -22574.6 11073.7 -205109 4213.83 34482.7 67691.4 -52904.7 474.204 61969.6 23528.7 -35577.5 -50583.1 -15571.6 32293.2 125672 8609.98 -250254 54611.8 -92809.5 -50615.1 -48730.7 22734.3 111418 -37692.5 59281 25586.7 -4848.68 39814.2 48208.1 4210.84 -14484.6 37172.1 69141.4 -20353.9 14167.4 19507.3 81579 28758.1 10424.2 43158.2 5382.52 29496.6 10471.1 -17059.1 28297 8271.7 14347 -23130.4 -6242.85 2040.76 -5592.41 7081.31 -18643.7 30886.1 
1.40521e+08 -1.07211e+07 -8.4821e+06 1.09829e+07 8.47561e+06 1.5621e+07 -1.19416e+07 -9.86038e+06 -4.67425e+06 1.29517e+07 1.11908e+07 -1.47606e+06 -1.31827e+07 -2.05039e+06 9.35484e+06 6.97039e+06 -2.68176e+06 4.50055e+06 -2.99725e+06 3.61511e+06 -1.12964e+07 1.08059e+06 2.11161e+06 202915 4.31223e+06 2.29152e+06 -2.90333e+06 1.67274e+06 -957952 -3.46275e+06 -1.12719e+06 446872 -964131 -116334 -186200 1.16207e+06 -2.34487e+06 -3.21737e+06 1.34731e+06 -766080 2.04048e+06 1.34067e+06 18175.6 -1.10265e+06 -707078 2.6268e+06 -1.76665e+06 -3.33069e+06 -1.1712e+06 1.3775e+06 1.11862e+06 1.21955e+06 -377655 1.43277e+06 2.23012e+06 1.84272e+06 20495.6 400470 1.15076e+06 -531076 -72394.2 -310378 -144480 335153 562692 187106 266089 -696439 -391856 822091 -148887 256903 369732 151474 495363 -14165.7 653424 178489 95282 302901 21543.8 103445 -37942.8 -278277 161206 -127000 -170541 -57063 -23687.7 -140773 -24285.9 24793.8 256048 -118021 18194.5 28870.7 53035.6 -135538 -11635.9 44190 96177.9 -138697 -51920.7 -26762.7 87802.1 -54008 -45630.5 -35040 54330.6 80865.3 -99956.8 39082 35975.3 -84307.6 -67028.4 -21290 -4587.3 83602.1 48649.1 -5492.89 23695 -50307.7 -7791.58 38695.4 -15839.4 18339.7 19199.6 17672.4 -10725.3 -44397.9 -13933 15914.9 -7291.08 -32400.8 17122 -9847.77 -10873.6 -38242.4 22687.6 5635.51 19997 -11903.3 13322.2 13132.7 -8788.29 -12767.9 -21957.2 -1036.44 5467.56 -6979.21 
1.40521e+08 -1.07211e+07 -8.4821e+06 1.09829e+07 8.47561e+06 1.5621e+07 -1.19416e+07 -9.86038e+06 -4.67425e+06 1.29517e+07 1.11908e+07 -1.47606e+06 -1.31827e+07 -2.05039e+06 9.35484e+06 6.97039e+06 -2.68176e+06 4.50055e+06 -2.99725e+06 3.61511e+06 -1.12964e+07 1.08059e+06 2.11161e+06 202915 4.31223e+06 2.29152e+06 -2.90333e+06 1.67274e+06 -957952 -3.46275e+06 -1.12719e+06 446872 -964131 -116334 -186200 1.16207e+06 -2.34487e+06 -3.21737e+06 1.34731e+06 -766080 2.04048e+06 1.34067e+06 18175.6 -1.10265e+06 -707078 2.6268e+06 -1.76665e+06 -3.33069e+06 -1.1712e+06 1.3775e+06 1.11862e+06 1.21955e+06 -377655 1.43277e+06 2.23012e+06 1.84272e+06 20495.6 400470 1.15076e+06 -531076 -72394.2 -310378 -144480 335153 562692 187106 266089 -696439 -391856 822091 -148887 256903 369732 151474 495363 -14165.7 653424 178489 95282 302901 21543.8 103445 -37942.8 -278277 161206 -127000 -170541 -57063 -23687.7 -140773 -24285.9 24793.8 256048 -118021 18194.5 28870.7 53035.6 -135538 -11635.9 44190 96177.9 -138697 -51920.7 -26762.7 87802.1 -54008 -45630.5 -35040 54330.6 80865.3 -99956.8 39082 35975.3 -84307.6 -67028.4 -21290 -4587.3 83602.1 48649.1 -5492.89 23695 -50307.7 -7791.58 38695.4 -15839.4 18339.7 19199.6 17672.4 -10725.3 -44397.9 -13933 15914.9 -7291.08 -32400.8 17122 -9847.77 -10873.6 -38242.4 22687.6 5635.51 19997 -11903.3 13322.2 13132.7 -8788.29 -12767.9 -21957.2 -1036.44 5467.56 -6979.21 
1.20735e+08 2.10046e+07 3.77886e+07 -1.84517e+06 -2.93511e+07 -2.02658e+07 2.1931e+06 2.57518e+06 2.72274e+07 5.05872e+06 -1.35702e+07 188623 -1.05041e+06 -2.0125e+06 -523003 -2.6923e+06 -1.10117e+07 -3.86964e+06 37103.7 -3.30349e+06 -6.73976e+06 3.85462e+06 1.70365e+06 208910 585464 492405 14027.7 465733 -478596 -1.13433e+06 -1.66302e+06 -1.39835e+06 1.26314e+06 702975 1.01067e+06 -1.04016e+06 -331157 -177756 -348317 -1.22696e+06 -154127 120545 -469883 19855.1 362332 192674 -148458 58407.8 -136390 97665.9 352463 -301098 427141 -441529 -301362 -285269 100462 -81232.7 -146109 311162 -48432.3 241775 -744687 596679 -68302.2 213082 -275079 -57093.1 -191584 52619.4 171480 -52160.8 -82536.9 133.503 75161 -44404.5 83307.9 -5538.56 179527 -575408 -84003.9 387724 19829.7 -187274 -296813 68482.5 500040 -476716 668825 1.25554e+06 -848164 -253622 -954.306 836177 1.99487e+06 -568997 -647734 -617234 72882 342641 201773 278864 223196 416287 -188432 -88565.4 -177968 188454 246148 -214589 -172063 17265.5 69248.6 209811 185094 5900.54 -125882 -177894 -135116 -97922.5 53382.9 77194.6 -20653.5 -14358.4 33298.9 40156.4 -21716.2 2042.98 86051.7 -74508.6 -44179.1 -5488.06 -43303 -65948.6 5972.36 4808.73 -13704.1 4998.05 23822.2 20692.2 30712.1 17363.5 -2553.51 19101.4 15305.7 9908.31 10111.1 -1134.98 -8330.68 -3556.8 
1.20735e+08 2.10046e+07 3.77886e+07 -1.84517e+06 -2.93511e+07 -2.02658e+07 2.1931e+06 2.57518e+06 2.72274e+07 5.05872e+06 -1.35702e+07 188623 -1.05041e+06 -2.0125e+06 -523003 -2.6923e+06 -1.10117e+07 -3.86964e+06 37103.7 -3.30349e+06 -6.73976e+06 3.85462e+06 1.70365e+06 208910 585464 492405 14027.7 465733 -478596 -1.13433e+06 -1.66302e+06 -1.39835e+06 1.26314e+06 702975 1.01067e+06 -1.04016e+06 -331157 -177756 -348317 -1.22696e+06 -154127 120545 -469883 19855.1 362332 192674 -148458 58407.8 -136390 97665.9 352463 -301098 427141 -441529 -301362 -285269 100462 -81232.7 -146109 311162 -48432.3 241775 -744687 596679 -68302.2 213082 -275079 -57093.1 -191584 52619.4 171480 -52160.8 -82536.9 133.503 75161 -44404.5 83307.9 -5538.56 179527 -575408 -84003.9 387724 19829.7 -187274 -296813 68482.5 500040 -476716 668825 1.25554e+06 -848164 -253622 -954.306 836177 1.99487e+06 -568997 -647734 -617234 72882 342641 201773 278864 223196 416287 -188432 -88565.4 -177968 188454 246148 -214589 -172063 17265.5 69248.6 209811 185094 5900.54 -125882 -177894 -135116 -97922.5 53382.9 77194.6 -20653.5 -14358.4 33298.9 40156.4 -21716.2 2042.98 86051.7 -74508.6 -44179.1 -5488.06 -43303 -65948.6 5972.36 4808.73 -13704.1 4998.05 23822.2 20692.2 30712.1 17363.5 -2553.51 19101.4 15305.7 9908.31 10111.1 -1134.98 -8330.68 -3556.8 
9.40381e+07 2.46158e+07 2.32832e+07 -7.35193e+06 -6.79806e+07 1.5646e+06 732642 1.24371e+07 -2.28248e+07 -463532 1.17356e+06 812584 618565 2.49407e+06 2.74988e+06 2.55519e+06 1.55525e+06 1.50649e+06 -2.57866e+06 2.99376e+06 521799 10054.7 -1.15984e+06 1.67869e+06 -2.68961e+06 1.15293e+06 -745066 1.3345e+06 -797997 407206 -3.12792e+06 360445 -1.45946e+06 -153945 1.31739e+06 -162484 -914354 1.75569e+06 -1.33358e+06 1.09739e+06 -981103 -203200 -465283 -564744 1.00886e+06 381494 -313445 -161983 472741 -351848 -119926 -285486 -179182 -347737 -18659.1 -123828 135706 112252 -112146 -436885 302972 -29625.1 -428455 -362893 342428 -460186 134989 125198 149012 346040 489150 -107267 -488471 158854 -367922 -212182 -219935 5564.89 828838 2575.5 63313.3 -462350 -179725 741850 -35695.7 -167673 -343872 1.31114e+06 2.17802e+06 -1.08469e+06 -913255 969079 999418 1.13744e+06 -257549 337802 -221513 30239.3 136796 257107 40073.7 -130757 174687 -95513.1 47085.7 -66278.9 -187104 47681.8 -114366 -56721.3 -42389.9 126527 -19225.7 29939.4 -118109 -17598.8 60954.9 -43465.1 -93988.5 63670.4 -44527.3 9545.22 7796.97 -80327.8 40598.5 24355.8 22567.8 -72578.3 -31833 35896.8 -60863.3 49415.6 -18337.4 16431 51175 24426.8 -11702.5 9081.2 52568.6 -13844 14247.1 -28768 -14906.6 7693.82 -14321.5 -33013.8 -4758.5 -13498.7 16740.6 -20020.7 
