-2.55914e+07 6.41179e+07 2.07377e+07 1.2354e+07 -1.43e+07 -1.81069e+06 7.04406e+06 9.34193e+06 -9.41485e+06 -1.89816e+06 -1.78417e+06 620239 -3.53338e+06 2.6375e+06 540506 1.52533e+06 -40929.5 2.15456e+06 2.63101e+06 3.5535e+06 447385 181200 -2.36616e+06 448681 492519 2.57043e+06 -348485 2.20662e+06 -1.72355e+06 278135 -574668 -1.58266e+06 529694 200342 750819 1.00101e+06 -1.5519e+06 -691529 343352 323493 810099 -1.39225e+06 1.03011e+06 -473908 -245103 -82250.6 2.11575e+06 278433 1.41588e+06 10292.4 -1.1083e+06 287837 919606 846451 -1.31099e+06 1.12349e+06 -447761 2.41074e+06 290673 -407917 
-1.62765e+07 1.34395e+08 5.06725e+06 -1.35298e+07 -1.37772e+07 4.80458e+06 852737 -1.29227e+06 -1.5797e+06 140268 4.0369e+06 -1.26816e+06 -1.19871e+06 1.98633e+06 -1.25716e+06 3.49775e+06 -2.90844e+06 -1.11979e+06 3.58122e+06 134530 260920 -4.53189e+06 -980493 -1.56509e+06 1.44827e+06 489373 4.39083e+06 -436387 -3.58396e+06 879371 564524 119459 -1.9245e+06 899368 3.86401e+06 -1.20882e+06 2.58055e+06 -495671 1.41936e+06 111801 -1.6758e+06 403720 1.29893e+06 -407295 1.63879e+06 -1.66984e+06 -677422 -56682.4 -220572 -1.88542e+06 610856 694573 -1.66449e+06 -1.07743e+06 315341 -1.43404e+06 -356620 417590 114854 45124.2 
-1.08064e+07 1.10453e+08 4.59584e+06 -1.15145e+07 -1.48284e+07 6.12669e+06 -12858.6 -5.6901e+06 1.21105e+06 -3.13026e+06 5.41064e+06 5.44026e+06 2.13518e+06 -1.10683e+06 -1.44377e+06 -60837.6 -23750.5 -7.47335e+06 4.25931e+06 -2.58259e+06 -338732 -3.01813e+06 2.01515e+06 -276851 438256 -1.6121e+06 3.25059e+06 -461721 2.5518e+06 823125 -989152 -384417 -1.86152e+06 2.81529e+06 1.84642e+06 -2.62841e+06 -540862 -1.31395e+06 -196370 -2.27617e+06 1.12512e+06 -1.77239e+06 -1.65004e+06 157974 -1.54983e+06 978544 1.20773e+06 -1.04741e+06 2.03362e+06 1.21648e+06 1.3714e+06 -1.14875e+06 262835 -1.28243e+06 -1.37625e+06 253285 799923 1.58016e+06 -1.03373e+06 -197933 
-6.31707e+06 1.17788e+08 3.05294e+06 -7.9928e+06 -1.91733e+07 2.80793e+06 2.53792e+06 -6.62256e+06 4.76571e+06 -3.65197e+06 3.52275e+06 1.58588e+06 -1.56568e+06 -674640 -2.27748e+06 -96088.9 3.5423e+06 -4.62763e+06 3.3858e+06 -2.15544e+06 -3.21603e+06 -2.04539e+06 1.46686e+06 -1.81025e+06 1.17834e+06 -1.21683e+06 1.7216e+06 471068 -757608 90445 980378 1.27082e+06 -441648 2.86968e+06 2.60953e+06 -3.09164e+06 1.04774e+06 55433.7 806780 -3.02794e+06 -311445 99567.4 -1.27266e+06 -1.19838e+06 222452 -369157 -1.29656e+06 -511964 -2.03403e+06 -232218 -172887 295278 -1.20993e+06 -1.92517e+06 405020 61725.4 2.27208e+06 -252846 -602540 518944 
-1.86713e+07 1.25374e+08 8.58337e+06 -1.51949e+07 -1.37875e+07 5.27569e+06 39906.6 -2.03489e+06 -3.48026e+06 -1.25662e+06 2.86117e+06 450688 -482421 512320 408279 2.3806e+06 -774523 -1.54356e+06 5.90935e+06 701284 474645 -3.95184e+06 -1.46216e+06 -2.50729e+06 1.88092e+06 2.12716e+06 3.43902e+06 751271 -2.22698e+06 581256 630879 1.23178e+06 -1.35975e+06 1.86962e+06 3.72917e+06 -1.4208e+06 917714 -788147 981631 -903992 -1.33779e+06 -124115 1.27467e+06 -797800 931335 -10045.1 881059 790212 -230125 -1.49597e+06 1.05873e+06 574299 -387583 -1.24265e+06 -425030 16342.9 374838 849093 -368252 -7272.31 
-2.8128e+07 1.00919e+08 7.39897e+06 -1.25522e+07 -1.4903e+07 1.08014e+07 -3.17273e+06 2.3365e+06 -9.68748e+06 2.50948e+06 2.43759e+06 5.08533e+06 3.572e+06 3.43308e+06 1.41112e+06 816161 -4.52286e+06 -5.08336e+06 3.37267e+06 -1.52539e+06 4.37192e+06 -4.71732e+06 627975 -449856 2.54972e+06 -904206 691873 1.44062e+06 3.95258e+06 1.3779e+06 537819 1.0964e+06 -1.65399e+06 2.89759e+06 941013 -2.48993e+06 2.88161e+06 192722 308178 -780137 -387747 -607507 -30354.6 782045 -3.37332e+06 2.85723e+06 2.05333e+06 514176 -138583 2.36047e+06 440765 -616531 1.30208e+06 -484856 -1.05813e+06 -92333.7 -436819 -2.71713e+06 -316807 1.62796e+06 
-7.17074e+06 1.17497e+08 2.04593e+07 -2.26614e+07 -8.53948e+06 -6.32891e+06 -296329 1.31682e+07 400425 1.00631e+07 -2.16231e+06 5.0033e+06 2.83981e+06 1.16513e+07 -1.48346e+06 2.6506e+06 -3.13044e+06 2.8995e+06 -2.67574e+06 -4.50864e+06 3.72157e+06 -1.78163e+06 439416 987183 -122240 236508 -77091.4 2.26432e+06 -105477 -1.67584e+06 1.65595e+06 -761140 1.94642e+06 -385090 82510 1.24432e+06 1.24263e+06 1.09491e+06 470361 2.01368e+06 811066 -499471 2.64502e+06 -731141 1.34445e+06 -2.25951e+06 131371 1.97488e+06 -688874 -1.37581e+06 -469679 -393056 -523588 -262037 106436 1.29347e+06 -254711 428574 -1.75465e+06 -27924.4 
6.67376e+06 9.54995e+07 1.67913e+07 -1.69827e+07 -1.59287e+07 -1.3478e+07 -60788.2 1.13887e+07 3.08613e+06 1.3062e+07 -1.86527e+06 8.12288e+06 3.0082e+06 1.64918e+07 -3.31497e+06 -82481.6 -3.94096e+06 1.00255e+06 -5.47909e+06 -8.47354e+06 3.68626e+06 -1.26799e+06 1.36433e+06 -1.14909e+06 -588838 -2.45107e+06 -1.81508e+06 3.82456e+06 3.23727e+06 -2.15771e+06 -1.10492e+06 -1.08359e+06 1.66196e+06 1.49991e+06 -2.7614e+06 -435728 576857 2.64086e+06 -493113 -1.2407e+06 127370 -2.02546e+06 554516 -345820 771092 -2.57933e+06 -1.93967e+06 -50456 -1.63742e+06 194342 358948 -1.73153e+06 583303 -720442 2.03643e+06 2.36857e+06 637279 113642 158132 -1.15097e+06 
-1.33021e+07 1.17469e+08 8.36788e+06 -2.59121e+07 2.93702e+06 3.57016e+06 411136 6.51517e+06 -5.40568e+06 -1.50231e+06 -1.68777e+06 317190 2.55018e+06 -1.92569e+06 -211954 4.08769e+06 400645 3.38909e+06 9.05901e+06 5.59381e+06 93176 -4.45822e+06 -243982 -1.11014e+06 1.86252e+06 1.01353e+06 -132374 -470741 1.86525e+06 -1.3313e+06 1.62392e+06 212312 -736229 -315141 -4.20461e+06 1.90099e+06 325301 419272 1.31466e+06 1.61531e+06 -1.8195e+06 -492003 2121.84 830196 -2.26851e+06 2.45018e+06 -1.9595e+06 230194 -1.92583e+06 344774 369871 1.51439e+06 -426632 857698 1.63475e+06 968955 1.38234e+06 603407 -401565 451507 
-1.19978e+07 1.1922e+08 7.35258e+06 -2.17271e+07 -519372 1.77187e+06 1.13017e+06 8.41494e+06 -6.30352e+06 -572296 -164176 352460 -325594 -644817 -1.79101e+06 2.36986e+06 544132 2.64701e+06 8.86274e+06 4.03356e+06 480782 -4.69689e+06 478432 -524217 1.3928e+06 838450 -762273 127156 1.52947e+06 -2.15272e+06 1.81763e+06 343119 -1.4314e+06 -688622 -4.51438e+06 1.4139e+06 -422480 744113 669555 344083 -1.92209e+06 -902552 -156389 1.99858e+06 -2.12089e+06 2.34904e+06 -1.68488e+06 484216 -2.38692e+06 116990 274478 1.41098e+06 -162291 807240 1.06471e+06 648890 1.49455e+06 368001 -1.03718e+06 774886 
-5.87824e+07 -1.14697e+08 2.65859e+07 -1.84698e+07 -2.02895e+07 1.93011e+07 -4.99206e+06 9.78433e+06 -4.57421e+06 8.30379e+06 736461 1.76132e+06 2.29988e+06 -22699.2 2.91783e+06 -2.07541e+06 1.8935e+06 518037 -424340 -1.75129e+06 2.83647e+06 2.77157e+06 -1.36022e+06 578083 1.92897e+06 -1.12722e+06 93661.1 1.34214e+06 3.26032e+06 529461 1.21523e+06 1.93455e+06 -1.19741e+06 1.28411e+06 -1.36501e+06 -1.02962e+06 1.391e+06 -105450 114439 -616442 1.16982e+06 622741 1.28909e+06 -159395 725221 11126.7 -725693 535446 111366 203675 -495950 224445 -465985 -1.57287e+06 69421.3 40639.4 -559194 3506.28 449137 -710580 
-2.42313e+07 6.24278e+07 2.08793e+07 3.99479e+06 -6.04979e+06 5.2009e+06 3.63155e+06 9.01296e+06 -1.40762e+07 -4.98639e+06 -1.26904e+06 -2.20609e+06 -4.21074e+06 -1.21301e+06 -1.07045e+06 836760 1.10078e+06 3.69952e+06 6.93382e+06 6.33012e+06 -418511 68114.3 -2.01258e+06 -659453 1.62389e+06 1.80921e+06 283055 744093 -17622.1 1.14124e+06 -45884.8 -1.26642e+06 826848 -257867 -703858 572982 -200120 -976482 242919 332004 177960 -1.48177e+06 981200 -808984 -1.85449e+06 558975 544108 199862 949420 -181934 109148 -95357.3 1.09985e+06 856860 -222129 1.72268e+06 246853 1.06886e+06 480050 -1.20217e+06 
4.23221e+06 -8.8937e+07 -3.79108e+07 -1.86242e+07 -2.26126e+07 1.62675e+07 4.23752e+06 9.45441e+06 1.2545e+06 4.29479e+06 1.0627e+06 -3.62081e+06 -7.12814e+06 7.96827e+06 -1.76101e+06 166037 -439052 14764.6 3.28268e+06 -647226 -3.73075e+06 992077 -272508 -5.57836e+06 2.82397e+06 -2.46976e+06 -985497 1.55894e+06 -965660 -582171 -2.39588e+06 314173 -447009 -106521 -1.96558e+06 1.66983e+06 -771048 -1.33679e+06 -705476 -791724 -711138 842908 91740.1 29453 -1.82093e+06 1.16453e+06 336252 1.53154e+06 2.26512e+06 -1.4963e+06 321222 1.29806e+06 -956800 -1.40348e+06 354856 101152 1.10378e+06 539846 -155697 400521 
-6.50476e+07 -1.16692e+08 9.34389e+06 -1.32436e+07 -2.538e+07 1.6971e+07 -2.47397e+06 1.16815e+07 -734222 1.01507e+07 1.66296e+06 2.56635e+06 -1.53014e+06 -2.28422e+06 -2.68008e+06 -1.06337e+06 1.45956e+06 -139755 -806539 -1.7473e+06 975900 -3.05785e+06 -1.21093e+06 2.55861e+06 2.55468e+06 -2.0775e+06 -662169 432348 1.83279e+06 -1.227e+06 -961821 801614 -801394 806628 220524 -1.81112e+06 73644.1 469725 -869439 -406100 752213 805590 -73259.1 162627 639021 -1.21457e+06 833546 425638 -300489 803049 -1.21321e+06 612938 -478681 -423343 193758 -937178 -1.3781e+06 -853876 302392 617342 
-3.10713e+07 -5.38635e+07 6.82235e+07 -4.30351e+07 -1.97492e+07 1.11343e+07 -2.93637e+06 5.65194e+06 1.00057e+07 7.1038e+06 1.65806e+06 -81173.4 5.11162e+06 1.31067e+06 5.29123e+06 2.67718e+06 1.25471e+06 -1.68017e+06 3.14341e+06 2.74093e+06 1.23216e+06 3.28904e+06 3.79501e+06 -2.38471e+06 -3.8339e+06 -233566 1.79587e+06 119393 -2.26045e+06 -236295 617897 -1.61476e+06 -1.8562e+06 -1.86231e+06 -728695 -149006 -2.24944e+06 -1.50756e+06 1.09255e+06 -1.39814e+06 -925763 306954 455635 -1.86608e+06 114052 153890 -404149 -166801 -436085 -958805 -421536 308072 914266 -1.28009e+06 -276069 -165735 -283708 584791 891091 810530 
-1.421e+07 -7.30667e+07 1.89178e+07 -2.23441e+07 -3.32091e+07 2.55738e+07 3.02216e+06 1.70674e+07 -4.13102e+06 9.29437e+06 952023 978410 3.14435e+06 -175666 3.57656e+06 -1.20832e+06 -1.46066e+06 -1.27996e+06 -4.46439e+06 -625255 -637537 724968 -2.26109e+06 -813668 3.211e+06 -1.23609e+06 -556330 -1.4255e+06 1.3964e+06 2.84991e+06 -1.62822e+06 889493 1.8244e+06 -1.25225e+06 -926687 -96122 -210270 -801753 -199279 -1.40569e+06 -151999 -532243 -2.38352e+06 -2.84044e+06 -851640 -2.26503e+06 569515 -406188 -1.51156e+06 460539 -518737 -682039 -219504 569435 747520 1.46885e+06 -565599 189185 276640 -539122 
-3.99474e+06 -8.26716e+07 -3.21246e+07 -2.08842e+07 -1.98746e+07 1.44286e+07 -582110 1.36082e+07 628497 4.49694e+06 -392912 -1.90856e+06 -3.33629e+06 7.18363e+06 -5.12092e+06 482562 -2.00608e+06 458220 2.54424e+06 -1.93121e+06 -4.18035e+06 462488 -265307 -5.97446e+06 3.00278e+06 -1.9347e+06 -414763 1.16204e+06 -752736 462670 -2.5706e+06 807067 80787.5 -1.64078e+06 -73126.8 2.85693e+06 -977875 -1.56349e+06 -1.38257e+06 272651 -1.64845e+06 2.20599e+06 188513 37755.7 -2.08614e+06 1.26694e+06 909844 772417 1.37088e+06 -1.81691e+06 -727301 892085 -1.01046e+06 -423598 -10469.1 -97272.4 1.0157e+06 1.0441e+06 -293901 577082 
-5.10081e+07 -1.06671e+08 3.66791e+06 -1.16651e+07 -3.03189e+07 2.017e+07 959417 1.18784e+07 -4.3881e+06 1.16301e+06 -2.33221e+06 -865275 1.822e+06 -1.36111e+06 165029 -859961 1.62803e+06 3.19392e+06 653664 1.29769e+06 985745 -1.24734e+06 239164 605822 316464 560625 -2.08421e+06 553384 -449582 1.02034e+06 735740 1.53417e+06 169351 666360 300653 -76466.3 413550 1.30757e+06 -1.58578e+06 293205 220078 729943 -1.47152e+06 -794885 263098 818350 -1.43682e+06 688953 283052 1.63528e+06 -2.02528e+06 1.41206e+06 799835 -198227 -574750 -913767 -414651 -328946 407122 -78245.1 
-6.02944e+07 -1.1803e+08 1.8931e+07 -1.16767e+07 -2.07767e+07 1.3569e+07 -2.81452e+06 1.07619e+07 -1.5762e+06 9.4236e+06 1.12367e+06 3.89609e+06 -221826 -1.57575e+06 -2.00971e+06 -977891 2.99563e+06 1.45e+06 -706272 201782 2.40157e+06 3844.13 -853790 1.54992e+06 1.86544e+06 -2.16946e+06 -122164 498317 2.75003e+06 -1.54918e+06 1.61809e+06 477987 -241704 1.34532e+06 -1.2935e+06 -1.74378e+06 935860 326775 -535201 -426908 1.43356e+06 280487 1.17414e+06 -91850.6 871383 -183347 -155549 443568 -223427 1.23435e+06 -660676 220089 -70009.6 -1.45884e+06 11767.7 -824998 -1.68373e+06 -267605 443700 -137865 
-3.3691e+07 -6.5739e+07 6.00555e+07 -2.80483e+07 -1.09628e+07 1.25061e+07 411305 4.55996e+06 3.90552e+06 5.09455e+06 428505 -2.99631e+06 181972 -2.96026e+06 1.81411e+06 2.35517e+06 5.67018e+06 -151737 -2.64182e+06 3.4887e+06 2.65192e+06 5.55015e+06 1.15416e+06 -1.93581e+06 215754 -1.70442e+06 297239 707936 1.63397e+06 130929 1.09173e+06 1.01076e+06 -2.19283e+06 -1.81025e+06 -2.06074e+06 898033 -1.59623e+06 -1.45213e+06 910358 -401683 -431142 580344 -505251 -913743 -386670 -211267 -637580 -68815.8 -37106.5 -1.02389e+06 -151002 349584 1.33555e+06 -640743 -175051 444156 1.02507e+06 600240 -148850 -412053 
-6.58216e+07 -9.37754e+07 3.2491e+06 -1.75127e+06 -2.92943e+07 2.35498e+07 -428638 9.14248e+06 -6.48078e+06 -1.31359e+06 66958.4 2.40086e+06 2.67765e+06 -252505 1.86652e+06 -419636 -2.01512e+06 2.30862e+06 819446 408280 2.51899e+06 -1.10434e+06 -981548 2.68074e+06 1.51098e+06 721542 -774740 700825 -1.09089e+06 1.4386e+06 -840930 731842 -640424 330376 142637 -487197 1.39943e+06 617679 -624126 519733 291531 379170 -785493 -1.25766e+06 955131 893785 -1.64429e+06 425115 432936 1.74623e+06 -1.65601e+06 704687 -57344.3 -76965.8 397713 -1.51401e+06 -284619 -703318 557190 226548 
2.86247e+07 1.01708e+08 6.61072e+06 -9.04399e+06 -1.33233e+07 -1.9323e+07 -849332 4.84038e+06 1.19709e+07 1.00782e+07 -8.57944e+06 -1.54793e+06 -1.38726e+06 1.25933e+07 -4.3763e+06 806307 -1.26014e+06 1.28383e+06 -5.55795e+06 -6.26813e+06 99699.9 -1.81193e+06 1.34434e+06 -5.86816e+06 1.81207e+06 -3.40837e+06 -1.41096e+06 1.57053e+06 3.80724e+06 -1.74436e+06 -647866 -1.56295e+06 -599843 1.88618e+06 -1.16227e+06 -656810 52088.5 -29292 -1.21564e+06 2.17848e+06 -1.10182e+06 -608504 -285980 -3.01271e+06 415373 -780339 -1.70651e+06 -854247 -2.36865e+06 1.93642e+06 123578 -149119 -1.24256e+06 1.13207e+06 731068 2.63625e+06 -709400 -40349.2 655856 -220935 
-2.49755e+07 4.2106e+07 2.40197e+07 -9.25441e+06 9.39415e+06 1.11158e+07 1.18079e+06 1.1448e+07 -1.68303e+07 -4.36095e+06 -3.76454e+06 -121514 1.41502e+06 -3.2263e+06 3.7062e+06 -3.64201e+06 -287330 7.31587e+06 4.08902e+06 9.63126e+06 -2.44115e+06 -1.24256e+06 -686898 -923318 1.82392e+06 -357898 -885633 -2.04843e+06 -436873 966440 1.71687e+06 -1.00059e+06 2.34016e+06 -619839 -1.92554e+06 722295 2.41515e+06 1.06542e+06 380410 1.846e+06 -228243 1.37657e+06 2.00069e+06 -319939 -1.92172e+06 -1.03378e+06 225814 -535339 242732 -108445 1.02118e+06 -1.8073e+06 -1.36014e+06 1.01784e+06 926934 93384 -914629 -2.11483e+06 271617 -180374 
-3.72249e+07 4.30155e+07 1.06099e+07 3.20677e+07 -2.84502e+07 1.74967e+06 8.06833e+06 -4.12461e+06 -830575 -9.28521e+06 -1.15246e+06 -2.44538e+06 -157677 -6.60358e+06 1.82559e+06 5.74335e+06 749481 475460 -1.11196e+06 3.04514e+06 1.75888e+06 2.6838e+06 -2.20097e+06 2.17718e+06 -1.7229e+06 3.74753e+06 220249 2.0358e+06 -4.24396e+06 2.3911e+06 -3.29485e+06 853844 311513 -856645 925238 557389 354079 52219.5 -1.32105e+06 -97893.2 -2.58193e+06 763545 -1.06856e+06 -498909 2.9114e+06 -976692 538690 -454121 -623699 -231860 -1.69527e+06 -220113 -570161 -445145 515074 -550943 -620666 593181 748132 878450 
-8.46901e+06 7.46748e+07 -1.6668e+07 1.04841e+07 -2.34117e+07 -682800 1.0366e+07 6.43232e+06 -984953 2.32426e+06 -1.97378e+06 5.58823e+06 5640.37 7.88113e+06 5.13073e+06 20376.3 -3.42658e+06 -568831 -971904 -1.20593e+06 -949922 409461 3.55937e+06 -1.78499e+06 -4.52074e+06 727735 -461303 -2.65913e+06 -3.00146e+06 -603701 444133 -998255 -408720 -2.96701e+06 395607 652775 -1.53125e+06 630695 1.05923e+06 298736 881077 1.26008e+06 -632155 371068 -253470 -1.02133e+06 2.10275e+06 -8872.58 876305 -2.58286e+06 810373 -36678.2 -378239 -336878 -784393 388255 -75617.3 225368 -517274 819411 
-1.825e+07 6.3509e+07 -1.07739e+07 2.275e+07 -2.32849e+07 -1.55591e+06 5.39228e+06 -3.17977e+06 -379411 -907518 3.47729e+06 -1.33969e+06 5.41706e+06 -8.10965e+06 4.3889e+06 -862340 -2.02378e+06 -3.62585e+06 -31921.7 2.14599e+06 -542842 2.50509e+06 -2.57045e+06 -2.45454e+06 -2.44364e+06 1.40671e+06 254742 -2.91779e+06 1.55835e+06 2.66338e+06 -403447 1.61837e+06 45173.2 81877.1 -712728 334884 -1.27323e+06 -674733 -1.03186e+06 72654.3 953147 36408.2 -1.23277e+06 660537 177930 -1.32508e+06 -995947 -908093 1.57432e+06 1.67154e+06 -34949 -1.92004e+06 -878391 542280 -395236 2.00391e+06 -799477 -194287 -61695.6 -69706.6 
-1.58684e+07 5.26167e+07 2.24742e+07 1.47625e+07 -775719 -8.09645e+06 6.53629e+06 1.8314e+06 -4.48423e+06 -1.68058e+06 -4.24744e+06 -3.80882e+06 -1.09471e+07 -3.36785e+06 -1.99944e+06 -5.46923e+06 6.47963e+06 1.77167e+06 2.57437e+06 -797383 -1.23396e+06 -1.40714e+06 4.3637e+06 1.89752e+06 -1.23109e+06 -1.31034e+06 1.19386e+06 -350695 1.58189e+06 -2.40683e+06 2.07729e+06 1.99314e+06 -207736 1.00858e+06 -1.4712e+06 -732002 -1.95786e+06 -1.53374e+06 -1.56147e+06 -1.94145e+06 2.01422e+06 -342479 622636 2.74787e+06 -314230 -54218.8 865616 740960 12950.5 -592487 782966 984956 2.45874e+06 767434 -2.45083e+06 -1.05872e+06 -457608 -834858 -1.95275e+06 -74873.1 
-1.25022e+07 4.4225e+07 -4.86259e+07 3.61843e+06 -6.38972e+06 -6.17891e+06 -2.07661e+06 1.12509e+07 574428 6.75213e+06 3.18681e+06 8.18115e+06 2.83098e+06 8.35055e+06 -2.32162e+06 -2.8385e+06 -2.32018e+06 1.20338e+06 5.15834e+06 -5.62234e+06 -852226 208531 -579865 1.93919e+06 -257094 1.91898e+06 -224081 -12242.7 -195125 1.84925e+06 -1.23643e+06 -206305 144964 -798597 980330 -1.87653e+06 904442 1.36769e+06 -754417 459522 1.26666e+06 31882.3 747346 -530451 -1.86759e+06 1.12276e+06 -651706 1.74391e+06 1.61665e+06 -105964 -1.22005e+06 -290854 97356.6 -817925 -1.29917e+06 105376 -521871 -1.21684e+06 73223 1.07546e+06 
-1.93846e+07 6.53164e+07 7.72941e+06 2.59233e+07 -1.62682e+07 -1.42389e+07 1.11186e+07 5.77281e+06 2.2702e+06 2.00324e+06 -6.93256e+06 -1.68059e+06 -6.19843e+06 1.83843e+06 -722750 204742 1.01221e+06 3.04237e+06 -3.6032e+06 2.77643e+06 209548 -1.22949e+06 -2.17195e+06 -643200 2.04668e+06 -1.15537e+06 -1.76286e+06 333105 -1.31174e+06 -1.87774e+06 1.2338e+06 -1.58915e+06 593403 -497654 1.52862e+06 -444205 -1.19654e+06 -14031.2 -127314 2.1257e+06 1.27277e+06 224849 265239 -1.43421e+06 984898 -62370.2 1.79359e+06 1.06203e+06 -837287 573748 -1.33385e+06 918888 597963 708755 -1.57754e+06 -19370.1 -2.17259e+06 -560656 649889 93831.1 
-2.1857e+07 7.05129e+07 4.79142e+06 2.45313e+07 -1.77515e+07 -1.12195e+07 1.16508e+07 3.14838e+06 2.64457e+06 -1.27242e+06 -4.38834e+06 -1.25709e+06 -3.13871e+06 1.21823e+06 -403459 2.40107e+06 1.06098e+06 1.7015e+06 -2.62308e+06 1.96488e+06 -663460 -861799 -1.03183e+06 -1.14069e+06 286133 498987 -1.66506e+06 715708 -3.0806e+06 -1.52651e+06 758597 -1.32797e+06 -213611 -489671 2.52234e+06 -260031 -254584 60595.4 -243282 1.63666e+06 456293 1.16874e+06 -354594 -1.92118e+06 1.06353e+06 21044.3 1.4508e+06 1.02797e+06 -502794 442358 -2.2263e+06 1.22707e+06 709266 282777 -1.10713e+06 -486781 -1.76568e+06 -309671 532675 506520 
-1.89475e+07 6.54768e+07 2.6107e+07 7.60892e+06 -4.19236e+06 -7.77635e+06 4.18466e+06 1.12923e+07 -7.39795e+06 4.0305e+06 -1.72023e+06 -4.09474e+06 -7.60267e+06 1.45282e+06 -635909 1.35381e+06 3.10756e+06 4.796e+06 1.58758e+06 1.47032e+06 1.87457e+06 1.08897e+06 -1.87467e+06 2.32356e+06 668990 1.53812e+06 -889068 1.92811e+06 1.21903e+06 127491 343291 1.07696e+06 1.46503e+06 -189388 -2.82775e+06 2.67134e+06 1.01141e+06 136415 -400066 -467087 503273 -1.47115e+06 -737044 1.20556e+06 287034 724893 -387509 403815 185889 1.70805e+06 -1.58746e+06 1.14572e+06 -751880 850408 424498 -563577 1.51586e+06 1.5096e+06 -27187.5 -480279 
-2.3915e+07 6.43848e+07 -2.73189e+06 2.31713e+07 -1.59188e+07 -5.21063e+06 5.79532e+06 -7.50813e+06 2.29048e+06 -8.70238e+06 473348 849959 2.37193e+06 -5.14384e+06 -1.62046e+06 817824 2.08856e+06 -3.86193e+06 -594331 1.47982e+06 -1.58994e+06 3.70753e+06 -409414 -818052 -835076 -147473 -7882.79 449150 998285 1.48376e+06 -236343 -23424.9 70005.5 2.09753e+06 -1.4417e+06 -1.23832e+06 -555161 -174745 -1.17705e+06 -544201 147040 259613 -278346 -769037 -280975 534542 799316 -29114.4 -915078 987525 -301608 -1.16871e+06 24026 -730985 -249952 1.0085e+06 -816705 -148947 465768 1.78616e+06 
-2.2712e+07 5.60374e+07 -214194 2.38088e+07 -1.46084e+07 -7.45276e+06 6.31061e+06 -7.34192e+06 6.81911e+06 -9.25344e+06 -3.55577e+06 -1.01455e+06 -1.56019e+06 -4.88538e+06 -5.31092e+06 -59537.6 3.78904e+06 -2.10988e+06 -465472 744071 -3.28665e+06 1.44012e+06 2.71164e+06 -767471 1.42344e+06 -2.64247e+06 -845330 491257 873049 -178373 1.10769e+06 -1.91229e+06 477052 2.49345e+06 -1678.56 -2.10011e+06 581451 258186 421820 -501916 743880 -534112 1.63112e+06 -910089 -63192 577760 -204797 610067 -2.42003e+06 -699241 815202 779890 -472299 -343305 905156 -1.22248e+06 -96468.8 -951955 227867 -34358.1 
-2.84539e+07 2.59371e+07 2.33766e+07 -6.42766e+06 1.45773e+07 9.20087e+06 -669368 1.40684e+07 -1.54591e+07 -23308.6 -3.63361e+06 2.15361e+06 2.9934e+06 -1.60415e+06 4.87552e+06 -6.14104e+06 -1.92768e+06 6.72531e+06 -411718 8.121e+06 -1.47831e+06 552455 896299 -1.1589e+06 1.73062e+06 -814448 -1.89887e+06 -2.12504e+06 -1.57589e+06 1.51808e+06 2.57809e+06 -421000 2.95465e+06 -25170.1 -1.87259e+06 480245 3.33117e+06 1.02434e+06 -705930 585221 297907 2.59061e+06 1.64579e+06 1.0307e+06 -970053 -2.71538e+06 714030 -890528 -548869 -786232 1.32731e+06 -3.0096e+06 -2.69363e+06 139484 63241.1 -1.11782e+06 -1.6962e+06 -2.50145e+06 -60802.4 -501715 
-1.7854e+07 4.69075e+07 -6.65631e+06 1.94704e+07 -1.69461e+07 -9.30295e+06 2.08882e+06 -1.14598e+07 -2.55191e+06 -5.42455e+06 198005 -3.63578e+06 7.63879e+06 -9.02804e+06 -1.55169e+06 -2.17583e+06 -1.16756e+06 -3.94089e+06 474602 609631 3.27681e+06 1.75192e+06 -1.43198e+06 -5.74196e+06 2.02644e+06 -12709.9 -2.52727e+06 -324237 4.13392e+06 -3.04929e+06 2.27202e+06 2.90344e+06 -979762 1.62223e+06 -998072 1.18289e+06 -1.65691e+06 144736 -595186 954578 -267588 -364406 542038 -1.7076e+06 1.87758e+06 -1.47086e+06 -398128 1.74741e+06 -1.5653e+06 451839 -835212 95039 102170 1.19145e+06 -590595 1.53414e+06 -252670 -1.43443e+06 -1.844e+06 -830813 
-2.55967e+07 6.13302e+07 -1.49094e+07 3.00217e+07 -2.11422e+07 -1.1105e+07 4.33697e+06 -9.44663e+06 8.62112e+06 -4.49184e+06 -1.61742e+06 -1.21139e+06 5.77892e+06 -5.73478e+06 -253252 3.32399e+06 -809393 -3.62821e+06 -2.64332e+06 2.66869e+06 2.06728e+06 1.15674e+06 -2032.54 -3.0571e+06 3.85353e+06 -1.8317e+06 -999516 537964 1.05287e+06 266961 1.21401e+06 2.3257e+06 -649533 78482.9 -2.05097e+06 -202840 -51768.9 229068 -987364 561069 -1.03005e+06 1.68158e+06 231232 -157852 1.19432e+06 617050 -1.2066e+06 -360978 -209779 896175 -388278 -735278 -500039 417964 161591 92670.1 406725 -463416 -238128 1.44123e+06 
-1.01362e+07 5.46266e+07 1.80898e+07 1.20347e+07 -1.63207e+07 -1.01626e+07 8.6962e+06 5.52002e+06 1.91535e+06 5.55508e+06 -7.82938e+06 -3.67566e+06 -1.10674e+07 3.64696e+06 -504488 189674 1.54518e+06 4.22052e+06 -5.23053e+06 -1.13738e+06 1.90176e+06 -1.16204e+06 2.66607e+06 -166498 318422 -2.86813e+06 -3.20041e+06 -381288 1.65965e+06 -3.2204e+06 197145 1.42815e+06 333338 -923698 -520548 326665 -1.46332e+06 279629 -160511 1.79968e+06 1.4054e+06 639933 -1.64155e+06 1.40329e+06 928186 194153 175074 468526 -701936 1.1342e+06 258201 1.15166e+06 883661 182598 541965 -1.48143e+06 285852 -1.79024e+06 -284498 -679235 
-2.19644e+07 5.54298e+07 2.99796e+07 1.53638e+07 -3.12971e+06 -1.6205e+07 3.70424e+06 3.47071e+06 -657637 9.3079e+06 -2.17439e+06 -4.76939e+06 -5.88532e+06 -498746 782612 4.76274e+06 4.63679e+06 2.99984e+06 -4.56439e+06 -1.71684e+06 4.80692e+06 3.64772e+06 -130139 284380 -109308 202944 221665 -70694.5 3.32464e+06 -1.0811e+06 494902 3.28336e+06 -765198 -629088 -1.88296e+06 1.86966e+06 975079 551568 -239962 -648380 861789 617882 616223 1.05313e+06 36909.5 -1.17795e+06 -25131.2 -369187 1.46813e+06 -536618 390341 600772 620431 230785 1.07257e+06 94820.5 837920 655226 -832584 -642290 
-1.01929e+07 5.44036e+07 2.86524e+07 1.33195e+07 -319348 -2.34141e+07 1.88841e+06 2.25935e+06 5.38531e+06 1.05021e+07 -769520 -4.13153e+06 -2.46935e+06 1.12314e+06 2.05272e+06 7.31365e+06 3.72258e+06 1.64437e+06 -1.89698e+06 385686 4.98164e+06 1.5777e+06 2.31421e+06 -2.01111e+06 -801506 1.34359e+06 714845 -1.42452e+06 2.07942e+06 -939420 -2.10882e+06 1.61572e+06 -3.1607e+06 -676600 -185217 1.59112e+06 -331915 999562 -460814 -1.96927e+06 -2.18821e+06 -301250 601756 -346689 -177288 -250493 -618822 -1.77554e+06 2.96588e+06 -1.92908e+06 -1.22727e+06 730818 565232 1.11026e+06 -948934 -811475 4678.5 303146 1.05692e+06 1.74675e+06 
-3.27422e+06 4.75749e+07 2.73361e+07 1.16617e+07 -1.04683e+07 -1.49334e+07 4.9449e+06 9.17304e+06 -817842 1.21882e+07 -3.4763e+06 -1.19238e+06 -6.22713e+06 2.33267e+06 2.92615e+06 4.14351e+06 4.14576e+06 2.29366e+06 -4.70789e+06 -2.25745e+06 4.07873e+06 1.71722e+06 1.89209e+06 -689122 -3.43731e+06 286023 -526006 -1.94655e+06 2.64216e+06 -395445 -688978 807010 127385 -2.12518e+06 -1.22792e+06 1.4215e+06 -1.70454e+06 1.12028e+06 263576 -266698 371836 -750865 1.22029e+06 198696 -1.40241e+06 -1.24611e+06 808003 -1.80457e+06 1.54984e+06 -782931 1.73638e+06 193658 1.37603e+06 311458 399477 -151989 -312338 123279 82432.4 -128915 
-2.90473e+07 5.925e+07 -5.61629e+06 2.00889e+07 -2.0249e+07 468902 3.19754e+06 -7.66842e+06 -5.84952e+06 -4.18662e+06 4.21416e+06 -1.99167e+06 8.67772e+06 -1.1837e+07 3.90331e+06 -251451 -2.45116e+06 -3.94773e+06 1.21329e+06 3.11485e+06 1.91642e+06 4.10346e+06 -4.34998e+06 -2.29924e+06 -3.13032e+06 1.84691e+06 1.29921e+06 -1.7108e+06 2.44873e+06 1.50313e+06 -293862 1.73229e+06 -821988 627331 -993529 1.05228e+06 -862724 -1.13451e+06 -576125 -806124 71211.7 -673103 -826135 1.50324e+06 335879 -1.934e+06 -615270 -811693 1.48695e+06 1.612e+06 66932 -2.18872e+06 -908480 -261774 281618 2.31806e+06 -196081 1.72238e+06 -671020 -815480 
-2.34733e+07 7.16667e+07 -8.44229e+06 1.4841e+07 -2.3551e+07 -995395 4.81696e+06 1.34674e+07 -8.08249e+06 5.45957e+06 -1.37407e+06 3.1955e+06 1.8758e+06 6.82749e+06 5.27547e+06 896542 -5.6138e+06 1.44701e+06 -830665 -2.50846e+06 -501639 -85289.6 -362230 512616 -3.2789e+06 2.08943e+06 -1.72034e+06 -1.89673e+06 -3.2318e+06 1.94718e+06 -1.11714e+06 -211787 239286 -2.05721e+06 784656 1.27656e+06 855923 852989 554454 -621915 1.22679e+06 833247 -456663 -35896.6 1.40057e+06 -1.80587e+06 -1.48682e+06 -614078 491197 -1.58856e+06 603527 809406 -1.74669e+06 738808 285286 -1.43269e+06 1.7123e+06 348008 -44933.5 -558950 
-2.88655e+07 5.60228e+07 -1.33094e+07 1.66401e+06 -1.07892e+07 1.70994e+07 1.8654e+06 8.13595e+06 -1.58142e+07 2553.76 2.77911e+06 4.25978e+06 4.94499e+06 -2.04542e+06 7.0483e+06 -3.2051e+06 -5.10894e+06 -1.64876e+06 -194995 1.04373e+06 875806 -1.69382e+06 -2.78888e+06 -158830 647710 111512 110746 -1.86368e+06 931395 1.68161e+06 -888326 -436088 -2.26401e+06 -905486 -1.78998e+06 -2.39567e+06 1.11522e+06 -273893 1.25194e+06 -838270 1.58997e+06 411380 -620238 1.30005e+06 -1.36764e+06 782527 20778.8 -932172 -644100 440639 280622 -707155 -691837 -399721 -476660 114182 -595662 -963970 165148 881488 
-1.19137e+07 7.11068e+07 -2.51227e+07 1.83979e+06 -1.60882e+07 3.73872e+06 2.07028e+06 1.3316e+07 -7.38903e+06 6.85162e+06 1.47571e+06 7.0985e+06 2.58813e+06 1.12083e+07 4.99405e+06 294196 -5.58904e+06 2.63192e+06 525065 -3.70869e+06 1.96843e+06 1.21428e+06 826251 604728 -3.23385e+06 2.16587e+06 993440 -929556 -2.86702e+06 921528 517321 252752 -603859 -1.95391e+06 1.1526e+06 804439 121558 443949 1.66865e+06 -252441 1.29568e+06 1.12948e+06 600471 -211526 1.08493e+06 -436030 -1.32155e+06 569602 1.37764e+06 -2.44437e+06 468270 795242 -1.27504e+06 -34610.2 89460.8 -946967 1.53578e+06 541044 31759.5 32412.7 
-2.09084e+07 5.66851e+07 1.94018e+07 -5.66405e+06 5.1286e+06 6.87172e+06 828310 1.0504e+07 -1.63946e+07 -5.96883e+06 -114329 -2.50531e+06 -3.34195e+06 -3.53874e+06 -318964 -1.29835e+06 -132065 5.97808e+06 7.96405e+06 6.81556e+06 -1.49502e+06 -1.58448e+06 -1.69206e+06 -548060 2.0448e+06 24706.9 -942454 -1.52359e+06 1.88661e+06 796152 273350 -753649 1.20764e+06 -1.93298e+06 -2.8939e+06 1.14922e+06 846816 424425 559965 1.20612e+06 -1.02842e+06 -719972 770882 -384303 -2.85394e+06 373089 -1.5887e+06 -771617 104708 205927 272148 -106502 -217300 1.08022e+06 1.29702e+06 645047 273353 -749546 399897 -540585 
-2.24968e+07 7.07956e+07 -4.03682e+06 2.30699e+07 -2.28664e+07 -3.99811e+06 9.01137e+06 3.30195e+06 -886971 -885213 -254796 1.1302e+06 2.69733e+06 -2.36796e+06 1.79361e+06 1.49318e+06 -1.05202e+06 -811039 -603948 1.5367e+06 -683801 1.34453e+06 -2.78354e+06 236136 -513564 1.75628e+06 -305426 -669247 -1.40341e+06 1.14512e+06 -757116 -173525 -21160.2 -548388 -326598 -42931.9 -336314 -268457 -616220 -667131 -115605 753530 -1.54151e+06 -619614 158642 297067 -1.04139e+06 -861656 -83132 1.71847e+06 -1.78176e+06 -258484 912491 54551.4 -432573 -160465 -236982 -541165 666252 1.08577e+06 
-2.17751e+07 7.24374e+07 8.38839e+06 1.85552e+07 -1.53063e+07 -4.3571e+06 5.21955e+06 -1.06423e+06 -4.27288e+06 -6.93617e+06 -663131 -3.63749e+06 -2.51737e+06 -5.03969e+06 -1.16397e+06 279809 2.92615e+06 1.1499e+06 2.11322e+06 5.07767e+06 -1.95721e+06 2.66783e+06 -2.45456e+06 -1.52888e+06 120777 1.51805e+06 1.11593e+06 638285 -1.65757e+06 821118 549252 475639 306609 1.75746e+06 1.45473e+06 -900990 387277 8862.74 -833662 -830786 -913918 580506 887340 -811350 1.4624e+06 163190 -207570 413824 -220414 102803 -144699 -344710 -796397 -478386 -315227 -95805.5 -639184 16950.4 528154 -238950 
-2.08564e+07 6.7148e+07 1.25111e+07 1.80447e+07 -6.74795e+06 -7.42376e+06 3.07643e+06 -4.52032e+06 -3.48817e+06 -8.37262e+06 -2.99158e+06 -3.82897e+06 -3.50789e+06 -1.53106e+06 -1.67792e+06 -1.18342e+06 3.79917e+06 3.14248e+06 5.77399e+06 1.903e+06 -2.42838e+06 2.36177e+06 -1.44526e+06 -1.46341e+06 -914336 2.29108e+06 1.62482e+06 159426 -789986 950996 -350858 1.40085e+06 1.26181e+06 2.78093e+06 1.13396e+06 -351227 69758.5 69193.1 -744556 -776541 -233722 565930 461002 -2.42734e+06 898664 166088 -352203 1.2379e+06 -1.49738e+06 -178955 96280.2 405387 -1.04429e+06 -497886 546791 443370 -444057 -152420 487392 -533009 
-1.19934e+07 4.3502e+07 -1.76748e+07 2.09938e+07 -2.94146e+07 -275686 5.13071e+06 -9.0696e+06 4.04223e+06 -812843 -62137.5 -3.81841e+06 1.00204e+07 -9.89073e+06 1.07387e+06 1.00013e+06 -558386 -4.50213e+06 -2.27612e+06 2.21258e+06 1.83023e+06 1.78611e+06 -2.16617e+06 -3.31637e+06 2.2517e+06 -2.06971e+06 768050 -375202 2.70906e+06 688332 56001 2.91485e+06 -950849 731921 -2.61011e+06 656190 -358888 -299403 -1.49592e+06 935675 -285002 1.38088e+06 1.06084e+06 1.13204e+06 1.37105e+06 -442766 -764776 -296838 993882 30951.8 766803 -1.56936e+06 -393334 1.12269e+06 422524 -115775 892574 76290.6 665052 -401396 
-9.52166e+06 6.47798e+07 -2.23249e+07 1.52323e+07 -2.89153e+07 2.67082e+06 1.10075e+07 2.64364e+06 1.08543e+07 -1.3855e+06 -4.39992e+06 3.69556e+06 1.1232e+06 -101251 4.40791e+06 -703876 2.29256e+06 -3.81006e+06 -1.40043e+06 -878996 -4.40578e+06 3.25782e+06 6.40072e+06 2.08274e+06 -2.0208e+06 -2.25752e+06 -2.31267e+06 -2.55603e+06 -3.26715e+06 1.92248e+06 1.03053e+06 -1.52026e+06 865088 -3.43765e+06 -364947 -1.04036e+06 -1.26829e+06 125829 3.00518e+06 16121.8 1.87381e+06 812796 -579148 -886138 -1.19352e+06 -70665.9 -471261 -277484 -2.93948e+06 -507542 997392 513654 30309.4 -569425 1.06186e+06 -582119 788831 -1.34864e+06 761183 737143 
-1.32866e+07 6.48174e+07 -2.21181e+07 1.57889e+07 -2.99378e+07 1.93059e+06 1.01453e+07 1.50021e+06 1.07127e+07 1.72333e+06 -1.62506e+06 4.31752e+06 2.13027e+06 -1.74486e+06 4.73233e+06 -1.29493e+06 1.74995e+06 -4.22927e+06 -766684 -1.53756e+06 -4.2404e+06 1.36873e+06 6.8662e+06 3.01893e+06 -3.80583e+06 -1.54832e+06 -262994 -2.1719e+06 -2.30323e+06 1.54516e+06 -487087 -1.02475e+06 -494952 -1.92599e+06 -1.8593e+06 -1.16278e+06 -1.28887e+06 -664500 1.81495e+06 -772164 2.82124e+06 -359617 -1.63384e+06 409862 -1.2722e+06 -974431 -439998 -1.01451e+06 -1.75574e+06 999053 -47378.1 -418585 -62666.8 116128 1.79662e+06 -221118 911112 -485646 467945 346432 
-4.90473e+07 3.74278e+07 5.9152e+06 1.57224e+07 -1.52976e+07 -1.31547e+06 313713 1.43835e+07 -1.29036e+07 1.31163e+07 -6205.29 6.02426e+06 3.97327e+06 -2.48074e+06 2.45654e+06 -3.82717e+06 -3.80497e+06 2.73113e+06 -371245 -3.70877e+06 4.19373e+06 -3.91134e+06 -2.47413e+06 4.10024e+06 16494.8 -160455 2.03824e+06 421965 3.19839e+06 440154 -2.29354e+06 -566898 -548436 1.29238e+06 1.09942e+06 -2.89586e+06 2.15298e+06 -868916 508703 -862637 831686 -1.77272e+06 730827 1.63212e+06 580038 668909 3.78865e+06 1.3655e+06 1.88869e+06 343383 1.20509e+06 -837853 -462992 -15617 -918469 -369240 -1.77948e+06 735308 221075 -1.32724e+06 
-2.49954e+07 7.49896e+07 6.01787e+06 1.60037e+07 -2.48224e+07 -2.05108e+06 1.05438e+07 3.67044e+06 493449 -2.9584e+06 -5.33843e+06 -2.21174e+06 -2.41074e+06 -1.4485e+06 2.1374e+06 1.80443e+06 2.22298e+06 1.04607e+06 -1.12362e+06 996754 -1.45072e+06 320436 3.75078e+06 292713 -2.57473e+06 -831079 -2.17624e+06 100621 -1.82407e+06 -558690 -761450 -690939 -1.35465e+06 -1.68236e+06 1.68309e+06 1.25697e+06 -1.91239e+06 1.34027e+06 -210690 1.71056e+06 -572917 399159 -1.52348e+06 -54570.8 -521564 1.51335e+06 2.80172e+06 1.21703e+06 1.09253e+06 883661 504978 628846 2.75425e+06 568925 140621 -124507 62341.9 -129887 -802474 -280596 
-3.57733e+07 7.51453e+07 1.49881e+07 1.75217e+07 -1.92774e+07 -109353 8.74032e+06 7.07561e+06 -7.80149e+06 -659982 -3.09559e+06 -138458 -3.84085e+06 -2.34641e+06 3.89476e+06 60857.9 -150766 -568141 -1.34389e+06 748462 -391417 -2.2021e+06 -208723 128775 -1.89925e+06 1.95066e+06 377052 -121596 -2.41662e+06 -1.73833e+06 121830 -275148 -1.50722e+06 458593 3.15682e+06 -1.38156e+06 -777628 -445255 943693 -533874 667472 -219170 -117949 1.61454e+06 1.54226e+06 -953205 3.30618e+06 -43826.2 718160 -280234 -57787.8 5798.82 335856 -537201 -775109 -918890 -1.21481e+06 580352 -243906 183799 
-2.20822e+07 8.11036e+07 6.91444e+06 1.34014e+07 -2.05404e+07 -2.5904e+06 8.41311e+06 1.42445e+06 2.62393e+06 -4.02627e+06 -5.27112e+06 -3.99617e+06 -5.84939e+06 -2.22998e+06 1.59622e+06 2.75963e+06 3.48752e+06 1.27343e+06 352674 1.17616e+06 -1.6229e+06 31480.1 4.97362e+06 -274485 -3.10549e+06 -438039 -1.79898e+06 -1.4597e+06 -1.61827e+06 -1.34433e+06 -1.84923e+06 842651 -1.71954e+06 -275789 1.15865e+06 659220 -791509 986549 -167283 1.40293e+06 -827437 995329 -2.37041e+06 980894 677846 1.99999e+06 361280 1.181e+06 289680 1.16593e+06 327756 938433 448616 7798.27 1.25689e+06 -2.05123e+06 712950 -1.3749e+06 -778932 -684990 
-2.80645e+07 1.14073e+07 -1.79371e+07 1.93743e+07 -2.2806e+07 -1.03399e+07 2.49724e+06 -3.89063e+06 3.92254e+06 4.67594e+06 2.40266e+06 -611890 7.25849e+06 -4.55032e+06 -6.8286e+06 -4.93643e+06 -2.85801e+06 -4.71331e+06 98844.4 -2.84977e+06 -1.82004e+06 -633766 -114960 -2.42446e+06 3.06881e+06 -3.52844e+06 2.137e+06 1.44304e+06 3.45271e+06 520180 -1.13386e+06 -908013 90373.2 2.49402e+06 -103372 2.42155e+06 831202 -1.02589e+06 -2.55073e+06 108651 1.62184e+06 -880790 33118.2 274688 -689144 730182 1.04034e+06 -338568 1.52946e+06 -1.69296e+06 499175 820670 -459249 1.9718e+06 -939516 -979392 133051 1.56154e+06 262706 -437862 
-1.77789e+07 6.17514e+07 2.40497e+07 7.17839e+06 -1.46051e+07 4.27413e+06 5.91326e+06 8.9876e+06 -1.18233e+07 -3.79295e+06 -1.58259e+06 -2.73538e+06 -5.30979e+06 794034 -528442 828316 1.76183e+06 3.08179e+06 4.16761e+06 4.58039e+06 -87731.8 1.53898e+06 -1.70497e+06 -768616 787484 2.24428e+06 367005 2.69264e+06 -1.34317e+06 507243 -387370 -1.3563e+06 170830 302383 -370.423 778141 -1.35355e+06 -1.32343e+06 392050 8014.33 174781 -1.47146e+06 738746 -549828 -906318 776809 1.33842e+06 158025 1.14658e+06 257968 -367770 220685 1.34647e+06 642174 -980789 1.40649e+06 111017 2.27699e+06 277857 -826585 
-2.48482e+07 2.10677e+07 -2.83098e+07 1.74799e+07 -2.24419e+07 -4.49285e+06 5.85682e+06 -4.51264e+06 1.2837e+07 1.479e+06 -494136 1.01909e+06 9.52305e+06 -2.18348e+06 -2.13985e+06 962468 -2.12456e+06 -3.80168e+06 -2.98052e+06 722379 -135987 -544715 2.27123e+06 716172 4.93995e+06 -3.62924e+06 131913 335313 675024 973225 -294886 -2.22153e+06 114244 -1.06492e+06 -2.7315e+06 -479383 810541 -743423 -1.37618e+06 205835 159899 560132 3.9236e+06 -1.0807e+06 764126 2.02039e+06 -86772.2 13024.1 2.84828e+06 -982011 1.06217e+06 -1.74469e+06 1.26393e+06 365837 1.6693e+06 -1.9257e+06 1.17906e+06 703875 1.77537e+06 -547433 
-2.39302e+07 2.88177e+07 -3.14142e+07 2.23806e+07 -2.25866e+07 -2.68593e+06 5.78905e+06 -5.50293e+06 1.00359e+07 -1.16205e+06 -821849 2.22884e+06 8.60719e+06 -3.75779e+06 -1.26571e+06 707779 452218 -2.72474e+06 -545457 903913 -38803.6 2.17645e+06 2.7076e+06 7846.22 2.65728e+06 -3.79785e+06 571203 954976 1.94644e+06 1.24934e+06 944612 -1.65063e+06 804218 620199 -2.79702e+06 -1.59197e+06 401736 -1.71484e+06 -1.28601e+06 -331783 282472 -734847 2.50345e+06 -689821 980366 2.33231e+06 -479601 139627 1.86939e+06 -1.51481e+06 2.12897e+06 -842187 1.09352e+06 15493.5 885330 -1.22847e+06 90626.9 423394 1.26427e+06 334188 
-8.20332e+06 1.29636e+08 5.51964e+06 -1.02079e+07 -1.38548e+07 3.26225e+06 1.95022e+06 -780568 -2.43868e+06 607820 3.31235e+06 -1.23076e+06 -3.62844e+06 2.50568e+06 -3.29314e+06 227249 -1.17092e+06 -1.69169e+06 80946.4 -2.79197e+06 -774001 -3.7261e+06 -1.4101e+06 -1.65706e+06 3.63101e+06 -686189 2.75037e+06 1.06629e+06 -2.28167e+06 -51303.6 1.09481e+06 905862 -1.96334e+06 1.41516e+06 2.2203e+06 -2.70566e+06 3.01464e+06 -107625 462417 -1.59108e+06 -1.65139e+06 65764.8 -309629 649546 789152 -2.11822e+06 -1.94034e+06 -879947 -1.81405e+06 -22855.7 -335703 788089 -1.77601e+06 -1.26043e+06 138227 -1.1948e+06 1.43158e+06 -441497 -894830 908082 
1.10293e+08 -5.8776e+07 -1.69084e+07 -3.5062e+07 -6.2557e+06 -2.03755e+07 -6.29732e+06 1.91473e+07 1.07944e+07 -1.86587e+07 -1.56516e+07 -2.89383e+06 -7.47148e+06 -6.7391e+06 187495 351581 -3.16404e+06 -3.92096e+06 801594 -3.30768e+06 7.45979e+06 -613926 -3.50346e+06 -575537 1.25107e+06 -452637 -303772 -3.92323e+06 -389917 1.85019e+06 1.02068e+06 -809712 -26327 -726782 182828 -677867 131648 -221829 1.10933e+06 -230478 162538 298172 448431 454980 24017.6 -358380 852610 473276 -439606 750819 178752 298296 504006 182820 475782 212859 -304709 614598 -186454 141851 
1.3837e+08 -1.40024e+07 9.94927e+06 2.02873e+07 -1.18932e+06 783964 -2.43596e+07 -4.93686e+06 -6.82177e+06 3.54448e+06 1.12434e+06 1.18909e+07 -7.43845e+06 -1.49187e+07 5.56212e+06 7.09866e+06 -2.22795e+06 -477666 1.60279e+06 -6.31922e+06 -3.76064e+06 1.95144e+06 4.76507e+06 -3.20074e+06 3.79724e+06 4.77665e+06 408197 1.7878e+06 -406124 -2.2941e+06 1.75486e+06 -1.44457e+06 2.32459e+06 -681940 -1.01039e+06 -1.4082e+06 -43458.6 1.33434e+06 -1.01931e+06 1.83657e+06 736235 -553363 -676347 -75369.8 89764.4 196924 -996673 458835 617535 -412298 -993165 439792 196038 419553 812333 -128262 1.16576e+06 -188824 340845 -608654 
1.28363e+08 -1.82457e+07 5.68013e+06 3.11599e+07 -5.24796e+06 -1.07483e+07 -2.08214e+07 5.99444e+06 7.74097e+06 -1.261e+06 6.00991e+06 -1.46841e+07 1.16086e+07 1.34548e+07 -5.43999e+06 -6.42332e+06 4.95528e+06 -3.46592e+06 342819 5.68764e+06 449350 -291563 -782728 -4.44687e+06 1.94795e+06 1.91418e+06 2.29311e+06 341250 -315079 -2.97654e+06 540058 -707726 1.5101e+06 -1.71267e+06 -1.8486e+06 -2.85386e+06 2.35321e+06 376828 265505 2.4913e+06 -179187 1.83624e+06 -3.26804e+06 -1.95968e+06 -2.17795e+06 -410847 1.11661e+06 -1.82574e+06 322280 -280269 1.07578e+06 1.10707e+06 189740 -887889 363518 -1.42903e+06 -1.85041e+06 2.39665e+06 -607336 -313171 
1.28363e+08 -1.82457e+07 5.68013e+06 3.11599e+07 -5.24796e+06 -1.07483e+07 -2.08214e+07 5.99444e+06 7.74097e+06 -1.261e+06 6.00991e+06 -1.46841e+07 1.16086e+07 1.34548e+07 -5.43999e+06 -6.42332e+06 4.95528e+06 -3.46592e+06 342819 5.68764e+06 449350 -291563 -782728 -4.44687e+06 1.94795e+06 1.91418e+06 2.29311e+06 341250 -315079 -2.97654e+06 540058 -707726 1.5101e+06 -1.71267e+06 -1.8486e+06 -2.85386e+06 2.35321e+06 376828 265505 2.4913e+06 -179187 1.83624e+06 -3.26804e+06 -1.95968e+06 -2.17795e+06 -410847 1.11661e+06 -1.82574e+06 322280 -280269 1.07578e+06 1.10707e+06 189740 -887889 363518 -1.42903e+06 -1.85041e+06 2.39665e+06 -607336 -313171 
1.26898e+08 -1.09869e+07 1.19802e+07 3.10136e+07 -5.08341e+06 -5.67804e+06 -2.61315e+07 1.08529e+07 3.11739e+06 -2.37101e+06 1.05552e+07 -7.99413e+06 1.07593e+07 1.22325e+07 -4.74258e+06 -6.50934e+06 2.83153e+06 -4.41059e+06 3.86759e+06 2.90269e+06 -470129 2.15536e+06 -793951 1.77842e+06 -326205 4.51509e+06 3.82839e+06 -1.7415e+06 -915550 -1.00351e+06 -536696 -1.94494e+06 360705 -1.25507e+06 -1.51497e+06 -2.42821e+06 -1.80322e+06 1.43141e+06 2.35628e+06 665939 489581 -889814 662599 3.58478e+06 2.55337e+06 -1.22321e+06 -758298 2.14247e+06 413361 827350 -1.30551e+06 -137303 842338 1.10376e+06 -781279 577240 2.13315e+06 -2.50516e+06 707072 77122.4 
1.26898e+08 -1.09869e+07 1.19802e+07 3.10136e+07 -5.08341e+06 -5.67804e+06 -2.61315e+07 1.08529e+07 3.11739e+06 -2.37101e+06 1.05552e+07 -7.99413e+06 1.07593e+07 1.22325e+07 -4.74258e+06 -6.50934e+06 2.83153e+06 -4.41059e+06 3.86759e+06 2.90269e+06 -470129 2.15536e+06 -793951 1.77842e+06 -326205 4.51509e+06 3.82839e+06 -1.7415e+06 -915550 -1.00351e+06 -536696 -1.94494e+06 360705 -1.25507e+06 -1.51497e+06 -2.42821e+06 -1.80322e+06 1.43141e+06 2.35628e+06 665939 489581 -889814 662599 3.58478e+06 2.55337e+06 -1.22321e+06 -758298 2.14247e+06 413361 827350 -1.30551e+06 -137303 842338 1.10376e+06 -781279 577240 2.13315e+06 -2.50516e+06 707072 77122.4 
1.17632e+08 -1.53535e+07 8.33959e+06 1.74923e+07 1.22879e+07 1.74524e+07 -5.31944e+06 -1.66864e+07 -2.54371e+06 1.21975e+07 -2.61148e+07 -4.65999e+06 2.33247e+06 2.08836e+06 -2.79125e+06 4.75569e+06 -6.17555e+06 -3.45226e+06 3.46707e+06 3.81127e+06 -1.95513e+06 -452630 -1.08997e+06 2.80047e+06 -1.79748e+06 328167 -1.86563e+06 -274878 108835 -1.28029e+06 1.12588e+06 4.82341e+06 -1.44244e+06 -1.20292e+06 -283223 -2.74083e+06 74827.6 243133 -436236 -1.0418e+06 63847.9 -1.21707e+06 -1.86935e+06 1.31107e+06 154572 807341 802236 3.50617e+06 -315777 -1.75991e+06 1.79814e+06 -810160 -313266 -436618 331343 1.16031e+06 -127402 -455093 555573 -1.50357e+06 
1.17632e+08 -1.53535e+07 8.33959e+06 1.74923e+07 1.22879e+07 1.74524e+07 -5.31944e+06 -1.66864e+07 -2.54371e+06 1.21975e+07 -2.61148e+07 -4.65999e+06 2.33247e+06 2.08836e+06 -2.79125e+06 4.75569e+06 -6.17555e+06 -3.45226e+06 3.46707e+06 3.81127e+06 -1.95513e+06 -452630 -1.08997e+06 2.80047e+06 -1.79748e+06 328167 -1.86563e+06 -274878 108835 -1.28029e+06 1.12588e+06 4.82341e+06 -1.44244e+06 -1.20292e+06 -283223 -2.74083e+06 74827.6 243133 -436236 -1.0418e+06 63847.9 -1.21707e+06 -1.86935e+06 1.31107e+06 154572 807341 802236 3.50617e+06 -315777 -1.75991e+06 1.79814e+06 -810160 -313266 -436618 331343 1.16031e+06 -127402 -455093 555573 -1.50357e+06 
1.3504e+08 -1.28269e+07 1.04678e+07 1.21984e+07 8.58925e+06 2.40022e+07 -5.47896e+06 -1.39641e+07 -349715 1.2604e+07 -2.3095e+07 -1.59981e+06 -1.56355e+06 3.53694e+06 -5.79269e+06 547107 -4.2678e+06 -3.98935e+06 139346 3.80514e+06 -2.06365e+06 1.5158e+06 -1.39315e+06 2.38568e+06 -3.5589e+06 -901876 -1.57098e+06 -65710 -644194 -2.64144e+06 -1.76299e+06 3.6054e+06 1.54082e+06 -3.31692e+06 1.27915e+06 -1.291e+06 1.37096e+06 -626092 -356699 -2.31287e+06 -678099 195180 2.10657e+06 -1.6504e+06 -600596 -715463 -1.34367e+06 -1.80134e+06 769666 2.80956e+06 -341415 847691 -972491 1.04966e+06 -1.39525e+06 -264303 578663 1.47197e+06 76852.7 1.30364e+06 
1.3504e+08 -1.28269e+07 1.04678e+07 1.21984e+07 8.58925e+06 2.40022e+07 -5.47896e+06 -1.39641e+07 -349715 1.2604e+07 -2.3095e+07 -1.59981e+06 -1.56355e+06 3.53694e+06 -5.79269e+06 547107 -4.2678e+06 -3.98935e+06 139346 3.80514e+06 -2.06365e+06 1.5158e+06 -1.39315e+06 2.38568e+06 -3.5589e+06 -901876 -1.57098e+06 -65710 -644194 -2.64144e+06 -1.76299e+06 3.6054e+06 1.54082e+06 -3.31692e+06 1.27915e+06 -1.291e+06 1.37096e+06 -626092 -356699 -2.31287e+06 -678099 195180 2.10657e+06 -1.6504e+06 -600596 -715463 -1.34367e+06 -1.80134e+06 769666 2.80956e+06 -341415 847691 -972491 1.04966e+06 -1.39525e+06 -264303 578663 1.47197e+06 76852.7 1.30364e+06 
1.38015e+08 -2.32153e+07 9.50361e+06 7.14777e+06 1.79181e+07 1.5272e+07 1.59014e+07 -1.24312e+07 -2.11838e+06 5.52774e+06 -1.39678e+07 -3.0101e+06 5.32856e+06 1.07109e+06 -2.35263e+06 3.38584e+06 -2.78521e+06 -1.79019e+06 2.25192e+06 113843 -202814 -2.44016e+06 -4.57699e+06 153319 -1.23538e+06 -1.92555e+06 1.60626e+06 3.19918e+06 1.14616e+06 5.55131e+06 138956 -3.46847e+06 -1.01175e+06 3.14967e+06 -1.97351e+06 -220214 -2.32448e+06 1.15204e+06 1.60724e+06 4.12293e+06 1.85749e+06 -48511.3 -573097 1.08292e+06 361982 -711929 -431992 -2.34848e+06 103328 -2.53063e+06 -2.4371e+06 -370025 959414 -1.31407e+06 1.25725e+06 -1.49706e+06 -1.51849e+06 -829039 -2.23492e+06 995803 
1.10293e+08 -5.8776e+07 -1.69084e+07 -3.5062e+07 -6.2557e+06 -2.03755e+07 -6.29732e+06 1.91473e+07 1.07944e+07 -1.86587e+07 -1.56516e+07 -2.89383e+06 -7.47148e+06 -6.7391e+06 187495 351581 -3.16404e+06 -3.92096e+06 801594 -3.30768e+06 7.45979e+06 -613926 -3.50346e+06 -575537 1.25107e+06 -452637 -303772 -3.92323e+06 -389917 1.85019e+06 1.02068e+06 -809712 -26327 -726782 182828 -677867 131648 -221829 1.10933e+06 -230478 162538 298172 448431 454980 24017.6 -358380 852610 473276 -439606 750819 178752 298296 504006 182820 475782 212859 -304709 614598 -186454 141851 
1.38015e+08 -2.32153e+07 9.50361e+06 7.14777e+06 1.79181e+07 1.5272e+07 1.59014e+07 -1.24312e+07 -2.11838e+06 5.52774e+06 -1.39678e+07 -3.0101e+06 5.32856e+06 1.07109e+06 -2.35263e+06 3.38584e+06 -2.78521e+06 -1.79019e+06 2.25192e+06 113843 -202814 -2.44016e+06 -4.57699e+06 153319 -1.23538e+06 -1.92555e+06 1.60626e+06 3.19918e+06 1.14616e+06 5.55131e+06 138956 -3.46847e+06 -1.01175e+06 3.14967e+06 -1.97351e+06 -220214 -2.32448e+06 1.15204e+06 1.60724e+06 4.12293e+06 1.85749e+06 -48511.3 -573097 1.08292e+06 361982 -711929 -431992 -2.34848e+06 103328 -2.53063e+06 -2.4371e+06 -370025 959414 -1.31407e+06 1.25725e+06 -1.49706e+06 -1.51849e+06 -829039 -2.23492e+06 995803 
7.7761e+07 -5.11316e+07 -6.36967e+06 -4.0344e+07 -1.71271e+07 -3.32171e+07 -2.88482e+06 -1.83165e+07 -2.07861e+07 1.21922e+06 3.32632e+06 -4.56192e+06 -217162 -591573 -468121 2.37888e+06 649896 -211352 -510904 2.72962e+06 -29517.8 -1.4655e+06 -6.60795e+06 3.87636e+06 -1.60304e+06 330562 507017 1.96412e+06 1.10237e+06 -3.54099e+06 -87374.3 -7.54587e+06 -5.63471e+06 -3.96851e+06 1.16974e+06 1.56875e+06 1.26875e+06 1.46854e+06 -5.44864e+06 -1.32422e+06 2.01161e+06 376563 -2.1575e+06 -1.67376e+06 232645 489776 380358 -361942 -1.01069e+06 -1.45585e+06 199769 -855485 -1.21463e+06 707920 -312940 4199.39 1.30327e+06 -664781 -718473 334881 
-1.07644e+08 -1.28687e+08 1.10238e+07 -942569 6.40432e+06 -2.64191e+06 -30322.8 -502342 -1.92909e+06 4.09181e+06 -1.19559e+06 3.19948e+06 6.62323e+06 -1.60375e+06 1.19383e+06 896764 -853025 274473 -2.37156e+06 4.66988e+06 111032 -3.58901e+06 -116050 -1.4812e+06 2.2468e+06 -1.60141e+06 829391 263082 -434251 -560985 4.59846e+06 473418 745558 -375414 1.26587e+06 -1.05984e+06 -74207.7 -1.81614e+06 -119342 1.03839e+06 1.53474e+06 781407 1.95184e+06 -761135 430359 -96574.1 344516 101323 603664 -492644 732098 1.25357e+06 872942 564649 -794211 -221870 835541 102020 -838239 -36622.7 
-1.04345e+08 -9.17963e+07 4.35306e+07 -9.2427e+06 1.26759e+07 -158894 -1.84507e+06 1.98809e+06 -3.42834e+06 1.93257e+06 7.45868e+06 5.15458e+06 2.46019e+06 1.73042e+06 2.63119e+06 4.6861e+06 -766522 -7.35139e+06 -3.34937e+06 2.26341e+06 60530.4 3.80924e+06 -1.76944e+06 -1.33197e+06 1.42837e+06 438691 -1.38524e+06 840452 665833 1.30108e+06 519168 617812 -1.17771e+06 -2.44909e+06 -826722 -1.07259e+06 -1.78175e+06 -1.05583e+06 30609.1 -2.20875e+06 -343313 -378515 669556 766857 177253 197729 -917945 -745722 287335 -1.20154e+06 94055.7 -605622 1.02268e+06 -1.21072e+06 -309357 1.33227e+06 1.65169e+06 282192 -351757 942093 
-6.62603e+07 -1.93821e+07 7.83968e+07 -4.67377e+07 5.7561e+06 -1.97867e+07 255476 2.3283e+06 2.1275e+07 6.69022e+06 998931 5.54902e+06 9.10917e+06 -681904 5.20952e+06 8.02544e+06 -2.92796e+06 -1.44677e+06 8.60347e+06 365974 -2.90296e+06 -325544 3.47042e+06 -878157 -3.0572e+06 680013 3.34163e+06 -1.25083e+06 -2.3024e+06 546629 792257 -2.47287e+06 1.49519e+06 -1.3564e+06 118798 -1.02713e+06 -327714 -1.94697e+06 -220282 -2.61192e+06 -211211 -1.092e+06 -3424.43 -982059 -386695 3.14712e+06 -73032.2 163068 -952947 1.32758e+06 -684678 -389118 388411 -647005 -2.52837e+06 334389 -348705 -844111 36718 396826 
-7.62043e+07 -1.14133e+08 -3.01385e+07 823139 -4.0393e+06 1.01322e+06 7.69742e+06 3.06089e+06 5.20452e+06 3.4365e+06 -683030 -4.44171e+06 5.54352e+06 -4.15518e+06 -1.593e+06 5.91472e+06 2.96481e+06 -67274 363902 2.35784e+06 -4.23884e+06 -4.44475e+06 1.50441e+06 -1.29046e+06 1.65679e+06 615842 -2.47014e+06 -1.79502e+06 -3.21621e+06 1.45221e+06 -1.5598e+06 -885115 294106 -1.57372e+06 -490684 627147 1.98469e+06 2.02744e+06 -980361 -175017 -1.17666e+06 1.04242e+06 496631 119504 -1.74162e+06 -365815 -2.11381e+06 47088.3 610673 1.23995e+06 -906952 -148464 698910 -105653 -257474 657536 520803 -659941 -1.63039e+06 -414257 
-1.07894e+08 -1.20165e+08 1.00958e+07 721108 450694 926315 1.41369e+06 3.01967e+06 -2.96971e+06 5.1828e+06 -618385 7.0842e+06 4.44451e+06 -4.27188e+06 -2.93257e+06 213867 -253280 -1.46164e+06 -1.85961e+06 5.03587e+06 1.31241e+06 -6.31963e+06 1.943e+06 1.84048e+06 1.47502e+06 -2.69314e+06 2.1441e+06 -808345 -630182 -1.52226e+06 3.86922e+06 -1.01417e+06 290836 -680147 2.24813e+06 -1.32937e+06 -952440 -1.17489e+06 510686 928837 928582 1.07656e+06 1.12153e+06 -452324 -421252 -703919 594594 648825 1.00392e+06 -812016 892820 791474 583932 652368 -293043 -954761 961555 -225480 -776102 253702 
-1.09323e+08 -1.05652e+08 3.82456e+07 -6.21782e+06 1.69028e+07 -8.80132e+06 847067 -581618 4.9145e+06 112780 -795434 9.89768e+06 6.94582e+06 7.15534e+06 6.41e+06 608729 -3.41159e+06 -2.15617e+06 -561340 1.16054e+06 1.42627e+06 3.04089e+06 4.2643e+06 -1.71075e+06 741518 -1.34232e+06 -2.0389e+06 -164704 -941026 -463059 532425 136908 -1.47952e+06 -2.82087e+06 -2.53495e+06 -614766 -2.36868e+06 -672556 505033 1.77829e+06 1.29333e+06 748186 1.16582e+06 -1.39809e+06 344842 2.22613e+06 511894 645531 -848462 186360 -349248 579703 694679 -418974 -647376 -193882 141964 -870002 -993782 431458 
-8.07679e+07 -9.76239e+07 8.48939e+06 7.31111e+06 448063 -1.31407e+07 2.02869e+06 1.69455e+07 746433 2.03905e+07 5.37398e+06 3.13492e+06 4.61169e+06 -2.97746e+06 843184 2.39706e+06 -1.6697e+06 -2.85851e+06 815260 -4.03673e+06 -2.96166e+06 -515136 -7.34002e+06 697480 891382 1.29798e+06 2.85863e+06 -2.59934e+06 2.88615e+06 3.86439e+06 -4.23562e+06 -280812 1.75438e+06 -3.02607e+06 1.61501e+06 -329990 -310024 1.26905e+06 -388282 -237027 616855 -1.79848e+06 -1.27334e+06 1.40154e+06 155759 -1.41997e+06 90248.4 -189318 1.74786e+06 1.02366e+06 -811956 -1.60844e+06 69536.5 -59024.5 -318728 957665 -376884 -1.07818e+06 -323540 575935 
-1.03106e+08 -8.5714e+07 -3.38279e+07 2.97566e+07 1.26269e+07 -2.88447e+07 1.07831e+07 -4.14955e+06 1.05771e+07 6.20907e+06 -2.63769e+06 -824489 4.37959e+06 -3.8256e+06 -4.19152e+06 7.61435e+06 1.25251e+06 -2.30429e+06 811842 2.00735e+06 -2.62987e+06 -9.03044e+06 2.53968e+06 -1.83773e+06 3.11093e+06 -437577 -2.25708e+06 -2.54357e+06 -1.98776e+06 -1.288e+06 -2.11237e+06 -961529 -127647 64493.5 -914843 594525 1.39787e+06 1.77437e+06 -1.72555e+06 -94820.3 -1.23209e+06 1.2389e+06 304042 -762825 -1.73271e+06 -325078 -770935 255133 1.6436e+06 1.98403e+06 -910937 -707851 309742 860137 -176364 648432 1.13463e+06 -1.12405e+06 -1.84587e+06 -547875 
1.41265e+08 -5.71906e+06 1.16668e+07 2.20223e+07 -2.29137e+06 1.18557e+07 -2.98376e+07 5.81255e+06 1.70264e+06 -2.74499e+06 3.41348e+06 3.56797e+06 -2.00484e+06 -4.61063e+06 776504 -448846 3.73986e+06 565556 -194573 2.63306e+06 -2.04378e+06 -4.53858e+06 -1.15537e+06 -732964 -2.86306e+06 -7.5203e+06 -3.00825e+06 3.1475e+06 -2.00887e+06 459492 -1.51782e+06 -1.9053e+06 -1.50886e+06 662317 -681491 5.21468e+06 2.88564e+06 -813482 3.64639e+06 -3.02548e+06 2.17962e+06 -780787 301440 -1.01255e+06 4.57801e+06 1.14258e+06 250561 -1.46462e+06 1.527e+06 1.50661e+06 2.92047e+06 1.15277e+06 309865 -449644 157948 1.617e+06 -413719 -1.35174e+06 -1.50422e+06 1.02174e+06 
-1.29392e+08 -1.02065e+08 -812671 1.85367e+07 1.41301e+07 -1.85718e+07 2.75905e+06 -2.00022e+06 -360260 4.74507e+06 -2.30682e+06 7.49108e+06 7.56636e+06 -3.68115e+06 -418159 3.66192e+06 -2.97162e+06 288565 -1.21991e+06 5.35947e+06 2.33649e+06 -6.97221e+06 1.93747e+06 927926 2.81448e+06 -1.75077e+06 1.78629e+06 -1.58266e+06 -2.38977e+06 -630415 3.84964e+06 -276197 395584 121516 2.92547e+06 -1.17196e+06 74690.7 -844316 281857 1.30978e+06 251195 1.39146e+06 850847 -1.45081e+06 533998 -947431 559889 1.79533e+06 1.29349e+06 -901550 399425 879956 -350157 926972 -134045 -1.06337e+06 1.08339e+06 -549607 -1.26906e+06 -264778 
7.7761e+07 -5.11316e+07 -6.36967e+06 -4.0344e+07 -1.71271e+07 -3.32171e+07 -2.88482e+06 -1.83165e+07 -2.07861e+07 1.21922e+06 3.32632e+06 -4.56192e+06 -217162 -591573 -468121 2.37888e+06 649896 -211352 -510904 2.72962e+06 -29517.8 -1.4655e+06 -6.60795e+06 3.87636e+06 -1.60304e+06 330562 507017 1.96412e+06 1.10237e+06 -3.54099e+06 -87374.3 -7.54587e+06 -5.63471e+06 -3.96851e+06 1.16974e+06 1.56875e+06 1.26875e+06 1.46854e+06 -5.44864e+06 -1.32422e+06 2.01161e+06 376563 -2.1575e+06 -1.67376e+06 232645 489776 380358 -361942 -1.01069e+06 -1.45585e+06 199769 -855485 -1.21463e+06 707920 -312940 4199.39 1.30327e+06 -664781 -718473 334881 
7.29994e+07 -5.76445e+07 -1.19925e+07 -4.37429e+07 -2.29062e+07 -4.13962e+07 -3.51667e+06 -2.1737e+07 -2.39052e+07 3.76364e+06 1.3828e+06 999766 -1.60345e+06 2.90336e+06 -2.06697e+06 -2.14366e+06 1.82603e+06 581642 -2.84121e+06 837834 -838083 1.12258e+06 2.31813e+06 1.19475e+06 -759904 -1.65579e+06 180062 -483517 -2.29094e+06 2.57919e+06 -778826 2.23637e+06 1.31665e+06 1.44841e+06 -915943 -168165 -102251 -858853 2.54405e+06 463353 -345884 -126792 403729 722130 -309092 110345 -45173.1 -77832.3 79826.4 186812 -206651 -371073 260787 52568.3 414424 159291 -386929 558988 284377 -15436.4 
7.29994e+07 -5.76445e+07 -1.19925e+07 -4.37429e+07 -2.29062e+07 -4.13962e+07 -3.51667e+06 -2.1737e+07 -2.39052e+07 3.76364e+06 1.3828e+06 999766 -1.60345e+06 2.90336e+06 -2.06697e+06 -2.14366e+06 1.82603e+06 581642 -2.84121e+06 837834 -838083 1.12258e+06 2.31813e+06 1.19475e+06 -759904 -1.65579e+06 180062 -483517 -2.29094e+06 2.57919e+06 -778826 2.23637e+06 1.31665e+06 1.44841e+06 -915943 -168165 -102251 -858853 2.54405e+06 463353 -345884 -126792 403729 722130 -309092 110345 -45173.1 -77832.3 79826.4 186812 -206651 -371073 260787 52568.3 414424 159291 -386929 558988 284377 -15436.4 
7.39529e+07 -5.65299e+07 -1.19617e+07 -4.22838e+07 -2.33364e+07 -4.31399e+07 -4.51564e+06 -2.21466e+07 -2.50126e+07 4.18092e+06 1.88642e+06 750650 -447368 3.73162e+06 -1.42773e+06 -1.59632e+06 2.16404e+06 140584 -2.43598e+06 579579 -1.48433e+06 1.31683e+06 4.05883e+06 420348 -303406 -1.2556e+06 -342476 -1.33189e+06 -2.33424e+06 2.75212e+06 -497306 3.32865e+06 2.40541e+06 1.69888e+06 -503528 -839425 -263695 -807214 2.85909e+06 586856 -710514 171518 1.22167e+06 672174 -180771 301065 -469992 142724 405830 1.31162e+06 -172016 554475 488709 -28019 67497.1 -99430.6 -818052 -73629.9 280247 27700.2 
7.39529e+07 -5.65299e+07 -1.19617e+07 -4.22838e+07 -2.33364e+07 -4.31399e+07 -4.51564e+06 -2.21466e+07 -2.50126e+07 4.18092e+06 1.88642e+06 750650 -447368 3.73162e+06 -1.42773e+06 -1.59632e+06 2.16404e+06 140584 -2.43598e+06 579579 -1.48433e+06 1.31683e+06 4.05883e+06 420348 -303406 -1.2556e+06 -342476 -1.33189e+06 -2.33424e+06 2.75212e+06 -497306 3.32865e+06 2.40541e+06 1.69888e+06 -503528 -839425 -263695 -807214 2.85909e+06 586856 -710514 171518 1.22167e+06 672174 -180771 301065 -469992 142724 405830 1.31162e+06 -172016 554475 488709 -28019 67497.1 -99430.6 -818052 -73629.9 280247 27700.2 
1.21538e+08 -9.56201e+06 1.06987e+07 -8.06638e+06 -2.5541e+06 5.38854e+06 -1.08495e+06 1.53796e+07 4.14308e+06 -5.49841e+06 4.45745e+06 5.59468e+06 1.76525e+06 632732 3.24488e+06 4.22488e+06 -1.03716e+07 2.92245e+06 -6.47414e+06 2.56388e+06 -3.22169e+06 5.97454e+06 -2.34083e+06 8.32611e+06 -645775 -3.1871e+06 6.45296e+06 -4.282e+06 -5.36974e+06 -6.40808e+06 -3.27524e+06 1.46636e+06 -373106 7.56684e+06 -2.20233e+06 160417 -516454 904042 -3.41005e+06 965469 -712143 879595 149219 165927 -1.00183e+06 1.24973e+06 -1.3359e+06 84899.1 -453810 -332300 1.06391e+06 -117041 905662 441576 283413 98422.2 -356698 368253 -1.23892e+06 367190 
1.21538e+08 -9.56201e+06 1.06987e+07 -8.06638e+06 -2.5541e+06 5.38854e+06 -1.08495e+06 1.53796e+07 4.14308e+06 -5.49841e+06 4.45745e+06 5.59468e+06 1.76525e+06 632732 3.24488e+06 4.22488e+06 -1.03716e+07 2.92245e+06 -6.47414e+06 2.56388e+06 -3.22169e+06 5.97454e+06 -2.34083e+06 8.32611e+06 -645775 -3.1871e+06 6.45296e+06 -4.282e+06 -5.36974e+06 -6.40808e+06 -3.27524e+06 1.46636e+06 -373106 7.56684e+06 -2.20233e+06 160417 -516454 904042 -3.41005e+06 965469 -712143 879595 149219 165927 -1.00183e+06 1.24973e+06 -1.3359e+06 84899.1 -453810 -332300 1.06391e+06 -117041 905662 441576 283413 98422.2 -356698 368253 -1.23892e+06 367190 
1.49919e+08 -2.69279e+07 6.76211e+06 -4.76203e+06 1.06033e+07 -2.95097e+06 2.12476e+07 -232020 183414 -8.6175e+06 6.25034e+06 -3.52398e+06 6.22062e+06 3.21338e+06 8.7898e+06 5.0639e+06 759706 97401.2 2.14425e+06 -2.98578e+06 -872241 -1.53141e+06 -1.26054e+06 1.61638e+06 584123 -4.36763e+06 -1.87345e+06 514567 543582 -2.99485e+06 1.32926e+06 1.09736e+06 346949 -363412 -444619 -459819 2.2623e+06 -1.45192e+06 -261128 1.40996e+06 615734 -501287 -957899 368675 771905 560576 1.97293e+06 242196 -237546 81817.5 -602980 743988 491705 -1.13054e+06 -18603.1 1.54491e+06 54283.1 740057 3.14551e+06 -302500 
1.62673e+08 -3.92002e+07 7.38324e+06 -3.03845e+06 9.69658e+06 -1.31803e+06 2.45702e+07 -1.29267e+06 2.89988e+06 -8.37391e+06 5.97814e+06 -3.86584e+06 4.89827e+06 2.26369e+06 5.39581e+06 2.54124e+06 3.83704e+06 759224 3.60269e+06 -3.19091e+06 -1.36823e+06 -121560 -465381 2.39273e+06 -315924 -3.62388e+06 -3.00462e+06 1.1685e+06 1.21916e+06 -3.06826e+06 1.54086e+06 1.70052e+06 3.92129e+06 -8658.34 243366 -992416 2.08907e+06 113105 1.40243e+06 636555 229269 -519126 191039 114414 782453 903062 1.83382e+06 33730.3 1.04649e+06 -1.66259e+06 -2.2707e+06 -888870 -851502 702957 -843487 273577 803866 -347243 783762 573338 
1.41265e+08 -5.71906e+06 1.16668e+07 2.20223e+07 -2.29137e+06 1.18557e+07 -2.98376e+07 5.81255e+06 1.70264e+06 -2.74499e+06 3.41348e+06 3.56797e+06 -2.00484e+06 -4.61063e+06 776504 -448846 3.73986e+06 565556 -194573 2.63306e+06 -2.04378e+06 -4.53858e+06 -1.15537e+06 -732964 -2.86306e+06 -7.5203e+06 -3.00825e+06 3.1475e+06 -2.00887e+06 459492 -1.51782e+06 -1.9053e+06 -1.50886e+06 662317 -681491 5.21468e+06 2.88564e+06 -813482 3.64639e+06 -3.02548e+06 2.17962e+06 -780787 301440 -1.01255e+06 4.57801e+06 1.14258e+06 250561 -1.46462e+06 1.527e+06 1.50661e+06 2.92047e+06 1.15277e+06 309865 -449644 157948 1.617e+06 -413719 -1.35174e+06 -1.50422e+06 1.02174e+06 
1.61998e+08 -2.6221e+07 8.16408e+06 -3.2977e+06 5.6401e+06 1.0366e+07 2.0724e+07 2.07241e+06 3.29992e+06 -4.82449e+06 4.78555e+06 39706.4 2.78227e+06 2.50073e+06 1.9927e+06 2.13328e+06 2.31889e+06 1.29682e+06 -1.26475e+06 -2.24451e+06 -2.15106e+06 1.75145e+06 -1.06835e+06 1.51843e+06 -845751 -1.65898e+06 704773 554800 -1.36725e+06 -981830 -184894 -518723 3.57206e+06 223456 560786 919405 4.00951e+06 835527 1.37337e+06 -1.05917e+06 -343057 512379 -172659 -1.06507e+06 114059 193193 1.07439e+06 -1.82531e+06 -22457.3 1.13917e+06 -2.84281e+06 -1.15859e+06 1.61216e+06 3.06683e+06 -1.66068e+06 -330311 1.33005e+06 -167667 807.553 18127.4 
1.63149e+08 -3.24786e+07 8.57102e+06 -5.18451e+06 1.00154e+07 3.37569e+06 2.20456e+07 -575366 132458 -7.3655e+06 6.21502e+06 -5.29389e+06 9.10193e+06 2.52034e+06 7.40324e+06 3.982e+06 2.82631e+06 220676 3.48397e+06 -4.22025e+06 -192286 -1.02051e+06 -485190 2.02728e+06 -261055 -4.2015e+06 -3.10896e+06 -24959.5 972724 -2.43073e+06 2.01374e+06 1.30845e+06 2.4686e+06 269410 458620 -283774 1.79572e+06 -528651 142858 710577 -143768 -862046 27850.9 809537 70101.4 941201 1.75845e+06 -1.28532e+06 1.1183e+06 -1.06028e+06 -851912 -548976 -1.67523e+06 -84465.1 154646 81002.9 975347 -262490 692456 291990 
1.59442e+08 -3.48067e+07 6.8902e+06 -5.21555e+06 1.16782e+07 -914857 2.17652e+07 -35548.9 -853647 -8.50584e+06 5.77802e+06 -6.47489e+06 8.78683e+06 1.86346e+06 8.16961e+06 3.84405e+06 3.25692e+06 -473146 4.56727e+06 -4.52565e+06 45004.2 -1.56548e+06 -897264 866316 -541454 -4.40078e+06 -3.61046e+06 580835 1.67703e+06 -2.78823e+06 1.84412e+06 1.40942e+06 1.97866e+06 -643005 452453 -695452 1.25949e+06 -1.15285e+06 362405 618990 -74389.4 -889521 110818 887454 195304 686960 1.50696e+06 -943682 829689 -1.28324e+06 -539490 -393152 -1.88939e+06 -935744 584666 511685 375026 -300950 1.63547e+06 573626 
1.44406e+08 -3.63299e+07 -187327 -2.54413e+07 -7.07882e+06 -1.13391e+07 5.73205e+06 4.58311e+06 -694276 -9.95409e+06 9.17863e+06 -8.73234e+06 3.15682e+06 -1.21639e+06 8.51086e+06 3.40027e+06 892094 412653 3.01991e+06 -476196 -4.33221e+06 280559 -1.86373e+06 1.21115e+06 -1.31643e+06 4.15651e+06 -3.52346e+06 2.15511e+06 4.19252e+06 -1.15073e+06 334215 2.07189e+06 -2.53847e+06 -2.68839e+06 1.83419e+06 -1.63784e+06 -4.96717e+06 -796994 -4.91357e+06 -689902 394743 793600 -371610 380717 244914 -2.06403e+06 -3.18802e+06 1.8991e+06 -88779.5 1.34816e+06 2.57365e+06 2.80148e+06 1.43408e+06 -3.14503e+06 333099 -124043 -3.8732e+06 -1.62545e+06 505366 -518696 
1.65463e+08 -2.58992e+07 1.42466e+07 -6.81306e+06 6.98454e+06 6.97896e+06 1.68399e+07 2.70773e+06 -975060 -4.222e+06 1.10055e+07 -4.32169e+06 6.69475e+06 729583 6.0401e+06 2.13133e+06 3.2228e+06 649307 3.28472e+06 -4.10387e+06 244536 1.69175e+06 380762 385729 -982139 2.774e+06 -3.1712e+06 1.64542e+06 2.57736e+06 591995 -33385.1 1.18185e+06 789281 -676366 2.91734e+06 -1.31656e+06 -3.9068e+06 -686676 -1.0445e+06 -1.0864e+06 -1.18642e+06 -219597 3.65298e+06 483386 -561956 -2.34044e+06 -2.07133e+06 -507242 566413 1.17104e+06 3.35382e+06 851416 -1.66509e+06 290623 403372 -1.44841e+06 -427941 283185 -3.35061e+06 -107882 
7.23474e+07 -6.52729e+07 -2.47705e+07 2.36132e+07 2.95174e+07 -962749 1.99177e+07 6.25304e+06 -5.70399e+06 4.9191e+06 1.28819e+07 -2.80265e+06 -257279 -7.22468e+06 2.24297e+06 2.40485e+06 -5.8781e+06 9.57269e+06 -1.02312e+07 466541 -6.07435e+06 -4.73438e+06 -2.0171e+06 -1.30678e+06 5.46287e+06 -3.29053e+06 3.28011e+06 -6.87383e+06 3.0557e+06 2.88558e+06 -3.13508e+06 2.50463e+06 -3.27921e+06 -3.75802e+06 3.05768e+06 -3.33802e+06 448082 3.22341e+06 4.4462e+06 146147 -3.34721e+06 -1.01714e+06 -5.1518e+06 788751 792023 -316231 2.37302e+06 1.21861e+06 -912322 398639 2.58837e+06 2.72632e+06 421964 307125 2.10629e+06 1.71241e+06 1.20826e+06 948363 129782 141219 
1.67347e+08 -1.66094e+07 1.17761e+07 1.14804e+07 1.19734e+07 -3.22915e+06 1.48072e+07 1.87724e+06 2.24565e+06 -4.55115e+06 1.10986e+07 561212 3.44534e+06 869990 2.78541e+06 2.94917e+06 1.78366e+06 1.01191e+06 1.36106e+06 -5.58144e+06 815968 1.09494e+06 1.41905e+06 1.19287e+06 -341761 2.09981e+06 -3.13827e+06 578546 1.4132e+06 3835.59 -64992.1 628859 2.56587e+06 -851950 2.2392e+06 -1.79932e+06 -1.98814e+06 -1.01595e+06 -1.17454e+06 -291318 -1.63935e+06 -271407 4.37719e+06 -1.03593e+06 -1.03239e+06 -1.21115e+06 -686198 -1.67762e+06 5638.56 1.41037e+06 2.37806e+06 1.46498e+06 -1.6717e+06 1.74102e+06 -173086 -1.26386e+06 -268620 39830.2 -3.42558e+06 9364.93 
1.52078e+08 -3.52335e+07 9.09981e+06 -4.22087e+06 1.01212e+07 1.07119e+07 2.30126e+07 -2.1356e+06 1.7688e+06 -3.73057e+06 6.71858e+06 -607155 1.32023e+06 1.46972e+06 3.34047e+06 2.9232e+06 -211085 915825 -1.34028e+06 -769838 -598528 -1.16684e+06 -5745.86 -160430 2.44339e+06 -997149 1.02263e+06 1.93802e+06 -731663 470593 490521 -164517 -1.54075e+06 553699 -122172 1.24894e+06 942759 -695476 1.70729e+06 -90651.3 496525 791114 -834167 -1.08936e+06 410560 -722993 139371 1.47711e+06 -1.18813e+06 1.79432e+06 -570346 405865 1.66398e+06 347399 -341021 763091 1.43692e+06 1.09715e+06 2.12275e+06 -1.04294e+06 
1.62297e+08 367302 1.13598e+07 1.37641e+07 2.29885e+06 2.26329e+07 -8.98545e+06 -5.45643e+06 -4.62742e+06 9.222e+06 -2.80371e+06 -1.84108e+06 8.27729e+06 3.09723e+06 -1.27441e+06 -3.49403e+06 6.53665e+06 -723426 -1.98401e+06 -4.7584e+06 -412093 3.87313e+06 4.16817e+06 1.69051e+06 9.17444e+06 5.21402e+06 -5.71094e+06 -9.29233e+06 -1.71231e+06 1.50784e+06 2.08774e+06 -3.1003e+06 -5.05363e+06 2.83034e+06 3.60888e+06 4.58608e+06 66935.8 -2.06727e+06 -829200 -585587 -240230 -652303 1.56824e+06 250512 -593681 933520 1.06918e+06 407521 -1.05123e+06 -217346 -600755 -646357 216016 154141 650673 428642 -542666 473324 3065.81 -203034 
1.62297e+08 367302 1.13598e+07 1.37641e+07 2.29885e+06 2.26329e+07 -8.98545e+06 -5.45643e+06 -4.62742e+06 9.222e+06 -2.80371e+06 -1.84108e+06 8.27729e+06 3.09723e+06 -1.27441e+06 -3.49403e+06 6.53665e+06 -723426 -1.98401e+06 -4.7584e+06 -412093 3.87313e+06 4.16817e+06 1.69051e+06 9.17444e+06 5.21402e+06 -5.71094e+06 -9.29233e+06 -1.71231e+06 1.50784e+06 2.08774e+06 -3.1003e+06 -5.05363e+06 2.83034e+06 3.60888e+06 4.58608e+06 66935.8 -2.06727e+06 -829200 -585587 -240230 -652303 1.56824e+06 250512 -593681 933520 1.06918e+06 407521 -1.05123e+06 -217346 -600755 -646357 216016 154141 650673 428642 -542666 473324 3065.81 -203034 
1.25173e+08 1.89509e+07 7.05681e+06 4.61771e+07 7.3044e+06 -1.24016e+07 -2.63752e+07 6.40359e+06 7.78071e+06 -1.14132e+06 1.25485e+07 9.62646e+06 -1.72315e+06 1.11163e+06 -442283 -1.98195e+06 2.93567e+06 4.09961e+06 910244 2.47163e+06 3.18411e+06 -6.69499e+06 -3.16855e+06 997629 -5.20766e+06 -9.14601e+06 -3.92809e+06 -260989 -1.11765e+06 5.70862e+06 -613788 4.30703e+06 -1.7187e+06 -774596 2.10911e+06 261577 -2.84657e+06 -543590 -2.77901e+06 -86172.2 -946792 554921 448846 223492 -2.36261e+06 670926 -1.76909e+06 1.35629e+06 -2.00241e+06 -2.31001e+06 -2.45366e+06 -1.47879e+06 -145296 281043 -409974 -377283 -190439 1.15188e+06 548247 -1.14422e+06 
1.39656e+08 -5.12251e+07 4.41272e+06 -4.20775e+06 7.17051e+06 8.75693e+06 2.70012e+07 -6.27885e+06 5.81142e+06 -1.51875e+06 6.87991e+06 1.13255e+07 -9.2736e+06 -1.1074e+06 -6.36455e+06 -7.62694e+06 3.50648e+06 379149 -902754 3.03247e+06 2.82852e+06 -845413 1.90328e+06 -4.22971e+06 781547 2.48828e+06 628377 482682 346229 -1.93274e+06 -1.80611e+06 -502592 1.48419e+06 -1.87174e+06 -1.29599e+06 919355 2.57187e+06 1.05408e+06 1.03439e+06 -3.17748e+06 -48170.9 758182 -820374 -288826 224913 -820969 -1.71121e+06 5.03468e+06 -849474 -850008 1.64879e+06 -3.88627e+06 1.30687e+06 733058 -840616 -1.01539e+06 -1.60189e+06 1.00954e+06 -629470 1.68509e+06 
1.39656e+08 -5.12251e+07 4.41272e+06 -4.20775e+06 7.17051e+06 8.75693e+06 2.70012e+07 -6.27885e+06 5.81142e+06 -1.51875e+06 6.87991e+06 1.13255e+07 -9.2736e+06 -1.1074e+06 -6.36455e+06 -7.62694e+06 3.50648e+06 379149 -902754 3.03247e+06 2.82852e+06 -845413 1.90328e+06 -4.22971e+06 781547 2.48828e+06 628377 482682 346229 -1.93274e+06 -1.80611e+06 -502592 1.48419e+06 -1.87174e+06 -1.29599e+06 919355 2.57187e+06 1.05408e+06 1.03439e+06 -3.17748e+06 -48170.9 758182 -820374 -288826 224913 -820969 -1.71121e+06 5.03468e+06 -849474 -850008 1.64879e+06 -3.88627e+06 1.30687e+06 733058 -840616 -1.01539e+06 -1.60189e+06 1.00954e+06 -629470 1.68509e+06 
1.02516e+08 -4.66405e+07 -9.95718e+06 -1.82873e+07 -1.33246e+07 -2.17603e+07 -2.31671e+06 1.11908e+07 2.54193e+07 -9.60441e+06 -785466 4.31265e+06 -6.38697e+06 4.33926e+06 -3.94127e+06 -1.86259e+06 -8.81453e+06 4.59604e+06 -5.12623e+06 1.03429e+07 -9.86289e+06 -1.98964e+06 4.99765e+06 4.50279e+06 1.72055e+06 8.79045e+06 -1.06994e+06 4.31278e+06 6.74577e+06 2.34616e+06 1.40331e+06 3.32339e+06 -1.67939e+06 1.16823e+06 1.41738e+06 2.0326e+06 606716 -1.16896e+06 998092 -784995 784325 -745078 263993 -135576 350244 168188 1.3303e+06 -1.91119e+06 444513 -998120 -922172 -1.08775e+06 -689445 -832730 22739.6 -70998.6 549933 -650142 7110.33 -388307 
1.02516e+08 -4.66405e+07 -9.95718e+06 -1.82873e+07 -1.33246e+07 -2.17603e+07 -2.31671e+06 1.11908e+07 2.54193e+07 -9.60441e+06 -785466 4.31265e+06 -6.38697e+06 4.33926e+06 -3.94127e+06 -1.86259e+06 -8.81453e+06 4.59604e+06 -5.12623e+06 1.03429e+07 -9.86289e+06 -1.98964e+06 4.99765e+06 4.50279e+06 1.72055e+06 8.79045e+06 -1.06994e+06 4.31278e+06 6.74577e+06 2.34616e+06 1.40331e+06 3.32339e+06 -1.67939e+06 1.16823e+06 1.41738e+06 2.0326e+06 606716 -1.16896e+06 998092 -784995 784325 -745078 263993 -135576 350244 168188 1.3303e+06 -1.91119e+06 444513 -998120 -922172 -1.08775e+06 -689445 -832730 22739.6 -70998.6 549933 -650142 7110.33 -388307 
1.51019e+08 -2.26106e+07 1.24701e+07 4.66935e+06 1.80615e+07 9.99864e+06 2.28183e+07 -7.2929e+06 1.68492e+06 3.34106e+06 -2.68752e+06 6.42538e+06 419290 3.15182e+06 -2.09883e+06 1.29209e+06 -2.07501e+06 416457 -301654 -959306 1.35076e+06 -2.03994e+06 -1.56932e+06 -2.06754e+06 -417366 2.46638e+06 3.83118e+06 3.05216e+06 -44442.2 5.47568e+06 -246066 -3.76549e+06 -2.33073e+06 2.86382e+06 -806493 2.49111e+06 -2.34982e+06 1.11864e+06 1.74023e+06 1.00862e+06 372097 934643 -658904 -177389 -166039 -625294 -2.38544e+06 902167 322916 2.10136e+06 636332 1.3161e+06 164518 770804 -1.70423e+06 -785557 851383 210640 1.34517e+06 -1.49289e+06 
1.51019e+08 -2.26106e+07 1.24701e+07 4.66935e+06 1.80615e+07 9.99864e+06 2.28183e+07 -7.2929e+06 1.68492e+06 3.34106e+06 -2.68752e+06 6.42538e+06 419290 3.15182e+06 -2.09883e+06 1.29209e+06 -2.07501e+06 416457 -301654 -959306 1.35076e+06 -2.03994e+06 -1.56932e+06 -2.06754e+06 -417366 2.46638e+06 3.83118e+06 3.05216e+06 -44442.2 5.47568e+06 -246066 -3.76549e+06 -2.33073e+06 2.86382e+06 -806493 2.49111e+06 -2.34982e+06 1.11864e+06 1.74023e+06 1.00862e+06 372097 934643 -658904 -177389 -166039 -625294 -2.38544e+06 902167 322916 2.10136e+06 636332 1.3161e+06 164518 770804 -1.70423e+06 -785557 851383 210640 1.34517e+06 -1.49289e+06 
1.41305e+08 -2.09267e+07 1.34178e+07 6.40215e+06 6.88051e+06 1.11398e+07 1.7177e+07 -8.65063e+06 494839 5.38019e+06 7.71506e+06 1.81035e+07 -9.69804e+06 -1.74019e+06 -1.08807e+07 -1.0026e+07 37802.6 89520.5 -1.78776e+06 3.34066e+06 8.79873e+06 -925383 251247 -5.59288e+06 -2.9904e+06 3.35061e+06 3.05464e+06 -3.16987e+06 -1.80364e+06 -1.16701e+06 -46456.5 865712 1.02456e+06 -1.6274e+06 -408495 -1.50439e+06 -568273 -282476 -3.79927e+06 697831 -685662 -250398 838627 524472 1.23707e+06 2.78001e+06 2.28285e+06 -3.27905e+06 355758 679352 -1.11305e+06 1.81153e+06 -1.0463e+06 -2.06922e+06 1.8093e+06 1.46084e+06 603509 -1.54197e+06 -9207.92 -834008 
1.41305e+08 -2.09267e+07 1.34178e+07 6.40215e+06 6.88051e+06 1.11398e+07 1.7177e+07 -8.65063e+06 494839 5.38019e+06 7.71506e+06 1.81035e+07 -9.69804e+06 -1.74019e+06 -1.08807e+07 -1.0026e+07 37802.6 89520.5 -1.78776e+06 3.34066e+06 8.79873e+06 -925383 251247 -5.59288e+06 -2.9904e+06 3.35061e+06 3.05464e+06 -3.16987e+06 -1.80364e+06 -1.16701e+06 -46456.5 865712 1.02456e+06 -1.6274e+06 -408495 -1.50439e+06 -568273 -282476 -3.79927e+06 697831 -685662 -250398 838627 524472 1.23707e+06 2.78001e+06 2.28285e+06 -3.27905e+06 355758 679352 -1.11305e+06 1.81153e+06 -1.0463e+06 -2.06922e+06 1.8093e+06 1.46084e+06 603509 -1.54197e+06 -9207.92 -834008 
1.04387e+08 -6.31423e+07 -1.86049e+07 -3.56706e+07 -4.20525e+06 -1.82636e+07 -7.7389e+06 2.10653e+07 1.04309e+07 -1.75401e+07 -1.62046e+07 -3.89648e+06 -7.33058e+06 -7.34383e+06 -1.22026e+06 -1.79492e+06 -2.80193e+06 -4.95773e+06 1.52859e+06 -4.05732e+06 8.68048e+06 -29288.5 -3.38936e+06 -742105 391964 -438070 682807 -3.05126e+06 -995028 2.15869e+06 1.01031e+06 -1.38541e+06 180947 -943359 456097 -802790 337281 334498 541918 -182110 39432.9 83945.2 628789 348397 -388562 -431471 201813 -29491.7 58697.9 345088 182738 -232631 -246013 427660 -31176.7 -268063 727933 450378 -87671.3 -143951 
1.04387e+08 -6.31423e+07 -1.86049e+07 -3.56706e+07 -4.20525e+06 -1.82636e+07 -7.7389e+06 2.10653e+07 1.04309e+07 -1.75401e+07 -1.62046e+07 -3.89648e+06 -7.33058e+06 -7.34383e+06 -1.22026e+06 -1.79492e+06 -2.80193e+06 -4.95773e+06 1.52859e+06 -4.05732e+06 8.68048e+06 -29288.5 -3.38936e+06 -742105 391964 -438070 682807 -3.05126e+06 -995028 2.15869e+06 1.01031e+06 -1.38541e+06 180947 -943359 456097 -802790 337281 334498 541918 -182110 39432.9 83945.2 628789 348397 -388562 -431471 201813 -29491.7 58697.9 345088 182738 -232631 -246013 427660 -31176.7 -268063 727933 450378 -87671.3 -143951 
1.25173e+08 1.89509e+07 7.05681e+06 4.61771e+07 7.3044e+06 -1.24016e+07 -2.63752e+07 6.40359e+06 7.78071e+06 -1.14132e+06 1.25485e+07 9.62646e+06 -1.72315e+06 1.11163e+06 -442283 -1.98195e+06 2.93567e+06 4.09961e+06 910244 2.47163e+06 3.18411e+06 -6.69499e+06 -3.16855e+06 997629 -5.20766e+06 -9.14601e+06 -3.92809e+06 -260989 -1.11765e+06 5.70862e+06 -613788 4.30703e+06 -1.7187e+06 -774596 2.10911e+06 261577 -2.84657e+06 -543590 -2.77901e+06 -86172.2 -946792 554921 448846 223492 -2.36261e+06 670926 -1.76909e+06 1.35629e+06 -2.00241e+06 -2.31001e+06 -2.45366e+06 -1.47879e+06 -145296 281043 -409974 -377283 -190439 1.15188e+06 548247 -1.14422e+06 
1.36802e+08 -8.04729e+06 9.35868e+06 1.94613e+07 -2.06162e+06 3.23829e+06 -2.84477e+07 -2.6594e+06 -5.56535e+06 2.28801e+06 1.84235e+06 1.15219e+07 -8.12269e+06 -1.40263e+07 6.05644e+06 5.82951e+06 -2.17641e+06 1.05849e+06 650339 -6.79574e+06 -3.85002e+06 50854 3.86611e+06 -3.03094e+06 1.59186e+06 1.59284e+06 1.77007e+06 3.24508e+06 383535 -1.12375e+06 1.90413e+06 -614087 1.43185e+06 -1.09541e+06 -637956 -541443 866796 1.01661e+06 -6458.37 1.35355e+06 170034 1.32684e+06 -1.18629e+06 346017 -1.42633e+06 -1.4412e+06 400985 -399740 515113 -354408 -215302 -123075 -113483 -186248 -489888 -563873 -1.02906e+06 973155 784652 578030 
1.36802e+08 -8.04729e+06 9.35868e+06 1.94613e+07 -2.06162e+06 3.23829e+06 -2.84477e+07 -2.6594e+06 -5.56535e+06 2.28801e+06 1.84235e+06 1.15219e+07 -8.12269e+06 -1.40263e+07 6.05644e+06 5.82951e+06 -2.17641e+06 1.05849e+06 650339 -6.79574e+06 -3.85002e+06 50854 3.86611e+06 -3.03094e+06 1.59186e+06 1.59284e+06 1.77007e+06 3.24508e+06 383535 -1.12375e+06 1.90413e+06 -614087 1.43185e+06 -1.09541e+06 -637956 -541443 866796 1.01661e+06 -6458.37 1.35355e+06 170034 1.32684e+06 -1.18629e+06 346017 -1.42633e+06 -1.4412e+06 400985 -399740 515113 -354408 -215302 -123075 -113483 -186248 -489888 -563873 -1.02906e+06 973155 784652 578030 
1.3837e+08 -1.40024e+07 9.94927e+06 2.02873e+07 -1.18932e+06 783964 -2.43596e+07 -4.93686e+06 -6.82177e+06 3.54448e+06 1.12434e+06 1.18909e+07 -7.43845e+06 -1.49187e+07 5.56212e+06 7.09866e+06 -2.22795e+06 -477666 1.60279e+06 -6.31922e+06 -3.76064e+06 1.95144e+06 4.76507e+06 -3.20074e+06 3.79724e+06 4.77665e+06 408197 1.7878e+06 -406124 -2.2941e+06 1.75486e+06 -1.44457e+06 2.32459e+06 -681940 -1.01039e+06 -1.4082e+06 -43458.6 1.33434e+06 -1.01931e+06 1.83657e+06 736235 -553363 -676347 -75369.8 89764.4 196924 -996673 458835 617535 -412298 -993165 439792 196038 419553 812333 -128262 1.16576e+06 -188824 340845 -608654 
1.45856e+07 1.44188e+07 -2.48258e+07 -2.95705e+06 2.37919e+06 1.30024e+06 -2.85038e+06 1.55113e+07 -1.03084e+07 1.11793e+06 -8.01147e+06 751758 1.01507e+07 -319950 -2.23315e+06 -2.59641e+06 2.64233e+06 -6.03752e+06 -4.78406e+06 -6.59894e+06 5.60417e+06 415983 142279 -1.43155e+06 -4.99995e+06 2.59587e+06 -117643 5.34713e+06 1.84768e+06 -5.1517e+06 2.59674e+06 558675 608804 2.486e+06 1.75819e+06 4.86765e+06 -1.10749e+06 840607 2.63063e+06 1.8174e+06 -5.39118e+06 815948 -1.36917e+06 -1.15855e+06 -1.09382e+06 2.75348e+06 515547 2.06295e+06 -384694 -2.16614e+06 1.23183e+06 -1.97963e+06 -1.03083e+06 -1.6218e+06 -401794 368537 -2614.65 -1.98936e+06 519736 -697643 
-2.83621e+07 -7.64232e+06 1.54922e+07 -9.20449e+06 3.65423e+07 528074 -37599.7 1.43232e+07 -6.9553e+06 -959591 2.55278e+06 -8.81692e+06 -1.00144e+06 -8.47908e+06 -4.62736e+06 1.17811e+06 3.09179e+06 -1.46652e+06 -7.44093e+06 2.33016e+06 1.42477e+06 6.1346e+06 1.14576e+06 -3.62332e+06 397191 -123216 -510745 4.91423e+06 -4.07371e+06 1.2146e+06 -758953 2.14032e+06 -1.73943e+06 1.75987e+06 1.23298e+06 -1.27081e+06 -165118 -128545 553950 858500 414894 -556017 326897 -42049.4 -906780 -177834 244854 500357 1.81213e+06 -1.62498e+06 190063 -211972 -293141 -605676 -1.18245e+06 507760 893628 -1.01774e+06 -338579 -636667 
-2.83621e+07 -7.64232e+06 1.54922e+07 -9.20449e+06 3.65423e+07 528074 -37599.7 1.43232e+07 -6.9553e+06 -959591 2.55278e+06 -8.81692e+06 -1.00144e+06 -8.47908e+06 -4.62736e+06 1.17811e+06 3.09179e+06 -1.46652e+06 -7.44093e+06 2.33016e+06 1.42477e+06 6.1346e+06 1.14576e+06 -3.62332e+06 397191 -123216 -510745 4.91423e+06 -4.07371e+06 1.2146e+06 -758953 2.14032e+06 -1.73943e+06 1.75987e+06 1.23298e+06 -1.27081e+06 -165118 -128545 553950 858500 414894 -556017 326897 -42049.4 -906780 -177834 244854 500357 1.81213e+06 -1.62498e+06 190063 -211972 -293141 -605676 -1.18245e+06 507760 893628 -1.01774e+06 -338579 -636667 
3.97208e+07 866961 -3.79953e+07 -7.98114e+06 1.63563e+07 8.41824e+06 -1.0646e+07 1.32603e+07 -1.09853e+07 8.07109e+06 -5.1049e+06 -3.55476e+06 1.66951e+06 -3.01041e+06 454740 511900 2.37671e+06 -2.32761e+06 1.46169e+06 1.70311e+06 -6.99296e+06 1.76119e+06 1.12949e+06 -2.49286e+06 -3.80245e+06 -3.05002e+06 6.05517e+06 1.75505e+06 5.6147e+06 2.04566e+06 -4.80946e+06 -2.36217e+06 3.3253e+06 -921611 1.90956e+06 1.65408e+06 -2.07927e+06 -1.54745e+06 -709969 1.43021e+06 -4.33214e+06 1.18811e+06 2.73999e+06 190171 2.82398e+06 952607 3.65213e+06 825090 -4.7709e+06 310009 -628044 78312.8 757477 940138 395273 -599962 311663 775048 -496591 1.13626e+06 
2.1736e+07 3.5089e+06 -3.99053e+07 -1.34755e+07 1.3903e+07 8.85722e+06 -9.85648e+06 1.22348e+07 -1.14718e+07 9.09226e+06 -2.64449e+06 -3.20543e+06 -1.12164e+06 -3.39313e+06 1.7018e+06 558782 2.65694e+06 -765400 1.11536e+06 2.0209e+06 -5.03219e+06 2.89424e+06 1.3701e+06 -1.41165e+06 -3.65172e+06 -1.83539e+06 4.58423e+06 148712 6.55488e+06 355228 -3.33821e+06 -3.23756e+06 2.8185e+06 214397 2.39376e+06 -454439 -2.76659e+06 -786116 -1.43638e+06 8555.89 -4.50888e+06 1.03392e+06 2.31636e+06 -1.13684e+06 1.86001e+06 227973 2.72762e+06 417767 -3.07031e+06 1.10861e+06 -68738.4 -699489 1.46139e+06 5586.01 44594.6 -1.37212e+06 867428 -269298 -4831.61 311345 
-4.49573e+07 -1.10154e+07 -4.50366e+06 5.1386e+06 1.25196e+07 5.61681e+06 4.48074e+06 3.76924e+06 -1.21995e+07 -8.07356e+06 1.55812e+06 -5.00814e+06 9.42596e+06 -1.11653e+07 -5.92591e+06 -2.73805e+06 -2.34849e+06 -840728 -2.05684e+06 -1.56478e+06 -876889 419062 -2.01438e+06 3.56949e+06 -3.60484e+06 720477 3.14991e+06 773445 -2.85613e+06 -2.46057e+06 -223232 883569 739795 -3.60312e+06 275738 2.3476e+06 1.11808e+06 417261 1.16414e+06 -2.2786e+06 -98320.4 1.32579e+06 2.52786e+06 -3.89245e+06 1.32776e+06 -1.42605e+06 -750509 -91729.2 -322759 105684 -246302 -1.02137e+06 1.09171e+06 -1.60535e+06 1.70388e+06 -1.30516e+06 422677 -1.94522e+06 2.95562e+06 -3.99561e+06 
-2.09259e+07 6.85848e+07 -2.67446e+07 -1.19668e+07 1.38583e+07 3.87689e+06 3.74761e+06 5.50726e+06 -4.05826e+06 4.05586e+06 1.30102e+06 -6.8782e+06 3.03329e+06 -7.17509e+06 -7.9332e+06 -9.11071e+06 1.23981e+06 5.08137e+06 -902676 -7.38235e+06 -2.70303e+06 3.97017e+06 -4.30247e+06 3.51382e+06 3.57709e+06 118404 421159 -477016 1.60265e+06 1.2284e+06 915465 4.09979e+06 515401 -3.10841e+06 -967617 583898 -180446 1.01823e+06 -142308 -211422 2.46517e+06 2.05198e+06 -822621 236442 2.06812e+06 1.95643e+06 -1.23276e+06 -678031 52364.8 -1.49607e+06 -374092 764342 1.20213e+06 -80578.7 -885010 38033 178203 620932 -928471 640300 
-2.41063e+07 -2.28935e+07 -6.42435e+07 1.28233e+06 2.12931e+07 -8.53136e+06 2.16306e+06 5.47329e+06 2.71911e+06 1.02397e+07 1.22736e+06 -2.50702e+06 -8.38266e+06 2.24127e+06 4.27936e+06 3.53791e+06 7.12123e+06 -761096 3.55834e+06 5.81927e+06 1.45789e+06 -265360 1.35499e+06 -2.18274e+06 -994385 -143908 -670553 -3.25262e+06 -1.15467e+06 -1.49559e+06 1.87592e+06 -1.16342e+06 2.04975e+06 4.32451e+06 -2.84203e+06 -90262.8 -1.69979e+06 2.20691e+06 486653 -1.70137e+06 2.13809e+06 -2.36544e+06 -1.82347e+06 -528685 2.01578e+06 -2.21812e+06 -695646 -321821 105982 -972073 932320 755271 45450.8 -987550 -363938 -516625 76288 889325 -111551 -227199 
1.87799e+06 -8.02009e+06 -6.68491e+07 1.44933e+07 3.13737e+07 -1.99558e+07 1.82296e+06 1.06727e+06 171883 6.06127e+06 -3.76973e+06 1.73842e+06 -8.46195e+06 5.13451e+06 6.63593e+06 1.74016e+06 2.14656e+06 1.76652e+06 5.98966e+06 3.39038e+06 -3.06896e+06 4.14886e+06 -1.98485e+06 -5.58993e+06 -534297 -1.78344e+06 1.10841e+06 -6.13092e+06 1.91707e+06 1.09316e+06 2.12679e+06 -1.60337e+06 2.72398e+06 2.83186e+06 -341263 -732935 -142768 812387 -3.02726e+06 -2.06941e+06 1.49537e+06 -2.3098e+06 -316180 -514890 1.93085e+06 -755436 -411181 -438065 875467 -1.52632e+06 486401 -361228 -586136 -580977 -1.15659e+06 -475834 242562 -1.21193e+06 1.31712e+06 -570756 
-3.34459e+07 2.87096e+07 2.76318e+07 -1.29564e+07 2.78019e+07 -2.01462e+07 -3.09779e+06 -2.48832e+06 8.73964e+06 8.95291e+06 -2.01694e+06 -919427 7.67526e+06 -7.73526e+06 -2.33003e+06 -335315 -1.34707e+06 2.28129e+06 5.28335e+06 -2.45333e+06 2.4587e+06 -290430 4.36843e+06 -898839 -1.4584e+06 1.73814e+06 2.10493e+06 -1.27839e+06 -759372 21602.3 -93887.8 2.18909e+06 -527766 1.48468e+06 -137254 1.69426e+06 -206058 1.47867e+06 833845 -3.56414e+06 -112038 -572809 -2.44434e+06 -499499 -1.07919e+06 -500118 1.13236e+06 -1.22195e+06 -1.78424e+06 -1.38618e+06 -334005 401705 -1.23676e+06 1.57957e+06 -798432 -384222 -1.94385e+06 -1.37967e+06 1.68312e+06 1.68773e+06 
-2.66804e+06 4.11928e+06 1.43264e+07 -4.37697e+06 1.75733e+07 -1.74441e+07 -4.21217e+06 8.09446e+06 3.63365e+06 6.2967e+06 -3.42466e+06 -4.44757e+06 9.18927e+06 -5.59267e+06 -6.03896e+06 3.80009e+06 5.37673e+06 371177 -1.64504e+06 -23051.2 4.22164e+06 1.68748e+06 1.87074e+06 -1.41354e+06 -89808.5 746503 4.02213e+06 -370433 921933 66066.7 -2.79466e+06 1.20076e+06 -1.91929e+06 1.63427e+06 2.47837e+06 880973 494122 -824858 2.18087e+06 -2.63932e+06 -4.2514e+06 -819806 -2.55425e+06 -1.14515e+06 -2.74102e+06 342271 -1.38341e+06 -2.30476e+06 1.7955e+06 -1.54588e+06 1.16628e+06 643430 -1.09744e+06 2.04731e+06 388357 -1.45168e+06 -267299 -2.33522e+06 1.99162e+06 875378 
-6.64382e+07 5.96289e+07 1.35606e+07 1.09198e+07 4.55645e+07 -4.56858e+07 2.33171e+06 -369909 1.31121e+07 8.2408e+06 -324681 1.13776e+06 9.93308e+06 -2.43045e+06 -2.97731e+06 1.02987e+06 -5.8385e+06 5.82897e+06 4.93e+06 -6.38447e+06 841804 -1.56421e+06 1.41986e+06 460970 148568 2.01111e+06 1.37821e+06 -494071 -3.45324e+06 140432 12823 1.31846e+06 537569 -740502 -1.563e+06 1.03194e+06 -449493 -968956 -883132 -470031 2.55871e+06 -377181 199057 -1.3138e+06 1.56908e+06 429947 1.98578e+06 196231 -1.80933e+06 693445 -345689 -559936 -925012 346606 -224049 1.15341e+06 -910646 491937 -401524 -710447 
-2.41586e+07 7.50432e+07 -2.85699e+07 -1.19166e+07 1.03869e+07 4.10036e+06 3.98478e+06 2.38823e+06 -2.81754e+06 3.46144e+06 2.14631e+06 -7.52526e+06 2.16322e+06 -6.61977e+06 -6.85211e+06 -7.92687e+06 -992147 4.67094e+06 1.37867e+06 -6.06572e+06 -3.21351e+06 3.58438e+06 -3.32652e+06 3.49238e+06 3.74332e+06 268136 972135 -958623 1.442e+06 1.67388e+06 1.89114e+06 3.91579e+06 1.13728e+06 -2.69196e+06 -346007 359741 34570.4 669328 -206507 -327698 2.0314e+06 1.98979e+06 -677174 755404 1.2018e+06 2.56568e+06 -1.50624e+06 -439948 261373 -945627 -208573 950397 209098 710455 -1.74395e+06 -403016 53590.8 74371.9 -787102 1.55368e+06 
-4.46229e+07 6.43978e+07 -2.87418e+07 -2.27562e+07 3.21197e+07 7.25561e+06 -2.01422e+06 9.49715e+06 -1.20817e+07 -8.03083e+06 44234.6 7.34454e+06 2.83711e+06 8.94927e+06 -558211 1.09822e+06 -872044 -7.6197e+06 117619 -1.06975e+06 -521992 -1.33376e+06 4.48495e+06 495864 -3.34679e+06 1.40071e+06 -2.51004e+06 485948 76776.4 1.17576e+06 -515804 -577105 2.33208e+06 413027 1.75608e+06 1.05755e+06 3.41182e+06 -682065 -2.30841e+06 -1.13102e+06 531087 -759005 -3.089e+06 -255843 -379375 1.17705e+06 -2.13074e+06 -648199 1.68805e+06 954113 -600739 5739.63 1.43154e+06 -345496 1.19253e+06 -682179 -1.46207e+06 1.0793e+06 215179 -1.7781e+06 
-7.61475e+07 1.62298e+07 1.88628e+06 1.6174e+07 1.72249e+07 -5.80707e+06 3.1409e+06 8.7994e+06 -9.13349e+06 -5.52843e+06 -177520 3.29875e+06 -1.06583e+06 -322444 -5.73414e+06 1.98015e+06 3.40189e+06 -9.23009e+06 -3.52108e+06 -847784 -2.17632e+06 -3.03899e+06 -1.24127e+06 4.43277e+06 -697381 2.71822e+06 -2.17449e+06 1.40161e+06 -896312 -2.46608e+06 -179855 -157288 1.37161e+06 -640864 311149 1.47947e+06 -823327 1.0383e+06 45204.8 386952 -89172.4 504236 -34416.4 2.79295e+06 -621101 794687 291275 -420775 -446859 1.16222e+06 -1.05563e+06 -381352 -408466 -780377 -151821 264727 -195174 1.03384e+06 314451 1.59642e+06 
-2.86391e+07 9.08179e+07 -2.04633e+07 -2.90385e+07 2.10478e+07 7.77026e+06 93312.8 9.24849e+06 -6.61741e+06 -6.50508e+06 -466492 754945 623072 5.31841e+06 -2.14915e+06 1.43015e+06 1.03748e+06 -5.94327e+06 1.78545e+06 -894686 -3.35752e+06 -334082 3.12957e+06 -1.37523e+06 -1.93311e+06 231736 -711958 184123 -346510 1.94349e+06 -212472 159225 837412 -341.677 3.43775e+06 -630490 2.35047e+06 993795 -2.76828e+06 -259383 450274 -693831 -1.61239e+06 -11430.1 276173 1.3938e+06 -2.68835e+06 -125717 2.4918e+06 933445 -995253 -246211 2.58975e+06 287428 508799 -333972 -985635 -248643 305452 -1.49437e+06 
-6.36041e+07 8.34532e+06 -2.46667e+07 3.51954e+06 2.21358e+07 1.30647e+06 135564 1.15052e+07 -1.4726e+07 -5.67331e+06 -1.86878e+06 3.00608e+06 2.36043e+06 4.71199e+06 497711 5.63879e+06 -1.61961e+06 -3.57115e+06 -1.92599e+06 2.761e+06 -913671 -1.80577e+06 2.05392e+06 -1.96302e+06 -1.45585e+06 2.96957e+06 -2.95071e+06 -1.16378e+06 -1.03372e+06 1.14219e+06 -568686 -987307 1.83498e+06 157615 773800 534540 -1.39649e+06 -1.32282e+06 -486028 446697 -1.02258e+06 -155394 -996036 98555.6 1.15014e+06 833356 -1.5557e+06 -1.05217e+06 444503 73702 631665 -574840 -720296 241534 -449478 -320495 156844 486186 -172564 -212531 
-3.3056e+07 1.41079e+07 2.27234e+07 -1.862e+07 2.47783e+07 -8.25641e+06 24248.6 6.30663e+06 6.45505e+06 4.60863e+06 1.54824e+06 -4.63225e+06 9.71026e+06 -8.74743e+06 -5.92207e+06 -2.27416e+06 667671 2.17487e+06 1.16124e+06 -4.6978e+06 -347933 2.12197e+06 628337 -309177 -385536 265854 3.09466e+06 1.86138e+06 -1.56034e+06 649829 -1.7297e+06 1.62313e+06 -538653 -69599.7 -1.34761e+06 1.39842e+06 -57139.6 -588070 221502 -1.37849e+06 2.34092e+06 617462 -971437 -1.34908e+06 632430 470441 -423134 -740370 -1.25518e+06 -469781 226299 1.79647e+06 144516 602379 165268 205099 -1.38781e+06 603024 396723 -339797 
-7.13767e+07 7.7833e+06 2.63911e+07 -1.84536e+07 2.82787e+07 -7.10639e+06 -1.17091e+06 -671711 7.70513e+06 3.88191e+06 1.76919e+06 -555078 8.37355e+06 -3.50997e+06 322773 1.21074e+06 -1.54373e+06 4.42313e+06 7.87269e+06 1.17855e+06 -2.18194e+06 -1.04602e+06 1.76772e+06 1.18424e+06 1.04791e+06 1.34335e+06 253844 -2.32279e+06 -3.48821e+06 1.92597e+06 -362299 -1.05531e+06 1.30139e+06 -1.41677e+06 -1.6924e+06 50512.2 -1.37256e+06 -645075 -459847 -1.43341e+06 1.31153e+06 -1.31386e+06 490117 539458 -296490 444789 1.88389e+06 -321732 -1.19463e+06 1.07237e+06 667902 -1.02954e+06 -224330 -1.01501e+06 427513 -241120 -1.17645e+06 1.03518e+06 -411919 9171.61 
-7.9005e+07 -6.11197e+06 -9.54261e+06 -5.19022e+06 2.39928e+07 2.91002e+06 -3.39107e+06 -653899 1.57094e+06 1.18476e+06 7.26625e+06 551562 -5.92209e+06 -4.34523e+06 -9.58182e+06 6.99059e+06 6.36024e+06 -104563 4.00983e+06 3.08139e+06 982450 -6.13129e+06 -873700 8.19394e+06 -266396 -106724 1.08841e+06 -1.31746e+06 1.13994e+06 -4.68485e+06 1.52262e+06 -702016 -4.97348e+06 1.78078e+06 -961296 -1.1471e+06 -1.45508e+06 998585 2.43014e+06 -215937 -211676 -347439 3.11623e+06 -591903 61080.4 -3.3934e+06 -234717 1.85156e+06 1.90325e+06 2.21664e+06 -2.57119e+06 639143 -435351 -1.51758e+06 4.07636e+06 -600556 -1.06472e+06 2.13163e+06 2.72938e+06 2.0973e+06 
-5.75038e+07 6.8615e+06 -3.14566e+07 -1.33381e+07 2.93446e+07 8.80343e+06 1.02203e+06 6.13761e+06 -1.00775e+07 -9.60329e+06 1.30344e+06 5.03788e+06 1.45666e+06 4.03509e+06 -2.27989e+06 -1.08239e+06 -6.09922e+06 -3.38961e+06 -4.05017e+06 2.36881e+06 -2.05679e+06 -2.05046e+06 4.94908e+06 -3.95996e+06 1.99484e+06 -1.42856e+06 -4.27704e+06 -278509 -1.64241e+06 571951 844886 -43791.5 -1.21694e+06 -916606 -1.04654e+06 -2.03518e+06 -2.89442e+06 -1.56955e+06 -727874 1.04563e+06 1.39801e+06 484619 -1.12523e+06 -1.8302e+06 1.19177e+06 -689887 153400 -398556 -1.98201e+06 317827 567010 882139 -312072 1.16937e+06 -676762 2.14172e+06 -653837 -199727 455938 1.33916e+06 
-5.47325e+07 2.13626e+07 -2.72442e+07 -1.41961e+07 2.74438e+07 9.49586e+06 -34427.3 7.53693e+06 -1.2562e+07 -7.87784e+06 4.34668e+06 1.44708e+06 -176557 4.6993e+06 -3.29744e+06 2.03616e+06 -3.43998e+06 -6.69732e+06 -4.60054e+06 1.06588e+06 -2.90953e+06 -1.07398e+06 1.63479e+06 -3.13201e+06 1.49447e+06 340320 -3.27429e+06 906226 -2.03355e+06 1.14618e+06 1.0723e+06 701604 -1.96401e+06 268144 -729630 -1.9562e+06 -2.00498e+06 -581426 -1.62367e+06 -521461 588689 1.43548e+06 99955.6 -1.00594e+06 666809 -1.13033e+06 293557 -323108 179268 -416197 569418 -73733.3 529755 302832 81608 1.89766e+06 643611 1.2434e+06 601876 827186 
-6.35326e+07 2.1651e+07 -2.21446e+07 9.73921e+06 5.57633e+06 -723183 5.20493e+06 -6.43572e+06 3.02495e+06 -1.25863e+06 4.59855e+06 8.35182e+06 7.07429e+06 -4.65484e+06 -5.05326e+06 -2.79253e+06 -1.65206e+06 -8.49138e+06 333490 -452983 -706211 907465 2.25156e+06 8.72899e+06 -1.92443e+06 1.48525e+06 2.92034e+06 1.32247e+06 831041 2.32099e+06 77292 -1.91322e+06 859045 -4.1762e+06 -2.46295e+06 1.54902e+06 786406 -886029 -165189 169818 403096 -1.27052e+06 2.82664e+06 -492867 -620402 -653905 1.68339e+06 404219 -1.40428e+06 -1.78918e+06 1.54354e+06 795678 1.3015e+06 -500637 2.5198e+06 -121908 -381778 2.20468e+06 174579 -1.30208e+06 
-2.71003e+07 8.86539e+07 -7.00456e+06 -2.07732e+07 1.2375e+07 1.6202e+06 2.56185e+06 6.44704e+06 504556 189426 78399.3 -469315 -3.92352e+06 -3.16865e+06 -1.2021e+07 -5.30853e+06 4.83552e+06 -3.96687e+06 1.00497e+06 -4.50905e+06 -4.83505e+06 -2.76672e+06 3.04178e+06 5.10657e+06 48412.7 -3.48054e+06 626951 728802 444202 -202625 1.30025e+06 -73575.4 1.94776e+06 -561777 1.53824e+06 -232802 1.86338e+06 22332.5 -2.02627e+06 549646 1.63463e+06 -2.08962e+06 -1.16701e+06 2.09656e+06 137320 1.59779e+06 -1.13328e+06 61864.1 486961 737251 438667 1.71896e+06 1.04896e+06 1.26768e+06 -23626 -1.15887e+06 -197793 -239644 -956603 -2.12001e+06 
-5.94038e+06 5.77632e+06 -4.54695e+07 -7.39513e+06 2.08342e+07 1.00557e+07 -5.90005e+06 6.37139e+06 -3.20007e+06 5.03434e+06 -1.84765e+06 -2.68331e+06 -7.89437e+06 7.28216e+06 4.54471e+06 2.5758e+06 2.17571e+06 3.37789e+06 -1.71987e+06 2.68347e+06 -809582 4.40274e+06 -1.5057e+06 -1.71536e+06 -1.235e+06 -2.06644e+06 -1.52053e+06 -5.77719e+06 2.57304e+06 709588 4.7417e+06 -1.56973e+06 2.41388e+06 1.98149e+06 -967435 -512166 -537671 1.40303e+06 -1.84218e+06 -3.25847e+06 -698152 -2.61145e+06 -334936 -3.36488e+06 2.01304e+06 -145868 -235776 -1.00304e+06 1.10291e+06 -770556 -1.06038e+06 -50187.2 2.20923e+06 -1.64638e+06 -328260 -547054 -302267 -263763 701528 319448 
-6.81438e+07 9.81118e+06 -2.50726e+06 9.79736e+06 2.07886e+07 -1.91603e+06 936082 1.11669e+07 -9.80594e+06 -2.95513e+06 1.19101e+06 3.4154e+06 -1.75177e+06 1.12441e+06 -5.84218e+06 4.43855e+06 3.58676e+06 -7.32256e+06 -6.60414e+06 -968873 301536 -2.05095e+06 -876694 2.64252e+06 137164 1.75593e+06 -2.9343e+06 2.17128e+06 -776585 -2.59315e+06 -85565.1 354093 786024 54659.9 -753631 676615 -1.81877e+06 748291 439945 20384.7 -86073.5 806262 153696 3.11875e+06 -224363 -340987 836383 -586087 -557616 626199 -672812 -1.29596e+06 -757892 -991505 -550560 419331 200534 215152 -29891.1 2.54967e+06 
-7.67451e+07 3.58513e+06 -2.28614e+06 3.4145e+06 3.24535e+07 -3.41249e+06 -1.73638e+06 8.18111e+06 -1.14387e+07 -6.31042e+06 336403 3.84071e+06 3.01515e+06 -154690 -2.87834e+06 2.5749e+06 343844 -7.47821e+06 -4.46651e+06 277451 -142575 -875011 233672 105382 1.83933e+06 1.32011e+06 -3.46168e+06 2.6504e+06 -1.69173e+06 -1.09624e+06 -197412 793900 186818 645997 -993902 258185 -814452 77512.1 -408275 182727 180929 674281 -60919.7 1.97777e+06 963946 -619949 873331 -327582 -403121 388130 -480919 -1.03986e+06 -799373 -113531 -91043.4 748486 -285201 870346 -505621 1.04536e+06 
-5.05878e+07 2.42265e+07 1.55237e+07 -1.11107e+07 2.95815e+07 -6.76183e+06 576556 5.00815e+06 210984 2.55116e+06 1.85401e+06 -4.81038e+06 4.26703e+06 -6.25129e+06 -8.32224e+06 -461640 2.57776e+06 -1.59138e+06 -1.5982e+06 -3.17688e+06 -1.19199e+06 845335 -47385.3 300287 -1.45012e+06 937031 -248826 1.75999e+06 -991371 338268 -352792 2.48256e+06 -801386 1.4067e+06 -1.40339e+06 556887 667706 -1.53297e+06 -1.30227e+06 807301 3.23439e+06 236446 -841902 -959191 779117 -1.52847e+06 381461 603023 -1.24176e+06 477045 -78393.8 1.00577e+06 -204285 964490 1.48132e+06 224701 33495.2 199153 -111331 -66389.2 
-6.29894e+07 7.11847e+06 -2.54842e+07 -1.29719e+07 2.45968e+07 -3.98433e+06 -3.6873e+06 1.89866e+06 215516 -383788 122838 9.08694e+06 4.95454e+06 1.18912e+06 -83368.4 6.20629e+06 3.74944e+06 -397707 -1.17466e+06 5.06979e+06 4.42785e+06 -293291 4.95942e+06 833306 -3.64982e+06 232624 -1.13551e+06 -3.2491e+06 5.33043e+06 -420061 3.16857e+06 538888 -2.21858e+06 702173 -941320 1.28594e+06 1.01452e+06 3.62644e+06 -116833 89466.1 -2.70905e+06 101066 -1.18225e+06 678362 2.63473e+06 -73630.7 -462250 -116570 1.22027e+06 372977 -594577 286949 -759223 525666 607468 -2.30416e+06 -804653 1.05574e+06 229407 863809 
-1.04355e+07 -9.42729e+07 -6.35588e+07 -6.59753e+06 -2.61345e+06 7.52973e+06 5.96948e+06 1.82993e+06 3.72092e+06 7.72559e+06 3.6887e+06 -7.18336e+06 -1.11441e+07 -1.75044e+06 5.69148e+06 -29700.3 3.10014e+06 -2.09166e+06 6.80842e+06 2.73176e+06 1.41135e+06 2.96733e+06 166594 -963589 313717 -719648 1.25449e+06 3.48388e+06 -2.90253e+06 -743731 -1.81772e+06 729644 -1.74934e+06 2.07746e+06 -3.94042e+06 -1.08027e+06 -1.66661e+06 -946666 704776 -1.59303e+06 2.36936e+06 -1.40237e+06 -508002 1.42105e+06 -730827 659421 976259 590953 -849401 -1.90188e+06 606709 432161 -636170 -824160 -32494.2 232471 1.57429e+06 356012 9552.84 -33614.1 
-3.46471e+07 -1.49262e+07 -5.46175e+07 3.06022e+06 7.42149e+06 -4.95361e+06 4.17445e+06 -2.803e+06 1.3698e+07 9.06883e+06 -241948 -3.7128e+06 -1.05621e+07 4.87541e+06 6.85376e+06 5.14955e+06 3.85782e+06 -4.41945e+06 1.24448e+06 -846320 -2.78345e+06 -1.87942e+06 -3.03999e+06 -3.09038e+06 3.00092e+06 314902 4.86404e+06 570555 -2.63208e+06 -3.12975e+06 -3.32914e+06 1.48021e+06 -1.30022e+06 -2.16682e+06 872015 4.08678e+06 1.71125e+06 -3.26167e+06 447924 1.09569e+06 788151 1.23522e+06 2.66506e+06 3.39409e+06 -1.3182e+06 -228939 -901184 -675935 -556260 486900 -470199 -311447 -548613 -485095 286681 1.00143e+06 -2.37969e+06 -1.38979e+06 544824 -1.16856e+06 
-3.46471e+07 -1.49262e+07 -5.46175e+07 3.06022e+06 7.42149e+06 -4.95361e+06 4.17445e+06 -2.803e+06 1.3698e+07 9.06883e+06 -241948 -3.7128e+06 -1.05621e+07 4.87541e+06 6.85376e+06 5.14955e+06 3.85782e+06 -4.41945e+06 1.24448e+06 -846320 -2.78345e+06 -1.87942e+06 -3.03999e+06 -3.09038e+06 3.00092e+06 314902 4.86404e+06 570555 -2.63208e+06 -3.12975e+06 -3.32914e+06 1.48021e+06 -1.30022e+06 -2.16682e+06 872015 4.08678e+06 1.71125e+06 -3.26167e+06 447924 1.09569e+06 788151 1.23522e+06 2.66506e+06 3.39409e+06 -1.3182e+06 -228939 -901184 -675935 -556260 486900 -470199 -311447 -548613 -485095 286681 1.00143e+06 -2.37969e+06 -1.38979e+06 544824 -1.16856e+06 
-6.40518e+07 -1.10452e+07 3.51965e+07 1.17782e+07 2.11585e+06 -1.02816e+07 5.86753e+06 5.0336e+06 7.2579e+06 4.46941e+06 -5.5412e+06 1.60241e+06 -7.30756e+06 -5.03987e+06 -4.94848e+06 -1.25755e+06 7.79008e+06 1.75163e+06 -5.21275e+06 1.70173e+06 -4.36812e+06 4.89094e+06 -1.97695e+06 4.40105e+06 2.80659e+06 -3.38682e+06 -518203 -272578 744052 165138 155932 -5.87766e+06 1.71822e+06 -1.19777e+06 2.93015e+06 -3.40309e+06 -140029 558049 1.96568e+06 2.11514e+06 -832288 -1.52763e+06 -38480.4 835643 -269385 2.2825e+06 -3.62359e+06 -607602 -386785 -396284 1.04911e+06 -922001 -2.51022e+06 -1.83183e+06 -1.13577e+06 1.51699e+06 -416360 971926 388782 -887875 
-6.40518e+07 -1.10452e+07 3.51965e+07 1.17782e+07 2.11585e+06 -1.02816e+07 5.86753e+06 5.0336e+06 7.2579e+06 4.46941e+06 -5.5412e+06 1.60241e+06 -7.30756e+06 -5.03987e+06 -4.94848e+06 -1.25755e+06 7.79008e+06 1.75163e+06 -5.21275e+06 1.70173e+06 -4.36812e+06 4.89094e+06 -1.97695e+06 4.40105e+06 2.80659e+06 -3.38682e+06 -518203 -272578 744052 165138 155932 -5.87766e+06 1.71822e+06 -1.19777e+06 2.93015e+06 -3.40309e+06 -140029 558049 1.96568e+06 2.11514e+06 -832288 -1.52763e+06 -38480.4 835643 -269385 2.2825e+06 -3.62359e+06 -607602 -386785 -396284 1.04911e+06 -922001 -2.51022e+06 -1.83183e+06 -1.13577e+06 1.51699e+06 -416360 971926 388782 -887875 
-7.38069e+07 -1.37638e+07 -1.40073e+07 1.4271e+07 4.24519e+06 4.46005e+06 -6.09148e+06 -9.46053e+06 -671673 -1.75455e+07 1.43302e+06 1.03857e+07 960254 8.84093e+06 -1.01548e+07 1.01149e+07 -3.26806e+06 6.17568e+06 -212117 -2.66728e+06 785800 9.70241e+06 -2.36223e+06 -1.07674e+06 2.92609e+06 -2.22092e+06 -1.7752e+06 1.70393e+06 -540903 621758 -2.21979e+06 -1.89144e+06 -1.70026e+06 -2.45315e+06 -3.18275e+06 -1.18964e+06 758588 -2.88481e+06 785454 -2.11336e+06 -2.45141e+06 -3.69524e+06 -813866 996521 361063 -654059 1.70984e+06 1.61547e+06 246916 311456 -1.35869e+06 1.20665e+06 -1.83804e+06 747548 39840.6 -1.87944e+06 -1.35062e+06 -1.09276e+06 -1.09525e+06 -956063 
-7.38069e+07 -1.37638e+07 -1.40073e+07 1.4271e+07 4.24519e+06 4.46005e+06 -6.09148e+06 -9.46053e+06 -671673 -1.75455e+07 1.43302e+06 1.03857e+07 960254 8.84093e+06 -1.01548e+07 1.01149e+07 -3.26806e+06 6.17568e+06 -212117 -2.66728e+06 785800 9.70241e+06 -2.36223e+06 -1.07674e+06 2.92609e+06 -2.22092e+06 -1.7752e+06 1.70393e+06 -540903 621758 -2.21979e+06 -1.89144e+06 -1.70026e+06 -2.45315e+06 -3.18275e+06 -1.18964e+06 758588 -2.88481e+06 785454 -2.11336e+06 -2.45141e+06 -3.69524e+06 -813866 996521 361063 -654059 1.70984e+06 1.61547e+06 246916 311456 -1.35869e+06 1.20665e+06 -1.83804e+06 747548 39840.6 -1.87944e+06 -1.35062e+06 -1.09276e+06 -1.09525e+06 -956063 
-7.25881e+07 -3.50394e+07 -2.41368e+07 1.82868e+07 978569 3.34787e+06 -5.91024e+06 -8.05846e+06 -2.98159e+06 -1.40788e+07 -6.59193e+06 1.10231e+07 4.81069e+06 8.21237e+06 -1.14076e+07 4.35504e+06 3.94152e+06 1.16233e+07 2.01766e+06 -4.9955e+06 -2.4902e+06 2.58426e+06 -4.04332e+06 -2.13361e+06 -2.34023e+06 -1.99658e+06 4.1953e+06 -987308 1.87972e+06 -1.37919e+06 3.43615e+06 388237 -467092 415781 2.23849e+06 858550 -1.76077e+06 -718325 377205 283843 2.51199e+06 2.54446e+06 12114.4 -419216 -3.14708e+06 -1.59362e+06 840395 -799124 605256 1.80004e+06 2.13713e+06 -1.04153e+06 1.03235e+06 -1.01154e+06 -595927 1.01588e+06 1.24424e+06 -417508 945359 941132 
-7.25881e+07 -3.50394e+07 -2.41368e+07 1.82868e+07 978569 3.34787e+06 -5.91024e+06 -8.05846e+06 -2.98159e+06 -1.40788e+07 -6.59193e+06 1.10231e+07 4.81069e+06 8.21237e+06 -1.14076e+07 4.35504e+06 3.94152e+06 1.16233e+07 2.01766e+06 -4.9955e+06 -2.4902e+06 2.58426e+06 -4.04332e+06 -2.13361e+06 -2.34023e+06 -1.99658e+06 4.1953e+06 -987308 1.87972e+06 -1.37919e+06 3.43615e+06 388237 -467092 415781 2.23849e+06 858550 -1.76077e+06 -718325 377205 283843 2.51199e+06 2.54446e+06 12114.4 -419216 -3.14708e+06 -1.59362e+06 840395 -799124 605256 1.80004e+06 2.13713e+06 -1.04153e+06 1.03235e+06 -1.01154e+06 -595927 1.01588e+06 1.24424e+06 -417508 945359 941132 
-3.35754e+07 -3.00159e+07 -5.10627e+07 1.01231e+07 -4.57694e+06 1.28679e+07 -5.64021e+06 -6.10681e+06 4.35764e+06 4.62348e+06 4.96161e+06 1.98275e+06 -3.63618e+06 4.14178e+06 6.17831e+06 2.6542e+06 3.66716e+06 -1.74831e+06 -663608 3.44002e+06 8.99622e+06 1.27072e+06 -2.10601e+06 7.16122e+06 4.48455e+06 2.42561e+06 4.07195e+06 3.92405e+06 -2.27727e+06 2.53893e+06 3.89186e+06 3.37718e+06 3.12826e+06 -1.26348e+06 2.1073e+06 2.15829e+06 -93437.8 -1.35517e+06 -958501 3.20599e+06 140906 -4.37989e+06 -1.90991e+06 -2.642e+06 56098.3 371250 -649449 -29885.3 -1.73041e+06 590213 1.85156e+06 211560 -159443 1.22817e+06 -295087 391282 -214156 -603781 25904.6 1.61437e+06 
-3.35754e+07 -3.00159e+07 -5.10627e+07 1.01231e+07 -4.57694e+06 1.28679e+07 -5.64021e+06 -6.10681e+06 4.35764e+06 4.62348e+06 4.96161e+06 1.98275e+06 -3.63618e+06 4.14178e+06 6.17831e+06 2.6542e+06 3.66716e+06 -1.74831e+06 -663608 3.44002e+06 8.99622e+06 1.27072e+06 -2.10601e+06 7.16122e+06 4.48455e+06 2.42561e+06 4.07195e+06 3.92405e+06 -2.27727e+06 2.53893e+06 3.89186e+06 3.37718e+06 3.12826e+06 -1.26348e+06 2.1073e+06 2.15829e+06 -93437.8 -1.35517e+06 -958501 3.20599e+06 140906 -4.37989e+06 -1.90991e+06 -2.642e+06 56098.3 371250 -649449 -29885.3 -1.73041e+06 590213 1.85156e+06 211560 -159443 1.22817e+06 -295087 391282 -214156 -603781 25904.6 1.61437e+06 
