-2.84022e+07 -9.04037e+06 -3.44137e+07 -4.14289e+06 2.86794e+06 430587 -1.39638e+06 -4.37313e+06 6.30647e+06 3.59099e+06 -2.83469e+06 -9.04498e+06 -1.27369e+06 -1.92324e+06 -3.61775e+06 -2.69734e+06 -2.78494e+06 -220254 -228745 1.01323e+06 -1.05157e+06 -1.77901e+06 914164 -2.26913e+06 -127268 2.15286e+06 -1.052e+06 2.75361e+06 -524875 -1.32472e+06 188713 1.1591e+06 -970136 -360322 1.46472e+06 229881 -358633 392523 1.77979e+06 1.11226e+06 18379 -523621 355137 -696581 -593904 -226804 665786 -57503.9 679910 179636 
-5.2153e+06 -2.15102e+06 2.50997e+07 -1.47125e+07 -8.25006e+06 2.75561e+06 8.71654e+06 3.67652e+06 -5.0203e+06 1.1415e+07 1.53159e+06 -2.71282e+06 1.27746e+06 405476 -230100 1.40043e+06 170621 -158001 35695.6 -192891 -1.15659e+06 1.98549e+06 401996 -757092 491286 1.21921e+06 -833492 2.25736e+06 2.13143e+06 -1.39549e+06 1.1292e+06 -2.33613e+06 1.05293e+06 1.07087e+06 -546321 -167051 560756 -477912 104521 -319082 594681 -215079 -706579 802993 -43905.2 172048 -902411 -705465 1.25772e+06 609173 
6.89362e+06 -2.24187e+06 2.46428e+07 -1.01893e+07 -1.0261e+07 789833 7.22595e+06 6.82356e+06 -2.7852e+06 1.17802e+07 2.44541e+06 -4.38282e+06 -1.06216e+06 -1.97712e+06 -940516 2.74332e+06 -1.46421e+06 1.79247e+06 927994 290955 -1.88757e+06 3.27087e+06 -1.0787e+06 619994 1.6918e+06 1.38506e+06 -2.02858e+06 3.6327e+06 1.54231e+06 -2.61052e+06 1.19656e+06 -1.28525e+06 1.66781e+06 1.36192e+06 -2.15353e+06 -156544 -337024 -27671.3 84570.5 -1.49832e+06 695338 -5775.72 833114 838880 449865 433154 -905760 -952356 270800 -46983.8 
-1.45394e+07 -3.19754e+06 2.04292e+07 -1.40182e+07 -7.8718e+06 1.48753e+06 7.45643e+06 622905 -8.43974e+06 6.3926e+06 -49716.9 629972 2.3222e+06 3.14438e+06 -367198 -36934.6 1.01861e+06 -890627 -2.33893e+06 -238459 -637087 296815 915956 -3.57486e+06 593494 844449 -212234 139043 2.02413e+06 245569 39331.2 -794861 12245 -18358.3 916532 -384632 842330 -704933 -678723 1.57998e+06 -272294 -315323 -486301 449377 68924.4 487587 -427669 388827 796910 697947 
5.81292e+06 -2.03293e+07 -2.88332e+07 3.18554e+06 3.08873e+06 3.0141e+06 -1.01943e+07 5.97812e+06 -766790 1.29124e+06 -530249 4.02701e+06 -640224 3.43601e+06 -6.18926e+06 1.46958e+06 1.48988e+06 -1.2934e+06 -1.80826e+06 -181529 -999472 2.64187e+06 -2.17393e+06 -1.15942e+06 -766132 -2.92058e+06 3.01833e+06 -2.67406e+06 -1.19222e+06 -1.27165e+06 -1.25182e+06 -1.22592e+06 1.11685e+06 2.53811e+06 -1.15145e+06 549572 346776 835501 -2.13489e+06 973154 -371840 -602056 -2.10716e+06 -886613 -618129 -1.76913e+06 -533315 -1.55638e+06 1.70419e+06 1.28722e+06 
1.4661e+06 -1.15183e+07 -3.54315e+07 2.33707e+06 7.55414e+06 4.1121e+06 -8.04882e+06 1.28513e+06 3.34696e+06 1.1343e+06 2.12366e+06 -2.49728e+06 4.09494e+06 1.01933e+06 -3.77304e+06 -705800 -1.46259e+06 -346225 -2.32372e+06 -2.41882e+06 -666305 6.89424e+06 1.66102e+06 620443 -751234 -814778 152563 -161429 -242380 1.28251e+06 -477350 -2.25448e+06 -358835 644651 1.4611e+06 197375 -1.92406e+06 -387845 -631930 -1.90001e+06 2.13081e+06 125204 352965 -676756 -236691 837711 123176 -608068 -705568 -100709 
-1.42656e+06 -1.02786e+07 -3.8344e+07 470812 7.53408e+06 3.1022e+06 -7.12984e+06 -1.94394e+06 2.33142e+06 3.50969e+06 1.40772e+06 240538 3.01347e+06 2.90969e+06 -2.99552e+06 410867 -1.51834e+06 946640 -2.20805e+06 -978535 -1.02328e+06 5.25639e+06 1.02023e+06 911597 -1.0791e+06 -1.80601e+06 121244 676742 -207768 253761 -650693 -579240 -382845 -505468 660140 -749340 -2.50894e+06 -249137 -19077.1 -1.76322e+06 1.36351e+06 -687555 487012 242935 428776 544210 112713 -67698.8 -149442 622503 
-6.75574e+07 285123 1.98826e+06 -2.87441e+06 4.8809e+06 -480604 1.94402e+06 2.92431e+06 -3.11393e+06 -6.34683e+06 -46667.4 468159 -1.61572e+06 -11346.4 -1.19181e+06 -1.76128e+06 3.35121e+06 -1.13445e+06 3.42546e+06 2.15806e+06 -2.13468e+06 2.01157e+06 -1.30552e+06 1.3715e+06 2.51378e+06 712450 -1.91029e+06 355820 1.27482e+06 -439858 -2.2401e+06 1.55614e+06 304568 960874 -1.31017e+06 -229269 -1.04491e+06 -417252 196740 1.45722e+06 -403530 -497679 301791 18571.9 345163 -116093 -475489 496087 -448762 -1.27689e+06 
-6.93185e+07 2.97068e+06 4.00712e+06 -4.5434e+06 7.05402e+06 526754 1.79866e+06 1.91832e+06 -4.63478e+06 -4.69642e+06 292082 1.7724e+06 1.93744e+06 -2.65104e+06 199897 -3.99159e+06 252244 -3.1531e+06 4.37001e+06 948024 -1.22133e+06 1.61121e+06 -89806.9 1.87505e+06 1.90061e+06 -318840 -1.24701e+06 198678 288324 -1.66788e+06 -1.43181e+06 -1.09366e+06 -279236 719401 -1.61807e+06 1.27228e+06 -601650 10670.9 118959 1.04286e+06 597004 -982713 418184 782015 388470 -476698 674403 -117418 694525 -945021 
-5.80667e+07 497690 -854449 -3.99548e+06 1.27412e+07 -206478 -2.29131e+06 2.3426e+06 567973 -223574 -2.45267e+06 6.18229e+06 -422566 -120404 -4.0834e+06 -3.05244e+06 284098 497482 472087 3.38173e+06 -1.69867e+06 91082.5 -2.53957e+06 459960 -2.60662e+06 84837.8 607749 -701634 -1.31908e+06 1.8552e+06 1.80656e+06 1.78778e+06 479578 -758973 1.32743e+06 -919987 1.08583e+06 397365 -3.55948e+06 381888 1.43038e+06 -76036.2 725160 1.01669e+06 -608901 467059 -765326 -1.67634e+06 -133980 535599 
-6.34872e+07 -2.18096e+06 -5.13798e+06 -1.66687e+06 1.05687e+07 2.56986e+06 21358 -1.51502e+06 500502 -2.08499e+06 -1.81163e+06 1.6173e+06 -1.89211e+06 1.08738e+06 -4.09496e+06 -2.0959e+06 3.21377e+06 -969029 3.15007e+06 3.56271e+06 -3.21304e+06 -641862 -586565 505480 2123.66 2.23506e+06 -663101 -427360 1.15783e+06 -273997 -6509.48 2.19412e+06 919790 -475823 1.03921e+06 -1.20553e+06 -770406 -1.24811e+06 292777 682488 -525600 -1.33168e+06 281351 -296532 975380 -690660 -1.53103e+06 -871570 -1.65951e+06 -123768 
-2.88788e+07 -1.07506e+07 -3.42306e+07 -2.71704e+06 3.92417e+06 884199 -3.51048e+06 -3.31358e+06 5.64331e+06 3.74863e+06 -4.88393e+06 -6.51723e+06 -939931 -3.15883e+06 -3.23832e+06 -3.69541e+06 -3.39034e+06 437002 -1.02229e+06 2.60688e+06 473280 -1.08998e+06 -359697 -2.21156e+06 -473017 1.66412e+06 115556 1.86301e+06 638759 556333 909486 2.97273e+06 -593765 763135 182219 505801 -296144 -575214 1.79453e+06 339837 -66494.9 -162636 1.05152e+06 -495437 -818437 622477 -647744 266128 736671 -388757 
-6.53137e+07 1.16661e+06 6.35514e+06 -5.19987e+06 7.86669e+06 25273.1 2.57961e+06 3.06855e+06 -4.7512e+06 -1.36827e+06 -646557 3.61652e+06 1.98284e+06 -1.79721e+06 518110 -2.71179e+06 1.82721e+06 -2.3089e+06 4.58069e+06 812601 -1.474e+06 529755 500172 1.93246e+06 541679 -687437 -73206.3 190200 -1.20912e+06 -70842.8 -91964.2 -1.24294e+06 -482547 -826919 45003.2 159967 -1.43152e+06 -459378 117703 459018 394644 -325424 124969 1.35452e+06 -265637 -813615 325997 -592566 -211504 -1.09912e+06 
-5.08402e+07 61370.8 4.98362e+06 -8.07544e+06 7.12294e+06 -5.38583e+06 2.17535e+06 1.08453e+07 -1.67563e+06 -99848.1 632698 5.49099e+06 2.35108e+06 -2.21423e+06 -2.31113e+06 -2.38349e+06 843797 1.85306e+06 -3.36223e+06 1.01648e+06 -1.43216e+06 773108 -2.37027e+06 2.2377e+06 -2.30192e+06 -160990 1.07711e+06 2.37021e+06 -660386 -528747 -1.93617e+06 -1.18971e+06 1.59526e+06 -2.02179e+06 879918 -3.36301e+06 1.8332e+06 973532 1.91527e+06 -217534 -872712 2.73006e+06 -564602 -119930 -775687 -292896 -1.74162e+06 1.71404e+06 -657375 223066 
-6.60681e+07 240140 1.3405e+07 9.59046e+06 -7.85245e+06 -7.13329e+06 951890 1.16011e+07 2.30906e+06 -2.98507e+06 3.29574e+06 -4.59315e+06 3.90878e+06 -727037 900443 477918 -2.14288e+06 998824 820544 -653539 1.50502e+06 153044 2.20611e+06 1.91395e+06 1.5822e+06 790282 -332992 -497214 183309 -1.29441e+06 1.41479e+06 435651 -1.76958e+06 186840 -1.83762e+06 940160 -622572 2.432e+06 713721 -950582 1.14958e+06 -621296 -1.14584e+06 -618451 -1.2994e+06 -671022 -481319 -1.25781e+06 532542 -292114 
-5.84563e+07 -5.86166e+06 2.67552e+06 1.61532e+07 -1.00575e+07 -9.54088e+06 -529127 1.56856e+07 7.71074e+06 -3.22779e+06 5.57141e+06 -3.82744e+06 3.17766e+06 947090 -4.12413e+06 405906 -904368 1.54771e+06 -2.92471e+06 1.52442e+06 540785 -331779 -569835 -485020 2.10703e+06 1.57825e+06 -495021 -2.75355e+06 645638 2.70994e+06 853739 1.75584e+06 235417 173153 -2.5593e+06 -574021 -509898 -332177 1.25765e+06 -864536 -1.25504e+06 -1.10564e+06 -1.44082e+06 196907 351107 -160878 -222103 1.37043e+06 -549059 2.03947e+06 
-5.63766e+07 1.53984e+07 1.92411e+07 -4.61895e+06 -955056 1.78526e+06 1.64351e+06 -516816 -6.41623e+06 4.47388e+06 183998 838856 6.00352e+06 792302 1.20703e+06 -441879 3.19743e+06 -2.0281e+06 -3.7841e+06 270770 1.90265e+06 -105518 3.28721e+06 -3.54655e+06 28274.3 47347.9 211981 1.15577e+06 850928 -427087 -2.48141e+06 1.20765e+06 -707503 -100919 817842 -273322 -268067 530729 -739153 824664 357834 20877 -856840 -401642 -847385 -447458 1.77532e+06 -226747 -887136 298488 
-5.86487e+07 1.21942e+07 1.58258e+07 -4.14331e+06 -2.67497e+06 -732471 1.63012e+06 -181824 -7.02518e+06 2.80201e+06 -1.2621e+06 435133 4.71519e+06 1.37454e+06 488582 -761018 4.01093e+06 -1.05378e+06 -4.24185e+06 470787 2.16754e+06 -680125 3.068e+06 -2.95244e+06 564355 -637034 -379382 1.77429e+06 250975 511383 -2.01096e+06 1.60655e+06 -738600 301174 232241 148808 -1.03771e+06 777049 -927626 171444 -433158 346218 -874620 -705311 -588084 195969 2.58441e+06 -205272 -600247 29311.5 
-6.0238e+07 -2.94027e+06 -7.44163e+06 1.98666e+07 -1.26705e+07 -973270 196487 4.58798e+06 7.93691e+06 -4.4408e+06 8.8568e+06 -2.33646e+06 -325479 2.42298e+06 -4.38937e+06 36578.2 4.258e+06 -3.29471e+06 -735463 -428560 1.4204e+06 -76625.5 -648486 -416125 1.29642e+06 117447 921269 -1.33116e+06 3.52862e+06 1.33934e+06 114227 1.11033e+06 337841 -1.43766e+06 562897 2.4871e+06 3.02938e+06 -141188 -1.09871e+06 -161599 647925 1.33207e+06 1.27896e+06 1.0813e+06 -308362 -127755 -77234.6 -213335 1.33508e+06 -720301 
-1.12583e+07 -3.92883e+07 -1.53932e+07 -1.2882e+07 4.55875e+06 3.43499e+06 495971 -6.6452e+06 203470 -717669 484326 1.00906e+06 2.35969e+06 -1.30908e+06 3.68193e+06 1.32296e+06 -2.62157e+06 1.48783e+06 5.23382e+06 -2.49728e+06 107957 -1.49023e+06 2.05669e+06 276883 494927 637883 -52366 -1.39778e+06 -39207.5 215893 -3.12817e+06 761955 1.28766e+06 -1.28591e+06 -2.99571e+06 1.99257e+06 -447517 -745647 -101269 379672 -428098 318140 -566331 -217699 764200 -279618 -22432.9 -108931 -697029 2.06315e+06 
-3.43916e+07 -6.99572e+06 -2.52092e+07 -3.24803e+06 -3.22414e+06 -8.2365e+06 1.80097e+06 2.03628e+06 1.66371e+06 2.45471e+06 560472 -4.69499e+06 -599277 -4.35346e+06 175485 -1.88534e+06 -2.34045e+06 -49018.2 1.67792e+06 1.78079e+06 971774 -2.73949e+06 -520412 -2.06882e+06 929641 -636436 -394769 1.76935e+06 -2.6589e+06 434349 736890 -2.1606e+06 -920133 2.08594e+06 -204481 1.47657e+06 -662011 261286 -857540 -1.24536e+06 76499.3 -813772 -1.02051e+06 1.43084e+06 306935 -422935 550797 -337750 -908909 -359231 
-2.23703e+07 -1.72051e+07 -2.447e+07 -7.33391e+06 3.38824e+06 3.73465e+06 -4.32802e+06 -2.59537e+06 -3.03946e+06 3.48158e+06 283554 4.73463e+06 -2.23442e+06 -3.92421e+06 771706 3.67327e+06 -3.83321e+06 -1.2227e+06 -26031 527419 729285 -80199.9 -1.18603e+06 -622246 609570 1.22275e+06 1.46301e+06 1.24955e+06 796280 1.79888e+06 1.35824e+06 1.82688e+06 1.41921e+06 126971 -746343 2.41184e+06 1.90883e+06 -66847.8 234181 -220570 1.04316e+06 461794 -722430 165878 -253381 429337 809060 146333 310985 -466348 
-6.7696e+06 -2.25163e+07 -5.20665e+06 -4.35195e+06 -8.00198e+06 -6.98753e+06 -2.52295e+06 1.4394e+07 -3.39324e+06 3.18587e+06 -4.84451e+06 1.4987e+06 2.65482e+06 -1.75239e+06 3.43889e+06 -1.73571e+06 -4.19367e+06 513217 -2.21624e+06 793252 1.80983e+06 2.70875e+06 -4.93861e+06 4.82367e+06 -3.07749e+06 -1.17214e+06 474725 -545215 -572096 -213508 -1.06455e+06 654985 795591 -1.78996e+06 -631431 704952 614569 1.28154e+06 -684105 353964 -1.17264e+06 -434069 -120446 -357185 1.28206e+06 1.59036e+06 2.04174e+06 1.01723e+06 179885 -562521 
-1.59351e+07 -2.33447e+07 6.11445e+06 1.04536e+06 -9.63476e+06 -128322 4.19338e+06 -6.96462e+06 -1.75461e+06 1.45022e+06 -5.88661e+06 775637 -6.39772e+06 4.73499e+06 -566518 -2.08906e+06 3.4611e+06 3.33499e+06 -1.2927e+06 2.4125e+06 1.58658e+06 339806 -770153 944988 214863 -1.99204e+06 -872074 706474 -1.77258e+06 890192 3.44246e+06 751508 -1.20444e+06 259039 -688776 -293109 -3.15775e+06 627936 -135263 -2.36114e+06 -1.59909e+06 2.61907e+06 -967706 1.12198e+06 224455 349115 -1.67483e+06 429670 681311 -506967 
-7.61963e+06 1.91446e+07 -3.0365e+07 5.81435e+06 -2.14893e+06 -1.171e+07 -5.94126e+06 8.62631e+06 -3.88809e+06 284490 -2.5194e+06 -1.54191e+06 1.60946e+06 2.79576e+06 1.83659e+06 -3.85774e+06 -2.15986e+06 -360233 -229687 -1.35621e+06 -2.22469e+06 -1.68994e+06 -984426 -1.98776e+06 -1.47394e+06 1039.62 245341 1.7484e+06 2.41354e+06 475668 1.26208e+06 -2.15888e+06 88195.7 210353 -299155 -139047 950575 1.02564e+06 982705 -241519 -5080.73 -631603 -1.27015e+06 -1.92055e+06 1.76549e+06 466644 27444.3 1.28125e+06 -2.05524e+06 -226909 
-2.47718e+07 -2.96366e+07 -1.39018e+07 2.75936e+06 -9.98514e+06 -4.27395e+06 2.37966e+06 -4.566e+06 -1.02497e+06 -358402 1.2479e+06 -5.49443e+06 -215297 -139302 1.57695e+06 2.31459e+06 2.81873e+06 -1.51151e+06 1.99459e+06 -1.80143e+06 389261 457667 -13657.1 1.60472e+06 -194763 -1.44005e+06 -671794 -1.66719e+06 -107718 -2.13305e+06 1.13377e+06 -1.11266e+06 -358559 -642421 1.66979e+06 465634 1.67979e+06 1.14035e+06 322096 26082.7 -641265 1.59148e+06 629207 -207078 -470422 668360 693160 -768438 -45255.3 327577 
-2.76608e+07 -2.68195e+07 -1.43943e+07 -651654 -5.29237e+06 -3.79159e+06 -130446 -6.29678e+06 -152429 -1.28806e+06 1.48148e+06 -4.4237e+06 93555.6 -1.03027e+06 1.8431e+06 1.17473e+06 1.62225e+06 -1.58638e+06 3.26605e+06 -1.42118e+06 53133 -1.02401e+06 435886 1.40516e+06 -249265 -1.48638e+06 -680193 -1.33643e+06 223365 -1.74814e+06 206698 -1.56713e+06 -215944 52920.4 889694 618985 1.24853e+06 803989 884818 -432424 -431717 1.0431e+06 98119.1 -563488 -544809 37402.2 289266 -595598 -161493 555493 
-2.45417e+07 -2.13217e+07 1.15061e+07 302232 -1.39372e+07 -1.82186e+06 5.80855e+06 -711512 -4.4591e+06 -1.56676e+06 -2.10996e+06 -890441 1.34207e+06 1.02545e+06 2.4467e+06 1.58907e+06 -142221 1.91488e+06 -1.368e+06 -1.15166e+06 -76953.6 287880 1.31427e+06 -1.20444e+06 -92714 936930 2.03633e+06 -2.42126e+06 1.14688e+06 -283998 -1.49443e+06 3.57152e+06 419864 726310 -144827 -992224 -728537 78849.2 -255023 -1.23386e+06 -21751.4 582874 176312 -997534 432463 147992 -891433 -1.46944e+06 -1.01106e+06 -499073 
-2.0482e+07 -2.06043e+07 -1.72809e+07 -4.27838e+06 7.06213e+06 765422 -4.85894e+06 -7.15914e+06 304928 1.89552e+06 806314 2.89045e+06 -1.05429e+06 2.05567e+06 -1.81305e+06 3.3651e+06 58072.4 1.82167e+06 2.14639e+06 425247 152268 -411132 264886 -577939 -1.06075e+06 225105 -353479 435809 1.4795e+06 205658 -447523 339687 586192 -1.12329e+06 -171333 -930755 1.1558e+06 559216 456909 -826296 125830 -66626.6 58530.6 -512191 -92805.4 -26475.8 -226811 90936.1 -405768 932017 
-1.61865e+07 -2.31697e+07 -1.64436e+07 -1.21823e+06 4.70981e+06 2.7148e+06 -3.18606e+06 -8.94804e+06 1.78493e+06 839704 1.14799e+06 -864188 -1.05302e+06 4.71575e+06 -4.5196e+06 795093 2.84055e+06 198859 998236 1.17853e+06 -666598 656619 -25376.4 351945 -1.28754e+06 297382 -2.0467e+06 -592091 2.02805e+06 -2.10232e+06 -314750 237427 -263948 -975010 511727 -2.25312e+06 -1.06846e+06 1.15629e+06 1.03613e+06 596533 -574448 -889145 125997 -321465 857179 -130709 648571 330758 171984 435.175 
-1.1975e+07 -1.95678e+07 -1.91007e+07 -3.42855e+06 4.51751e+06 6.16313e+06 -7.81024e+06 -2.12483e+06 -2.70919e+06 2.22985e+06 5.79457e+06 7.45527e+06 -2.40787e+06 542445 129066 6.49173e+06 4.85316e+06 -229795 -2.821e+06 1.28856e+06 1.03901e+06 -1.78329e+06 -70926.2 938446 1.75789e+06 1.47697e+06 557164 -186423 -369660 -377858 1.15012e+06 -1.85136e+06 -3.11577e+06 -778536 -1.0383e+06 -420746 -67132 -255813 2.1643e+06 -473133 -608673 -252105 -417746 231204 -32190.4 618363 -272944 1.27789e+06 486386 -192285 
-1.87839e+07 -2.23012e+07 -2.891e+07 272005 7.31915e+06 3.33769e+06 -7.69564e+06 -7.4108e+06 -139151 -285969 5.02877e+06 2.51153e+06 838476 -765748 715481 3.43037e+06 2.44902e+06 460997 -936919 -1.44761e+06 150672 2.61457e+06 309623 -350659 1.06117e+06 1.56849e+06 -269531 1.94669e+06 533302 -270088 -1.33318e+06 -250116 137899 -798565 -168592 -612453 1.01858e+06 -1.38879e+06 969375 -675796 855155 569808 993520 -758108 159699 458885 -311760 717841 -326041 105754 
-2.52567e+07 -2.7315e+07 -4.87368e+06 5.60689e+06 -1.30996e+07 -614633 7.4283e+06 -2.70515e+06 3.63476e+06 -3.34754e+06 685101 -5.61647e+06 -2.12751e+06 115341 19116.1 304202 2.54587e+06 -36956.9 -4.10102e+06 -777990 1.82834e+06 -807749 -2.19273e+06 230731 1.09878e+06 -603596 273763 -909323 -1.70093e+06 -1.1933e+06 -529774 579863 1.3009e+06 24070.1 -486560 -561058 -1.06962e+06 -1.15913e+06 -133203 160329 660092 1.20858e+06 -1.27116e+06 1.05774e+06 350836 1.50365e+06 869202 -721793 -872001 -603426 
-3.42042e+07 -2.47014e+07 -1.28082e+07 -7.30105e+06 -3.39768e+06 -701092 1.64884e+06 -5.27961e+06 2.60824e+06 1.26683e+06 -737246 -4.29355e+06 -543523 -1.49164e+06 705284 -1.24759e+06 -786498 31285.1 101027 -1.18079e+06 1.41688e+06 -2.97863e+06 320308 741317 -1.86227e+06 -1.30092e+06 1.16239e+06 215820 -2.17246e+06 714786 -377951 -2.25524e+06 48684.2 -720660 114736 -1.97255e+06 433664 -2.23459e+06 -684971 1.23535e+06 -423224 224825 -810772 -754047 -1.98126e+06 -22872.7 -642917 194902 1.97966e+06 -84868.7 
-1.89029e+07 -3.06321e+07 7.39356e+06 1.0515e+07 -1.29864e+07 1.39599e+06 2.46119e+06 -2.86464e+06 927751 -4.89016e+06 -1.61615e+06 2.01075e+06 32017 -649909 3.38808e+06 2.98898e+06 -1.64795e+06 3.64927e+06 -2.00685e+06 662697 486482 1.23121e+06 -1.5316e+06 -1.14428e+06 1.72898e+06 1.39468e+06 1.74828e+06 -359988 171234 -21636.9 -519003 -1.01941e+06 428437 606036 -526634 -2.09636e+06 -650772 -1.60172e+06 -232293 551991 571814 -788405 749448 1.41164e+06 229708 -779167 -27579.7 -93632.6 -74296.6 -947888 
-2.02626e+07 -2.68385e+07 6.29886e+06 1.65929e+07 -1.39163e+07 2.29424e+06 -13974.9 -5.75943e+06 2.79199e+06 -3.7606e+06 675349 5.484e+06 3.43748e+06 -2.87823e+06 2.80899e+06 -105926 -1.023e+06 2.07926e+06 -504201 352317 -1.39955e+06 1.45492e+06 -618696 -1.98847e+06 -335250 642314 -300010 515704 -404285 1.61415e+06 -703035 -3.46069e+06 250744 1.17655e+06 701390 2.08549e+06 40147.5 -135106 452832 50763.3 -1.35373e+06 -756334 1.67133e+06 -992039 200468 -1.09803e+06 -1.63388e+06 -1.71312e+06 -345529 620157 
-2.16399e+07 -2.84081e+07 838197 9.78599e+06 -1.87325e+07 -940560 4.93115e+06 484685 4.90045e+06 -2.47203e+06 -2.3454e+06 1.04604e+06 1.29417e+06 -2.0887e+06 1.75981e+06 1.53242e+06 -3.31604e+06 1.93234e+06 -2.01351e+06 1.48134e+06 802190 200234 -925254 -2.8885e+06 136342 1.57197e+06 639749 1.17964e+06 -884736 1.25544e+06 1.48709e+06 -3.09117e+06 -117502 -525912 659693 -1.2494e+06 339843 -1.48528e+06 -1.13239e+06 3.19261e+06 -200058 -69373.1 2.81747e+06 1.07586e+06 1.55471e+06 -1.0038e+06 535169 954909 -744404 -287136 
-1.68297e+07 -1.87533e+07 -1.72308e+07 -1.14633e+07 7.32246e+06 6.11759e+06 -5.85632e+06 -1.50529e+06 -4.42911e+06 4.36962e+06 762683 8.4561e+06 -716796 -3.53396e+06 2.06766e+06 5.13172e+06 -3.80685e+06 -113293 -173809 1.10971e+06 1.28166e+06 -1.08014e+06 -789441 493771 1.26083e+06 1.32015e+06 1.47042e+06 -133366 593265 2.57539e+06 1.32271e+06 2.81146e+06 928200 1.07238e+06 -1.06748e+06 1.98967e+06 667924 -79212.7 -310039 -78859.8 504116 -595877 -233188 -100226 -630569 190953 653183 681794 456514 -650307 
-3.08842e+07 -2.74259e+07 -3.38362e+06 -1.01344e+07 -3.87742e+06 -4.97091e+06 2.60118e+06 -1.40689e+06 -835524 738420 -3.18933e+06 -1.13409e+06 -1.28372e+06 -3.96314e+06 2.3019e+06 -64249 -31628.9 -803287 2.77072e+06 1.22269e+06 1.30596e+06 -322332 -1.89361e+06 3.21762e+06 -830142 -1.82846e+06 -722502 -388938 -2.15509e+06 100375 -300540 -452120 123456 560608 -423023 550153 -491320 547998 95617.6 -494699 208019 -120933 284012 -198050 367403 400354 865060 -32804.7 198798 332777 
-3.62921e+07 -2.03025e+07 -8.60406e+06 -5.50016e+06 -2.79123e+06 1.81797e+06 2.68296e+06 -1.01258e+07 2.81488e+06 -417678 -576237 -2.79242e+06 -1.07931e+06 -1.68095e+06 719948 -2.90259e+06 468087 -1.44214e+06 -1.71648e+06 -508225 1.60693e+06 -3.19864e+06 -1.00067e+06 146599 -1.176e+06 -404792 825242 248857 -1.11816e+06 -551450 -2.43373e+06 -785620 1.43375e+06 -95539.5 -1.27823e+06 -1.21624e+06 -1.01622e+06 -2.00755e+06 -484220 -45883.8 695465 -184026 -2.00392e+06 133961 214792 833045 410336 -166390 474076 -118565 
-2.61505e+07 -2.2017e+07 6.82984e+06 -1.23732e+07 -8.03822e+06 -1.93789e+06 8.01597e+06 -22132 -3.80717e+06 2.10214e+06 -998774 350596 2.21984e+06 2.08978e+06 141297 557413 242714 223668 2.17786e+06 -1.86089e+06 -1.85345e+06 -1.39314e+06 1.12101e+06 -522143 -1.04825e+06 -2.21185e+06 2.01088e+06 -1.76388e+06 -62013.7 1.96585e+06 1.38784e+06 728172 -1.60743e+06 40407.6 1.48294e+06 -336677 -40903.2 137584 165927 -892081 -176269 -616526 1.10296e+06 -190440 55663.9 -639870 -704505 891612 -15673.2 -124636 
-2.56704e+07 -2.49351e+07 3.04502e+06 -8.35921e+06 -7.0993e+06 -6.16198e+06 4.99206e+06 709076 -3.65669e+06 1.81306e+06 -666605 -919474 2.80091e+06 140902 1.2582e+06 850625 -305576 160042 2.7975e+06 -1.96915e+06 -1.06887e+06 -859413 948875 -138102 -1.31846e+06 -1.51808e+06 1.26472e+06 -2.31357e+06 -447870 1.50709e+06 1.65025e+06 401677 -1.4405e+06 314949 1.32422e+06 475803 392012 1.06433e+06 483538 -1.48747e+06 -230153 -23714.3 1.16194e+06 -766902 -168511 -462004 -559524 477831 -238983 -271951 
-2.16901e+07 -1.43264e+07 1.19753e+07 -1.33807e+07 -6.66781e+06 -1.68725e+06 7.46239e+06 -550109 -6.72269e+06 4.40377e+06 -662616 1.29203e+06 3.15346e+06 2.7156e+06 -120634 317267 198928 25633.4 983582 -1.16981e+06 -1.53992e+06 -527010 1.1745e+06 -1.57312e+06 -378324 -1.4623e+06 1.44879e+06 -1.33068e+06 846897 1.0818e+06 1.47261e+06 -207143 -1.05989e+06 -300414 1.61941e+06 -185365 295450 46482.1 -110736 -3469.02 -192478 -500589 -39456.9 230978 -27183.5 -278614 -204089 935662 492719 72192.7 
4.66504e+07 2.21135e+06 1.21398e+07 -1.80576e+07 -6.24085e+06 9.08457e+06 -4.07268e+06 -2.39903e+06 1.05775e+06 -5.44763e+06 1.41964e+06 -2.34341e+06 868913 -1.41336e+06 1.9311e+06 -3.24785e+06 1.13563e+06 -2.6988e+06 -2.14996e+06 -451828 -1.53014e+06 617329 -1.88814e+06 -748403 -168083 1.81319e+06 -730.1 -1.31165e+06 -486608 736088 -632348 980160 -343170 1.29099e+06 -95198.4 -519103 219878 655735 968093 -1.23487e+06 160865 553728 -521382 541803 481317 -680930 -636512 -52998.9 196781 -180857 
1.97954e+07 3.82746e+07 -1.3948e+07 -4.92045e+06 -1.69052e+07 5.68115e+06 4.51605e+06 7.00705e+06 4.75531e+06 2.74086e+06 -5.23248e+06 7.61926e+06 509728 3.4879e+06 -3.46552e+06 -1.12066e+06 -251528 -1.42547e+06 3.47192e+06 -3.29466e+06 4.89371e+06 -959433 -1.96691e+06 55977.5 -750602 1.46844e+06 -2.01577e+06 -314993 -701645 29004.7 -116806 125655 -865092 -374672 419680 -512302 108134 -1.53561e+06 -135164 -66431.5 -423687 152127 -206038 -759441 -563318 761274 599932 -998846 -1.21659e+06 375127 
3.85513e+07 -3.696e+06 6.21272e+06 -1.709e+07 -1.13064e+06 7.29601e+06 -1.23022e+07 4.21283e+06 -775684 -1.3361e+06 -217190 -1.47364e+06 -1.09741e+06 1.61422e+06 1.21696e+06 -915681 -2.60846e+06 -1.23006e+06 1.27271e+06 3.21766e+06 436853 -686322 3.12555e+06 1.7654e+06 4.14107e+06 2.22528e+06 -1.12779e+06 -3.68679e+06 -157041 882848 1.64579e+06 -2.30139e+06 -159581 -154309 1.20566e+06 -1.37154e+06 -874779 -811275 -890028 136951 208702 1.41869e+06 -172417 176108 1.34657e+06 1.03734e+06 1.59805e+06 -30954.7 -1.79304e+06 1.35307e+06 
-1.71765e+07 2.28905e+07 -4.52352e+06 -308864 387716 6.16573e+06 -8.18018e+06 3.69804e+06 -1.061e+07 -3.4597e+06 -3.86894e+06 -3.9649e+06 -8.77552e+06 6.41546e+06 2.87844e+06 1.03118e+06 -1.1385e+06 181670 -1.38156e+06 -2.21551e+06 -746301 1.91123e+06 -499938 -487107 1.44734e+06 126129 983583 1.32159e+06 -1.81186e+06 -700753 113888 -70618.8 1.22809e+06 -667996 976878 963976 403308 -472417 1.16213e+06 -126949 -879782 -949869 184793 -362542 -705006 -231482 81521.5 42848.4 -132050 -890175 
-1.24853e+07 2.37328e+07 -1.66037e+06 -223353 -2.66991e+06 6.433e+06 -9.75359e+06 4.2332e+06 -8.63519e+06 -3.83162e+06 -4.20586e+06 -5.16108e+06 -9.03764e+06 7.11827e+06 3.53647e+06 2.069e+06 -1.32429e+06 634644 -1.37006e+06 -1.80914e+06 -161413 1.6023e+06 -1.08556e+06 174516 1.49845e+06 876246 1.76849e+06 13719.4 -1.66925e+06 102977 -279856 -341080 789470 -865092 708093 726352 337023 -586015 1.05238e+06 255164 -856244 -1.6662e+06 -173801 -28747.9 -504547 -643489 205641 -309014 107391 -685419 
-1.99923e+06 4.35057e+07 1.37177e+07 -6.61383e+06 5.34475e+06 -1.84103e+07 -4.68801e+06 -199659 2.42219e+06 460187 1.71818e+06 888065 -2.11724e+06 -3.29312e+06 -1.04833e+06 -1.90258e+06 -2.22986e+06 2.48689e+06 -1.16847e+06 141380 -1.11289e+06 -939799 876777 -682167 66557.9 -1.0435e+06 1.21614e+06 -3.28607e+06 1.29739e+06 -1.58867e+06 -168021 312788 2.36173e+06 905249 706030 24767.4 -629581 -1.28728e+06 40750.3 -372926 -733865 250738 423719 429966 384052 581382 -389741 -240655 797805 -370640 
-2.75228e+07 4.03638e+07 1.33363e+07 -5.52185e+06 3.16521e+06 -1.05073e+07 -2.43046e+06 -3.28071e+06 1.38833e+06 -1.74161e+06 308469 1.02032e+06 -3.49703e+06 -150612 -1.79378e+06 -2.21382e+06 -2.44324e+06 -682856 34578.4 -1.88344e+06 -1.94996e+06 -21117.6 1.02034e+06 736084 156064 -933304 1.31565e+06 -1.20637e+06 852374 990956 984566 -1.59474e+06 1.84264e+06 783227 -459090 -320997 -289130 -1.03071e+06 1.14463e+06 607836 -95810.4 426030 -715772 -318282 -594920 -231795 169839 705871 1.56101e+06 872806 
3.33954e+07 1.65465e+07 3.17972e+06 -1.01364e+07 -1.95089e+06 -1.48257e+07 -2.59562e+06 -2.39557e+06 547231 -595737 3.09173e+06 458115 2.21824e+06 -3.52815e+06 1.20904e+06 377710 -671585 -1.77591e+06 32326.8 -749980 1.19448e+06 1.17972e+06 -449686 -874586 -924950 125092 -20324.6 977715 -999111 -646451 -158246 1.39678e+06 -138175 -1.03579e+06 651083 1.22992e+06 -410275 -465822 -1.02557e+06 -46229 433449 165201 -661860 34737.7 1.30181e+06 -884397 -1.116e+06 19277 -179197 -26017.6 
1.2986e+07 -431623 2.8344e+07 1.08584e+07 -4.73467e+06 1.11893e+07 -1.35485e+07 3.3854e+06 329292 -36590.7 -1.09569e+06 -910849 -1.37125e+06 1.93989e+06 -1.25193e+06 -967586 -1.53346e+06 -771052 1.17788e+06 750993 -1.55638e+06 -371486 -132379 -1.10136e+06 -656154 -1.29357e+06 2.5544e+06 -271654 -934487 -250800 -166828 672075 -1.67287e+06 -128387 -574844 276378 -118514 67559.4 1.0826e+06 -506541 112286 -572673 286211 678986 -155886 -1.22251e+06 576596 162.117 -21429.7 858359 
2.18692e+07 -2.76361e+06 3.38878e+07 1.41585e+07 6.0719e+06 5.90816e+06 -4.29544e+06 78409.4 -4.78835e+06 6.86248e+06 -243143 -2.66853e+06 3.97714e+06 -1.31834e+06 -1.99127e+06 -3.17095e+06 -3.2371e+06 -1.24157e+06 1.70302e+06 -74351.6 1.67252e+06 183320 1.6634e+06 59153.8 -1.70743e+06 -682969 854528 1.68304e+06 -2.34205e+06 846558 970740 1.57302e+06 311533 -647544 -177518 -762384 107034 449375 -4521.36 334623 749445 -456825 1.12924e+06 -486138 135283 592910 -576253 909660 -59619 27219.9 
3.87064e+07 6.66635e+06 1.32313e+07 3.31314e+06 9.38344e+06 643352 -88061.9 -3.38766e+06 -4.60468e+06 -8.29245e+06 -1.01269e+07 -1.48256e+06 1.05771e+07 2.64504e+06 572536 -1.1867e+06 3.51675e+06 -614980 -2.8753e+06 4.21868e+06 2.5233e+06 81223.3 614826 4.0592e+06 -3.84198e+06 1.08169e+06 -1.36372e+06 -1.14041e+06 3.12072e+06 855812 1.34418e+06 -1.9612e+06 -491372 3.71348e+06 -1.69394e+06 1.36717e+06 1.2306e+06 -2.50069e+06 2.05527e+06 -52733.1 1.42163e+06 176037 799360 -160355 -580714 747400 385659 414907 1.17566e+06 7308.33 
3.90876e+07 1.8027e+06 -5.24081e+06 -1.84037e+07 -1.48633e+07 9.337e+06 -7.62828e+06 6.20995e+06 4.32959e+06 -2.53147e+06 3.47775e+06 -1.59114e+06 995261 -1.1498e+06 946558 -2.71697e+06 -2.04954e+06 -4.72413e+06 786998 1.78518e+06 -845284 1.58244e+06 1.30861e+06 1.37069e+06 2.04626e+06 1.14629e+06 -848959 -413504 1.79758e+06 -1.06842e+06 2.56653e+06 49226.8 -865978 -4.07383e+06 -244948 -425117 834228 -920559 -1.32226e+06 8197.52 -974866 1.42178e+06 862720 -1.56976e+06 -1.91066e+06 170900 -101908 37968.1 119409 -316603 
3.4168e+07 3.01131e+07 5.55435e+06 -8.17605e+06 6.66921e+06 -1.11849e+07 -3.08524e+06 826921 -527487 488982 5.56193e+06 -4.84471e+06 -1.70055e+06 -2.32525e+06 -4.09083e+06 1.41075e+06 3.5884e+06 256688 218596 548220 949621 259396 -2.90702e+06 -1.8086e+06 -608211 -2.00447e+06 -179667 1.96773e+06 -1.20465e+06 358980 175345 -355159 -3.56432e+06 -1.44858e+06 -235920 1.58657e+06 1.26283e+06 -1.56916e+06 -105302 1.06727e+06 -126062 442719 -336607 1.37919e+06 19060.8 80102.3 554942 -346636 -120404 253619 
2.43047e+07 2.92766e+07 8.17224e+06 -9.06535e+06 6.13684e+06 -1.18805e+07 -1.88717e+06 854483 -995813 -4.23505e+06 2.39549e+06 -1.88589e+06 -1.23852e+06 -2.08061e+06 -4.17559e+06 3.40595e+06 2.14862e+06 979283 2.1402e+06 616026 408057 1.12372e+06 -1.36266e+06 -811800 -403311 -1.29119e+06 604346 1.66833e+06 -300539 2.96095e+06 -181675 -1.4733e+06 -2.41533e+06 -475978 -112307 640563 314299 -1.76721e+06 -466812 -101590 517967 290867 -1.07456e+06 348606 573321 -890017 657217 499111 -1.06072e+06 142916 
4.75708e+07 3.36693e+07 -2.82912e+07 1.29285e+07 -7.98326e+06 -2.93942e+06 5.00148e+06 -5.57934e+06 -2.77087e+06 371113 -5.74889e+06 -84162.3 3.92845e+06 -5.23836e+06 279620 1.111e+06 3.38188e+06 -2.33071e+06 -933559 3.3125e+06 -2.26578e+06 857146 537852 -1.42857e+06 -182014 -1.25575e+06 439922 -1.1743e+06 -940486 -1.52421e+06 3.76889e+06 1.58097e+06 -762907 -2.4216e+06 -2.83315e+06 -726132 -1.25383e+06 -746197 -688326 -552324 -1.66401e+06 -2.6312e+06 480875 -1.6632e+06 -536158 -497449 307142 130966 272942 215743 
1.79498e+07 -2.07933e+06 -1.14403e+07 -670656 1.52499e+07 -3.33057e+06 -1.30886e+07 2.30763e+06 -658973 2.60988e+06 -7.1796e+06 -994374 2.67583e+06 522757 -3.47316e+06 -638958 -4.11427e+06 4.63023e+06 187013 43575.1 2.75751e+06 1.11857e+06 4.20991e+06 -1.15191e+06 1.57106e+06 220262 -605889 -2.7741e+06 305965 -566617 -880080 -1.12779e+06 -2.46952e+06 44910.8 285481 -624731 -387776 981232 -873040 1.09784e+06 -1.02636e+06 1.20886e+06 596363 2.25506e+06 -290589 -575036 168939 -321199 213519 -810033 
4.3409e+07 3.52331e+07 -3.3707e+07 1.85404e+07 -1.20306e+07 -7.70618e+06 4.6868e+06 -9.19554e+06 -6.2745e+06 5.5753e+06 964628 4.76759e+06 -1.52794e+06 -92367.1 1.12472e+06 396437 890092 -2.83238e+06 3.17407e+06 2.28601e+06 -1.41215e+06 1.42961e+06 -1.38424e+06 -2.02827e+06 1.26103e+06 2.04497e+06 -1.3222e+06 -1.23001e+06 276994 -532384 1.3011e+06 5732.46 1.6874e+06 303840 -375837 -2.02588e+06 -149060 883658 -1.87017e+06 -745363 514111 1.05241e+06 -1.56622e+06 779530 812067 738336 1.00428e+06 1.06034e+06 986900 386737 
7.48004e+06 1.52338e+07 -1.28296e+07 -7.38851e+06 -1.55221e+07 -2.61342e+06 -9.70203e+06 1.24039e+07 1.06424e+07 -348592 736767 4.77965e+06 -1.0065e+06 719075 3.23249e+06 3.12833e+06 4.10279e+06 668931 -1.90257e+06 1.44766e+06 -1.21913e+06 -6.03743e+06 6.59451e+06 3.93279e+06 386023 -576016 23891.3 2.37404e+06 -1.60252e+06 -956798 -1.3387e+06 -216874 1.04789e+06 -553070 1.53743e+06 -881427 -619952 1.1182e+06 -938718 -419226 2.62508e+06 -2.24991e+06 572746 498645 865569 -310279 -96255.6 860942 1.65195e+06 -497207 
4.79071e+06 -5.83307e+06 2.86575e+07 2.12677e+07 -4.34784e+06 9.18424e+06 -1.12676e+07 527199 -1.56434e+06 3.64265e+06 584730 3.30686e+06 511783 -1.8262e+06 -266907 -2.52017e+06 -18839.9 1.12224e+06 972281 4.02765e+06 -1.75142e+06 -1.86973e+06 275702 -1.81961e+06 -1.49601e+06 -223775 -1.76636e+06 1.16712e+06 -3.15039e+06 -1.5072e+06 -1.32634e+06 -277305 -161548 -142399 -1.02444e+06 1.13607e+06 894074 1.00761e+06 1.0491e+06 -434544 26312.8 2.01851e+06 170702 -111731 932649 -938032 204968 527729 624311 2.06605e+06 
1.44827e+07 -4.10692e+06 1.39644e+07 1.08452e+07 -1.49957e+07 9.40191e+06 -1.08069e+07 887866 7.63001e+06 -629802 597813 6.56506e+06 5.06917e+06 1.8355e+06 1.25085e+06 -1.1075e+06 1.22532e+06 431831 1.18505e+06 1.6815e+06 -6.42895e+06 -140169 370092 -1.65573e+06 -881931 -1.33537e+06 -823638 1.82999e+06 -345612 -295852 7576.02 -86985.2 1.6257e+06 932479 2.84635e+06 3.94276e+06 -1.25228e+06 -1.33641e+06 297710 -68318.4 -2.36327e+06 1.25087e+06 -1.33967e+06 -334825 -570174 2.46106e+06 905126 -422969 -180341 -1.5429e+06 
6.19146e+06 -9.46405e+06 2.35011e+07 3.43671e+07 -3.63981e+06 -4.45273e+06 -2.29368e+07 -5.59927e+06 -1.09882e+07 2.49448e+06 5.06098e+06 -2.42246e+06 367466 -2.82228e+06 3.60444e+06 -2.81869e+06 -529447 1.50807e+06 4.331e+06 1.1896e+06 4.45011e+06 571984 -194215 349539 521751 1.01824e+06 352279 -364907 110872 -900338 -871759 717253 -448748 -614027 1.71886e+06 -2.42084e+06 1.56606e+06 379910 -6744.47 66337 845413 -440633 -698446 170736 495643 753557 -750733 -486471 916886 -453890 
2.54773e+07 -1.12292e+07 1.10042e+07 -6.54951e+06 1.59073e+06 -1.49865e+07 -8.13227e+06 -3.05662e+06 1.27439e+06 -4.31144e+06 -6.26927e+06 -821440 314184 -341880 -202810 3.22371e+06 2.65385e+06 1.21912e+06 167072 -760319 2.27019e+06 425233 1.87212e+06 -484655 -831798 822611 -1.22656e+06 49641.2 -467186 -922616 148819 363490 2.65588e+06 674014 435887 354592 909248 1.08082e+06 -540213 786047 -733883 139524 409331 -1.00116e+06 -439914 -25043 -971396 -139993 -465714 183545 
4.62057e+07 2.45772e+06 7.51415e+06 -1.72755e+07 -5.0032e+06 1.23739e+07 -2.26717e+06 -4.10663e+06 2.75351e+06 -2.58657e+06 1.2921e+06 -2.55413e+06 1.89033e+06 -2.08662e+06 2.33255e+06 -1.71522e+06 -507795 -941047 -602282 755511 -816923 -12010 -556468 -764434 -2.19823e+06 -296967 1.25712e+06 -771621 -349152 -264648 -1.21569e+06 582314 -434259 763667 -388395 -1.15461e+06 1.30353e+06 90416.5 -709167 48221.5 268439 147019 -15182.6 -11163.3 -453429 -915484 -590291 345196 -71970.9 -878442 
2.87882e+07 -3.28608e+06 1.10697e+07 -5.08789e+06 -931079 -1.38553e+07 -5.3024e+06 -323402 2.53179e+06 -6.6271e+06 -4.56195e+06 -1.32331e+06 1.79472e+06 -530340 210308 5.24322e+06 3.02992e+06 2.68793e+06 814356 -228819 1.90123e+06 799731 467743 -314810 -655988 750531 -1.56559e+06 1.96147e+06 -1.07549e+06 -249719 360796 845091 2.15849e+06 162744 -414661 238388 21751.3 953911 -763887 490118 -213493 -115889 362345 -827746 -870504 459140 -457107 -68695.2 -1.05025e+06 516044 
3.81909e+07 3.92443e+06 1.92256e+07 -4.31772e+06 2.69192e+06 -1.34795e+07 -8.09923e+06 -498647 808382 -1.98182e+06 -290189 -88047.6 498367 -2.28191e+06 -299209 4.5787e+06 3.08303e+06 2.45308e+06 1.66378e+06 -961328 844940 1.42821e+06 -328893 26995.8 -542976 699580 -488338 1.55554e+06 -494752 143129 113977 504919 -56385.4 -79304.5 -766766 -191735 -334180 -268294 -477795 -1218.52 -319594 -732823 524623 -740246 -907512 570914 -169914 24772 -315647 -220106 
1.54266e+07 1.64801e+06 2.74428e+07 6.98688e+06 -2.11689e+06 3.44656e+06 -1.09416e+07 20888.4 -895444 -3.52245e+06 -2.45045e+06 -1.26399e+06 -1.81749e+06 797047 -1.94587e+06 2.93611e+06 38661.9 770580 1.48533e+06 1.67893e+06 398179 -763129 -741009 37898.5 -673600 -900362 3.26678e+06 -290109 1.63098e+06 -1.18746e+06 -172.592 483576 -1.30128e+06 -382860 -1.10792e+06 -266830 -955750 -1.23152e+06 707639 411862 492326 518684 -718892 259782 -1.04743e+06 389063 937258 -116919 -365744 -85814.1 
-1.99941e+06 3.82346e+07 1.18741e+07 -6.92343e+06 3.34698e+06 -1.86837e+07 -6.39595e+06 356380 1.78645e+06 2.43864e+06 3.23302e+06 -337086 -3.44142e+06 -2.94235e+06 -160107 -558112 -1.30083e+06 2.14089e+06 889724 -715599 -1.997e+06 -184590 559968 -1.67046e+06 169809 966668 706991 -2.45798e+06 970406 -612188 -360279 -170611 2.02408e+06 1.25194e+06 1.71044e+06 -144204 -666592 -1.06296e+06 667824 360522 -136614 162615 342471 -372232 -549451 964792 382910 -134494 733198 -124940 
-2.94556e+07 3.75026e+07 1.56304e+07 8.1519e+06 -235539 -2.19919e+06 1.67697e+06 -1.22122e+07 2.08759e+06 -2.19885e+06 -1.2252e+06 3.58555e+06 2.66907e+06 5.2142e+06 -376672 -1.24726e+06 -2.91067e+06 331057 248580 -3.65611e+06 1.51557e+06 1.38641e+06 2.19115e+06 2.86474e+06 2.63772e+06 373831 -2.56686e+06 2.51059e+06 -1.39418e+06 4.45171e+06 2.26604e+06 851814 1.07397e+06 -1.33209e+06 39394.7 684156 -1.3832e+06 534919 456654 1.74811e+06 668145 1.39612e+06 -1.54335e+06 -316514 -263273 -1.00254e+06 -687461 93236.3 1.49866e+06 88541.9 
-3.37305e+07 3.84544e+07 2.02055e+07 -663280 -1.59705e+06 -544340 -885645 -1.29695e+07 4.58152e+06 3.11236e+06 -722624 3.33231e+06 -843646 624650 -577255 298345 -3.36875e+06 -1.02172e+06 -3.04713e+06 -217199 1.13239e+06 -384473 -1497.28 1.62921e+06 1.22001e+06 -1.50638e+06 166770 -352797 456919 311239 -106446 -240997 -73050 368126 -1.11353e+06 -41791.2 705650 588772 251901 -358087 416043 101268 767166 -77352.1 1.17655e+06 -189882 219091 -571689 -911156 96599.3 
-3.04427e+07 4.08099e+07 1.90118e+07 -1.41883e+06 -1.24805e+06 -297763 -1.80554e+06 -1.27083e+07 4.17499e+06 2.5464e+06 218433 2.57943e+06 -1.71138e+06 762268 -937550 -679082 -2.0942e+06 -1.98258e+06 -3.4086e+06 -908421 654428 -238349 -125480 1.75619e+06 1.01327e+06 -2.22462e+06 636391 -682891 572217 -726328 154133 -313437 -274305 -531673 -911076 440492 1.05285e+06 934636 823334 -593532 37690.8 -456390 1.32361e+06 79223.7 1.71234e+06 -186866 130484 -437368 -1.12008e+06 -104812 
-2.6563e+07 4.05233e+07 2.10045e+07 -4.6416e+06 -2.41622e+06 22394.9 -2.21542e+06 -1.07675e+07 4.11008e+06 4.317e+06 289651 1.25271e+06 -2.2975e+06 19706.4 -1.67483e+06 -943402 47243.3 -1.60631e+06 -3.49928e+06 -392115 359958 -240150 -391753 1.24714e+06 -27629.8 -3.12659e+06 -139684 -565290 10476.1 -2.29485e+06 -225200 -101501 -464385 -979981 -821811 1.05742e+06 1.26444e+06 487769 218729 -551538 -680312 -1.01656e+06 1.54145e+06 -53796.6 1.47005e+06 490187 -137227 -237639 -718573 -487038 
-1.02497e+07 2.18983e+07 -2.53397e+07 1.08309e+07 3.89921e+06 -344429 1.96916e+06 -1.55193e+06 -8.58332e+06 -3.78344e+06 7.62608e+06 -496078 -4.27473e+06 -860292 211847 -1.54107e+06 1.1405e+06 -94442.5 -1.87611e+06 -3.56589e+06 -938763 -2.83661e+06 1.47809e+06 5.14374e+06 -4.9549e+06 5.36083e+06 4.15363e+06 2.63412e+06 1.46299e+06 -1.58312e+06 2.4389e+06 6574.92 -935617 2.63242e+06 441385 990692 -2.17199e+06 801009 -2.11514e+06 898442 -1.89691e+06 1.36805e+06 1.42055e+06 768016 399673 -786154 990954 -149335 -698940 1.53216e+06 
4.18708e+07 1.54508e+06 1.55556e+07 -1.81298e+07 -3.82572e+06 4.7913e+06 -6.61613e+06 -3.01162e+06 556064 -5.6932e+06 2.58624e+06 -1.59062e+06 185987 -2.50552e+06 1.55635e+06 -1.53537e+06 469796 -1.93138e+06 -749420 -511651 -1.37104e+06 13355.5 -1.24011e+06 -960439 -966509 2.53439e+06 -825373 -917031 138764 917336 -842925 620980 -1.22334e+06 1.76595e+06 113632 -513241 -214815 744580 -37051.4 -1.18023e+06 638201 352044 -491821 769481 644324 -926480 -511208 264133 -66143.6 156000 
6.2115e+07 1.24869e+07 1.7912e+06 708029 3.72544e+06 1.52172e+07 7.9359e+06 -110204 -2.43075e+06 5.31495e+06 2.71236e+06 -5.94585e+06 5.57207e+06 -2.44363e+06 -6.38984e+06 2.00768e+06 2.43411e+06 2.70482e+06 717023 1.27183e+06 1.31781e+06 -1.4932e+06 -543656 2.65921e+06 1.78939e+06 -30594.4 2.26974e+06 -454755 -495344 1.26258e+06 -532002 -101484 3.27311e+06 -796108 1.05443e+06 1.13769e+06 -591137 415848 562703 379522 -1.12761e+06 -327541 9188.68 225253 538059 -415931 -29648.8 -211670 -528785 -431029 
3.4383e+07 7.32341e+06 6.52967e+06 -1.59887e+07 -3.09846e+06 6.15706e+06 -6.18186e+06 -4.26617e+06 2.38372e+06 -8.45776e+06 1.79813e+06 -3.23619e+06 2.02844e+06 -866082 2.03779e+06 -3.3804e+06 -1.24801e+06 -1.82161e+06 -2.48819e+06 -1.32874e+06 -325954 26794.5 -2.29885e+06 -628372 407624 2.52788e+06 -736292 972138 -1.16663e+06 661537 -522938 525868 920554 -527069 -392368 -166928 11717.5 1.89433e+06 -686076 -1.13074e+06 -719624 -119794 -617973 170104 -430384 -705203 -266924 16873.9 574944 640703 
3.53732e+07 5.88073e+06 2.82741e+07 -3.03127e+06 -1.26609e+07 5.75377e+06 -3.9664e+06 -1.53117e+06 2.80397e+06 -5.13295e+06 -467457 252549 -1.8277e+06 -1.40739e+06 -1.47969e+06 4.40342e+06 347082 1.75476e+06 2.75171e+06 -1.81856e+06 -4.75808e+06 -12658.4 -1.13831e+06 963761 -905968 -2.00348e+06 529743 1.525e+06 887668 1.63056e+06 -154218 378671 -1.76482e+06 230455 -939290 -1.70701e+06 -1.12404e+06 1.05928e+06 -543411 486077 825674 -685452 -233624 604905 -674359 460750 465211 378285 -13020.9 -441022 
6.42457e+07 8.91368e+06 4.87946e+06 2.4936e+06 2.89926e+06 1.36374e+07 7.11102e+06 -808608 -2.27229e+06 5.87851e+06 3.34607e+06 -6.13598e+06 5.43179e+06 -2.91445e+06 -6.31038e+06 1.14466e+06 1.78177e+06 2.65093e+06 631679 801578 1.69488e+06 -2.00937e+06 -196618 2.85446e+06 1.53597e+06 97140 2.48514e+06 -809378 -577135 1.2108e+06 -497616 -323567 2.98186e+06 -841772 1.12314e+06 702760 -432163 411999 179994 478006 -1.08993e+06 -806802 -178198 118486 790016 -80741.2 -320382 42369.6 -143861 -618789 
2.85969e+07 3.44869e+07 -1.69843e+07 5.74299e+06 -7.73643e+06 -1.17705e+06 1.55274e+07 -1.67227e+06 -3.06179e+06 -1.4976e+06 2.94774e+06 496091 -2.08133e+06 1.21626e+06 728232 2.09156e+06 -3.51813e+06 -628666 -516856 3.94062e+06 -2.1366e+06 686095 1.75347e+06 599051 -1.36866e+06 590714 -51463.2 -1.0591e+06 -1.87316e+06 -1.05886e+06 -2.79612e+06 -350156 -469436 73702.7 -360767 202463 -254944 -339410 649459 223568 75923.5 -751932 878136 -803571 -1.52735e+06 179457 130571 241539 786042 1.37275e+06 
2.54463e+07 2.43481e+07 -1.77225e+07 9.76239e+06 -7.62392e+06 -5.15419e+06 1.4083e+07 -3.55302e+06 -2.52204e+06 -1.65546e+06 5.35146e+06 -369360 114781 2.25346e+06 -467484 1.88465e+06 -3.72214e+06 -268101 701087 2.03083e+06 172655 1.78502e+06 782777 1.46959e+06 -2.54679e+06 1.63945e+06 -423765 -439822 -908511 822651 -2.56338e+06 950948 -2.11827e+06 444103 1.27818e+06 651208 194246 1.03308e+06 773477 243566 850777 815468 -1.35423e+06 276527 -648248 -404450 -947704 442352 -975905 -2.44496e+06 
2.76744e+07 3.97412e+07 -1.71721e+07 5.3494e+06 -7.81928e+06 -1.90333e+06 1.6211e+07 -904632 -1.15191e+06 -1.29246e+06 1.75607e+06 581460 -1.26047e+06 1.14525e+06 111898 3.62641e+06 -3.90146e+06 -275333 -357291 4.0017e+06 -1.20406e+06 1.43848e+06 1.94832e+06 1.06403e+06 -1.26962e+06 527823 -1.49606e+06 -1.73194e+06 -2.14381e+06 469341 -2.12649e+06 -398665 -374912 -589741 316684 -330091 1.2188e+06 -112222 359393 562589 204089 221702 -397509 120974 -1.08613e+06 190431 -339347 -450162 -663725 48358.5 
2.05923e+07 3.7118e+07 -1.49161e+07 -5.65675e+06 -1.99195e+07 6.59433e+06 1.7191e+06 7.41927e+06 5.85296e+06 3.85946e+06 -4.21379e+06 8.07802e+06 283696 4.09857e+06 -5.12763e+06 -1.98071e+06 1.18989e+06 -686092 5.54378e+06 -5.23186e+06 6.71132e+06 -449462 -1.68049e+06 -1.24142e+06 -823313 2.4119e+06 928741 438164 -368252 -1.78799e+06 -1.64335e+06 147448 -1.02485e+06 1.81938e+06 -547758 -429078 -218827 -533290 1.46271e+06 -422632 -771434 -215616 983633 275575 234534 -214346 -443813 -15164.9 680141 25294.5 
3.79273e+07 -4.33614e+07 5.29773e+06 801991 1.28871e+07 -2.55664e+06 3.07744e+06 4.53369e+06 -1.03344e+06 -825295 -2.92037e+06 3.93505e+06 -4.406e+06 -904427 -5.3148e+06 2.90781e+06 -2.48024e+06 -4.1083e+06 -2.66719e+06 1.64689e+06 1.07916e+06 -1.81529e+06 2.98211e+06 -373567 1.10427e+06 -172964 -2.57378e+06 -1.03154e+06 -1.97658e+06 -3.21577e+06 849458 983348 -285416 2.95749e+06 1.8006e+06 1.42932e+06 1.60353e+06 -622310 -14069.9 -1.04833e+06 -744653 157506 -945767 1.09651e+06 338861 -632148 -1.23266e+06 1.38967e+06 -833222 -915323 
3.94375e+07 -1.56933e+07 -3.47894e+06 1.98858e+06 -7.75243e+06 4.89657e+06 3.92207e+06 3.66758e+06 2.96297e+06 5.33754e+06 5.45318e+06 -1.10155e+06 -9.61773e+06 -7955.51 4.719e+06 -4.43496e+06 2.41068e+06 1.63514e+06 1.79459e+06 747868 1.06256e+06 2.35058e+06 1.7331e+06 1.82251e+06 29138.1 -5.05552e+06 -961917 191411 1.60438e+06 2.76889e+06 -581946 2.63526e+06 169394 3.39288e+06 844367 -476772 358761 -1.32434e+06 1.36429e+06 2.03532e+06 379613 -388010 248405 -244366 -383986 538038 223458 1.40016e+06 -1.01081e+06 1.87281e+06 
2.88978e+07 2.13969e+07 -3.23385e+07 2.76617e+06 -343068 4.1476e+06 4.378e+06 2.59248e+06 -2.50059e+06 -6.87998e+06 -5.08884e+06 92756.7 -3.58267e+06 -4.377e+06 2.77879e+06 -1.24507e+06 1.02869e+06 1.87315e+06 173994 1.82024e+06 1.89567e+06 -1.12025e+06 1.05308e+06 -517535 -1.06779e+06 -1.49505e+06 -1.6579e+06 1.94138e+06 3.92644e+06 3.5765e+06 -655867 -25872.1 288349 -468586 2.18578e+06 -1.5063e+06 1.96306e+06 662344 504427 -2.93193e+06 -1.13038e+06 -1.6759e+06 -522034 1.60372e+06 1.25439e+06 174685 709275 -2.92136e+06 1.30835e+06 246637 
6.84497e+06 -999915 -4.14038e+06 8.65734e+06 3.94049e+06 7.22661e+06 5.25343e+06 236306 -6.20149e+06 -5.37388e+06 4.26462e+06 3.29e+06 3.3938e+06 -3.59329e+06 -2.68212e+06 -2.82855e+06 -876692 8.2417e+06 -1.16601e+06 -6.64175e+06 -2.07809e+06 -1.72786e+06 -1.30255e+06 29941.6 53823.1 -1.25259e+06 -5.21146e+06 -1.29833e+06 -972255 -2.5944e+06 2.00485e+06 1.48582e+06 1.45186e+06 -400682 698524 -810510 1.20366e+06 -2.6558e+06 11388.1 -2.03082e+06 1.15776e+06 -306716 168466 37575.6 -1.06579e+06 -2.56876e+06 2.72989e+06 1.05879e+06 -121189 -597861 
5.47955e+07 -3.13086e+07 5.70488e+06 -1.06514e+06 1.06187e+07 -8.18957e+06 5.52344e+06 -2.36478e+06 2.25529e+06 4.58694e+06 -1.36491e+06 3.2272e+06 -2.6644e+06 4.40536e+06 2.6174e+06 -6.09945e+06 2.70722e+06 2.53009e+06 -920314 139423 -506940 -768793 -128642 -739121 -1.1856e+06 3.32627e+06 260132 -2.75376e+06 1.41736e+06 643401 -742746 -2.81556e+06 16923.4 -4.1702e+06 -826461 2.53665e+06 -354408 1.2775e+06 1.07111e+06 130129 83014.4 -1.57365e+06 -1.01345e+06 1.36264e+06 -675235 -301563 181670 456341 224114 -867265 
6.82185e+07 -3.13637e+07 1.12401e+07 6.99934e+06 981264 -9.60874e+06 2.99195e+06 4636.88 3.42483e+06 1.03385e+07 -511441 1.23789e+06 -6.53448e+06 1.66021e+06 3.66486e+06 -7.0994e+06 3.67219e+06 2.87611e+06 -1.48472e+06 -329423 626810 1.43826e+06 861670 858713 -254011 1.82995e+06 531587 161305 823988 -229522 -1.48678e+06 1.17265e+06 -715895 -1.51192e+06 -1.07912e+06 2.45032e+06 -397119 -1.61189e+06 -1.98965e+06 -1.26681e+06 1.49087e+06 -469338 1.11285e+06 61171.3 -1.39651e+06 -691049 -604875 229766 -842768 135821 
1.55329e+07 2.47711e+07 -2.12215e+07 1.71962e+07 5.08772e+06 1.12138e+06 -1.24515e+07 6.90226e+06 -3.46994e+06 1.42765e+07 -5.52793e+06 -3.38115e+06 604566 -3.38847e+06 4.25946e+06 4.79282e+06 1.00521e+06 -4.25105e+06 -2.81018e+06 -3.94824e+06 -3.56769e+06 -6.03372e+06 -3.86278e+06 1.15499e+06 20847.6 -1.03768e+06 -4.88731e+06 -2.11012e+06 2.01068e+06 2.71291e+06 -2.02711e+06 -421319 -580338 47790.6 -864331 -504390 -1.89053e+06 -212448 -108013 1.21464e+06 359773 1.71485e+06 930898 232535 -1.1457e+06 -1.06357e+06 -1.69966e+06 -1.0078e+06 -735532 -577543 
-3.73937e+07 1.94037e+07 1.51484e+07 4.78221e+06 2.05774e+07 1.14133e+07 3.83887e+06 5.48786e+06 1.08339e+07 2.69252e+06 2.62547e+06 -902658 -1.42269e+06 -29763.9 6.63103e+06 3.13862e+06 2.22635e+06 -1.0507e+06 1.89124e+06 -917892 1.76225e+06 2.02761e+06 2.1248e+06 -2.75992e+06 -5.03456e+06 1.30151e+06 297991 -1.73512e+06 -1.05731e+06 455480 2.71232e+06 -404501 2.32621e+06 -605511 -795628 -1.10686e+06 -917181 275247 976726 168608 -443147 752802 -805477 698280 272778 50787.5 521686 -219319 -375081 -1.22529e+06 
-3.32843e+07 2.00087e+07 1.7285e+07 4.85535e+06 2.14074e+07 1.15336e+07 5.50262e+06 4.67121e+06 8.44756e+06 2.91433e+06 3.42314e+06 -1.8204e+06 -1.96277e+06 -2.40401e+06 5.14456e+06 3.21648e+06 291939 -2.62934e+06 1.10159e+06 -646108 1.78918e+06 1.96613e+06 345105 -2.90137e+06 -4.68584e+06 -270856 -917615 -1.48305e+06 -729114 -528843 1.29121e+06 -71467.5 519859 477821 -632148 -438935 13988.8 629569 95878.6 -240072 -54164.2 -661715 439426 741864 -100171 110842 573864 407129 147828 -213555 
-3.84971e+07 1.38691e+07 1.18164e+07 1.18877e+07 1.75213e+07 9.12745e+06 4.66714e+06 4.98587e+06 -6.00583e+06 -5.71925e+06 788145 -3.26265e+06 -991253 1.6144e+06 1.23181e+06 -777139 622706 -3.59933e+06 -400399 -2.59217e+06 1.04948e+06 -1.03575e+06 2.00738e+06 -2764.86 886010 224738 -1.83564e+06 332633 -2.5928e+06 1.12741e+06 -797841 -1.1271e+06 -310137 -648424 -233651 566609 1.1491e+06 -2.74424e+06 -2.72398e+06 -1.74749e+06 -1.24279e+06 -1.35736e+06 247923 -654515 856568 2.27564e+06 -2.50636e+06 795908 148923 949649 
-1.92614e+07 2.30954e+07 1.49779e+07 4.35701e+06 1.66571e+07 6.102e+06 7.655e+06 -786067 9.63083e+06 4.03986e+06 -2.21001e+06 -719942 1.29548e+06 -1.79118e+06 5.32355e+06 1.56097e+06 739367 5.08105e+06 632049 613542 2671.64 -85928 -4.2052e+06 1.43081e+06 2.66538e+06 2.01205e+06 1.26982e+06 -799062 1.03686e+06 -1.6818e+06 -47065.4 -336454 -4.15445e+06 1.15785e+06 3.25967e+06 499472 -172916 -503348 -1.52518e+06 1773.29 565885 -146244 -2.28844e+06 -4.24208e+06 2.07231e+06 -383125 -319291 723800 1.1806e+06 -151606 
4.14664e+07 -4.02231e+07 2.279e+07 1.03652e+07 8.32219e+06 -3.33663e+06 7.70617e+06 1.66462e+06 3.23308e+06 2.96768e+06 -2.09366e+06 215973 -7.05474e+06 -577787 -6.6358e+06 -1.96146e+06 726186 -1.04541e+06 313213 -2.36301e+06 -4.12312e+06 -561660 3.56815e+06 528745 1.14992e+06 2.10968e+06 898062 887698 -1.40832e+06 3.0915e+06 -932059 -1.19391e+06 -733326 1.77903e+06 -3.49658e+06 -2.45768e+06 2.87859e+06 827364 -820300 -418569 -834294 992935 340075 -2.95047e+06 581967 566490 2.19509e+06 -1.26432e+06 328358 -2.25839e+06 
-2.80592e+07 2.21277e+07 1.45978e+07 3.15906e+06 1.77262e+07 5.65655e+06 9.23537e+06 -1.7549e+06 7.86081e+06 1.74395e+06 -5.14414e+06 1.07803e+06 383549 -332866 3.8604e+06 564628 -618892 3.12624e+06 -521771 1.50922e+06 -569105 514524 -2.42331e+06 1.89148e+06 4.71064e+06 314507 722081 1.15754e+06 413143 -826205 -493963 -133016 -994424 1.11006e+06 1.1986e+06 -875275 1.50313e+06 1.75296e+06 -917293 -821866 -1.50051e+06 -64677.5 520462 1.51195e+06 -3.90071e+06 388696 835779 -86583 -850579 1.72409e+06 
-1.66886e+07 2.39705e+07 -1.69323e+06 -5.17217e+06 1.92712e+06 1.17359e+07 9.32635e+06 6.28195e+06 -4.30907e+06 -7.7415e+06 -6.07324e+06 -4.31423e+06 -6.79122e+06 3.32959e+06 -2.84408e+06 2.18116e+06 433660 4.71631e+06 783872 2.37707e+06 94230.1 -1.67968e+06 -1.2084e+06 -3.52548e+06 -761749 -694725 -1.05264e+06 -1.0129e+06 625145 -321432 -742517 -338977 1.07098e+06 -1.61552e+06 -549246 2.26283e+06 -871892 1.77886e+06 -966370 78119.8 3.46382e+06 2.76663e+06 2.08731e+06 -1.51127e+06 1.4194e+06 285677 252440 790532 1.02192e+06 607858 
3.21341e+07 -3.04406e+07 3.25403e+07 1.538e+07 6.44698e+06 1.51787e+06 9.48384e+06 -283119 204486 -7.71768e+06 -2.69666e+06 3.50788e+06 -2.18678e+06 -2.39585e+06 -3.86208e+06 1.78357e+06 -7.04281e+06 -3.99303e+06 1.09001e+06 -1.39359e+06 697725 -3.90601e+06 -28636.9 -774037 -1.02179e+06 -1.4622e+06 2.32857e+06 2.05741e+06 4.75387e+06 -2.12053e+06 -169301 -1.21219e+06 166369 -2.18282e+06 581440 -238886 -1.9917e+06 -422253 -8800.57 -1.18287e+06 1.48447e+06 -292265 -1.56707e+06 113056 -1.2581e+06 1.34892e+06 -761025 -94459.2 -1.01454e+06 543984 
5.58773e+07 -3.22986e+07 1.17826e+07 1.63824e+06 9.89319e+06 -6.80508e+06 7.98517e+06 8.30868e+06 -2.22096e+06 -2.46455e+06 1.86935e+06 4.07997e+06 -717026 -3.51646e+06 1.46575e+06 312018 -1.13645e+06 -6.02279e+06 -3.18835e+06 -109692 2.48818e+06 1.66748e+06 -1.77668e+06 179316 2.10187e+06 -861661 366345 256548 -604921 -740017 254750 2.14227e+06 -498234 -361634 1.93925e+06 -915783 -2.58193e+06 -895525 1.31861e+06 945230 117488 1.02585e+06 2.09531e+06 -976149 702346 -424250 516713 -1.21181e+06 1.82848e+06 -60453.1 
4.9209e+07 -3.5028e+07 2.02486e+07 3.52245e+06 1.3678e+07 -1.01052e+07 9.01024e+06 2.98756e+06 778680 -2.27868e+06 229077 2.43844e+06 -2.45565e+06 -858612 -76040.3 1.10165e+06 1.22693e+06 -4.23062e+06 -198339 -747490 151426 681997 -984160 -909273 1.24238e+06 244473 -1.13666e+06 697058 -550763 1.78388e+06 -587447 -647586 559626 -1.34818e+06 1.97211e+06 248453 -1.37086e+06 1.12536e+06 2.10271e+06 -192977 -810609 -270216 74251.9 -448548 829613 -1.45114e+06 1.43406e+06 -928198 522133 1.5587e+06 
3.57452e+07 1.6638e+07 -2.99693e+07 1.359e+07 3.43814e+06 -167555 4.06372e+06 -1.96008e+06 2.26268e+06 -4.07914e+06 -6.74523e+06 -682722 2.29885e+06 -4.56856e+06 1.56631e+06 -3.35662e+06 4.48439e+06 -4.85817e+06 1.74024e+06 -2.66778e+06 298657 1.48037e+06 -347081 -2.31147e+06 4.81569e+06 -1.50974e+06 3.74614e+06 191779 71559.1 -193172 -175589 -1.31007e+06 1.96061e+06 1.53444e+06 215714 -88036.9 67353.4 2.26834e+06 -125303 -178026 1.41382e+06 321306 758007 638209 -842872 67003.7 -456667 3.09621e+06 -712530 -356574 
2.38409e+07 -3.56084e+07 1.3843e+07 8.19008e+06 -4.14326e+06 984492 2.18885e+06 -3.96843e+06 5.99249e+06 574184 -6.51444e+06 -4.88864e+06 462619 5.73232e+06 -1.98262e+06 2.64962e+06 -1.6693e+06 -3.09651e+06 -667801 -3.75605e+06 -2.9327e+06 1.94969e+06 -965202 2.36266e+06 -1.78491e+06 781904 -2.89155e+06 113102 1.1109e+06 -1.24699e+06 653076 1.90666e+06 -272303 77940.3 1.2161e+06 372394 1.62776e+06 678736 -1.4022e+06 2.59892e+06 246713 -1.87376e+06 -1.61445e+06 1.85499e+06 1.26692e+06 -76934.8 323998 1.0215e+06 402236 780523 
3.88972e+07 -8.28746e+06 -6.00764e+06 -2.20922e+06 1.74629e+07 -8.41474e+06 1.86011e+06 -1.58503e+06 723923 -3.3875e+06 8.77119e+06 -801761 7.18069e+06 1.1177e+07 2.02157e+06 650679 -3.24412e+06 1.44605e+06 1.51421e+06 -965962 -1.39595e+06 -3.37813e+06 -3.01487e+06 -2.13307e+06 1.07874e+06 -912294 -767525 626375 -414619 324332 -2.04082e+06 1.17058e+06 -997602 1.02761e+06 -1.21212e+06 -725749 -968384 967203 -822516 -655840 -1.90479e+06 -331681 2.61677e+06 1.12774e+06 206719 2.66415e+06 397272 761883 1.58472e+06 -459824 
4.92226e+07 -6.83379e+06 -1.35828e+07 -1.62834e+06 1.21994e+07 -7.34913e+06 1.16634e+06 1.34412e+06 2.62005e+06 1.42153e+06 5.12316e+06 -1.25216e+06 4.6973e+06 1.55785e+07 5.27132e+06 -1.11121e+06 -1.0761e+06 -1.77453e+06 1.61656e+06 4.30342e+06 1.0432e+06 -3.2924e+06 -2.05921e+06 1629.77 1.18898e+06 -2.27337e+06 1.51376e+06 2.27403e+06 -463557 -1.19218e+06 2.48257e+06 24724.1 2.21414e+06 1.03259e+06 -682957 -1.17149e+06 1.23791e+06 -1.0969e+06 24097.9 -25909.1 1.53767e+06 489829 -169823 -840021 -76355.7 -2.35862e+06 112567 -1.72637e+06 -1.26016e+06 -450211 
4.19609e+07 1.11192e+07 -3.44843e+07 1.27173e+06 9.99994e+06 1.40346e+06 8.01619e+06 6.50207e+06 1.17665e+06 -2.85539e+06 -5.04064e+06 1.54523e+06 4.81189e+06 -2.37426e+06 4.76526e+06 -1.00605e+06 1.04188e+06 3.63688e+06 -486981 -3.71065e+06 -4.2422e+06 960140 3.64274e+06 -280658 1.80679e+06 -1.38728e+06 3.15443e+06 942147 -1.00497e+06 -2.07861e+06 796089 2.59716e+06 -1.94888e+06 -1.42735e+06 -1.87512e+06 47159.4 1.96225e+06 -1.01869e+06 1.65551e+06 1.85064e+06 238928 1.96223e+06 -1.14365e+06 1.91151e+06 2.20343e+06 1.18665e+06 -1.16955e+06 -1.83612e+06 231890 718159 
3.12136e+07 -7.18498e+06 -4.00073e+06 -6.36013e+06 320343 7.37292e+06 2.00315e+06 339753 -5.32317e+06 -4.74334e+06 8.47448e+06 5.43229e+06 -2.04646e+06 -2.67908e+06 -1.5671e+06 -4.35829e+06 1.41103e+06 3.1643e+06 -3.07843e+06 -1.64436e+06 1.37399e+06 -1.99825e+06 -1.70273e+06 -1.71952e+06 696015 -510168 -2.12727e+06 -1.63825e+06 -1.57596e+06 -384689 3.18591e+06 -1.16939e+06 -805235 1.07544e+06 -330801 64166 -152432 3.02321e+06 997369 3.39657e+06 2.02687e+06 -2.0873e+06 -339457 -954232 -1.01874e+06 2.8561e+06 -1.20275e+06 -1.60278e+06 -982236 12175 
2.70028e+07 -4.73834e+06 -1.78836e+07 -2.51333e+06 3.17304e+06 9.60881e+06 526798 1.72684e+06 312374 -4.38901e+06 5.32522e+06 1.21774e+06 -2.98811e+06 -2.03791e+06 1.64403e+06 -1.40297e+06 -2.96714e+06 2.60308e+06 -581651 1.24729e+06 3.96697e+06 1.13222e+06 2.41707e+06 -654996 -352583 -4.6936e+06 -2.24275e+06 1.5981e+06 4.69656e+06 -937933 -440932 -856244 59142.8 138869 -1.82667e+06 40062.5 -858828 943096 -2.17954e+06 1.41205e+06 -3.02146e+06 481465 -734629 -1.023e+06 287865 -1.75054e+06 -962473 904075 248050 -1.26096e+06 
