1.11228e+08 -1.96624e+07 -2.14731e+06 -1.07663e+07 -5.32471e+06 -1.00699e+07 4.5887e+06 -9.51436e+06 6.40632e+06 2.1949e+06 2.94144e+06 2.05341e+06 -1.47707e+06 907205 1.17653e+06 1.88642e+06 -2.25435e+06 3.0193e+06 -387337 1.75567e+06 117281 3.97944e+06 3.2668e+06 -1.20518e+06 -656804 -1.48195e+06 568179 2.58632e+06 -122037 3.2656e+06 -1.99295e+06 -422518 -1.36352e+06 -890864 -207129 564301 1.63471e+06 743982 1.49346e+06 -2.10979e+06 731496 -918042 1.76539e+06 385389 127090 167989 -1.18495e+06 1.10672e+06 -175185 -614301 936033 732933 769952 -232403 249737 91961.1 -562140 -186852 596156 86111.1 989571 -472301 742043 -1.14692e+06 403958 501219 248239 -171056 143742 412652 -437198 -653747 -371643 -595066 -474372 -203998 -303413 168635 -221466 -688060 -359770 -532336 353563 129080 173565 -333584 15558.2 -140628 -91369.7 -836.029 223236 393245 -355813 346668 -487610 421289 208334 296720 455389 -63606.7 -93666 75036.9 -20098 -172400 -40014 -334923 145440 84776 7051.03 -154653 185613 -300145 392161 -79135.5 -350011 -487390 113202 -403136 479661 -56810.3 114056 -153591 -127029 -124168 -43497.2 288745 -260907 -349247 -117555 260914 -63046.9 288330 249340 509385 -94223.7 97225.4 8138.29 67208.1 -293950 -162060 -122112 -265014 99612.2 -224598 34662.2 392532 64351.3 -325696 53237.8 -245144 -143936 168998 -168059 -107533 -226126 396057 9251.3 54963.9 104248 270193 132349 106341 104881 227974 217947 -240022 105437 -6693.62 175850 32121.6 -194780 -38551.2 107304 46047.3 7438.37 -61516.3 -48924.7 113299 124421 188426 45785.1 205930 107585 -111788 -104822 126856 -188012 34125.7 -17621.6 272898 78743.1 -146800 80935.8 -11748.2 152270 -22783.5 173729 -128617 -161388 234498 -132625 -97411.5 -70970.4 -76940.1 32263.5 36275.8 152837 -29285.7 28691.7 126289 -34282.2 61447.4 -63498.2 -19429.1 13030 172239 -26125.3 120319 -114704 142223 -218381 112413 125725 -39402.4 -175721 8861.84 -31480 -25504.3 -73123.8 204320 103234 -30071 44039.8 -69236.4 -115567 -1667.76 -14095.8 120290 120539 -95300.1 -248009 123796 -172987 77313.9 136724 59519.3 -53531 -129060 -106823 -45562.1 -68141.4 -225292 -22033.2 -101949 81842.8 -66868.8 -160404 -31988 -65327.3 124574 -64010.6 -58977 -124253 206424 14616 43495.1 -143026 160027 -5001.81 2237.03 -21564.4 44074.2 -107268 -134868 -18557.9 -105859 6308.39 117358 75388.7 99912.7 34454.9 126483 127863 -110787 63194.1 -24075.2 70092 -64190.6 -5962.53 -63232.7 14462.4 -53094.4 58601.2 63686.5 -6040.21 -69211.6 -89120.7 19476.3 -57637.3 16546.7 -25727.6 109945 19457.8 38685.8 4599.22 -2154.31 -128216 -74475 4999.51 115328 13402.4 16865.4 -52334.4 -92002.9 25713.7 100838 40031.3 -84178.9 -40314.1 -35155 -37968 44493.2 31206.3 43149.7 26003.5 -23035.7 -24556.8 110658 -49433.6 28565.6 87476.1 -1183.12 -59298.8 16853.1 95951.1 -1702.79 -1934.4 4241.38 -45644.9 -2208.48 -172085 -29792.2 48115.4 105980 -32590.4 95286.1 149492 -14060.3 8392.12 52530.9 36971.7 -48928.8 -61668.9 -64557.7 24450.2 -63094 -12998.6 10841.2 33720 79386.1 -17364 3316.07 -54579.6 -72880 32576.8 44751.1 45076.5 -37067.6 -18205.9 -13620.2 2478.8 -105097 42016.5 8498.29 736.52 -49925.3 -21571 -37128.4 -14094.1 -1448.65 -17673.1 58403.3 -1413.21 30641.1 -36452.9 27506.2 26910.7 -15372 2119.79 496.608 -11649.5 46875.9 26760.3 -7398.62 39155.3 -11367.6 45160.9 -9646.01 -4028.63 -23243.5 6810.03 52786.1 18147.9 48816.9 -30086.6 29702.2 37535.4 -27048.4 20942 7425.15 1948.69 -11181.4 15309.6 -29871.6 -220.959 -23611.4 29933.6 6708.6 -14216.5 -1397.63 -32595.7 -8977.83 -7955.57 27572.8 16752.6 2330.34 38814.9 -3650.62 32798.6 655.276 -30053.4 -3572.21 -14184.8 -10515.1 3919.63 -72415.1 -10031.9 -7907.79 9600.48 2635.71 -8770.69 10887.4 11232.9 3634.74 8661.53 -89.3418 -9262.26 -44101.9 -2105.15 2255.44 1647.27 -1197.75 5485.02 -28143.9 -6421.18 27957.4 -8313.67 -14565.1 -11223.7 7470.21 3040.17 -1474.36 -15628.7 -7055.87 -6708.97 11515.3 4015.61 -6228.44 7877.52 7492.48 3804.53 19759.1 -8735.62 2046.96 15468.2 -5504.31 -5697.88 -1730.45 1310.93 9401.82 -10015.8 -10339.5 2477.62 -144.035 209.765 730.966 1975.5 -3867.79 -4962.7 
5.13372e+06 -2.17677e+07 1.18368e+07 -85865.9 1.29919e+07 8.04713e+06 6.37975e+06 -5.2174e+06 2.5603e+06 625461 1.38981e+06 -2.90361e+06 -656934 -338782 3.03439e+06 331195 -151972 687468 1.58977e+06 2.49059e+06 1.91438e+06 -865716 -2.31533e+06 1.02341e+06 -788410 394690 -1.15453e+06 538451 489716 549093 569083 41256.5 450310 -1.42122e+06 -1.51027e+06 242887 -859784 -338015 664710 31276 35014.9 -847617 -215947 274677 -62724.8 -505243 617312 -127314 -555618 183334 66335.9 178555 94099.8 -396730 484396 -727858 414588 -481508 470918 -144181 -155117 -416605 -28102.1 -502500 -240712 -47215.3 137054 435012 196380 -795965 -1.62387e+06 -405549 -89980.4 -310104 -440925 -256880 127818 -33022.9 -65693.7 -79765.8 -541816 -29381.2 32219.2 156412 -625856 -179017 -300485 86606.6 215323 229517 -96014 -622417 -244708 -94523.5 141581 -581038 -135078 213911 235427 23820.7 132579 378235 299339 -33985.4 -296340 -87135.4 320554 -301658 93141.3 -168858 -371652 -240418 135310 -115539 25956.7 44655.8 157725 -271885 -313341 -278096 140588 6380.17 -489780 -48574.7 11814.5 -302273 -288909 -213424 -196427 -76794.1 -185541 18796.2 -128422 -10706 -187226 92977.5 12044 -29701.8 -76330.3 -63701.1 -48633.8 -83807 65136.9 43462.3 -25314.9 -30084.9 -4246.05 50400.3 -112564 -23749.3 60058.9 -96687.3 -180509 232425 -259491 88691 -77848.7 217544 31745.7 -270419 -153777 -150726 72727.6 -201583 228746 37923 264834 78162.6 12950.8 50057.2 32437.8 -92223.6 -23174 23817.2 -100539 -158469 60987.9 -2081.83 39506.2 73391.4 70909.5 -5824.6 -11383.8 -71091.6 22915.3 -263598 -33859.7 -80577.1 -53583.6 26536.5 192741 -39961.5 -59524.3 -25465.3 -50432.8 98473.1 -12578.7 15505.4 53407.3 177576 -51486.8 -96411.6 -21092.3 -30399.9 -132269 -51274 39252.7 -83745.6 23718.3 163545 -57116.2 110270 -35292.2 -10637 -21230.4 142054 -145902 31838.4 50833 4354.65 56124.4 -62724.5 -75678.5 51406.4 25134.3 51214.1 -89327 85417 -31189.9 13123.5 41883.4 51672.6 78196.5 -50888.8 72813.4 -13678.1 -35599.3 -27630.8 90697.2 -100050 -72431.9 37307.7 52820.2 -1594.72 -26845.2 70087.7 -34947.1 -55629 -87363.4 -67408 -102369 74501.6 -53639.7 -55143.1 62780.6 -26044.3 22596.9 -73243.3 -47112 38329.7 100412 -55820.8 482.758 -91094.5 152157 64766.6 -42995.1 -66434.1 -12734 77679.4 25403 -48393 9700.06 68720 -17419.1 -134886 -52437.1 68616.2 17993.5 2733.68 48674.8 8128.53 -77594.5 164560 -4342.87 30519.7 -74429.4 -50768.4 -97931.4 109495 137044 54753.7 15807 -19368.4 580.938 53325.8 -43107.8 -785.271 -5162.71 -82132 68765.2 77941.4 -103518 -39913.1 -32362.9 -112865 82926.8 78138 -72283.9 -7497.02 -23084.1 -2008.94 -93908.6 -21540.7 -11227.3 66283.9 -62490 6317.11 25557.9 -9450.9 24460.9 2893.32 58635.2 -11380.5 -39541.8 60843.9 -26425.9 -13569 -57334.1 -26866.6 29566.9 26708.1 55218.6 -8667.45 34091.4 -40413.2 -19430.2 -5955.9 -12545.5 56609.6 -70673.7 -19283.6 -3115.63 -16883.2 -17147.8 112832 -76580.7 -13279.8 -44882.5 33587.6 -70596.3 -18447.6 42144.4 25110.6 -48918.2 -9913.47 -32088.1 51457.1 17146.8 -9407.9 46156.6 60392.9 133502 120557 61990 78350 -7204.88 35311.1 31914.4 -51862.8 -14258.9 59851.1 90765.1 -37578.3 -3117.65 53629.7 -712.671 -1898.94 -59665.7 -4979.71 48336 8006.21 85106.4 -6076.43 53101.8 -63786.6 -44976.2 -19443 -29303.2 11469.8 -34740.7 43970.6 29207.2 -47990.4 104384 74847.3 38248.3 71182.4 52223 65708.7 -54672.2 5088.35 -31230.3 -15859.4 3752.88 -24145.1 62865.4 64320.2 -17252.3 -46644.7 -66208.1 -53925.7 -63968.2 6381.98 -96385.7 6167.55 -43677.9 -65037.9 -11775.6 -29364.5 27260.3 -21709.3 -39666.5 -17886.3 -9893.64 55657.4 -26618.7 -25654.5 -55948.9 57367.5 26407.3 20481.3 -1563.82 -1336.44 23621.4 -44588 -95719.9 -40411.5 -25016.3 32671.7 54390.8 -78004 -38863.7 9146.39 40684.3 45408.6 -41705.1 30762.7 -53842.5 -63149.6 45266.5 24063.7 -8979.76 -10179.5 -810.437 20142.9 -34941.9 84131.7 210.333 -24925.4 17604.5 -11202.1 -7597.8 -11733.2 25965.5 3986 -16495.9 1473.17 -45205.8 -33908.5 -48161.3 -25057 -2718.19 23395.8 -7611.69 -25247.8 -12050 -27535 -7812.51 3109.19 1285.07 -10010.1 -2686.46 -1859.86 -2742.58 3172.41 -2619.02 2867.6 -1892.02 
2.9631e+07 -2.3591e+07 -4.03025e+06 3.49024e+06 1.13336e+07 1.00299e+07 1.54853e+07 -1.23541e+06 -601667 641181 744936 -167903 2.23615e+06 -2.91697e+06 -2.52473e+06 -1.58475e+06 2.45962e+06 -489156 1.91104e+06 647952 190525 -1.38435e+06 -2.58883e+06 3.35594e+06 -847556 -1.8593e+06 -58402.6 -80524.8 237478 403778 861108 -783244 -1.32102e+06 -711782 -434805 2.57841e+06 -587885 -1.75226e+06 754990 479271 112841 -300052 -307828 197321 212756 -521513 1.04997e+06 -550963 427087 37049.2 -545480 532558 387167 564285 -70384.6 547752 1.34745e+06 -972936 641386 -318989 -60670.8 -1.07108e+06 -499784 -9330.22 78567.7 110653 -235684 86320.8 -6873.83 -554870 39336.8 -178289 664410 -100629 -475387 -612200 -80698.3 -25778.5 -106558 -406319 -184663 -177138 -24833.6 50056.4 -161027 116503 296329 247567 382610 234333 138447 -272533 83281.1 -413789 -35917.4 -182497 346411 17929.4 74091.6 -227367 207618 378147 130247 154584 154204 -78179.8 -247253 -138293 -131586 -46179.1 290100 8140.42 -32073.4 465614 -406509 199287 -62890.4 -271027 -279148 -65858 25106.5 -287414 -316147 112326 219057 247802 -148051 -207370 -241491 183466 178939 -183407 293799 -124574 -39882.4 66976 98744.1 -254353 -426370 55836.1 -139013 -1393.11 -97881.2 172277 -87195.8 -108577 38324.9 116599 -231397 -4992.41 122909 -377750 191706 -244985 -51630.6 -78938.6 -8361.26 -150549 -319604 -253127 -305988 208474 417067 -196242 -143158 156570 205839 290343 60431.7 -173243 224731 -188940 33688.4 34368 -98984.5 -130186 142437 61622.5 357225 -176720 47234.9 -198294 87016.6 -1566.82 9886.88 -158453 -30298.7 -53812.1 -8919.7 -42733.6 -330702 99583.8 66406.8 94537.3 164693 5208.99 -34367.2 -87602.4 -73857.1 -86193.9 157680 41627.6 131970 -250542 223947 -47450.5 -73203.5 -124486 4060.72 103671 74246.3 -73440.8 -22591.1 -31679.9 -218036 -58392.1 -41384.2 -42483.3 84339.8 -170076 90526.2 28107.8 -31681.4 -102603 -30226.8 -114514 92333.9 18030.5 -203154 109375 -46788.2 51906.6 82968.9 -93046 -257711 -63964.7 -128939 -46157.7 36862.4 -65084 -19306.8 102526 -185640 -170012 43310.4 54547.6 10760.8 -101286 217486 -126157 -108319 59019.8 -12826.8 149215 -108312 48667.9 -159651 -99998.4 59053 162709 67688.2 16497.8 -1593.57 -107439 20988.8 -185636 -53680.7 49601 -20218.3 28775.1 138611 -73827.6 -169215 -212951 112664 -104919 -97447 57600.6 41789.7 -65360.1 -66126.5 -40462.9 -84296.9 83499.4 60684.4 -168724 123495 128385 -184675 -26602.7 -91552 72561.4 3615.49 31718.1 37912.7 -10481.3 1188.62 28659 64660.3 47676.5 -53919.8 85810.2 64920.8 -33048.4 48058.7 25455.2 -82009.3 -68168.2 62892.5 35627.9 -49994 -7952.83 52714.1 66798.2 -112573 -21630.4 178634 -47602.9 -9558.47 44315.5 26998.1 45611.7 29788.2 7431.2 2567.68 60635.7 -38757.7 -121626 17800.5 46171.9 74121.9 79243.1 61395.6 368.11 -21397.8 117733 32450.7 18024.1 43313.4 26434.9 -42092.3 24188.5 90493.2 -34480.1 85790.8 -26739.4 47421.2 56036.1 7760.78 6912.4 165974 -149624 -67238.6 11788 -54994.6 -59548.3 59285.9 13477.2 2019.65 -53939.1 -38728.2 16012.5 -34886.4 64420.9 38695.6 -43860.7 -51287.4 61518.4 -12646.8 44920 -13919.6 22349.8 -8975.54 62036.7 -62644.7 -4906.36 -21140.3 -26283.7 7499.07 -76517 -17585.5 29463.9 -40767.5 -1406.14 -15651.5 -58748.1 -5026.22 32503.8 26742.6 -30704.1 3877.81 -31415.3 -30557.7 -63852.2 10556.8 -34933.5 -31183.6 -20461.4 10761.4 -24230.3 29917.9 -54218.5 55594 22307.5 -33166.5 -26667.2 -27865.9 -36604.8 -38829.5 32696 24711.5 -37720.1 -10153.8 1077.81 -11062.5 1159.46 16968.6 6208.34 18097.6 4611.28 -10058.8 -6410.6 -9316.9 33440 -8468.48 -32271.5 -15006.2 -31211 -5207.58 7026.38 -5695.65 -711.073 -18347.3 9540.74 -45652.9 1407.17 -27490.9 27406.9 9613.47 -49594.1 3407.58 9576.34 6566.53 -1007.65 -4151.81 17929.2 685.134 6429.01 29034.8 -5695.67 2148.54 23186.9 -4734.36 7991.32 31674.8 -4687.15 13194 -17445.3 -8060.65 -1850.04 -5489.94 8490.51 3591.67 -2538.88 -10883.2 -27273.1 3.15233 -27263.1 1169.34 8953.78 23029.7 -25992.6 -3762.61 -23113.9 18948.6 1606.83 -6679.1 -9609.53 7531.58 14635.1 -19557.6 -4977.95 4776.46 -14670.6 -3857.16 -524.629 -9937.94 -7843.14 -1599.55 
-2.80947e+06 -1.78535e+07 9.93839e+06 2.02296e+06 3.67911e+06 9.08614e+06 1.14189e+07 -3.06313e+06 850947 -1.23528e+06 2.64669e+06 837153 829411 387371 2.71961e+06 -2.12519e+06 1.04326e+06 -2.39959e+06 3.6396e+06 2.81715e+06 846749 -1.33886e+06 363317 -237940 1.43189e+06 -790385 -1.21434e+06 317039 1.8228e+06 -109419 1.60965e+06 489176 806583 -288731 -930577 305605 -101667 -162571 845029 -293953 159299 714904 -1.25046e+06 -161152 1.18889e+06 292052 456196 32597.2 405946 656753 -1.09637e+06 508248 -264288 -765113 -322444 -276420 890449 -938013 -311823 429872 -705322 -594765 -128658 517273 406602 -405709 -107236 -251283 -380454 784338 -726434 -839157 -347448 -173895 461662 167923 588434 126791 45809.5 610990 -1794.08 -69103.4 215606 -411556 376330 274387 -366091 189073 279301 -2686.48 -196212 -407448 -350322 -296758 -147138 155603 -232691 190827 -483703 391801 -143325 -122469 -171353 189645 -172500 210434 -270487 -66232.5 -146760 -178986 25190.2 -40926.1 -4813.64 208305 -90822.8 379935 137906 125437 -157344 286032 -9324.98 88433.7 471073 104713 33091.1 -380169 -93521 112265 225708 -73387.8 -126229 49112 -198046 -24132 55313.9 128033 -131198 -17361.6 -159624 -20236.7 243745 113386 235226 123617 -133153 259419 -5677.81 -184177 -121706 -262565 86799.9 11280.9 -24049.1 -90078.4 -126345 144066 8599.62 27954.3 128122 93838.7 -175286 220995 66221.9 98218.6 203964 -68844.9 50142 9567.23 49729.4 -28017.4 -220164 -25347.5 60803.4 18068.2 -95901.1 202537 31951.1 17643.1 43017.3 92053 81057.1 68037.8 -62354.3 -314890 73137.6 -47200.3 58089.7 -44094 -3522.11 -26240.7 -127439 40398.9 324686 -1154.99 -57728.3 93338.1 -159450 -52805.1 -54688.9 -113152 -83230.2 -42114.8 -105792 139188 3531.61 95959.2 -58664.4 30521.4 19559 -45020.9 89864.5 -123811 7408.34 -36028.2 19096.1 -48370.8 -7702.46 34380.4 90486.7 -12306.8 83775.5 18651.2 104827 -85235.1 -44048.4 147749 70416.4 -58535.8 152498 -94183.3 62196.7 -54227.5 18100.9 -27645.7 -51040.5 38717.7 -134208 106015 120777 145366 -44888.6 8852.49 -27146.9 221892 -13648.5 -48562.2 -12260.3 -67652.8 157846 -65578.1 97541.5 -65996 16516.4 -33895.6 -15850.5 -3109.55 -27819.6 179001 -87694.2 67834.3 -59199.2 -1769.2 30807.7 46819.1 -92304.2 105247 -52582.2 -1561.91 -22053.9 84734.7 -36618.7 -51111.2 -15360.6 -63573.3 -45757.5 1521.41 120857 -71518.4 -19222.9 -20765.6 77666.7 30517.3 11124.3 34152.8 46511.4 44273.5 -29294.6 35184.5 50327.2 -32870.8 -70569.2 54387.2 75541.8 91181.2 -104097 87048.5 30956 31819.6 -120165 13693.9 -12149.6 -77946.1 -129732 73619 -2052.8 59307.2 7444.39 29669.6 -22801.1 58881.2 -29610.7 22569.9 -17018 -5449.47 1080.48 5350.59 -7516.53 27773.1 -9056.49 -52974.2 70097.8 30598 83053.2 -6295.09 -50382 -82937.3 -51424.2 35939.1 -7992.58 82632.2 33290.2 43247.9 -29663 -38330.3 -54906.6 -89503.1 44739 -27396 56816.2 25303.8 25148.3 49336.2 -48527.5 2044.48 -86431.8 -116033 -34572.3 -3552.63 -35647.7 -18403 -36998.4 -7447.87 7448.95 -74057.5 -71287.4 -1954.83 -46380.1 56743.7 115879 -69904.7 -1116.82 -90513.5 -50384.1 -6795.52 -59926.5 53211.3 23417.8 37910.6 -123439 262.25 -42609.9 -12957.3 34454.4 72851.2 -5470.23 1337 7486.02 6002.33 -540.817 -24245.2 -16052.2 18909.5 68096.4 -5608.58 -18551.3 10364.2 -21834.2 -87434.7 -22460.5 -1979.3 30204.8 4173.54 12320.9 -19032.3 8999.33 155315 44189.6 -57322.6 -380.46 50345.9 8450.53 -50072.5 91698.9 21163.9 -16872.6 2867.32 -20667 -5301.56 20834.4 -15166.9 -52554.8 6318.61 -51722 76846.3 44216.6 -34034.6 53812.1 68243.9 91483.2 -92084.8 -23345 81271.6 -385.783 -32359.7 -24116.9 -49349.2 39975.1 5826.76 3793.46 -6098.28 57647.7 -37547.8 -14723.2 57983.4 -59689.7 -54147.4 -11861.9 -51231 30413.7 57077.3 -26874 40483 12841.8 4540.68 22634.6 9543.4 -17511.9 1459.21 -4701.14 -13401 18147.5 25128.4 -342.682 35927.3 2305.43 -12156.5 8306.3 -16613.2 -32435.4 -6491.53 -11166.2 -14869.3 2478.35 -1290.38 -12863.4 28253.7 1538.81 -24890.2 23378.1 64426.1 11355.7 -65969.2 -60033.9 -25687.1 -17306 -21128.8 -15186.4 767.678 -18937.3 -834.497 21884.4 8285.28 1384.5 3907.6 -4304.4 -15208.2 2267.87 -1386.52 -3193.92 
6.51382e+07 -1.29327e+07 253921 -1.4026e+07 -1.04205e+07 -1.23761e+07 -4.45931e+06 -8.36743e+06 5.17581e+06 -2.87477e+06 1.15596e+07 -1.46985e+06 991349 -3.97639e+06 707205 -333453 -1.24142e+06 -345476 -1.4037e+06 1.42158e+06 -1.68003e+06 2.29152e+06 -172906 -1.96924e+06 790348 894908 -418191 3.86136e+06 -1.04795e+06 -372097 -2.07183e+06 1.32007e+06 1.84911e+06 1.3683e+06 43076.6 904463 2.21723e+06 658888 222437 707239 24753.9 -578449 30140.3 916027 -258390 -668296 830858 -232903 473710 655156 -1.03631e+06 -518820 -633231 -1.35209e+06 834308 -1.13799e+06 -210180 -380606 1.11951e+06 274095 -222838 143536 -326959 134837 1.14567e+06 -7246.35 -619162 -33276.8 905949 179649 162636 -124479 -481436 923529 128777 -159364 -578887 -216936 402924 20493.2 -709445 206629 -468959 -386828 334444 158125 -235635 180685 427039 -347774 -236181 -664197 -291517 259232 -579056 -648789 566484 -262841 -188121 -126691 224657 240453 -811125 33409.4 316261 314002 50197.9 -39705.3 -113300 159641 -39733.3 253080 -129228 347320 -373509 -103501 -43459.2 -496962 -291583 168020 -152347 156184 -111949 199143 -177544 297726 198751 81958.3 -290828 214864 -216368 194277 -140412 6684.61 -33854.5 -280069 264663 208194 -134599 -3701.75 -28888.7 -205147 -123079 -252146 14137 97242.5 104595 260091 -339593 -57351.4 -145634 -216938 266662 145353 -116713 -84144.3 21120.5 -219440 180178 -48740.9 -242566 -180251 -222553 50190.3 -154760 -306473 -23557.9 212430 -36714.5 320516 99067.5 -40935.7 211486 62981.9 13640.9 -120251 -6454.23 -145067 -234937 54536.1 289732 52317.4 -157995 -442835 -142636 -185369 -16755 14989.9 128589 -64026.2 199102 -189188 -133920 -183453 -164026 -95935.7 2875.1 -116046 -90121.1 254704 46380.4 187395 -27181.5 51073.3 19890.1 -4209.63 -8634.74 62159.8 28764.4 -9882.96 44577 -43670.6 3281.29 125718 68326.7 30248.5 -16801.4 -68208.8 42028.7 -154989 218052 108950 -125515 50435.2 58213.9 -179752 17695.9 59207.1 41571.1 91579 52131.9 66090.1 -197092 -143353 -24327.5 -177248 -49080.4 -157092 33147 -32720.9 -47649.5 -198889 35557.2 -208355 -17671.7 -39550.4 -189245 -44885 -181116 -24081.7 216450 99093 -36225.1 -11039.5 -64360.4 48357.2 111124 -43392.4 -1680.35 89329.8 -11304.8 14892.1 -34355.1 32442 27491.5 57413.2 51108.9 127920 42287.1 46652.4 129373 114551 -18814.7 143740 35958.9 24054 -131780 -22351.8 -44840.7 -95479.7 40613.9 813.613 48238 46100.2 -72009.3 -124403 -17797.2 2099.72 -26462.7 -74991.7 -106058 -67153.1 -30652.1 111178 54392.2 42253.4 -89021.1 -37989.4 14628.2 99706.5 94104.5 63023.4 17490.5 -20991.4 44711.2 -126979 -84501.6 127412 24678.3 -6676.26 -27445.7 19192.7 -63433.6 -129866 -10447.5 -49240.8 46533.8 94578.2 -107705 -158261 -15469.5 -88920.8 19732.1 -32938 9091.89 -10977.5 94714.3 -66282.1 -27869.5 102963 -29243.4 -7059.94 -13332.9 4446.1 25346.8 30264.3 -36740 39632.6 -59613.9 -50733.8 121560 30958.2 -25398.6 18952.5 72235.4 25018.5 37194.1 -17078.9 -4769.57 -50507.9 -37269.6 -16068.5 -84963.7 -5320.39 -18029.1 -65950.3 -53893.1 17633.7 8909.6 -65890.6 55502.2 65640.5 -6316.53 20712.6 -99478 59991.1 -13762.7 12285.8 63326 -23328.6 11326.7 19901.1 -57546.5 11365.2 34831.5 18520.6 -63551.1 -17600 17277.4 7096.53 -3839.76 18708.1 -63839.4 27908.1 5133.18 5379.18 -16050.3 -8647 17432 -6418.85 -15537 -11083.5 5192.39 53428.8 -64456.8 28950 18461.1 -28135 28258.6 20081 21967.9 -5088.01 -13605.5 -7618.34 -18224.8 -13627.7 -3293.66 -12773.4 -17847.6 11975.7 -38745 27253.3 20392.7 -11693.9 30588.9 -16884.1 7097.79 40485.5 -4516.5 -19733.7 1173.43 -10000.4 -42087.6 -4627.25 -19120.9 -9284.54 15574.7 30172.9 24179.1 76662.9 -3900.23 28036.8 2177.05 27308.3 -6316.45 -3183.54 10601.8 15701.1 51538.4 15645.5 3794.95 15551.5 18961.4 22170.3 -30722.1 10133.4 -2446.61 25544.9 -10080.3 6428.92 20230.6 -17829.5 17391.9 8060.68 3931.46 -9500.29 5442.14 -8351.52 18294.3 11818.5 24939.3 13042.3 -15780.1 -25964.9 -21224.1 -2499.75 8798.52 -19673.9 -7314.02 10439.1 -10799.9 -8602.61 10812.6 7773.39 8847.99 -12726.9 8843.39 15530.2 14299.3 -11684.9 -8836.2 7925.21 -15051.8 2190.89 6148.94 -12909.3 487.204 -350.565 2567.88 
8.10735e+07 -2.19266e+07 -285183 -5.81813e+06 1.40332e+07 -1.24104e+07 -65576.4 -7.15686e+06 9.6334e+06 -1.9275e+06 4.00809e+06 -6.04132e+06 5.47143e+06 -363480 1.33478e+06 2.17797e+06 2.66499e+06 -248356 -2.08574e+06 2.46718e+06 666778 1.49718e+06 -1.16411e+06 -842578 616112 -510368 -67846.5 1.58728e+06 61356.5 -1.9169e+06 2.76731e+06 81657.4 2.48205e+06 1.31266e+06 -1.11119e+06 -832302 -1001.47 2.93744e+06 -355928 194108 -250436 -508348 -1.51031e+06 -1.89711e+06 823798 -38968.5 -254809 -1.42893e+06 -723556 110505 1.75917e+06 -215724 -151676 371945 454113 383706 -109855 -54732.4 576079 -536842 76630.8 -718717 -192561 2998.62 -922865 848047 -142022 -702792 -458645 821985 -542317 834173 -533099 -326740 -84008 532615 -562061 -154079 608997 542113 219943 -409686 688586 29135.4 430803 775316 215462 44517 -553588 -10840.3 829974 241720 216649 485938 -335312 -317080 376572 396860 -111219 457247 -371310 -57770.7 -224988 155354 -277308 53852.1 -438327 24061.1 317272 70887.8 -578500 49542.9 343765 -20449.2 -47260.6 146491 -3603.23 429962 234814 489360 328950 -76483.7 -141183 165599 58996.9 -156396 233377 -112982 -102830 -5921.25 224418 -96760.4 -4527.26 -101453 -218818 280526 -373716 -265070 294380 -147370 -145867 300616 -271747 -203918 -80672.2 -135773 10567.1 125031 -12241.5 72536.3 131562 -135165 143977 -78668.7 92840.9 7871.22 163629 -3632.69 -20590.1 -187649 -59562.5 -54997.6 -53247.1 -460927 -233705 168054 -238444 -308770 -159573 50531.6 -274461 34099.6 -367499 177355 102320 -33840.9 -267775 122256 176173 3321.89 55721.9 120473 206305 243574 10347.3 44075.2 -270054 -39902.1 139228 -10317.2 -84248.1 27282.1 115553 293894 51618.1 200107 139608 -128213 -82579.2 95701.6 -176606 -96119.6 -72972.6 174643 259897 45851.2 90257.4 90294.7 89806.4 -14591.7 -27296.4 96352.3 -158515 103479 180456 -65957.6 -50177.6 -43293 165528 -86115 -44344.6 -53367 157561 -117955 16563.8 -42721.1 -24917.3 -44938.8 -64494.6 94552.1 -209585 -96985.9 -69649.8 -157042 97319.4 -6643.43 -40577.4 -10091.4 30707 -117405 -160794 -115011 28893.6 84998.7 83396.5 -49056.8 3934.81 65439.7 63293.3 135366 31405.4 49744 23169.5 -36823 1185.19 18895.5 181715 -25269.5 -55414.2 -45522.2 -128155 -7968.83 113778 -103292 5554.22 46928.5 -3891.36 75692.4 -13591.1 9648.42 32749 105014 140104 -27042.5 -112325 -77758.9 -55051.5 -8965.78 142476 6177.66 -19109.7 -24310.1 94437.6 -14284.1 -103899 63520.3 12616 -69024.7 137896 25181.1 30282.1 83808.5 -50596.2 -80508.9 -78718.7 -46672.3 -58308.3 -43796.6 -13351.2 70276.6 -18227.7 8933.81 74020 -10729.6 47110.4 127030 -68027.3 151731 34541.9 324.015 -65990.4 -5206.4 -1953.27 -45860.7 -30734.8 -72520.8 187526 49343.1 -11861.2 20420.6 -62351.2 -45335.6 -48018.2 47025.2 7374.73 34139.3 -77893.4 -7632.65 -108295 60795.6 -6370.97 125255 3753.35 -57885.2 -79433.7 32575.2 17967.2 -80609.1 59357.5 91241.6 -22613.6 -84806.8 71035.7 10884.9 35187.7 2963.62 11168 -11696.6 17494.7 89360.2 -6062.15 -43045.7 -20169.4 -16063 -68779.3 -41202.3 -41856.2 13173.7 -3826.65 -25081.8 63804.1 6757.97 3637.13 69042.9 28904.9 -7644.63 -14429.3 -19343.1 -31895.4 34879.5 -39997.2 -27235 -38226.6 11457.6 15111.8 -29748 -16153.9 51718.1 -43386.7 22051 50764.6 15687.2 1806.25 -26492.9 -4666.66 -28228 2491.73 37295.3 -47505.7 -16769.2 44426.1 -16744.1 28624.8 -35416.6 13179.5 23604 13676.7 -12247.7 -34941.6 -53213.9 7748.04 22169.5 -19911.4 9648.1 -15661.1 39891.1 14706.5 -33661.8 -27230.1 -6901.85 10899.4 -28837.8 -8071.14 27553.9 22885 14765 -27777.4 16235.3 6531.14 30637.5 -15724.4 -29678.8 -23536.8 -9886.83 1575.91 -14289.9 66540.9 -7160.92 -72869.4 54749.5 -8799.34 6237.94 8638.1 -25752 20796.5 15323.6 -15603.4 27356.7 563.549 -11130.6 -20120.9 -12203.2 9494.79 15478 -31117.2 25444.6 14893.5 -18164.9 -40610.2 29185.5 22871.4 26521 5423.74 -29245 7653.79 -21545.6 8014.57 7084.84 13689.5 32673.5 -1652.51 -5660.99 22555.2 5956.23 -3331.3 -13255.3 24516.2 -1375.61 5372.74 -9757.52 -8911.49 -3603.6 -15155.5 4953.71 -12436.3 -7949.25 -8645.8 8853.71 6554.73 -1576.75 1833.06 -269.795 5468.07 -2586.72 -4558.75 -6382.02 -3204.06 2054.63 5107.99 
-1.72309e+07 -1.40307e+07 2.8044e+06 7.31919e+06 783735 8.15647e+06 -1.6811e+06 -8.30897e+06 -261923 -1.17547e+06 926495 896880 -2.15241e+06 1.26163e+06 4.64022e+06 -3.92809e+06 -1.12798e+06 -604679 1.0283e+06 678725 -355168 -549340 995510 -1.00918e+06 -235303 2.83983e+06 -1.19424e+06 91713.3 443025 -73887.6 470523 18432.8 1.70585e+06 -804886 -1.58343e+06 382383 -331563 -171452 563627 -417891 -160203 -905144 341092 872713 -685588 -1.03967e+06 691015 -605550 -40272.2 457333 41746.6 91421.4 737737 -503662 296147 -181489 -112771 -663634 -631515 228234 -800564 -431143 -184154 -344095 175456 -23173 245416 -329772 393574 164199 -104142 -119508 -48917.7 -198744 -58466.8 -396671 -48958.6 -207534 -32630.2 32151.3 470782 382799 -392578 -28103.9 165723 227145 134153 -68783.6 -40231 3850.63 148157 319443 -69742 -246761 -426390 187127 108874 -40483.7 171864 -4276.67 -129470 188080 197852 -266146 -196532 -59575.8 -303848 -17029.6 56182.1 -260806 139132 379797 -107917 321477 259201 15127.9 86943.6 45980.1 -123466 -197726 -25787.4 105594 -192833 293966 59352.3 25855.1 130941 -87120 174976 -235743 -357014 -204665 -15618.6 3097.93 -248167 -236040 -289482 436051 79814.4 58591 39932.5 180289 -86002.9 -28457.1 39772.4 -144961 -500597 -51462.2 18745.1 -45483.3 159567 -256708 -220445 -16048.7 -13677.7 -18029.8 -101351 -62234.7 -18209.5 -139302 108355 -133256 85611.6 -50211.2 -135371 79539.4 -80218.9 232033 55798.6 177869 119428 -100818 35232.5 -125813 158482 25836.2 -30674.7 74280.3 6793.15 81603.3 -86399.8 -185438 12359.6 -19241.5 -127074 -179704 31840.9 89673.2 45359.9 94016 -127433 -12571.8 -3614.34 53020.1 -251982 211204 247906 131900 -52906.7 -80780.4 17090.7 -7070.54 75389.2 137569 40711.1 126177 -69027.6 55359.5 47047.9 -11130.3 30709.3 46119.5 -39181.6 -1492.05 105517 396.889 -47553.2 15327.1 -115259 -31773.5 -181229 -139027 53885 -95234.8 132633 -39895.8 -26763 49038.7 -150815 -79126.8 70300.1 -102074 81388.9 27897.6 18749.3 -914.673 42799.8 -20811.4 1732.43 -66764.6 -88054.5 -56492.5 46023.1 -64384.7 47691.8 59838.5 107452 -67479.2 -38428.9 133047 27432.3 19032.7 -40672.6 23918.3 -20311.7 15759.8 -134949 -81932.7 88908.6 -57646.1 -583.397 -118052 199546 82956.9 83725.3 -16747.6 -55947.9 -71635.9 6933.58 -31876.3 49185.6 74612.1 5840.94 -21511.4 134787 85054.8 24002.8 -18963.6 28891.7 30266.8 109543 -128731 -120237 31318.9 69414.5 104054 -114496 -23788.4 -80835.7 -86373.7 -67205.8 -225391 -158503 -5846.56 77161.8 -3088.72 89367.9 -23886.9 -84300.9 -6430.95 26633.2 116152 49222.3 19297.4 -49805.8 78354.9 87012.2 -25713.2 34445.1 69900.5 -35511.9 -51547.3 -26174.4 42599.2 112164 27357.8 -15708.4 5117.99 9948.46 19144.2 -12239.6 75298.8 33362.7 60544.1 -81602.4 31795.6 -39719.1 -6369.76 16791.7 -61590.7 80698 56949.2 22044.6 59821.3 5611.75 27862.9 -76768.5 -29590.1 -23653.5 -73824.1 53640.1 101038 -23536.1 -42981.2 8084.14 -78506.3 61121 -33641.9 47027 -40510.8 60514.1 70221.1 -68235.5 121300 34113.4 -13322.9 -74483 -28140.3 51409.4 92702.5 68945.7 -90778.9 -2867.32 -7787.74 -24005.7 5358.63 -6741.2 10246 -26779.3 20572.5 21035.4 -8214.46 55902.5 56178 64477.7 -49249.8 63323 35225 -43907.7 -33349.6 2817.19 9798.85 4683.56 -32785.5 20033.8 -102826 8790.95 8960.39 42322.5 21038 58751.7 -13298.9 17743.3 26368.4 -26987.7 -29392.4 39785.8 -6055.94 -8620.81 -12654.2 39743.1 8502.63 -67201.4 8244.93 -28012.2 18266.7 13861.8 9132.2 -54062.5 -47640.5 -26476.1 55657 -42395.5 -23243.3 4299.79 12036.1 93870.5 63492.6 -49799.5 7364.34 -97711 -16795.4 30420 -19428.4 -9432.32 -77142.2 56800.4 -32870.2 -19138.3 73821.9 -44982.7 56697.1 -39980.9 40759.1 46516 -19672.5 -22198.9 -74620.3 -1433.94 40205 -33363 12176.5 -32911.6 21021.7 456.868 -21870.9 36842.7 16793.1 -18841.7 -67826.2 -78102.8 14473.3 -23648.6 -16086.5 25843.8 12405.2 25184.5 16628.9 29150.8 2860.84 -74.6757 -37264.2 -26338.6 773.578 -1317.18 -16048.3 -8443.72 47764.8 30565.4 13041.5 -1764.05 67275.6 761.724 -44233.2 22197.3 10018.4 14677.7 -19732.7 9967.26 -1371.9 -496.89 -10472.1 15800.7 14581 -29241.8 14145.3 -689.421 -5044.34 -2473.81 
2.35032e+06 -628335 -3.2389e+06 -7.50426e+06 -9.05285e+06 -2.67577e+06 -6.19905e+06 -4.37174e+06 -703132 1.61058e+06 9.80993e+06 -1.82028e+06 -1.51252e+06 132980 908062 -2.34431e+06 -413916 766437 -2.31664e+06 -79149.2 -219958 695939 1.00953e+06 -250242 1.88746e+06 952659 -812133 2.30625e+06 2.26091e+06 -717377 -1.98576e+06 -48165.1 1.64312e+06 1.19783e+06 -63133.7 -170432 -524909 119970 -413164 -709084 -576433 -118021 -1.98697e+06 -454396 220887 -1.08191e+06 376440 -499875 563799 230314 -918915 122187 -676804 -871064 -188668 -1.01899e+06 117878 -117146 84220.5 347584 170566 -571424 471652 -284700 30871 -481067 -861778 -285937 21188.7 155027 -124314 -94661.9 -533054 -244504 50592.3 36362.8 -524966 -177413 61805.3 -556151 28404.7 -591065 -271563 -967845 261482 -294803 -201663 595514 28019.2 309444 -151164 212939 352546 -91733 -19211.3 279874 82740.2 -361222 332003 -188699 -465900 -123070 199158 117170 -271511 -255956 -5582.33 26939.7 -438956 -40256.4 -198449 -155195 243029 -374997 16469.7 47.6045 -4100.61 -170522 131369 -250578 285564 278155 109691 123226 -464647 -331466 5661.94 -269051 33258.8 156533 -26605.8 38519.9 79983.8 -142533 62777.6 -363833 -40292.6 310321 -209629 265090 -197725 -178566 33274.5 27586.2 -185956 56965.4 -235245 -227168 203149 -32512.8 115458 -48468.1 239492 162717 -77732.9 105605 -113242 -140880 -212186 -32149.3 -87529.9 -56239.5 -78894.9 -281117 -142333 71478.6 -48995.3 79770.7 -22514.1 -169373 -197901 -145990 -37925 -133627 123783 161206 -307547 21628.7 -4557.13 229898 -47562.4 -168137 -247816 -194052 47662.3 -78003 -52889.4 -242252 -50170.9 -156926 123960 25039.1 -59062.7 -217693 -5287.58 18547.8 60906.3 5158.11 174346 109668 -8486.92 -255174 117275 -98221.4 -1926.6 17923.7 53252.1 -137170 1727.13 22094.7 47798.6 125839 154880 104168 32206.6 47191.5 -190349 77109.7 -144222 -7957.01 -16390 -1350.7 180647 -45409.8 10293.5 117075 -61820.6 158786 99438.1 155859 39802 120751 -208688 -87799.5 -30237.4 96883 -4632.05 -59882.9 -7229.36 -32848.1 24496.1 -40781 5039.6 78959.3 -59214.2 -109018 -100745 -67810.9 42743.2 -70970.1 -126456 -14740 36874.5 -44598.2 -31069.2 25072.9 -67788.7 143078 -63531.6 118698 -13321.8 12009.3 1410.28 -40702.7 90497.2 -200341 97387.9 -144369 89764.1 78430.7 44499.3 -8672.2 -75690.7 -119710 27817.6 3453.34 64409.6 69111.1 103163 101963 29308.4 -78494.9 59524.3 8005.67 -39628.8 101103 150185 -108544 -158986 -108544 -17747.5 -491.913 42535.2 -57571.6 34888.7 32240 41603.8 -81567.1 59461.6 -25681.8 -151640 -103061 21779.3 129363 -66044.9 -34034.6 30108.3 14084.8 40726.2 -66269.2 -46685.2 -110874 -50104.6 -112696 21992 -21368.4 -36373 78829.2 -53790.4 -19089.3 881.97 -47505 10705 -56392.7 -12812 81909.9 -167256 -48344.4 43249.5 -46819.4 -30089.6 4127.77 -27309.4 21661.7 9730.95 71576.4 -9593.72 77437.5 967.819 91974.4 28199.9 51973.7 -25656.8 41356.7 -13584.4 -7199.49 51864 -56816.3 -14290 972.759 116108 -30603.4 120779 -28924.3 27580.5 -51041.8 67654.5 -28702.6 -92009.2 -18763.2 3807.23 5999.09 30572.9 -34286.8 25604.3 -32141.3 57295.3 10933.2 34537.2 8246.98 -23074 34470.1 49196.1 -55098.9 68309.8 -49882.9 109477 56285.8 81736.4 34587.3 88881.3 -62943.9 64172.1 -25877.8 31522.4 85363.8 29190.4 67374.3 -13903.3 -63156.2 11985 -67231.6 -47828.9 -83068.7 -5562.6 33136.8 -55302.1 38904.4 -3025.76 -58482.1 -15114.4 41398.5 -4588.44 -19993.2 -61469.6 -29270.7 4881.5 15086.2 60630.9 31696 32766 -28189.4 -7109.35 -6969.98 32706.7 53103.9 -4911.19 -48675.3 -32789.8 14175.5 -7904.95 8777.75 39095 -35241.1 48655.3 -44875.7 -15859.1 -13693.2 -25466.2 -77912.5 24089.1 -10050.8 18332.1 7422.64 33991 5053.92 -22832.6 11853.4 6616.23 -6403.73 -47000.3 49942.7 -7740.44 16020.5 718.026 -52053.8 -10412.1 33119.5 -25620.9 -17140.9 11780.9 -48120.9 -7829.22 25980.3 7319.9 -3875.03 9859.47 -26165.4 -20767.9 -23978.4 -4700.57 20050.8 14266.6 -4798.36 -6517.19 -5410.01 -3814.23 -4775.63 -9354.96 -2238.76 -9262.82 -28466.9 -12004.9 -10320.8 -11546.4 9151.02 13138.4 -13056.4 1904.23 -26899.2 -6554.26 -4100.19 13744.4 7537.49 -5723.47 764.661 10196.5 5590.72 3294.06 
-2.57073e+07 -1.71722e+06 5.47978e+06 1.59902e+06 -1.03654e+06 1.22766e+07 6.18348e+06 343510 -2.15856e+06 3.99329e+06 6.09149e+06 1.80073e+06 -3.92093e+06 3.56214e+06 -290578 -4.27061e+06 4.38261e+06 -2.23318e+06 -2.90009e+06 1.65899e+06 2.53144e+06 876054 -484898 -1.51462e+06 259634 -300788 585243 -1.41147e+06 -876152 -822431 -767967 -151285 193344 -1.44273e+06 -353672 330035 -1.0428e+06 -272090 892413 1.22454e+06 -291039 -651523 826640 831808 -130053 224883 -589903 -265072 1.01426e+06 547604 -633309 741425 551553 -631236 571176 379191 -848350 36945.3 -664517 -1.19488e+06 -14149.3 -265278 304854 -834111 -492475 185034 -13231.5 -194511 1.02666e+06 -474903 211388 545308 361554 -549168 -149900 -267832 573651 326639 337139 82138.2 24320.8 -280340 345085 558535 372982 45122.7 -191.871 14901.9 -426956 -446220 -58719 405788 119114 -37492.1 -260485 189232 -113131 -65399.1 -56704.4 34705.2 167.831 382118 24073.8 -241168 -67173.7 -96636.3 404010 51286.6 118122 -233892 166316 376533 -220337 4478.26 -219.436 109759 94743.1 35184.9 -128097 213442 17053.9 624.291 -136132 13498.1 -361446 151194 -236280 175566 380030 -23173.5 -166711 -128803 -101616 -40006.8 -168132 -46287.8 -34958.2 233129 105216 -68009.3 -130919 -133618 -149197 301188 328474 -342478 -223992 -737.957 376090 162917 -345698 -5472.22 -58534.1 -25307.2 279775 -84615.2 -87194.6 103305 233092 10515.3 -214779 -86302.3 102516 188526 -138945 -264106 18173.6 -260470 29455.2 -123763 5765.15 -42553.1 -133668 79548 102729 -62512.1 -204413 99800.2 216572 14037.7 327355 -60960.4 -46615.4 282679 -188244 -192762 -59390.4 -179818 205917 90533.2 -97319.9 17030.8 -136270 204657 -125688 227791 98434.2 202466 -46989 77181.4 32781 -143363 67981 -156679 -41353.2 -26885.3 -140665 -15325.6 -220029 105877 151878 -47679.1 -296520 -105.719 195833 122801 -16512.5 399554 57507.3 1684.23 -35295.4 -38178.5 120767 -16839.2 -4602.74 -76350.2 11687.9 23732.2 27984.5 -16613.4 -58244.2 -53591.5 -268108 17042.6 -199178 38822.1 -23372.2 -90451 288100 -11078.2 100741 -63191.9 -8952.36 3219.32 -73958.9 45364.5 -27463.7 -92735 -178937 86246 100521 12522.8 -30357.8 23386.1 -45363 195430 -90612 36262.6 72210.5 -27607.5 61228.1 54329.7 -179659 39815.6 56215.4 56291.6 -45584.6 -71018.4 -102728 112691 31971 60328.9 -41159.2 -13965.5 -95326.2 24169.6 -49.8645 -66152.4 -47666.9 -95980.6 -145548 -116085 -38170.4 -20562.9 -65813.3 30712.2 165532 94426.9 -11703.4 89859.2 90269.3 85098.3 10475.8 88838.6 135304 -28605.5 40637.4 28076 39199.7 41430.2 5438.58 -67231.8 48645.1 25194.2 56757.7 7842.54 -62416.9 43881.7 -109005 69086 131357 -114847 -107609 78846.4 3351.45 -69261.7 24840.4 3943.11 -6907.17 15440.1 -32317.1 27763.8 29619.9 -10962.1 -79595 54383.5 -14566.7 -70334.8 -76961.6 22059.9 -44402.5 -68898.5 25830.5 -60373.2 -39914.8 -14832.2 -48262.7 -10788.5 -72163.2 -27971.7 7195.24 -24423.5 39331.6 -38360.6 -44873 -56241.1 3214.89 60566 -74148.9 -26705.8 2904.74 12772.5 31546.9 -54208.8 -32625.7 39914 -77968.5 13361.9 42209.7 -6228.49 -16356.3 15754.5 4499.09 -38385.1 14760.4 -31114.7 60926.9 -20417.9 25900.1 -37135.5 -371.632 -37850.8 53958.2 -43840.7 26044.9 -26696.2 -68498.8 75545.2 1969.21 -64300.8 23409.1 -1619.66 46750.3 -62905.1 7214.6 71319 36703.1 55445 35890.6 78428.9 -50863.4 62214.1 23427.5 8962.03 18824.6 -20196.2 28860.9 42138.7 219.15 17332.7 -40709.7 -12751.8 32979.5 27823.1 39872.8 -34202.6 -9210.3 1008.98 -17111.1 -18033.8 -19390.7 -1858.03 16623.1 13284.3 -27920.3 92309.9 8589.57 53475.4 -21958.9 5554.02 39899.4 8563.77 44886.5 51171.9 -58864.5 24614.3 47426.8 13694.7 44372 -18329.1 3669.07 -66008.8 27423.1 47055.3 -19330.5 641.29 22487.6 -10987.3 30433.2 -40457.6 -4515.64 14292.1 14763.2 35124.7 292.662 -44392.5 -2123.34 -13827.3 8153.42 19498.5 28860.2 -21261.9 -40288.8 23632 4583.59 -50619.7 -13618.2 16652.3 18872.3 24234.4 30883.4 -29532.6 12157.6 -7527.58 43154.7 1539.79 -1031.85 -44806.2 -13796.1 13335.3 -3048.08 -17386.1 -104.63 -7596.36 3736.94 -10444.7 -9260.31 15356.1 1447.08 -2393.85 162.102 -3095.6 5703.36 -5041.07 2065.79 -14393.8 12675.9 -3046.36 4657.45 
-2.65291e+07 6.65655e+06 126526 3.02852e+06 -7.39957e+06 1.23891e+07 -4.01597e+06 -816558 1.46305e+06 4.06881e+06 -600733 -758415 -3.2446e+06 2.68767e+06 691605 -5.28294e+06 877597 1.05799e+06 -1.10562e+06 308258 2.94599e+06 1.78692e+06 647275 286635 -596468 743443 306958 45305.4 -593461 -1.23445e+06 -23681.9 -556043 1.06348e+06 -1.38326e+06 559072 680710 -1.34286e+06 687302 -16230.3 -771694 -317910 -467652 -1.01646e+06 936759 -1.02971e+06 63487.6 558932 -211949 1.75734e+06 178133 -195547 979320 -466236 -456086 -668075 -291936 -183336 -349173 -222885 -629498 -139455 247881 722174 -578722 5144.47 -676107 19541.9 181330 568328 -37691.1 -307912 -335561 -342243 -345484 -22038.6 218054 -285828 -211880 311096 -484100 -337943 -222254 450532 169546 249740 -278946 139391 -983.908 -197104 12893.9 -111343 -152156 5847.88 -92126.9 266665 119875 -323476 142951 284646 85993.8 -160640 -334228 427814 472006 285784 4187.88 222793 -175726 100620 118041 -9978.78 -149936 51490.7 -193924 -151180 161338 74118.1 -324806 -231450 204796 170418 -221576 -183555 -137450 133910 -84907.3 -337909 -587506 -67383.4 -117837 -279427 122208 -139448 -42888.5 133897 64637.2 21184.3 172800 92183 41353.3 297654 -151318 -177460 430906 -76359.6 -1448.99 -5188.29 88940 149025 36860.4 -15330.9 224706 -267634 137084 198423 76090.5 45762.7 -78525.6 -32622.7 69790.3 -21042.6 -51153.5 -113384 -16639.9 -37218.7 109235 -67874.7 44787.7 7801.72 -202755 -88575.3 -243332 -72450.6 -134257 67353.5 -15612.6 33358.6 129672 67690.9 -45404 226199 33442.5 -171793 -80300.4 6292.98 -129537 90107.1 -156918 172794 -165412 126895 169820 70587.6 30627.5 115303 102636 -111813 261531 26931.5 55941.7 20459.8 122500 -40209.8 -34788.6 51923.7 130864 165161 -178875 -2250.73 -93100 132893 35637 -4358.97 -130542 72456.3 -211242 111011 85550.8 61025.6 33766.9 74429.4 -31817.1 79700.6 175414 6310.21 56427.6 12224 -60353 -54404 111586 72480.1 57839.4 -176348 -5656.52 -4113.46 81177.3 -36496 -13219.5 -15741.2 11760 -50567.8 63416.3 -9065.43 131566 71726.8 -122942 107723 -49337 99998.9 -30352.3 74737.6 134413 110586 -35863.9 -50409.9 -93840.9 126335 -24737 81508.1 153844 -40036.2 -45766.5 19223.6 -42047.1 86726 34702.7 -88122.8 -2601.44 4946.13 -127743 88317.9 11485.3 52034.4 33649.6 69994 -66393.5 -4628.54 -34650.8 89422.6 -12565.1 69144.7 -100226 17681.8 57314.6 3608.96 -1596.57 -38681.4 129851 47313.4 -46732.9 -18281.8 91279.6 24662.4 24376.7 -127280 -47591.6 -11284.6 -38349.5 6739.16 56910.9 -113423 37485.9 60015.8 154413 -147044 -8726.1 62442.9 42222.7 -92377.8 -5958.28 107707 21001.9 -37610 -19872.9 -22594.9 -24605.4 -22593.5 104281 21942.9 -10439 -47474.4 -122293 -93612.6 33964.6 22441.7 -110484 -28888.3 -81841.3 60179.3 47976.3 90746.1 68723.8 33984.3 -32549.5 2538.25 -574.06 29779.2 55746.5 7293.74 -23212.4 -141311 3109.18 -75252.1 33710.4 -73400 38545.8 -47456.5 31081.5 -20201.7 -4486.69 -50329.6 -10506.2 -13291.5 -28579.2 -41696 26880.2 -4610.79 21673.4 -79303.6 -32236.4 -10404.9 -42272.4 17426.3 56663.6 38868.8 15577.9 64138.6 -27698.2 66779.8 -30708.7 -128.827 14234.8 -13545.5 47822.3 -16854.8 -66920 20162.9 11418.5 18800.3 -38894.1 9154.53 -10348.5 -49527.9 27773.8 22804.4 -117045 -39064.2 -6521.77 -18744.4 4323.34 -52765 21506 4841.98 90818.1 -34984.7 53375.8 -15257.7 -58418.8 -70143.6 25032 55817.6 -71251.7 -11132.7 7948.8 3979.89 -26270.1 7883.45 -33440.7 -26280.7 33259.6 12093.7 21265.5 21970.1 -5894.14 -17237.9 -15482.4 -27425 -6922.02 26862 14964.5 -45914.4 41082.3 -50476.9 -7565.25 -21938.8 -33340.6 1157.9 16824.4 -6187.34 -11417.2 -65920.8 40926.2 -8291.9 23755.4 -10613.1 18484.1 54106.3 -19079.4 10415 -12013.7 -14912.5 -42942.1 73529.4 -12378.5 4905.66 17662.1 -5820.04 -82038.1 53924.2 29740.8 -26367.7 12594.1 66049.9 11974.2 -941.587 11264.1 3492.89 44799.4 1454.62 -27572.7 -9241.49 59904.4 -55279.5 -2544.11 -11526.4 17546.5 -20082 30692 34379.3 -59494.4 41656.6 65389 44924.4 14837.9 -45792.8 -7670.35 -22806.2 23398.5 12322.9 -18587.1 -3678.78 -24076.4 11071.7 -12320.2 353.27 2631.34 5958.65 -440.72 -6938.67 
-1.02587e+08 -2.43766e+07 -1.10808e+07 8.45376e+06 -3.97897e+06 6.34866e+06 734346 -5.59181e+06 1.09213e+06 2.74101e+06 -2.45431e+06 662248 -541798 -2.94591e+06 -606367 -1.66624e+06 -4.1649e+06 -621419 799584 -1.88349e+06 -2.62178e+06 -1.45608e+06 -1.3662e+06 -894131 1.33762e+06 258698 352862 698694 448562 681060 -6790.42 992707 766370 318565 -204395 -671742 -235129 -1.16807e+06 -659784 -1.14493e+06 1.98724e+06 217697 -454554 -429190 -275023 -401214 532730 -1.06754e+06 -188238 260466 723441 -787488 -141850 17967.7 303539 119838 -184036 467108 313768 -576485 436898 26151.3 369016 294461 33197.6 409302 528558 342109 295552 318286 -248976 -507239 -599432 94523.8 -219519 132086 692063 455025 4432.16 -668532 153212 -31679.2 421553 268598 -488820 -193362 -458918 621190 -70909 -61691.6 -105617 524894 -175704 -336810 -107932 301318 -186729 -130965 332300 49815.9 -103201 306151 290691 406128 594446 -187066 74445.5 -77276.2 -51055 -214420 -92796.5 -73672.4 32828.2 -88342.5 -50225.1 -396990 99389.8 -240408 -54734.3 143223 193239 -332137 -269370 -99141.1 137257 84482.4 39686.8 -44472.5 44796.2 -74194.3 -102148 -193607 -156579 48624.5 -21821.7 371107 -54533.5 86634.3 392510 238763 319834 -55614.1 242381 -156333 -211959 86202.3 136638 -167611 443746 -278084 -14944.7 -105161 -33847.2 23605.9 104188 -168133 107200 136414 -95153.9 -79988.4 12024.6 157755 -162555 151981 177033 229503 -72330.6 141705 -76012.4 47381.7 128593 55758 -85653.7 162303 192662 160059 259357 -126678 80686.4 42812.5 -82472.2 223178 -99516.9 -38344.4 -39272.3 90769.6 -84518.9 62672.9 -57724.1 -239362 27956.3 267152 -141720 -20940.7 152109 -49985.5 -26545.3 74489.9 14827.9 204302 134476 77659.3 117258 60915.2 -48461.3 15594.7 -213597 -68060.8 109344 -141324 -78393 38741.6 6840.17 12749.3 -86059.2 88717.5 99633.5 -20754.2 -18693.4 -161957 -38936.8 -16112.6 23852 80744.2 -123350 -155371 -518.244 27413.7 128806 83775.5 -85071.8 13801 -35343.4 173265 -6883.59 -11439.8 81170.6 -12047.9 186691 19934.2 94121.6 -142723 -65030.4 -30752.8 -111886 100152 199630 7438.52 -105331 144424 93799.2 69047.5 70852.1 -11254.1 -44879.2 -43982.8 37186.7 2507.25 -134690 -2822.43 -88546.3 86769.7 -26979.5 45793.1 -81691.6 -122955 -19751.6 204320 19500 -66495.4 60353.1 -79806.7 48643.5 60076.5 72531.8 -30298.5 1379.57 -11215 55112.3 7967.73 -5075.12 41555 -50768.3 36158.7 -98949.9 -12634.6 141851 12281.3 -55637.7 -40860.8 21333.8 23719.1 16715.6 -104853 -23782.9 -44046.3 -113283 -41494.9 23093.8 118839 29366.5 29154.5 75143.9 65806.9 39440.2 21375.9 -73135.6 52661.2 -1563.42 -45184.5 -12804.2 51472.8 -27754.2 46701.7 54530.4 -123008 129297 73977.4 -16917.9 -70339.2 -10077.7 27366.9 -4158.99 3989.83 -113522 12281 -21249.9 -111418 25222.5 -37337.3 32179.5 72292 -13004.6 67839.1 100927 -121490 85709 33605.4 -53916 88419.4 19079.6 -31638.2 -75470.4 -27331.2 40643.3 22966.4 -75877.1 -45361.3 30389.2 -34208.4 57693.2 98047.6 2938.85 -7721.25 13030.2 27751.9 -49831.8 29021.1 -50281.1 55424.3 29544.8 96840.8 3205.2 8219.96 -24625.7 -49938.8 -89413.2 -18533.7 -100089 59076.2 47202.9 36991.3 33897.4 -9473.43 15240.8 81280.6 -61745.1 48993.2 -76901.1 -62189.8 -44324.6 -82468.8 -55001.4 16788.4 -31601.3 80800.2 -27986.9 10547.8 -7548.39 -36730.3 29165.1 95506.5 22672.3 -7242.09 40393.5 41953.4 10930.8 -26806 37780.2 -14888.6 -41707.1 861.075 51863 66916.9 -99904.5 -14928.3 6086.22 20196.1 -21213.8 -11808.1 60109.5 48376 -15900.3 78761.8 25655.3 8786.51 -14924.8 -34303.7 -26370.4 32326.9 15552.9 -39590 36637.4 61417.1 -8513.06 -60960.5 17827.6 22090.1 4361.2 -32232.9 5673.46 -1206.34 -30253.4 14556.1 9466.55 -16088.8 25217 -4201.35 -25858 39046.3 50375.8 18858.9 -62406 15579.8 52115 11511.2 -26139.8 15415.4 -27344.4 -9071.85 -33081.1 -6930.33 -5875.26 29373.9 -19339.7 -15008.6 -21195 13268.3 -51471.3 42929 38517.7 25114.5 7486.41 16417.4 -6675.39 50701.8 -5051.52 10687.7 32527.3 3922.14 18179.9 23805.2 -4491.69 -31972.8 1038 -27246.4 -10630.4 -27060.9 -113.673 4210.83 -16498.9 9559.72 -13831.3 -4811.6 3551.69 -3710.12 -15618.2 1977.01 -2704.95 
-8.946e+07 -3.58942e+07 -1.75527e+07 7.50382e+06 7.72857e+06 -1.09224e+07 6.06598e+06 -7.90644e+06 333691 1.81874e+06 -1.90634e+06 -4.84704e+06 1.1265e+06 -3.93198e+06 2.02702e+06 -2.25186e+06 -1.73818e+06 -463968 2.29685e+06 -2.11814e+06 -2.52231e+06 -1.61037e+06 -528820 -1.80663e+06 229057 1.77306e+06 -4908.54 -297788 -702417 -423593 1.45812e+06 234102 252054 59891.4 924339 -1.00241e+06 1.56832e+06 -386910 281530 390841 -3708.57 -738457 1.32919e+06 -842256 288988 54263.3 465499 658283 651889 125750 203914 -347360 141285 -85879.1 809368 -268020 102249 207688 406116 -406844 -61898.8 558785 -409708 13995.4 263957 -155295 -754722 355551 536584 345449 465854 -129041 -616085 393355 239099 -144693 295741 220767 -225004 -398422 -209562 -6772.4 592900 338228 -413544 -392345 79295.6 853069 -368966 -88304.8 330570 258229 -318065 124407 -558821 -249985 332692 -167715 62025.4 87093.5 -29967.8 86954.7 -148707 187749 223599 -165811 -29099.4 88977.4 33348.1 -497030 472629 -86559.9 -200989 -417707 -347762 -263173 -624.86 128195 -88510 127445 -78919.8 60138.4 161057 21415.2 76660.3 45831.5 216692 110339 281321 -93745.2 268356 -139445 214144 -210266 -111949 228537 -161076 -131048 121208 293975 330582 -35417.8 98575.8 -338106 -80771.2 -5387.99 280023 87741.1 91658.8 173531 20898.7 158466 -163382 37033.4 -126679 -127472 225595 -41678.6 -179733 -76128.5 130228 286547 -141544 82716.7 18262.5 -75549.4 251436 -77072.6 -52394.6 67103.4 39714.6 171752 90535.2 93986.1 139597 137406 -13422.4 -109803 254180 -50352.2 37837.6 -194668 -233760 13264.9 -99846.4 34613 -104374 -110577 14134.8 -165706 71594.8 37123.4 215900 -57592.6 -124360 -68205.5 11772.5 81417 -60950.5 -113971 148160 -195253 479840 93842.1 12784.9 111559 -133913 -106006 132089 -110117 117910 -180382 -26143.5 -164589 -59508.5 129851 156306 -137030 -65944.7 -36141.5 43341.4 97322.1 65389.2 43926.4 -93259.2 42449.6 -70764.4 -105474 -183349 2217.82 364.25 36587 109386 -81002.3 102487 26480.3 24354.5 -47527.7 -39227.9 -186150 39153.2 -105999 -23243.8 -16924.3 -14134.2 -105267 -42320.1 59442.3 -24295.6 7231.49 -37762.7 -4312.45 73797.4 -66430.9 14476.3 -39822.8 -8839.86 97374.5 -107927 11070.2 36097.8 8469.25 -47898.7 141511 -134603 80076.9 -93660.4 711.238 14944.9 -43986.5 73851.6 22771 -83912.6 -71354.4 98752.9 74174.2 -38779.4 147656 17831.9 8022.21 -73424.2 -70032.1 -73227.3 11974.1 105195 34905.5 152496 -52711.2 -64024.9 104845 -66579.9 48922 23119.4 47663 -30896.5 26888 16464.6 46744.2 -119341 32626.7 -34529.5 -20773.4 30551.8 11385.1 23928.8 132124 41597.3 -51186.1 -40052.5 -75329.1 808.307 -1845.7 36983 -3683.22 17927.8 7585.4 -69377.6 30037.6 -21668.3 -14292 -87495.7 -44149.1 -93512.5 53376.5 35993.3 48671.6 -37563.2 59198.1 66629.1 71921.6 -68760.2 -77845.5 -106536 -100660 93422.7 78166.2 22709.1 -19332.6 64139 -11318.7 14169.9 56861.6 -35879.5 19008.8 -116053 -77254.3 -20118.8 97101.4 7178.73 6317.44 -21581.2 24173.2 -29314 58758.6 18554 43673.7 79088.2 16669.8 42157.8 -72891.2 -31061.2 28764.6 134893 8571.12 -3837.28 -17326.5 -26695.4 60493.6 48632.4 19486.5 71299.6 49768 -29963.7 17333.4 18007.4 -126857 33737.6 -68212.7 49157.4 25224.5 -43648.2 421.232 23633.1 -58115.4 55183.9 -784.224 43774.7 18590.2 36112.7 32432.2 -16237.5 -51523.6 3803.85 -91447.3 -23911 19217.3 26659.5 30070 -17319 -60188 -23890.6 47650.2 -35607.3 15768.4 9888.13 66844.3 19554.8 52051.5 -100139 -72156.9 -72143.6 -9174.56 -36597.6 11350.6 -6499.73 47609.5 8668.59 79.5474 21679.2 -51101.3 -12392.3 12353.3 -56256.1 832.092 -16632.7 17706.4 34879.3 52829.1 -37518.5 13130.3 -32136 -16131.4 -18449.7 -19272.8 17471 -17735.6 -7544.47 -26977.2 -60920.5 -26031.3 -16259.4 -54122.1 67197.5 -45730.7 -14922.8 14165 13021.1 -23574.8 -6060.36 33837.8 38120.5 -42652.6 -21838.6 4402.51 16669 25490.2 -28973 -17062.8 32981.4 -9613.37 -3129.92 -8517.18 -59248.5 -24669.2 19390.9 29732.9 6765.45 -41361.4 -12324.5 2955.61 -14057.2 -314.205 -2209.21 5533.65 -17191.9 -1793.77 5601.34 -10170.5 11269.5 15037.9 751.561 2184.54 14144.6 -9520.45 10111.5 -3478.98 -16806 -2003.76 -708.425 
-9.68608e+07 -1.31699e+07 -9.65635e+06 6.14097e+06 -1.43403e+07 -4.88173e+06 1.97091e+06 -2.85314e+06 -1.36737e+06 3.45607e+06 3.60232e+06 2.11777e+06 980358 -2.26749e+06 983486 236777 -2.31506e+06 -1.38036e+06 2.72159e+06 264042 -437600 -580504 -1.72309e+06 -1.57475e+06 271930 -288336 -330650 -101862 1.31587e+06 -650214 -203039 1.39568e+06 -1.41609e+06 1.16216e+06 -616888 829493 -793731 80031.4 573026 -1.3737e+06 606890 30870.2 429953 1.34372e+06 -301704 332993 131175 -726264 150183 -692815 610820 -256329 174846 694830 -291742 44124.1 374362 93298.8 424264 -657159 -1.24475e+06 732621 547097 -358743 -70878.1 95745.5 811207 -4013.6 -190963 120116 1.18661e+06 -783040 -47400.8 -124196 -257008 -205172 540898 730956 193959 331721 282805 768579 -700468 67743.9 465539 65649.1 -285677 470246 -410271 92592.3 68709.6 324058 -101693 25858.6 -87358 -193295 8873.72 -61752.9 -229879 -366870 -342479 -354224 158325 610246 -213248 134022 114648 137814 74866.4 43325.2 -283932 -16873.8 454794 -44602.1 49567.1 19466.4 271795 -122301 -163595 -297300 -161753 -81233.2 -180912 -109617 -73573 44167.1 108367 35821.1 42001 124828 185906 -14383.9 -165018 260088 -204740 115975 61773.8 -48836.8 -135502 -231841 -391530 -105738 -45587.2 20244.1 -49723.3 92944.2 64708 -136250 291636 49958.4 2144.65 -96418.5 -85012 142710 76014.5 74855.4 -111332 -106540 -1069.57 -172702 -13137 250396 -62445.4 161551 -79158.8 140154 164890 21290.3 -107153 64527.9 147956 57669.7 -72709.6 -10908.4 157042 -45613.8 90312.8 84606.4 70217.1 144213 -60892.5 -212071 -71356.3 -57620.2 -15102.1 -113514 -5328.8 -1662.37 207218 56454.3 84656.3 -27920.3 -8141.48 154082 885.748 -95876.2 -101520 142544 -4713.71 -46964.2 -124358 -54480.3 82814.1 82754.2 70115.4 -112069 -29564 -9316.52 -73057 57438.7 -4366.04 16682.5 -101026 -18483.6 -169440 146837 107833 -4083.88 93721.7 46925.9 113324 27492.6 57161.8 52162.3 -80071 171219 -68523.5 3147.14 -42392.7 -61635.1 -202825 34985.7 1876.32 45686.1 -23398.8 125699 8794.83 38618.4 -100215 56744.6 -95364.1 -46062 -33670.1 -15572.9 -34514.3 115310 -17909.5 -58581.3 107199 118532 64874.6 -60029.4 -14880.2 -97969.6 -66353.7 147691 -90693.7 108837 143727 -90473.4 -29775.1 75343.5 87832.2 -63068.3 108593 -2579.09 -24552.5 17492.1 65324.6 56378.8 -131943 75310.5 179507 101672 58590.4 27009.5 -15986.1 44119.6 -2982.68 34009.4 60156.2 -62880.2 19297.9 59088.1 -99874.7 -51674.8 29448.6 161797 148798 24245.2 -32357.2 -32698.2 98386 -48105.1 -51643.3 92077.4 -52020.7 70924.3 -41335.1 -396.888 35589.9 77213.4 72837.8 2477.76 154502 -122151 -19594.2 28352.3 142965 15652.3 -18099.7 -61139.5 -73413.4 -21084.9 -168733 -15646.5 -65460.5 -35327.9 52820.8 32022.9 -23309.2 -1557.81 12078.8 -147583 85438.5 17913.9 11424.4 20386 116972 -6588.42 162332 155203 47281.3 31547.2 92916.6 21627.4 -37510.8 36453.1 27508.1 22947.8 50642.3 -17813.2 -6042.06 46689.7 26985.5 -7007.54 -22728.7 -70361.7 -37725.8 -55023.6 71599.8 -11639 42820.8 -50050.3 50071.9 -65979.9 98285.9 132484 10713.1 -72925 -59821.5 -41215.9 -16435.4 -61033 -2568.17 39769.3 24064.5 -27967.4 50965.1 -50508 -65779.1 -95216.6 -92829.2 -23782.2 14135.5 35694.1 -72965.5 70299.8 -7617.84 -41565.4 -14097.4 -16826.6 -16282 -35986.6 -18820.1 51796.6 -6048.8 -106379 36564.7 50483.6 18837.1 -20085.5 -20016.7 -34459.8 62545.3 -20322 62272 54326.5 -106322 -39297.6 -26867.9 23035.7 -37673.9 -37568.1 -5995.19 21380.5 12993.7 -63989.6 40415 -28922.1 -23766 22042.9 10080.5 53952.3 712.481 89971.5 -49679.7 8724.84 11859.7 -10467 -47404.5 -16948.4 -21308.5 -35555.4 1136.11 38090.4 -35078.2 33680.4 -51508 39106 -47419.3 41426.2 23801.6 -11101.6 -24992.9 -25301.9 27601.4 -62085.3 33782.2 -12340.5 -2367.15 -18256.5 15298.9 -16863.3 21266.3 22596.7 4699.6 24833.7 3212.26 -7456.03 27203.3 -63614.4 27197.7 -24063.3 -39356.3 -688.297 -5154.31 -4379.42 12251.4 -50394.2 -32930.6 -30589.8 14347.8 16061.6 10843.1 -24317.7 -2797.42 10516.6 3758.59 -1825.49 41350.4 -7104.39 -2990.64 -11497.4 7690.54 8871.08 22352.6 -10636 1556.02 -9434.73 7212.76 10797.6 -9578.62 8944.94 -10448.5 9233.07 -7408.13 -1089.21 8810.55 
-8.56957e+07 -3.3281e+07 -2.21718e+07 1.52232e+07 1.12523e+07 42960.3 1.35841e+06 -7.43244e+06 3.72645e+06 845515 1.6108e+06 -9.6006e+06 -2.49471e+06 -3.26968e+06 -1.52916e+06 -1.73242e+06 -4.13074e+06 1.77384e+06 -205382 -2.61995e+06 -2.87829e+06 -1.8621e+06 947361 1.13277e+06 -627160 2.46501e+06 1.67088e+06 1.60041e+06 -296212 1.06727e+06 1.69877e+06 -1.37343e+06 -254250 -104471 1.55627e+06 27351.9 1.36702e+06 -429484 -126038 434516 -292486 -23806.3 572651 -2.027e+06 -262360 428789 -991472 -146133 -205232 -391214 -282457 932710 262677 -479287 -335437 248403 316594 -831051 -343136 -53488.8 249943 350285 82693.8 1.49303e+06 143937 -30833.3 -107712 647414 -70130.5 -527424 -156271 543991 638509 590535 546304 -113502 -353579 -58940.1 39467.6 929236 -225494 -19889 -187853 -142187 43407.2 569540 -460690 -213540 -479125 -244219 -44081.9 -119942 185184 406997 -158775 -357946 -126288 -121471 -116957 -180241 -109042 -93620 22970.5 238689 282818 -106231 47598.6 98978 -75488.8 20970.6 20225.2 108316 322414 188336 36346.8 180126 317786 305952 -357002 25300.3 -540188 407318 314590 110614 103352 -355445 248695 -357412 -35681.3 -326778 49288.9 -218772 160245 423537 230925 -78961.1 186882 92057.4 -31105 113640 -170318 95350.2 -308930 130631 1093.88 118645 259019 -61596 -126482 -59105.5 81567.4 27294.5 -210695 -70387.6 -201131 152436 -39878.4 -1823.08 104786 -1762.65 -110683 -149194 -21536.7 85826.9 49189.8 134633 -120602 -246827 -65453.4 -56337.4 -504640 24681.9 148760 108741 134748 -9113.14 104770 -22117.1 6502.99 238980 -1566.39 38889.2 99312.4 159529 15706 73391 -202713 90956.5 147750 -67058.5 -234252 -6421.35 -239542 -59246.6 -147473 68452.1 50000.5 -108655 75278.5 -63848.6 219879 10942.2 58634.8 252554 305769 117874 87634.9 -44669.8 177154 -97144.2 263718 -187436 79145.7 91857 92386.7 22452.8 -70643.5 190369 -92340.9 -8618.33 -401179 151984 -144448 28545.8 -153162 119282 -108984 -134519 -12454.7 101153 -12086.8 99330 -14332.2 -34367.8 128603 -5456.3 43466.3 40582.9 -49720.4 21333.2 -10931.9 224423 -2010.68 -32669.2 -56940.6 32886.3 -123069 41607.3 18448.9 -173865 -85339.3 -59205.3 117605 -18403.1 -306147 -57361.9 -135067 8303.05 -73132.3 151140 3402.53 26717.3 -95955.1 49119.6 36159.2 132901 -97628.6 -226743 72783.9 -148806 -6401.29 -35492.9 111078 -61394.4 -95833.8 -145115 -95002.2 -88988.1 118413 -49884.2 -56184.2 23861.4 70863.6 -28717.5 -73455.2 80910.2 -78494.3 -100667 -8684.49 9093.27 54568.4 9543.44 77300.5 88937.1 -14656.4 25152.5 -16810.4 92005.9 20282.7 -61203.3 72242.1 184259 19318.7 28703.7 50481.2 -6302.62 20994 -111330 -59997.2 -36272.5 88154.2 -108915 -58685.9 41659.8 -38418.8 24432.6 -53713.3 -51845.9 58812 -51183.1 -39800 64161.3 106778 -55088.2 -86689.3 -16112 54102 -140345 -60353.7 16150.3 -81348.5 90047.7 27858.1 52204.2 17364.7 11230.9 24313.6 20756 127006 43852.1 29417.5 61470.3 60527.8 -28415.9 10898 15060.3 -18314.2 -46118.6 -14964.7 -15053.9 31417.4 6526.73 -20045.1 -46281.7 -2110.58 -34516.4 1359.72 -15488.8 -19078.6 -71349 -16094.5 19492.9 -9606.36 -41911.3 -26305.9 -62612.1 52274.8 57489.4 -20724.9 -13569.4 -29409.9 29501.5 26396.1 -25617.6 -12875.7 10435.8 -67689.7 -14268.1 16009.8 -52328 23702.2 -39358.3 -56331.3 -59131.6 46286.1 -7393.06 -47006.4 61665 -10019.2 -24021 -64228.2 41350 51402.3 58761.7 12112.1 14512.8 14243.9 3677.34 -9132.62 32061.1 43875.8 813.02 -38540.4 -23156.9 35506.1 -24090.3 -58582.4 44516.1 12283 8077.25 22783.5 24641.8 11535 25390.2 15711.2 13221 -48338.4 13565.4 -22777.6 9913.12 -7399.79 -35171.5 31754.2 -20981.7 42954.6 26049.5 -11895.5 -17521 45399.6 7658.4 -1859.71 47259.3 -31710.3 1760.19 29189.4 -20228.4 15118.5 -42697.1 13068.7 717.366 2772.3 -34907.8 -3514.45 32466.5 30170.3 -20570.3 8208.43 11826.1 -7369.41 13865.4 -16409.1 889.268 9514.92 26983.5 844.606 -9223.49 -26368.3 -14801.8 -21710.2 14987.5 -13117.7 -6221.57 -13903.3 -6784.33 -8283.2 685.696 7215.97 -24452 31344.5 -12134.9 4362.7 -4441.45 7915.17 -2973.98 19319.8 9417.11 65.5462 -11379.2 310.579 4176.94 -10967.5 2942.15 -4013.53 8771.01 1737.72 3026.67 -7024.59 -1092.14 4540.56 
-8.62025e+07 -3.08526e+07 -2.38221e+07 7.84749e+06 1.82377e+07 -824968 1.55043e+06 -5.60538e+06 -959317 4.58477e+06 726112 -6.97929e+06 -188705 -4.70505e+06 427391 -3.75999e+06 -2.77305e+06 2.03999e+06 988628 -2.82711e+06 -1.4514e+06 -1.50533e+06 -1.60895e+06 1.42514e+06 -21805.7 712559 769610 924934 622146 619789 1.37429e+06 -567295 -774506 1.28498e+06 1.96795e+06 544265 -144860 361504 14430.7 -888470 735898 -173741 -28386.4 -751448 38979.2 -679934 -654377 -322874 109279 986434 -659206 1.14033e+06 -318696 -987049 -189270 -191197 -304149 -10989.6 -818981 -890600 -78215.2 50078 -117769 250746 -766096 -493812 337712 167366 215546 -630755 321177 356334 584122 458564 273404 251824 -259236 -199865 356344 107000 -440032 167613 498881 137261 256264 -344797 1.01137e+06 -573497 -461865 212430 366966 138855 100326 128665 -155429 31017.8 -234102 123859 78051.4 808093 178295 851962 554106 203309 -460687 -435979 -208304 106103 -306891 173562 553559 -55954.3 382970 91990.3 -472587 161991 -147456 129271 22541.1 -17604 163792 411431 312739 -80067.1 -93300.7 -232199 -227306 -43297.5 -131996 592422 74026.3 -223686 -331964 35920.7 129398 -423647 42696.4 117989 134580 218344 -216712 -216028 -111468 -175842 271376 -222043 -108099 -147202 -148837 -395027 -225323 -257039 137147 215763 98463.6 -365885 -136009 -324505 -65252.1 -189256 217851 -155117 -10624.7 -205534 87215.9 86292.4 42157 -77762.4 106770 6024.8 -2681.58 30086.2 -332131 -113723 204694 284077 -45464.5 150400 -42818.4 142035 85613.7 95662.9 -38737.2 -130451 -40940.5 56079.9 -175452 -2255.7 50065.6 13506.4 -187100 7242.59 140733 177263 144574 155920 -191250 343980 -63931.1 216729 -274972 -16768 -41706.1 -214518 -62808.8 70812.5 -14179.5 -112362 -3958.28 -130848 -167739 -83516.7 120853 -47452.4 34323.7 315015 -157627 44085.2 62627.5 -203206 72762.5 -207948 -44483.4 -186166 216428 -21121.3 2086.29 -29047.8 97847.7 -127533 -79407.7 79471.5 -5784.69 206868 -44041.2 102207 -11272.1 186334 74957.5 2612.75 7745.25 -67767.9 -109911 -116565 -36809.8 122904 -24768 -29622.7 99615.5 49274.2 3361.99 -7202.39 -2330.1 -5560.2 72877.5 -122488 66407.5 -107245 97388.4 83330.3 1303.2 27759 -60744.8 -36453.3 62679.9 28100.2 -111825 -38474.1 105045 -82132.4 -15290.3 -27614.2 -45703 129018 -62933.8 -23597.4 -52604.7 -58449.4 -103439 146782 130078 109049 44890 134834 39592.6 -62510.1 -134076 -75381.7 98657.3 -24532.8 -54057.5 -25017.3 9884.23 -154856 -19984.7 26875.9 61887.9 128379 -88127.6 42414.8 -99506.4 -1914.9 -33614.7 -59833.9 46114.1 22064.7 -69489.9 -31078.5 -41188.1 94797.8 61941.4 186120 172276 30588.1 -39578 -8573.56 30806.6 53270 -2482.4 -7762.28 19474.4 54766.4 136789 31782.9 24413.9 22582.6 93574.4 -58989.9 30710.4 87303.7 -9407.27 24237.3 -61734.4 -55959.5 30027.9 44742.4 -22198 -40353.5 -134353 -51226.3 -10707.9 68619 -17341.3 57034.5 3311.52 -41894.9 33692.9 24709.7 -2667.08 23075.7 24103.9 27153.2 108437 31507.8 39223.2 -10224.3 66692 -61419.3 47096.3 -10143.6 29091.5 -47599.3 -21405.9 15838 -19452.8 28048.9 -14866.1 -27440.5 41213.3 -3203.82 28982.1 -230.806 -48321.4 -5597.42 28086.9 57146.5 -6399.26 -12594.9 -33938.6 39810.8 37368 -37449.8 -4048.18 28615.5 -6976.22 2920.55 22556.1 -18564.7 -10029 5069.05 -33982.9 -10035.7 -25140.1 29505.9 29623.9 -46816.1 42833.1 7120.55 5616.28 10845.6 -38824.3 -36568.2 33685.9 41116.6 27376.5 -3300.07 12850.1 34223.6 -3467.35 11648.5 -69831.6 12537.9 -13818.5 -14115.7 64992 -4786.61 42114.9 -35538.6 -11332.9 5042.59 -8901.32 25151.3 4891.55 -7436.55 25083.9 11266.1 6000.65 -9608.74 -3154.62 -27386.7 -3267.34 -1805.34 -294.847 -25521.3 -6137.17 -69251.5 30908 27489.5 3266.91 16969.8 -17178.5 -5629.1 -11037.8 -13913.8 -37845.1 -146.446 -27318.6 13313.5 -12027.8 23552.5 -2534.16 -6945.76 -13991.8 -12971.2 -19912.6 20498.1 7223.96 -13371 6375.58 -5487.39 848.531 -14.4174 -10191.3 3871.82 9947.59 -9496.85 -1690.32 -15905.1 -13159.1 -7371.43 -15273.3 -1501.49 8901.12 21154.4 -22883.2 -7689.16 -12996.7 2336.02 17541.8 -9374.33 -30896.1 -280.547 -18504.6 -2804.17 -2869.48 357.85 14842.3 225.781 703.056 
-8.90004e+07 -3.39145e+07 -9.44568e+06 -2.98922e+06 1.74419e+07 -7.10286e+06 1.01679e+06 -1.01258e+06 741270 3.42243e+06 -3.00254e+06 -4.31183e+06 3.5275e+06 259871 505036 -2.24045e+06 -2.33969e+06 441827 1.21618e+06 -2.03735e+06 -1.21805e+06 -924651 -801565 1.7444e+06 644650 -893605 -1.41148e+06 -643272 -1.19319e+06 -475727 -513366 -1.39378e+06 675598 -1.03956e+06 -1.86909e+06 -1.21931e+06 -323160 65453.6 -520980 832960 1.06026e+06 518083 75207.1 -655529 -317690 -802785 -248526 -830059 121232 233129 -212184 -222161 -65142.2 -267870 545629 -735656 -522595 -5503.8 300773 -523975 -493810 -440094 858626 -197028 -770450 357453 -521950 -311446 -48482 181316 -416974 -449590 549360 -23581.5 -214168 -245534 -276588 -369353 -563780 386751 -24352.4 359481 -64558.6 202437 334995 58385 -57331.8 513434 186987 -397715 56961.7 -120365 -58818.9 -119465 152637 2170.09 -3982.95 12391.2 -32452.4 161342 -92603.6 -2288.03 239770 512937 184069 36002.9 -20297.7 297927 468777 165656 -149935 -192284 -17709.6 75839.1 -202799 -129633 -186969 5838.86 -129014 247271 -101287 94250 -188541 -133789 -9583.57 448877 -180984 116313 -68754.2 -95421.5 153014 92766.9 126195 604871 -39214.3 144359 57315.2 -95262 122033 238379 66348.5 72273.3 -115856 184465 122865 20261.1 -223724 168444 196005 171273 54041.4 -2466.75 -59580.4 66380 -179603 -166621 -56899.2 -66259.5 62046.9 -147643 113972 22792.1 1590.89 79597.6 11656.7 -304188 -68171.1 -25918.3 88463.2 27955.9 -238711 49706.1 57730.2 42600.7 124550 109951 3801.14 45280.4 -54124.6 53607.9 137803 119894 20980.2 -156519 -195358 -126809 128998 -64590.4 -150988 -134557 115349 62949.4 11663 33038.1 -27602.5 -106755 -213186 -190173 2722.09 -85828.8 -153370 -129485 107194 106166 18666.7 24998.8 -44746.6 -41658.8 -59495.5 172317 3529.81 15617.2 76162.8 11995.1 -9098.75 9029.73 59486.9 -89775 78886.1 4929.41 -63064.9 43976.8 26375.9 61381.6 -13539.6 70782.7 11480.8 36937.2 52430.1 41672.7 89524.1 65280.4 -14941.8 66104.3 66238 -32666.9 206650 100438 -55073.2 137806 41854.7 15424.6 13875.3 13609.8 -83781.1 98991.3 -6309.48 -121530 16119.5 78198.8 -49857.6 -132160 17230.2 -1433.23 13129.4 -50146.9 37734.6 -38389.9 -27848.8 129951 -99472.1 -183877 -21616.1 -85392.4 -25707.9 -50047.5 -78099.9 84159.8 79273.5 26838.2 69976.3 13993.9 -45906.5 -34909 -73454.8 121986 1816.07 75568.2 -45656 -65503.4 -46713.7 -43030.6 31112.5 -101294 -64412 -103804 -47143.7 -43969.1 -30010.4 129811 43110.7 8882.81 74758.4 44423 5134.79 15715.3 18949.5 -135610 41646.7 -113232 -8546.65 -8742.86 17091.6 61393 -66548.4 96955.4 -48826.6 22002.4 57685.9 52279.9 -107567 88688.6 57829.4 -53296.9 2757.08 103651 -57541.2 88124.2 51114.9 -36811.7 -32881.8 112850 -112934 25976.3 -66608.8 -52840.7 -70485.6 21454.9 115062 -46512.2 -41864.7 -55462.3 24833.2 -15014.5 40069.4 4043.74 -21128.8 17642.1 -61800.7 76033.8 58834 -21276 4511.64 -61103.3 66908.9 -55848 -15778.3 -2516.34 -31856.7 -40691.5 56727.3 -112388 -49716.5 67633 13237.9 -15761.6 -50558.3 -70283.2 -44417.3 -21347.6 11396.4 6738.13 -42168.9 45624.4 -65104.5 -21381.2 29168.3 -55771.3 -81616.8 29140.1 -17001.3 -77703.7 11336.2 -32408.9 -115988 -24057.7 -4866.28 -42286.8 30330.9 46636.8 -12226.7 36926.1 76743.9 -57620.8 -84961.3 -7380.58 34571.5 73949.5 -36385.5 57374.7 -21091.8 76013.5 -20069.2 -45731.9 -31841.2 -55127.1 42580.9 -3172.31 -23921.4 68420.1 22768.4 -6392.01 -85121.1 -54037.9 38222.3 -25256.4 105490 -22933.8 -17331.9 80053.5 1661.61 39678.4 -6792.13 60418.5 68328.3 31770.9 -7046.24 -3287.12 13347.3 -18839.5 2896.44 91041.7 86723.4 23512.1 38811.5 -37241.6 38850.2 19393.3 28032 502.144 33496.1 13780.3 44178.1 19534.3 -3447.43 48342.8 -8306.29 22633.4 18130.7 5847.85 60469.4 -32734.7 34041.5 4841.39 23140.9 -6570.33 -68725.6 -6492.54 32984.4 -23318.7 -5269.23 9257.7 -9924.2 12149.6 -18068 41441.8 8590.21 36309.1 66642.7 -51662 1654.65 -46726.1 6310.47 4953.36 -45466.4 -75581.1 -604.203 -2329.7 -602.275 -26727.5 -1812.08 17539.6 -20282.4 17393.7 9947.95 3609.58 -12541.4 29.6658 5953.33 -774.253 -12612.4 25876.6 -29708.2 3516.42 12491.4 -14019.5 1902.46 -6564.8 7927.56 
-1.16344e+08 -3.17886e+06 -1.8047e+07 1.17479e+07 -1.12505e+07 4.28939e+06 -1.37825e+06 2.58455e+06 3.95242e+06 3.02443e+06 -2.0573e+06 -3.88395e+06 -807130 1.97573e+06 -1.19785e+06 -314004 -1.77543e+06 2.42196e+06 2.98137e+06 -3.52769e+06 -577338 -14729.9 1.25688e+06 1.48879e+06 2.07769e+06 1.67676e+06 759428 516912 1.0909e+06 -130772 256362 388775 608272 10473.5 -1.74509e+06 -715346 2.56945e+06 -1.69319e+06 17673.9 315342 -661619 -1.02963e+06 898517 -737158 -862083 7368.26 462382 215197 -1.32409e+06 1.77264e+06 -244888 496285 193847 544834 306566 26710.4 314529 -401680 -66479.3 -116747 784628 -256143 237054 -405939 893914 -315787 -190863 73852.7 386719 218758 -296320 246537 57738.2 112103 165956 -73512.4 189160 -19939.2 -27671.6 -483378 -153065 -200351 79383.4 -162242 522189 499001 428983 -422204 53175.9 -155465 367674 211889 -93526.9 1475.39 -338454 531039 48764.9 -130591 -120956 466498 -380629 -775307 -165082 -65617.3 153797 377493 31204.9 -23715.7 -19201.1 -177966 72438.3 -127256 -37243.5 -216863 -8033.34 -39127.8 -398609 -7783.53 363931 -414940 -79961.6 138479 318362 -146528 31526.6 -286131 213843 -12708.3 -123411 164400 -159928 -306489 -112497 56323.6 -113032 25704.9 -136917 -14504.6 -153748 -45303.6 232198 -349095 -5357.91 181138 175090 -78709.2 110126 -151108 -288003 205405 33141.5 -78852.2 -132411 206029 -434071 227424 -53919.3 82138.7 159419 -206191 -52496.8 18671.9 -77177.1 -435482 314620 -120909 169015 58542.9 1378.15 -430920 -274363 -20976.9 -175481 46248.6 129232 -31861.2 73804.6 106131 29605.5 35329.3 13346.5 150656 126291 114387 41537.5 -107622 -78811.8 55788.5 -144075 -60217.4 -127623 62720.4 -129411 -210843 -79421.5 -236363 -96732.1 -67326.6 -37672.1 -51090 25495.3 26342.1 -146685 76028.6 153865 124117 47086.4 73822.4 -194315 154281 45443.5 82499.2 53205.2 222138 -26729.8 -138152 249085 130955 -40602.4 84608 74801.4 -57798 5442.68 78996.9 18754.3 -65760.6 -25818.9 -126131 36086.5 103795 -48985.8 -115898 -81318.8 -5818.63 -72148.7 638.142 81588.7 -58309.8 87742.4 -49148.5 111222 5138.13 -125100 8448.93 19947.8 -95803.3 -75664.6 14186.4 89863.1 39530.3 -141773 -107503 -80560.3 190851 154920 73787.1 142354 32954.3 122371 -192018 -74472.9 31580.7 73420 662.921 63900 85907.9 28578.4 62477.5 -53371.9 133979 123028 108829 -32448.4 47846.2 34107.8 28869.2 -16356.2 -43703.9 119796 -140740 83325.6 -119645 -159588 60635.3 11892.3 -61298.2 111451 41440.7 -60574.4 7233.26 -1587.06 -38694 -6914.53 52930.8 12792.7 84851.6 27344.1 -3134.91 33377.2 67187.3 51684.6 55787.5 22670.2 70524.3 31853.6 -19382.8 -137176 14942.4 -85233.1 -112515 68152.1 102635 -13552.1 26928.5 -59573.4 -123051 -42144.5 -88325.9 93223.6 -2720.65 -1780.97 40118.9 22227.6 29853.5 102263 -30382 -2603.41 30588.8 44465.2 -20742.8 68249 38742.7 -19080.8 33509 28937.7 2438.85 12444.5 -73631.9 35420.7 -36362.6 75477.1 -143655 -27599.5 -63845 -49938.5 46432.1 66382.8 -11025.8 -28340.6 -52906.5 21600.3 35219 -40023.2 48797.5 44550.1 48277.7 87329.6 51201.9 89990.4 -7816.64 -24546.8 -109180 116434 -35373.6 -76624.7 -54631.6 -65860.8 -84769.3 2637.7 18374 -49463.2 26480.1 -34284.8 -14762.3 10270 -51196.9 87694.5 -43698.5 34846.2 33837.8 7810.57 -46320.9 43477.1 74780.5 30025.3 -4893.14 -3234.22 -48976.2 -33952.7 -2021.14 -56062.2 8124.92 72407.8 1521.6 52533.6 -67114.6 -19245.5 -20972.2 22054.5 15619.6 -54708.5 31065.4 4064.3 42715 11472.4 -28101.2 -85798.7 -18538.4 47921.2 41551.6 20721.6 -16782.7 6431.02 23060 7562.06 3514.56 -5068.02 -27848.4 -34023.3 -16067 90890.7 26849.1 32506.2 29207.7 -38529.9 -5394.41 9149.58 -27376.8 -17760.3 22535.4 -16628.6 30323.1 36406.9 49464.4 3084.39 -16198.1 -32742.1 18308.9 31054.5 11281.9 -37078 -16634.8 -20948.8 8751.26 -104.413 20369.4 31478.7 14329.2 -3361.6 12036.5 759.699 43021.4 1458.17 -15085.6 -32383.4 9660.18 6644.92 -10205.1 11851.2 -31193.3 40136 15542.5 -781.091 33119.3 -6254.23 -23157.7 14124.3 4557.01 10067.6 -8398.92 -10517.9 18382.5 -17334 4690.27 -11764.8 -30789.4 412.328 974.952 856.569 -8690.75 4906.9 -7985.58 -1928.84 -5946 187.004 -12367.7 1320.05 1989.02 1531.57 
-8.95656e+07 -4.72559e+06 -1.87928e+07 8.80829e+06 -8.98488e+06 -6.74913e+06 -1.90444e+06 -4.13926e+06 -319829 3.78862e+06 234508 -1.63001e+06 -3.59157e+06 -4.53685e+06 -1.73325e+06 3.52305e+06 -30785.7 -6.21578e+06 5.4166e+06 93851.1 -2.76882e+06 -2.53368e+06 -118457 -993985 151414 -1.832e+06 688703 59862.3 -958984 -721573 -2.2566e+06 -1.40054e+06 -249798 -39550.5 -807937 455286 -625756 912760 -2.9021e+06 -2.84607e+06 -631083 14004.6 593147 613458 -768325 -316646 -48268.7 -1.10177e+06 -1.37272e+06 430352 -1.3971e+06 899186 -734402 -188303 -169540 499874 -677812 760461 -98348.4 -1.09555e+06 -58776.7 -251727 -1.63761e+06 741660 174697 288864 -71763 -765176 -685962 -296450 39560.3 -239363 -127539 -499240 -19821.4 -703414 416368 -284217 -195876 660227 66528.4 113629 155289 293544 385353 -46329.8 312176 113902 -237435 -482741 24362 166752 469406 522460 370554 -356275 97237.4 -226191 318542 -41222.8 -41252 161933 462741 -492058 159748 -315624 -454813 572509 -272432 179219 -100713 -271320 -292602 66310.5 139763 -168648 -214055 -285006 -4260.32 70257.1 671166 -135536 55263.6 -207468 205536 297274 -57712.5 -219854 -131548 355503 -132636 -295082 36958.6 -199432 51262.5 -3367.06 -32311.8 -384357 272033 242053 -78752.1 -383544 78873.3 -137238 69695.8 131065 -321661 273158 272341 -116429 189941 -98889.4 45177.1 162470 -333030 -264711 -115480 55230.2 -64044.2 251997 3109.71 -237043 60350.6 70814.7 22080.2 43281.4 -39092 114687 135855 -104800 79270.4 91532 -147551 -82631.3 5051.22 -46693.7 155926 -51065.6 -107116 -119693 242400 21745.9 -31705.3 -57589.2 26313.8 84046 13820.5 216823 204309 -46506.3 80286 198019 -95470.7 -199076 -89583.3 177035 -196154 -94521.6 304888 52595.7 15178.6 159596 -118701 114382 18921.7 495244 140836 -150795 -69374.3 211490 201925 28330 -166410 143614 -61361.4 48694.9 105241 12313 134647 84726.6 -10042.7 2405.75 -257516 64476.5 55302 -152449 18729.1 13943.8 -16133.7 -35151.9 -41470.2 13262.1 -3671.29 220538 112488 -54311.7 -91431.5 -215264 -14174.7 120142 -49393.3 127081 -214946 -80763.5 182831 -81911.6 156518 -19059.2 7996.11 -321934 -62241.3 -71075.2 68262.7 -64985.6 29792.5 33009.6 105325 37902.3 -148115 53442.3 -75023.9 450.806 100894 113738 -57489 -132432 -83442.9 16599.3 143400 96224.4 50606.5 91785.5 62709.5 -70724 -53172.8 46110.9 146886 -139253 65387.6 -14748.9 -71235.3 132166 -118017 -104351 37628.6 1406.52 13354.4 119654 25254.7 -67080.2 85481.3 24596.9 74890.9 -109574 24544 -17688.1 -23194 -80200.4 -27943.4 29683.2 19122.5 -181186 -10029.9 -128014 23291.6 -127348 -41439 62418.6 -11822.7 129046 -68934.5 -18434.5 -37413.5 15731 -62294.5 84449.3 -86021.8 22032.4 -850.036 32918.2 -81736.8 75423.4 -35115 -36570.5 -86481.9 -30051.2 -22865.2 -17083.8 -108472 20492.5 36206.3 -21309.1 -70096.7 -18284.2 -68216.5 3813.45 -4882.75 -8218.44 68893.4 -3449.5 10623.9 -9595.63 20520.4 3972.32 -442.301 -20414.1 30381 30721.9 -1030.49 -46416.8 34609.5 -84848.5 -18242.2 -77191.1 -36157.8 5487.88 -47442.2 23696.6 13624.3 32535.7 23380.8 -13793.5 61000.1 -53735.7 -5763.63 14283.9 -5563.82 35744.5 126.779 31279 15710.8 17729.7 27227.8 -38549.2 46132.4 -53215.3 43816 -17161.7 -20900 -29411.3 62241.9 453.057 3819.52 -15036.3 15817.2 36494.7 -13191.1 -11544.3 44003.4 34617.6 22972.5 -18560.9 14442.3 -6980.74 2519.18 7047.71 -12377.9 3991.64 -17081.6 9466.76 19890.9 45912.4 29313.9 -11546.8 23242.8 -11939.6 21043 1242.28 -17291.8 4305.94 -19440.3 7948.01 7093.98 -27350 -32317.2 -40496.6 3103.67 37295.2 -14930 -18994.9 -21244.7 -17296.9 -14107.7 -38727.3 -11774.8 27245.3 -5054.99 -83.8158 -23569.2 15758.3 8020.17 20512.5 -8820.14 12059.4 20300.3 6379.75 18278.5 1078.83 -36037.1 -14260 -2616.48 14751.6 22482.5 -5334.37 -7892.08 23790.6 31786.8 -5035.45 -15616.5 11161.4 1832.95 -14829.1 -16823.7 10604.7 -22577.9 1179.87 -4170.92 -4440.29 -16249 -18576.2 -14934.1 -269.121 652.711 -8339.28 7443.64 -6624.18 12876.3 -1450.04 -9751.84 1347.63 -10074 15033.3 16296.8 -1867.3 -3899.29 -13943.6 -1940.99 4890.08 -9367.84 10198.6 22788.2 -2877.17 5070.73 5448.33 -4040.38 2239.23 -1340.68 635.626 4347.46 
-9.43846e+07 -3.24734e+07 8.71543e+06 -3.14058e+06 -2.36666e+06 1.02765e+07 5.92642e+06 -4.89685e+06 3.35653e+06 -768196 5.67689e+06 443112 -811471 2.244e+06 571073 -1.81292e+06 2.81031e+06 -2.0371e+06 -2.19916e+06 569385 159940 -1.59386e+06 -29310.7 -1.08107e+06 1.6406e+06 -1.16672e+06 -678888 -1.07523e+06 -287403 832925 -81909.3 1.17905e+06 152205 1.00962e+06 -706019 470682 -278816 -250528 395364 -33542.1 550513 -99517 130011 70035.9 -1.28064e+06 434707 -655450 668131 -7387.17 832795 -151532 775707 511645 371340 -26529.1 462051 -990889 125617 123949 -191285 -87880.4 157160 -182935 -160375 338226 22595.1 -11741.2 568083 604222 -396623 -204127 443805 -374296 -281561 -40418.5 15368.2 29608.2 768400 343922 322250 -606472 -402480 398927 225159 -540080 522265 -63821.8 8749.07 -6640.5 137004 -159346 -425129 -9967.85 56549.9 166697 -246902 -90452.2 430556 -847709 -62665.4 -145969 -282111 119990 122561 195520 571686 141766 -237903 -371391 -139309 323551 -113834 4380.58 -146782 396713 22460.7 222286 -128623 -157674 -115092 -108232 -43237.6 92134.9 7460.59 -416767 -89125.8 228766 141734 -92322.5 -277209 12754 61983.8 218473 74857.4 15181.4 11212.4 130481 -138465 407933 -48071.8 84689.8 -286286 -292904 -24589.4 -167929 76147.9 -126219 115138 634924 -247946 196473 -203342 -17397 -135904 -11581.2 104703 -48402.8 90878.7 69734.1 77608.8 -86646.9 17626.4 -100945 -52983.4 -94250.2 -41588.6 27480.8 -256818 -144149 -336494 77821.2 88259.4 161180 42882.7 -16536.3 -118406 -3979.37 -136800 57702.4 -212522 59638.6 2175.29 127227 -59682.3 -225522 155551 64536 -59936.1 -76013.4 -112349 260354 -68972.5 -217496 -4318.11 187585 -122687 -148503 34445.7 54785.1 96861.7 -142724 -41939.3 28784.1 -32154.6 143603 478.013 72269.8 -82322 -73026.2 -24295.2 -23149.4 16090.9 104795 -92826.6 -94915.5 23290.3 -40840.1 12559.3 219646 34377.2 22556.6 -66718.8 28574.1 152437 -22015.3 162248 118701 14948.3 29697.4 -182587 128963 -101167 205991 -38187.8 -49675.2 -68448.2 -70701.8 126158 -27398.9 -31182.1 -124813 -40725.7 38424.1 14073.4 -9909.04 -70129.1 -166438 -24819.4 90219.2 -51858.3 66689.7 77845.1 -29905.9 54044.2 81390 193908 145406 117923 8604.05 9330.89 209140 93500.5 82708.8 -147112 22567.9 -9236.11 -118143 -59217.9 -5794.24 -263748 37896.6 -21118 15157.4 142267 -47028.3 8605.87 -43869.9 -79287.3 -15359.4 68972.4 136646 33075.2 -58340.4 -91114.2 172309 22457.6 -23402.8 -52813.8 -109627 -96150.7 119242 -143613 83810.2 -45056.3 -131700 -37900.7 42903.6 -148338 -40754.8 -39950.9 -62172.2 -21648.9 36375.9 25178.3 -15551.2 158808 -108409 -92967.6 -16073.3 38181.2 21921.9 75780.2 -11852.2 -38185.9 4279.6 -69032.1 -54297.2 -32450.3 -109310 39544.6 34044.2 74341.9 -42413.9 -17794.9 149136 13584.6 65600.5 -51002.9 -18565.4 -62295 -54976.5 -61066 21246.5 103011 42185.2 108907 -21966.9 1410.81 10232.5 56469.6 12686.9 5939.89 26491.5 49416.1 -81068 -82056.6 -39624.9 29539.8 -16546.7 19112.9 1161.96 -77795.3 -39014.6 18637.3 -74556.7 -35262.1 -57059.8 23879.3 33223.1 56995.1 -57141.7 3994.93 -48950.7 -21551.1 -64730.4 8561.09 -30866.7 85335.4 -13814.6 134796 3959.53 38777.9 36257.2 -13233.5 -8591.3 -16752.1 23651.4 37485.7 -22460.9 29467.3 21712 67306.7 -1688.8 -3352.6 8425.11 -22804.7 -1461.53 -22399.3 53943.6 47331.1 -19677.1 -58451.9 -3809.79 -11746.1 -40866.7 -6819.57 -1555.03 18236.1 7715.7 29226.9 4079.76 31220.7 -63637.1 3969.98 -9283.47 -24016.7 70626.7 45579.5 85442.1 21873.2 59767.5 -44566.5 7680.7 15236.2 -4742.54 -11557.8 50894.9 -14854 14354 32085.7 -987.437 -44994.2 -28832.5 52964.5 31625 -32590.4 6500.55 -32470.5 -3267.34 11307.9 -18631.3 43270.1 -24895.9 34109.7 -30683.9 -8032.37 -13608.3 -48088.8 15747.2 18800.4 51580.4 13319.3 191.924 -5080.89 316.305 2800.34 -37046.4 27465 -23797.2 72351.6 13019.4 -16191.5 -2747.03 -55465.9 5091.45 -53321.4 3432.76 -45018.1 -4700.48 39424.2 -15141.4 -10435.9 31695.4 8942.61 11289 -4039.34 7790.29 -29766.1 -7126.04 4509.06 6337.11 30831.3 20353.3 4814.11 -13786.8 -23113 15729.6 -24505.1 1398.58 -23043.3 -19009.2 -12523.1 -9052.31 12313.3 -3427.69 -5789.97 4827.42 1656.93 -546.974 
-8.30376e+07 -4.07342e+07 -7.05071e+06 -2.54799e+06 1.15709e+07 -6.04251e+06 -1.34091e+06 -7.48352e+06 -2.52626e+06 1.5756e+06 255230 -2.60659e+06 715760 447007 -443020 1.31183e+06 2.71811e+06 1.47731e+06 -1.46933e+06 -2.12166e+06 1.78076e+06 -1.83625e+06 574402 386926 1.23355e+06 621655 1.32998e+06 -1.74449e+06 -1.39123e+06 281346 -546717 -278014 562604 -753760 448039 161615 -684172 2.02488e+06 -1.16468e+06 858109 -1.17541e+06 1.04872e+06 240651 281337 27227.3 -141398 745071 304628 695347 -693092 854118 -90352.5 -347169 -125208 -363306 285436 -272719 -556123 -494220 797647 -164474 489012 -221207 169088 -419626 -801866 -1.39453e+06 -97655.2 -295717 89738 -183201 578496 112601 -594742 49713.5 3158.3 335561 199845 190864 160776 -116952 483913 -29030.9 -384896 -331211 -233511 73983 -55334.5 682902 145252 153652 245082 52003.1 187891 -480079 9130.7 -295696 -199935 -127482 -211968 -120526 204802 -69262.4 -116944 -262469 -368734 289532 49925.1 -150154 179582 518553 -52950.2 518046 492097 160420 -52223.7 -189982 -269523 98271.7 7026.71 -22873.1 -73587 92316.8 93577.1 53583.1 118545 234850 -379772 403724 105059 65218.9 -91462.5 -93060.3 -32896.8 -122723 203071 26220.4 10651.1 291121 43628.7 72019 -99392.2 40228.9 -155424 -224879 252834 158371 -64470.4 248638 -13499.8 -149896 -89848.3 -41199.1 -187113 10242.2 -198968 137073 -208916 83.9998 64162 1138.02 41549.9 -12374.2 182021 -206560 73268.5 234707 90754.1 232151 28914.5 -48090 86596.5 -12072.7 -77039.4 -128235 -210276 125890 391.47 43679 140118 -109220 237770 98344.2 114301 33036.4 204092 79064.9 16119.1 -12932.9 7958.15 210001 -161096 -72780.3 30562.4 67079.2 125514 26960 64327.1 -36373.8 -185316 -114591 -139728 115631 148421 228426 -75333.9 -113758 -212016 96985 203321 85900 -74969.3 -186385 90885.6 154010 -4848.4 76663.1 43828.5 -141934 -21698.5 19781.2 204437 -58103.7 -97507.4 41714.7 48830.2 44497.9 -15554 -61969.1 -119372 -12573.1 44150.6 84462.5 -119272 67619.9 72514.6 -23555.2 -61535.4 33033.3 22379.9 -25743.9 -111569 31384.1 -82649 158492 30979.9 68097.2 -44696.9 -14755.2 -148271 55802.4 -72506.9 -22046.2 -28303.4 3121.29 36355 9114.3 -133985 78758.3 44818.3 -98959.1 -109071 12793.6 -98438 91138 -48615.8 71606.2 -58546.4 -29077 9291.84 20109.7 -20615.2 -59522.8 113168 -36525.3 37622.8 -82220.5 -10548.4 31171.5 120583 -38339.3 -15184 34793.7 1971.05 96109.3 -75533.3 -21163.1 -68522.3 -16942 -148054 -59794.6 91463.7 78335.1 -85796.2 30263.2 -113132 66946.5 -12904.5 42917.7 -56004.9 5660.45 89424.3 87481.2 106289 114412 -32500.9 166643 136036 52259.5 49037 34169.6 -12146 54344.6 28072.8 88603.3 -10490.4 -77394 427.304 82831.7 39428.6 19543.9 -69939.4 9451.26 -32883.5 -25351.6 61804.4 -96494.1 96829.1 5897.73 44171 27781 26989.1 -31156.8 -40973.7 43298.2 -36835.1 17219 6324.55 -4851.32 95721.2 -47413.7 3873.78 -56948.7 37836.9 33616.9 -60509.4 -66296.8 55511.8 -13825.8 -78324.8 51792.3 23219.3 -26660.8 -47972.5 13420.7 -81900 -93711.1 -27964.8 -7083.92 -52601 8312.54 50339.8 44341 -52363.5 -58877.8 -54739.8 -2295.1 -53788.5 36954.6 -44902.2 12539.5 -1354.68 -74113.8 21197.2 107.456 78034.8 37541.7 -13028 15190.7 73462.1 7960.1 -20278.3 574.629 78809.4 16670 36880.5 41012.3 -9569.53 -23039.3 141174 -14767.5 4271.78 130.526 61841.8 -49452.4 -7842.46 16706 -50491.6 -1451.39 -29768.5 -37254.6 -74916.9 -7904.02 22360.9 -57915.6 7705.22 -61719.1 -30609.2 19369.5 -90681.8 57517.8 -56275.7 -45688.5 24020.4 -88526.9 -62943.3 22844 -1574.89 22253.6 -82900.9 48028 -27264.4 34577.1 8913.23 23979.6 -54683.6 -13397.2 6248.34 44891.2 -18085.6 1997.91 46096.1 -10075.9 27316.8 -12503.8 -11177.9 -52964 4461.01 47437.5 -54628.8 34406.2 4084.62 5574.75 -11492 15929.9 -12307.6 19488.4 -15349.7 -27919.1 -16588.2 -6909.75 65861.9 -41074.6 -39955.3 -43163.9 -11582.4 1257.68 -1423.36 14587.5 -14493 9766.53 23149.3 -17810.9 53118.7 11211.8 975.549 39443.5 18619.2 -31587.2 -5264.64 -418.519 -27004.4 5639.18 4990.34 25898.7 -25137 8758.38 15428.3 -9651.6 -31178.8 -7166.13 -4777.49 410.711 -12778.1 11194.2 -11497.2 6465.13 2868.09 -4287.67 
8.47507e+06 -2.5364e+06 6.47901e+06 9.77106e+06 -1.20192e+07 -3.09238e+06 -5.60188e+06 -1.08603e+07 1.00845e+06 -394732 2.41709e+06 -235881 -1.00834e+06 3.46005e+06 2.00354e+06 3.43464e+06 -2.18877e+06 -3.3683e+06 -1.24594e+06 801840 -2.58301e+06 -151688 -3.54948e+06 456383 -187883 -54433.8 978184 -261223 1.50538e+06 -203025 -3.0248e+06 -1.7221e+06 1.6138e+06 -448822 895019 -687276 2.15054e+06 576149 -2.0963e+06 -443864 2.79348e+06 -86967.7 914939 1.6218e+06 -17867.7 -507448 -160508 440248 164141 -646536 -694568 -773211 1.05255e+06 1.04716e+06 -461559 -646862 814754 193380 311133 -895397 -835377 -526057 -373865 180579 64792.7 -56930.3 397738 445760 655289 90954.8 -757334 174168 209700 884684 -66628.4 -188946 26229.6 -439389 -94097.9 380850 351268 -15791.3 -268303 -308137 -368635 -306889 516482 418889 362722 -65643.2 -28757.3 107319 506585 -202896 235582 -397735 -94370.3 159492 -667826 313848 356600 -175793 450266 188788 27135.1 224262 -215650 116857 382179 454330 317942 -98162.4 58162.6 -156050 96772.7 24388.1 58159.8 -219402 -207486 33336.2 -215050 -56001.2 -97975.2 36241.2 239553 -169789 -142963 -64863.8 415666 -109802 -73141.3 -207906 40687.9 -106217 -120180 27726.6 125760 78480.2 41391.2 -34269.6 -51606.4 118793 218094 -156769 184413 127324 19878.1 -91428.7 -428875 -32892.8 75045.4 -225764 -45926.3 -299148 -26451.9 8232.92 -127163 -411625 113567 99369.8 25552 37547.3 -21030.5 166736 11091.4 -124604 -46965.5 151422 -89913.8 -373256 -282546 118535 385709 -3641.37 43664.4 -169005 -50832.2 -164291 9516.24 -223151 14862.2 -5033.37 -11631.3 151251 -227519 15797.1 67095.9 -121180 -214924 34470.2 130056 83788.2 -54889.5 32497.2 203486 45096 17545.9 -217708 98373 126272 367438 -124184 -29211.4 -215758 -33926.1 -360273 -135936 113672 35656.8 9485.52 178326 -234080 17784.1 1755.29 38935.7 69636.7 150962 -273625 111739 34134.9 91926.5 24629.6 163523 50338.5 -61199.7 4957.64 25827.8 312814 -114915 -95747.4 -211007 58358.7 -13702.8 33916.7 26770.8 98441.8 220467 69233.1 77711.6 -209108 -4257.39 -1909.26 -14844.4 56053.6 24251.5 -43668.7 -90455.6 -187730 -31590.1 71657.1 2762.2 79983.2 -7201.46 17778.5 -99992.8 111421 -55826 -59505.4 17474.8 -86198.4 5475.2 24860 -31419.8 70138.7 29283.8 -19253.5 82181.8 -95609 4276.22 75538.5 -3762.78 -60231.2 -79928.8 99013.1 -203421 -118388 56067.3 -62348.4 141551 65292.7 -60077 67147.4 58043.9 217529 -27227 96436.8 -90380.9 -7119.6 84494.2 -86643.7 230355 45851.7 -227376 32966.6 -29297.6 -633.901 -1962.83 -126938 -25293 -100890 -86685.1 -66835.2 51069.8 -67578.4 16903 -19010.7 -30022.9 -91063.7 -34626.9 60742.8 47557.3 -15648.1 33620.8 -37124.6 161151 -35991.2 -7891.57 -696.478 25524.1 -33253 -36655.5 -1050.77 -40715.2 122827 -17803.6 17918.7 31948.8 529.476 -14637.9 35630.6 46489.5 20526.8 -111306 -5395.54 72978.5 20838.5 51140.8 -96481.2 33983.5 -8178.97 -42691.2 23832 -89510.9 34811.8 -28052.4 -46145.3 38627.3 3312.45 89123.7 -15467.3 -11126.6 -107738 88927.6 -4129.13 -10612.3 15651.7 46513.1 14766.2 350.985 -34582 -31408.7 -13305.6 28488.9 46771.5 494.507 -52981.5 50076.6 -7958.39 -33602.9 -4259.7 -89666.1 -85313.1 -17209.5 74362 -36683.5 -17680.9 1880.89 18648.1 -16812.7 -32698.8 72406 -34511.6 -18259 4071.75 -7050.35 -24494.2 -2994.79 13786.8 4057.97 16568 22477.2 -4140.58 -3795.9 36113.1 382.803 11770.9 17946.7 -13835.6 6483.61 4909.11 -35709.1 57128.4 22624 6170.94 43070.3 33372.9 -865.743 -50093.1 19792.1 8768.1 15294.7 -4659.83 -21601.6 -3221.26 -16100 -3158.86 -32447.6 19438.4 -2336.9 16748.4 14572.5 -12689.3 58389.3 22118 -30466.1 -26286.2 -12321.6 -10219.8 -39494.5 21617.5 18510.1 -10507.8 -6401 24854.9 9084.65 -26860.7 41661.5 -1634.54 3647.44 5213.78 -16522.1 19624.6 -14023.2 -34026.9 -6830.08 11297.8 30679.8 11089.9 -11523.5 21715.2 -13044.6 -315.934 12562.4 12192.6 -23753.6 25178 459.606 783.296 18846.8 -13186.9 11519.5 13616.9 -15543.4 -6777.35 -7352.53 17254.4 -6716.39 8112.88 2691.33 -6628.86 -14719.2 -12765 -4778.4 7433.16 12557.4 8597.15 -4553.31 24481.5 -7174.54 -3295.42 -416.517 -21495.5 -11349.9 9616.56 601.001 10828.8 5540.19 2210.7 -1556.32 
-3.06256e+07 1.90595e+07 8.02572e+06 1.7302e+07 -4.6503e+06 1.71557e+07 -6.34251e+06 966619 7.41413e+06 -5.24108e+06 -3.9079e+06 985984 125606 -3.7277e+06 1.91164e+06 709745 -2.36319e+06 1.53418e+06 -1.89463e+06 -770011 899012 2.317e+06 -1.62469e+06 -1.4939e+06 76429.7 -1.87977e+06 -783609 186912 2.34359e+06 -1.38438e+06 -468204 -67754.7 -1.3482e+06 -325001 -512725 126786 1.51782e+06 -570675 -553562 -1.61618e+06 545080 1.24803e+06 -894135 -425899 389383 551614 96442.3 1.53014e+06 940867 585410 -161468 317038 -217754 10725.7 -140742 -110462 -178650 657744 211825 1.43499e+06 1.14687e+06 632896 526523 1.05618e+06 169317 284262 -302995 -169753 361851 -154161 -323017 620513 89689.3 -881767 172593 -665774 653771 -268098 -472158 -423984 429668 462600 156919 39015.2 -188931 430289 716281 400711 -523608 374695 -819277 -133598 530585 -379798 -1.01708e+06 -376589 -390852 589121 199326 69725.6 -131327 -24271.8 558034 -270963 -210278 -30948.8 378693 -5154.88 159951 -187431 276162 230081 274205 373033 -370485 210042 155638 -262700 -212706 -11761.6 277705 -31890.2 302103 -344765 137317 268471 202651 87846 -3932.58 -136392 -62597 617478 589270 -24824.4 221692 387099 -205899 16821.4 96833.3 -410301 -123997 101481 -332879 64834.2 99158.1 -216953 -256742 249033 -363558 182465 107538 -181217 1824.58 210796 72717 296221 5291.16 -27650.5 -145791 -106304 55624 -122576 -45624.3 86902.8 10305.4 319806 -242181 54701.9 44413.4 -239656 91207.6 67990.2 393517 144724 -180623 200518 -233389 -132210 -106529 14333.9 -59556.3 -172678 43017.1 -70025.1 166588 -63315.5 -258255 -91653.4 36513.6 -110546 97249.6 -72422.5 -156475 201092 92139.8 -104531 311371 27509.6 -115912 -134319 114361 -58013.6 38947.4 -50479.5 -23911.5 -257637 173176 -337438 -272568 83785.5 -134680 216569 -275089 164573 92805.3 -34287.9 26506 -204253 102719 -40500 -189597 -118593 -178163 28384.6 187677 -142531 -128859 -74395.4 -4725.1 3862.8 48469.1 57353.4 -87871.4 -119390 -31039.8 63174.8 1066.37 62087.4 -65749.9 -21863.7 -45618.1 -68466.8 32332.3 -235808 40000 -70256.9 -42058.8 -118048 -111405 -108685 -122918 -64193.6 503.047 41113.7 -50154.8 86963.9 84859.2 45489.9 -83797.3 -86837.7 -55104.6 -107494 -144092 62703.4 160394 -99999.2 -38705.4 67439.1 74439.9 120737 -131663 24466.4 -41342.5 -60123.2 -34458.4 68778.4 -30209.9 -179388 -51796.8 -43550.5 -89716 15710.6 47408.6 -70541.6 63828.6 -123010 -108252 78956.8 22186 -13770.3 -68714.5 -34004.9 132524 20523.9 56394.3 88773.5 42372.7 18818.1 -35396.9 -74419.1 86174.5 3877.39 21805 -112489 46223.5 46758 -10386.9 -127997 -10358.5 3316.61 56314 49361.2 98110.1 -22941.7 -69522.6 -69021 45428.5 57140.2 64511.5 -11760 -22612.8 -18858.5 -46157.3 -93353.5 1727.05 63904.9 -68390.8 -65569.3 14217.9 -59277.9 -35511.3 -17024.2 12840.7 21819.7 5666 -34713.6 63692.5 299.056 48824.8 30614.4 -24677.4 41540.3 -78917.8 29058.9 31855.6 -28005.5 -50793.8 83318.8 33638.3 -21528.1 -105947 8222.41 8043.09 4277.52 -40176 8850.86 -837.35 -5350.98 21816.4 -8251.47 15858 21452.4 10045 12441.9 50865 14751.5 -25251.4 2105.52 35488.5 25899.9 -20521.4 -27568.2 -12325.4 39207.4 85765.9 8328.76 61455 5331.42 -13252.8 22187.3 -3021.49 -20002.8 18238.4 -16181.1 22343.4 62150.5 -36914.8 -63286.4 -40406.9 -49581.1 -35330.4 519.262 45193.8 -40331.7 17942.8 -14764.6 27221.6 -42184.5 -39038.1 -2375.59 3653.7 -22304.1 -436.984 31346.2 38704.6 13540.8 34396.7 21810.4 -33511.3 11013.7 -175.595 2667.17 1512.23 45962.5 31656.3 15817.2 13466.9 37478.2 -13700.3 31492.5 11552.9 21463.7 -12884.2 9679.15 12259.7 -36377.1 20636.3 32233.4 15764.8 -3525.06 -13295.5 19147.8 13882.1 -20550.4 33462.9 -23401.9 8533.33 -21844.5 5660.78 38099 -7583.07 25164.8 4396.19 -30578.8 40179.1 -2515.77 -17810.4 -33603.3 -11642.3 -3741.75 3170.64 14047.4 2855.58 20857.1 1135.47 -7890.29 -16488.5 260.167 10446 -3140.3 4034.13 413.632 9392.21 1600.71 -4090.63 7527.98 7945.27 11210 2904.65 -9831.87 -4875.27 -4735.2 -11542.7 -5590.17 -20516.4 6363.87 6661.36 4347.47 -4343.38 -9773.18 6991.32 -356.625 -5491.52 10168.5 -11350 -3968.26 -3915.51 -393.936 -180.662 
-3.25017e+07 2.16562e+07 8.78136e+06 1.62336e+07 -1.64785e+07 2.82169e+06 -7.34978e+06 212807 3.93808e+06 1.28363e+06 999031 1.98575e+06 -735961 6.62784e+06 2.66877e+06 4.99112e+06 -1.2304e+06 1.72426e+06 1.01187e+06 973976 -505749 -31247.2 -2.63705e+06 1.00327e+06 121106 -1.28417e+06 -1.63508e+06 -1.1035e+06 96389.3 -974392 -1.01711e+06 -708850 -1.62239e+06 1.01351e+06 439461 186031 2.00675e+06 -30390.6 -615853 -1.72234e+06 2.0335e+06 889533 2.0488e+06 1.0038e+06 -298155 -123856 522580 884802 -53258.5 712933 -89631.5 708515 160697 326453 -25442 470691 -28818.4 -474405 -265518 -321119 197110 -192632 -27490.5 38608.9 729615 426792 419945 490825 -270437 -162620 -47606.6 -62249.7 -483007 81285.3 -129981 -306487 -243386 -1.17852e+06 414556 104275 256178 -403573 166910 -205855 282879 435626 -175290 263592 -645395 567991 57055.3 -24996.3 -753698 750933 -236101 437572 105241 -574699 -693019 -92714 9441.76 198875 -222519 241592 267687 120847 939611 58232.3 -471469 134177 391349 387849 312675 -131366 12472.2 101611 334363 -81398.3 148536 79865.6 291814 270781 246062 434539 131555 -213193 -82808.5 122748 -109746 -352885 -208400 -255592 -98637.2 115179 -189263 184317 275958 55855.2 446640 57461.7 -310208 232099 156445 -310135 73755.1 -117073 -321027 258550 221223 -333545 200641 -335634 118875 -255334 -97130.1 -79933.5 126182 290267 -138937 -253104 -256738 -402071 -117366 62022.3 -137186 -301014 -58351 97587.6 32641.9 19915.5 181358 -34869.9 -181688 83879.5 -228852 362803 -211663 136651 97574.9 92509.5 -215123 -111114 15553.3 -150449 195173 -4153.88 -22361.7 -36857.6 -4644.13 -23141.2 -71376.8 -382875 184278 -22955.6 187068 161811 81776 56441.8 14635.3 -10541.3 24097.8 41423.3 -33026 143792 134230 -93647.1 -118196 131980 7267.58 5076.36 -49204.2 -65322.3 15964.2 209571 10132.3 21644.8 200379 -38811.5 46440.8 -68357.5 995.329 73706.7 -93712 167100 106958 -98619.5 898.178 46719.7 47263.7 -102461 200543 -127023 -24024.2 -47778.4 -118407 -34109.7 24722.8 -136055 -214178 26091.6 51503.4 -121098 65011.4 -32699.1 90297.5 83133.2 -26004.5 54039.5 52414.6 119683 -95191.1 -106757 133648 61070.4 96932.6 -166757 -176324 135662 2294.54 67819.5 -58397.4 -75737.6 -66513 -81991 8121.82 311.01 -94860.4 -82939.8 -65536.8 -14497.3 -222708 -72673.5 32572 -228912 114463 1687 -25878.9 32461.4 10084.2 87476.3 48215.1 -54282.4 -81277 152091 -64892.4 39452.1 150778 -28776.5 -59950.1 -117448 76323.7 100735 -4836.63 -58582.2 34945.9 9859.72 45177.7 -73732.4 26581.5 35324.8 57831.7 81155.6 193260 -35777 -77055.6 -64096.5 -53389.2 70113.5 -83912 41276.1 9367.48 -75581.8 4384.93 -4020.99 28345.5 -24536.9 47404.1 -6119.14 -40980.5 91540 -85839.2 98677.7 15386.3 -56026.4 24081.7 -155862 61788.9 20560 -15363.4 20975.7 -20270.5 -42974.5 34067.2 -58276.7 -4161.22 -80296.2 -65909.2 -32510.6 37431.1 20081.6 -95696.5 -27242.1 33278.9 -28534.9 -17131.9 -59935.5 -65458.6 -57695.8 -92135.4 31468.6 -80495.2 64605.5 12801.8 -5849.55 35441.9 62342.1 -20758.3 -19377.7 -31602.2 669.187 -15081.8 -38030.7 23560.4 45124.4 -32288.6 44443.1 -35289.3 -39349.1 24930.7 -62480.5 -23398.2 -2102.39 -47386.9 -13444.8 -56566.4 39421.7 4149.04 -60648.5 39478 18035.3 70449.6 -28858.6 -15929.2 -4848.76 -56067.9 -9458.79 3599.39 48725.3 48257.6 -56064.7 -28661.4 -18327.9 -41490.9 -24399.7 11603.7 31827.6 24832.6 -7042.9 3807.9 -3277.73 23671.8 25737.4 5707.38 -16239.4 -50184.9 47484.4 1182.62 44137.3 -18358.9 -22601.8 8111.14 9992.11 -8242.45 4450.87 5622.06 -16948.5 -21551.4 9010.51 11471.2 -45964.1 -20233.3 62951.4 -7733.1 13875.5 -3072.32 -11812.8 -36481.6 -34488.1 -2274.72 -9825.93 -4239.65 -17674.8 -19246.4 -12039.3 17405.8 4073.04 -10230.4 23572.2 18337.8 -34949.9 29696.1 -7830.56 6245.78 10526.6 2867.76 714.943 -12897.5 11688 23999.4 11845.9 -4970.09 10564.4 -7360.99 918.052 984.972 1439.02 25424.6 9039 5479.02 -5595.08 -8388.67 -13451.2 12438.6 -3075.35 -7565.54 -5595.97 -3752.09 -21495.8 2057.4 -28535.8 8289.62 6717.85 16525.6 4797.22 -6553.63 -12804 3015.27 15857.1 -6950.09 -65.0247 3206.25 -74.6636 105.578 -3057.3 143.042 3040.72 -315.878 -893.164 4182.05 
-741717 -7.15618e+06 4.34348e+06 1.46341e+07 -9.37508e+06 -1.48194e+06 -4.49088e+06 -1.00074e+07 -4.224e+06 -4.42349e+06 3.01932e+06 4.89136e+06 -2.99716e+06 6.51011e+06 455270 5.71456e+06 1.65855e+06 2.66108e+06 -1.4829e+06 -2178.08 -4.42783e+06 1.40533e+06 -1.30234e+06 348518 -638000 -512369 1.51504e+06 -642687 1.0861e+06 1.03967e+06 -1.37164e+06 -1.56499e+06 640945 -414199 -1.98258e+06 -993241 1.88045e+06 211766 -1.10202e+06 566678 1.23544e+06 625625 384317 1.51125e+06 573177 -550895 379205 1.60449e+06 -145315 -408754 -582921 -520070 1.09323e+06 -383101 -753602 68419.4 -653007 878902 573357 66701.4 -369.419 -1.3781e+06 -117716 446780 -87591.2 -67326.3 716495 112603 646967 -524178 -442152 -589804 -432575 -269718 301111 -557335 -574607 -1.12214e+06 189465 -679100 431326 52156.1 -115952 39885.6 -77362.1 444007 -199342 195787 346648 -17942.1 -87045.7 423832 -458822 65402.4 430012 -173981 397994 -126031 -425378 -235622 199668 -248097 211797 662380 6067.82 274708 -253265 -252562 -315659 -235576 152967 58840 273349 -45102.7 -176577 409995 -116063 78403.7 350572 -83471.4 -153960 -24015.1 256700 -77765.9 307363 -254925 -48262.3 471656 359153 423911 -408547 227974 -376616 -353878 -26958.1 -39092.5 -180871 -420490 160350 313820 84564.1 403437 57614.8 -21844.6 -107914 -116491 -435057 -299750 492855 -10502.6 263707 -151930 -108802 -141676 -286472 -259623 146345 -62176 -193767 -336707 359142 -264546 -172046 -173341 -17981.7 12974 74124.8 -36755.1 94039.3 -51255.7 178209 -94983.4 139446 -2897.64 157098 -42465.1 175920 32861.4 60496.8 144336 -124109 -99487.6 289300 248669 -313319 210121 75875.7 -38259.7 -60165.9 184697 -75740.8 11870.2 88369.9 10136.2 -141587 66441.3 -37143.9 65059 -166789 -53830.5 24746.9 74048.1 240082 -97907 -86992.7 -59351.7 86557.1 50754.1 -21832.7 116852 104639 144895 -123543 6547.86 -175950 -66244.6 -129962 217466 -116906 129840 120170 -139207 -103234 76225.5 -197290 248182 106660 -139285 -189651 -89632.8 -85769.4 -35194.9 -8596.19 24441.1 24521 -112337 183897 -63224.8 84153.2 116404 -96101.4 -62540.8 -121072 41718 144668 25765.7 -4514.07 10563.5 72107.8 -55701.6 -52373.6 88796.2 -75099 -4804.37 -28062.2 -101639 203056 -90832.8 114391 6411.88 -8360.35 59148 -175357 -33739.5 -30923.5 13316.8 89398.5 -100908 -14132.5 -44964.9 -31691.9 -86476.2 23516.8 -78868.6 32397.6 118446 68059.9 -51836.5 84991.3 -91889.9 -113015 -21616.8 17394.3 -52240.5 -108368 -80722.3 33137.5 -60829.4 -6322.07 187416 38430.1 -10725.8 104491 -36669.3 -46583 -48628.1 -75371.3 -31946.6 -60567.8 -83899.4 -15363.9 -1900.92 -109828 102174 55780.3 53814.3 -36299.3 18849.4 126922 -46494.9 31595.6 16487.4 16227.9 -56727.1 41314.2 -79540.3 39808.3 -24670.3 38573.7 -87993.4 62842.2 -40857.6 75669.7 -72890.2 5074.45 -25557 -33412.4 -46951.9 -18853.5 143069 37467.7 -21714.4 58046.7 32343.5 -74412.8 31994.8 -13119.9 143815 -19214.6 11689.2 6882.4 53643.3 -7580.92 13178.6 55887.2 86664.2 64115.5 -5430.89 38584.7 4610.93 -53277.4 10419.2 63254.3 28749.4 24774.7 -119355 -23033.7 15993.8 6407.97 -6019.98 89378.2 -43223.4 -16919.4 9170.43 10579.9 63108.3 -26409.4 9000.03 -16399.9 11178.6 8875.19 28889.7 -9016.27 -53167.6 15989 -21502.4 -11460.6 18164.9 29523 46322.1 -53472.1 2334.41 -10574.2 -24152.9 100209 9416.89 -28713.3 -54690.2 -29962.6 -13252.8 -55587.6 74106.4 11390 12872.9 -8827.49 22582.1 -4201.44 9688.17 -27070.5 12778.6 10930.9 -68204.2 22507.6 -28010.7 25776.8 -16262.7 -43463 17504.6 -49744.2 -4071.11 2879.49 -689.398 4950.59 -9538.53 14967.6 -9790.29 32500.9 22959.5 3724.83 30966.8 -833.122 -8811.04 -23897.8 -20840 20629.9 10213.2 22234.3 32443.4 12808.4 -25193.4 7435.65 27748.7 -3687.04 -12317.9 -6236.29 -6963.57 -7592.66 7333.93 -10445.1 -19299 -12981 -22449.4 15402.9 13784.3 -34588.4 -23908.8 -16324.6 -14850.2 277.301 10850.3 2123.78 -22326.1 -27351.1 -28349 -2541.66 4600.57 -23403.9 11287.7 -5633.41 2352.51 -6743.01 10941.3 -249.149 2563.59 2354.04 -2882.52 6284 -14011.9 -1489.93 18801.6 -572.143 10573.8 -3235.86 -7537.73 1454.71 5516.4 -12249.4 -4567.47 6463.69 -4134.53 11160.2 3757.7 -12065 3227.23 -3102.4 -134.746 -5288.05 -3771.35 214.577 
