-7.37981e+07 454399 -8.68872e+06 8.43932e+06 -2.20689e+06 1.77326e+07 -5.57048e+06 3.34969e+06 -121937 1.75717e+06 -953177 -3.11954e+06 -1.24301e+06 -1.97342e+06 347164 -9963.12 4.44761e+06 -1.08208e+06 -789610 1.30705e+06 728889 -673895 582605 -772295 195935 -125211 -2.56368e+06 629695 3.30204e+06 -788443 -1.06408e+06 -264390 -1.83736e+06 725070 233034 327656 1.48941e+06 1.22178e+06 685898 29286 852403 1.36639e+06 340193 1.55359e+06 -332872 217007 202098 484278 17588.2 1.05022e+06 60735.3 132608 378476 -345356 -636720 -750534 -411271 606095 743667 251411 1.04065e+06 -235532 158659 -18737.9 -434301 -121800 -1.26419e+06 -422061 898226 392742 69481.9 270945 640209 483887 -132587 -231483 32161.3 -356863 -266195 465542 632531 -2062.19 209285 -605688 430995 -394900 117236 -226301 443381 1.38506e+06 420016 -716833 250161 -504190 -546736 -188900 184840 -466856 266496 -32412.9 -155353 -44623.8 36905.8 84108.6 205282 -136170 -190210 -15004 -55631.1 
-1.19576e+07 -3.32111e+07 -7.41116e+06 -3.88146e+06 758393 -1.03708e+07 -2.51274e+06 2.55551e+06 -1.78336e+06 -3.08638e+06 4.53941e+06 335070 3.473e+06 4.2969e+06 1.89429e+06 -3.16699e+06 -896431 -1.15185e+06 2.24102e+06 334145 -388900 -70113.6 860237 1.15626e+06 -840661 662297 164417 952731 1.01721e+06 -1.62193e+06 1.65372e+06 1.2089e+06 -869513 -1.82347e+06 1.33022e+06 1.88198e+06 -301946 -1.26857e+06 597326 -636358 826279 1.53112e+06 -92053.3 461615 -455516 -435411 -837885 197899 195309 1.38746e+06 -385110 -471816 467179 85745.5 173846 456408 -806947 -1.25194e+06 -179687 379518 394332 575031 -636271 519227 -435871 -349613 135274 -877967 133970 -463969 -705498 -808982 -70643.7 -127294 79994.9 -400010 240972 53900.7 -213589 -61127.4 -105731 -880247 -798004 529727 54390.7 -122892 -222462 -20629.2 251136 -176043 29689.1 -74314.6 122540 -435610 -485703 800227 298662 790882 629215 570483 -844726 -190065 -174883 176509 21327.2 11227.4 84292.4 181783 60246.1 
-1.65985e+07 -664856 -2.56495e+07 3.28306e+06 -5.40123e+06 -7.8501e+06 7.86549e+06 -4.36063e+06 3.54804e+06 1.5259e+06 -6.19119e+06 4.11125e+06 -3.70008e+06 2.23551e+06 -4.94423e+06 2.04482e+06 -1.18358e+06 589707 2.35944e+06 1.44483e+06 -9850.57 -1.66903e+06 3.10626e+06 -5361.1 -419972 662193 -2.36626e+06 395799 -156181 180911 -2.70509e+06 678022 2.77446e+06 237249 1.94064e+06 -220216 2.1374e+06 -1.52111e+06 -657267 805342 -952508 -64516.2 -1.50679e+06 449837 -1.98575e+06 -434945 2.41024e+06 1.02307e+06 -1.04801e+06 1.42386e+06 434518 986847 -1.80383e+06 1.11526e+06 462365 928861 -551771 -682237 401342 -264375 480336 -1.11774e+06 222513 206593 -809327 896464 -627576 -426646 -966172 -104495 553044 -403628 -270178 254925 -491838 -165002 -143062 -262941 -534089 -169980 694235 -456681 279253 408242 -40983 280687 -74524.8 54660.3 -72976.4 -80575.2 64347.3 184014 93121.7 12347.7 85748 56327.5 57651.8 -153243 -138649 8965.6 7069.96 -109594 -7937.46 -37060.5 -75822.3 15726 35612.9 -12834.5 -19520.8 
-2.33399e+07 -2.80597e+07 -6.65214e+06 -1.61886e+06 -1.43459e+07 6.59832e+06 -7.17568e+06 230280 -640432 -914925 2.45737e+06 -2.3054e+06 -2.65834e+06 83209.8 3.06602e+06 -4.05606e+06 -3.15156e+06 -1.29719e+06 -1.2206e+06 927072 -1.73811e+06 1.38829e+06 805178 172251 989207 -30208.1 1.73663e+06 -486185 44951.9 -2.39925e+06 -558975 1.68575e+06 702054 1.0766e+06 383424 -645078 -716102 945203 1.77844e+06 -160734 -1.15917e+06 -426842 47323.8 387969 207656 96145.7 564341 -206367 736572 -949676 -239141 -118250 -469793 670326 430004 -1.23189e+06 591278 119572 -839083 -862634 1.05663e+06 -603583 174867 76612.9 -177333 1.00745e+06 559850 -25089.2 -272367 132671 660405 -253720 104008 -813230 -6225.21 282734 149378 212801 -78266.1 -539354 236239 -949529 -1.14047e+06 328167 250759 18407.7 -101640 384898 -249855 142223 748369 -375379 -270816 802064 -396861 -28388.3 67065.3 204300 181337 -988930 205297 293438 -268096 361801 256166 -18587.4 -59401.3 -62970.2 80961.3 
-1.82083e+06 -1.9517e+07 2.75611e+07 1.00526e+07 -1.00264e+07 2.58812e+06 -1.34983e+07 1.11286e+06 -2.6881e+06 476753 109748 1.82236e+06 -1.97717e+06 -4.92458e+06 -3.62143e+06 -191581 -2.06028e+06 -2.61257e+06 75179.8 -23310.9 466792 -602100 -1.90819e+06 2.16136e+06 -460042 534474 1.87554e+06 488518 -509740 447810 1.70318e+06 -195333 -474656 720485 -644956 2.76286e+06 2.32722e+06 1.20313e+06 -23608.7 411784 -1.13622e+06 -1.51538e+06 -164829 910845 -338737 -3.16259e+06 284102 259832 -1.56655e+06 120453 -681314 -758208 585293 914439 317697 1.65423e+06 -1.40841e+06 -794169 -142878 -601071 -643827 -409926 -19319.8 818369 273225 -523923 -366061 643993 666423 -390529 -1.21147e+06 247577 -108937 -385289 398126 328583 -832936 -760058 -396309 -508764 78091.1 45182.4 81361.5 -312207 292141 -56209.5 -36426.8 -84234.2 -25104 234008 -366000 95766.1 -233475 274294 -60072.1 -348122 -22689.2 229743 196033 -181659 334326 205797 -148431 -87509.8 -28399.7 -26702.4 -44681.3 -41813.9 -5303.3 
-1.55942e+07 -2.46819e+07 -2.44222e+07 8.35539e+06 -7.69361e+06 -1.02502e+06 4.88686e+06 -4.05214e+06 -1.43083e+06 1.96719e+06 -212550 296442 -3.50002e+06 -291818 3.88151e+06 3.39024e+06 2.59719e+06 -1.05169e+06 -311280 -1.5385e+06 -128532 -313910 -1.32419e+06 -1.84654e+06 -2.1399e+06 182027 -825851 2.40823e+06 211898 2.19843e+06 -727041 -121182 -950793 917372 -848694 1.08027e+06 904327 -1.69066e+06 694056 467273 977978 83552.8 460545 113717 671907 -420824 -940584 -9271.12 477924 -29578.6 64775.2 211301 75967.3 710550 975670 78522.7 -62149.7 392575 65092.7 710180 -237466 43492.4 -580009 -250715 -591591 479647 653586 188153 479094 802435 38280.8 -218738 28512.9 -59336.3 265538 233961 7473.01 -234277 176228 9886.98 -233848 -404303 18320.7 26685.5 -755953 51161.8 545383 358646 -428212 -639964 123748 192176 365351 -596715 159101 -69023.5 579401 309140 -38522.6 -391874 35291.1 106846 -323204 -111221 -324153 -415414 -952952 -516862 -102258 
-1.76438e+07 -2.63517e+07 -1.98508e+07 4.46046e+06 -5.07551e+06 -1.58619e+06 6.15517e+06 -2.79701e+06 -4.12908e+06 1.47321e+06 1.0016e+06 -641517 -2.73974e+06 -434195 3.93506e+06 1.95016e+06 1.11991e+06 -2.1908e+06 -1.18263e+06 -276590 -1.32361e+06 35549.9 -2.36804e+06 -922627 -1.00512e+06 331170 -772773 1.29796e+06 576019 1.86493e+06 -922700 -54156.5 -973463 1.12191e+06 -963854 922608 1.26355e+06 -1.43346e+06 976854 369223 215238 -157418 267063 374468 563832 -313969 -777255 170590 6394.09 -350022 8106.24 421391 2330.81 459231 1.12369e+06 143729 -153620 316109 357092 383080 -147056 -405966 -228111 -339040 -477348 549612 92786.4 -142873 310375 710034 1326.3 -91734.4 -203150 -96041.9 304896 373927 310504 -301868 296987 324491 -407613 -139409 61624.5 -369239 -651601 -16738.9 193679 254706 -222397 4856.72 -235313 -19512.4 497874 -42190.3 332805 -185197 320190 -30997.8 136424 -176967 128942 -44936.8 194749 166991 544571 473895 1.22293e+06 535961 135853 
-2.87478e+07 129949 -2.68175e+07 3.50601e+06 -9.43161e+06 518597 3.78778e+06 -984901 6.55205e+06 5.85716e+06 1.04692e+06 -1.59671e+06 -558354 198921 -1.11201e+06 -806644 2.52119e+06 -779376 -690686 1.06669e+06 1.78546e+06 -193824 1.07939e+06 1.69491e+06 -310143 -2.89595e+06 1.6182e+06 997362 769068 905267 67554 -826709 1.08798e+06 -1.30857e+06 1.53763e+06 -891186 -1.72093e+06 129060 1.94414e+06 1.38784e+06 29808.6 348269 1.16364e+06 -23246.9 -1.463e+06 300529 44897.6 77726.9 -639589 -875547 -623838 -238440 1.01067e+06 878049 523938 -783174 -151996 1.07084e+06 303859 -225416 1.27368e+06 786462 -99111.3 505192 525348 -203810 507875 -820075 -200598 -901529 -305726 871249 153624 382451 741252 -120170 -1.49294e+06 523802 -341348 -207954 -164220 530467 153579 911977 -166413 800466 -185888 -126264 153651 88513.5 52579.1 394050 389552 -626052 -161227 -218968 424313 266486 -57360.3 -48059.5 469447 373609 193115 -124142 -172338 107847 129711 169754 -9398.55 
-7.91388e+06 -2.58369e+07 -1.0743e+07 -3.98415e+06 4.65124e+06 -8.67808e+06 5.03537e+06 1.49258e+06 -6.15907e+06 -2.03858e+06 1.21832e+06 2.42634e+06 1.64594e+06 470205 214267 1.38889e+06 1.66776e+06 -493453 2.28432e+06 2.48525e+06 993904 739124 -704618 873547 -317823 -132400 279411 583642 345640 -239318 1.27726e+06 -1.93272e+06 -936350 -936364 -465023 -64332.9 1.01921e+06 51103.8 272559 323681 -37316.2 225595 -325888 209946 -156336 -188217 -13152.1 423344 -469981 -913386 593066 -434208 368759 -573414 -103764 1.21259e+06 1.04878e+06 -475455 729800 917909 849468 -415640 41134.8 395900 146078 29050 749378 461773 588965 -736014 115642 -889634 418736 -393479 421365 -76335.8 -785004 680864 -113946 569332 143088 -127283 -358921 337717 106334 -472477 -191889 420612 969152 -397981 -266250 -325280 72189.2 513450 53751.4 682196 432259 -1.33914e+06 -559658 -278545 455697 -272363 313035 222358 182330 -114300 -132105 -55706.8 -46112.9 
-3.64695e+06 -2.41332e+07 -1.4079e+07 324834 5.86635e+06 -8.29815e+06 7.54716e+06 -1.79951e+06 -6.01406e+06 -1.30555e+06 -1.63454e+06 4.90273e+06 -321497 -2.34062e+06 -81356.7 3.25213e+06 1.36231e+06 2.32667e+06 724940 892098 347478 717343 -508225 6655.98 -89103 -1.17662e+06 482729 776659 1.12596e+06 -516041 -430767 -1.4255e+06 -94762.8 1.85762e+06 -2.5227e+06 -1.69454e+06 235883 1.32228e+06 -643964 512090 225497 -861682 808205 528738 -487966 -555544 797904 -667085 27392.5 -258287 137962 -421539 1.09715e+06 -254490 -168750 1.01556e+06 -685387 196322 -832692 501748 1.68136e+06 258640 693636 406079 -172118 780810 21005 328282 126447 -210936 117527 -895372 -256548 -455183 -319863 696226 1.1537e+06 30295.3 429352 521708 -60863 645831 64650.9 235959 285969 616032 -258973 356422 92617.6 -16408.1 254008 -493216 582197 185600 -703023 -299473 -738985 729917 -193989 499632 -137803 519789 137110 -233247 -220844 -52985.4 16128.3 37358.1 7126.62 
1.50859e+06 -2.62677e+07 -9.72336e+06 -1.01384e+06 6.71553e+06 -7.58526e+06 1.61933e+06 6.16604e+06 -787732 -1.74811e+06 4.50598e+06 6.5453e+06 4.65529e+06 7.88529e+06 -82063.7 3.79404e+06 3.42458e+06 369543 2.05731e+06 -375863 -964362 -1.5374e+06 -681848 -494252 1.28117e+06 269745 -1.45651e+06 -77026.2 1.50837e+06 916885 1.36545e+06 1.53267e+06 -607338 3.11496e+06 245004 1.47384e+06 18200.4 894797 -1.413e+06 175782 -2.25595e+06 -668177 -301149 783454 -842250 -476327 995316 -87156.8 2.0193e+06 -305391 -942422 19496.6 -1.30984e+06 -676305 -551930 -1.51884e+06 -735953 728063 -95786.8 -1.13699e+06 9505.09 843236 122809 455269 1.64404e+06 858585 406271 58604.9 110045 928636 -168346 798607 256027 194192 124519 806318 -661391 -89423.2 -15492.6 1249.97 440288 573750 4687.32 -94069.4 91511.7 -264661 -190946 -151689 -157730 -215395 -330114 40490.4 185557 -1725.58 -11392.8 601003 239292 -3557.99 -38584.3 -13101.6 -202159 -91042.3 -41911.8 4198.16 44181.9 20545.8 -21698.8 11655.9 -2882.12 
-5.92283e+07 -8.02509e+06 -1.10273e+07 1.55183e+07 -2.48302e+06 2.21627e+07 -8.34312e+06 2.53469e+06 -2.8604e+06 -1.5558e+06 -4.70856e+06 533816 851077 -741227 -2.09209e+06 1.18947e+06 5.56732e+06 3.00361e+06 759134 -75708.2 803899 3.71898e+06 1.53824e+06 1.68356e+06 -340092 -1.77642e+06 53250.9 -2.7765e+06 1.79425e+06 -2.27989e+06 879477 266243 199729 -81782.9 729731 1.47668e+06 -557015 -650957 -1.25268e+06 626815 -685195 -813268 -488765 -1.43256e+06 -1.40429e+06 1.32318e+06 150290 -776303 689584 -1.26157e+06 442303 757086 -322120 -616061 325241 1.10718e+06 -332520 -1.75304e+06 248894 498461 -1.39702e+06 952431 1.45636e+06 95010.8 -855424 622855 -249086 10525.6 250112 430134 336196 269033 145193 -464692 645095 154792 -111138 421419 204790 443648 -365776 951.949 97055.3 603791 -379874 -322114 236822 123374 296178 -164253 138388 246470 114565 -91220.2 274292 16205.9 -202712 380868 353412 -79642.7 158401 -54685.6 35514.7 52402.9 38469.6 -25139.7 19249 28580.1 40797.1 
859377 -3.74825e+07 -7.50334e+06 3.07252e+06 7.85375e+06 -5.92189e+06 4.64744e+06 2.07218e+06 -6.59201e+06 -471228 5.28861e+06 1.97542e+06 2.88375e+06 2.34075e+06 3.11937e+06 1.76984e+06 1.42271e+06 320087 1.54283e+06 -272045 3.17955e+06 -1.65358e+06 139485 -970383 1.63192e+06 1.26416e+06 1.76371e+06 -760757 705151 619624 863852 -580263 -6437.33 175596 -84700.1 564342 -567316 -383307 -434424 343784 -1.46165e+06 825718 144252 462626 260171 -818899 -224128 457876 195669 -828038 -908523 22221.7 -431240 -542043 -998775 833990 207953 334380 -778664 -80687.9 -545177 -1.51831e+06 368962 1593.05 -113842 -886882 -279836 -325931 609468 -171813 1.03314e+06 1.10787e+06 1.31417e+06 328664 -825861 -1.56579e+06 618838 181876 -209107 -607053 -399613 -660291 377656 972593 -605076 360415 843476 -36208.7 158479 112648 -53152.2 -162552 -214726 -87508 -103799 -501794 -325574 -9884.93 -6345.22 13808 203839 317426 -230038 -508.053 -26579.7 7886.39 92759.5 9419.43 -5411.25 
-1.98607e+07 -1.57386e+07 -2.69402e+07 9.84222e+06 -5.05597e+06 4.63844e+06 5.2655e+06 -7.87535e+06 2.8066e+06 1.73407e+06 -4.73136e+06 2.09604e+06 -2.60173e+06 2.64345e+06 1.24533e+06 -698333 2.33079e+06 1.98987e+06 -426812 -1.92992e+06 -1.65442e+06 -1.29183e+06 1.77417e+06 -1.70023e+06 -1.37405e+06 -515045 1.3229e+06 -920661 1.01603e+06 1.338e+06 -1.41904e+06 -915403 1.59855e+06 134645 -511956 1.07249e+06 -1.82829e+06 -621883 525807 -1.43541e+06 492136 435272 407684 -1.43317e+06 -987346 -229019 -802676 358382 -719648 -485797 -1.0702e+06 -302045 -209227 522023 -145670 -427254 -918729 -1.1761e+06 -845868 426147 -72274.8 823974 -1.1826e+06 -707265 -82295.6 -533189 812398 1.58088e+06 673057 -160169 -163407 486899 544465 476512 -53316.4 663167 355939 -22610.4 -527354 495264 1.05624e+06 -499125 -155461 21637.3 912418 -96186.8 584423 -334139 -136783 -94764.8 39819.2 -46574.1 -811255 254279 -309513 -39385.8 -171855 -150721 -594840 269704 -106240 -51102 220341 -180917 212931 -19232.4 104072 102443 -2486.76 
-1.61328e+07 -3.18156e+06 -3.36894e+07 1.27383e+07 -1.99886e+06 2.86434e+06 5.37259e+06 -1.43747e+06 3.66856e+06 4.92314e+06 -655471 -1.36126e+06 1.73636e+06 4.63452e+06 -1.05384e+06 -4.05638e+06 662977 -1.31456e+06 3.4562e+06 918055 2.70372e+06 389013 1.07067e+06 1.1057e+06 660861 -321774 409580 -570348 -11868.2 1.43144e+06 355157 -19582.7 205935 464607 -1.09577e+06 -718732 -2.39649e+06 804435 -1.42792e+06 -197195 -386082 -579007 14968.6 -523414 274629 740774 -391579 956721 -1.36718e+06 901201 -412655 -361190 -396705 -334088 -284799 124872 -190259 555320 50150.6 -10273.9 377349 -797210 -611354 -855903 -376178 -39716.1 -736555 270441 247684 -697748 -105311 -287176 160725 258679 455549 551289 18183.9 850144 614545 -757372 -748562 -602259 1.22491e+06 -901330 182770 -1.15715e+06 -207963 35337.6 -208480 7143.37 -422506 268570 819299 798493 -217439 131358 165664 399024 230934 -150083 -57320.2 119764 -41443.5 325540 -123907 20179.3 -52565.1 -93000.9 4056.74 
-1.79141e+07 -1.47148e+06 -3.09498e+07 2.00438e+07 669054 2.48002e+06 6.88321e+06 -1.82923e+06 563316 1.84109e+06 3.58599e+06 -3.81392e+06 3.61378e+06 3.33561e+06 -2.36101e+06 -2.74966e+06 -1.89039e+06 -1.16035e+06 1.63312e+06 202037 2.27924e+06 1.22751e+06 -820319 177340 1.19678e+06 897836 1.01499e+06 -1.44835e+06 -4.0896e+06 75539 -521210 813541 -732184 2.10696e+06 382856 1.00885e+06 866381 637750 314090 923154 -398950 944622 975160 366217 1.93808e+06 715133 1.36677e+06 473230 -972299 -262218 -482124 42746.4 793875 225671 72768.1 279900 764819 994167 2.52488e+06 -315384 -579084 1.24185e+06 -604405 1.03543e+06 -1.12005e+06 405200 509640 1.17636e+06 -363232 -437422 123670 524981 -439595 -286736 -653131 -383598 189224 235240 -280866 298444 637933 565511 -153654 67997.2 -204618 -340672 231225 313693 31383.1 -290891 308589 -246656 -316720 -94031.9 -127890 50783.7 -299545 48597.2 361431 198153 -248240 29623.3 -56743.1 -210227 44782.8 7782.9 90234.7 -85594.6 -17630.1 
-1.93354e+07 -8.06437e+06 -3.20638e+07 1.52261e+07 -7.28358e+06 5.68278e+06 2.79147e+06 -4.83692e+06 4.55952e+06 -297119 -2.05159e+06 -2.23021e+06 2.64842e+06 2.70691e+06 -1.22136e+06 -4.77214e+06 -696498 329915 2.93302e+06 644882 516522 -151476 612970 397240 -621547 903601 1.01837e+06 444579 -3.35416e+06 -189600 1.73837e+06 258041 -871513 489852 -898783 1.23305e+06 -1.54052e+06 1.14566e+06 -3.86832e+06 107449 177527 -2.50833e+06 1.10338e+06 -310460 2.38537e+06 -164690 -943351 884467 -559528 156681 1.76413e+06 -107732 -283492 887478 -604027 -285677 -434525 -693674 -607330 930758 967887 128276 615464 -365870 544830 -355731 151434 -1.22707e+06 -267434 1.00173e+06 89469.2 -291497 392319 502331 -267672 -148091 -64875.4 -901742 -262144 281575 257468 169047 -640909 193518 -75441.9 822198 -300179 181602 7059.86 201834 -28689.6 -35047.2 -29240.2 -267113 270925 -84864.8 71235.4 -288597 -86904.8 -75719.9 100736 -103841 147737 111752 2426.63 -2585.41 -8099.67 67403.7 -27889.1 
-7.01347e+06 -2.77842e+07 -9.20993e+06 -1.0867e+07 3.80033e+06 -1.14294e+07 -1.87278e+06 7.1302e+06 193558 -2.56449e+06 6.25937e+06 -491823 5.07422e+06 5.75771e+06 -407354 -3.12621e+06 868804 -2.2914e+06 3.33133e+06 671503 -971614 310185 692686 1.45477e+06 -294736 -153693 -809576 460051 1.05437e+06 -1.9862e+06 1.00678e+06 2.01612e+06 -761925 -1.94562e+06 1.67655e+06 786797 -891898 -828112 402656 -406907 847769 1.04071e+06 280760 -521017 -383487 -239411 -118114 -670585 772328 864672 37586.6 -144634 104111 -976920 -691666 559780 -619883 -342190 417510 -170782 31924.2 999895 -431190 -529781 -847153 176662 96183.6 -377477 -486458 -200819 -42777.6 -243379 -1.0792e+06 230802 -146281 849099 551979 -505358 -477155 258797 -76017.4 210255 172123 -648081 -234739 17949.2 449112 100436 -230913 401161 -95877.9 175167 -44637.4 136955 159200 -1.11692e+06 -288101 -413022 -392456 -513612 787387 425909 106913 -328549 -40931.4 20511 -41395.2 -111431 -43100 
-1.64431e+07 -4.04583e+07 3.17098e+06 2.00951e+06 -507782 -5.22879e+06 -961114 -5.79166e+06 -4.98291e+06 -7.76288e+06 -5.72605e+06 -906169 -3.10432e+06 -4.92056e+06 4.31521e+06 -3.21674e+06 -1.02904e+06 2.95299e+06 -268223 3.2239e+06 -1.80567e+06 -2.14125e+06 106464 -805433 2.18219e+06 -691781 1.52199e+06 -423595 162259 -466212 1.8614e+06 -217384 657025 1.33054e+06 -1.03513e+06 -817867 637155 -786573 -390613 119130 1.22166e+06 -7280.18 523139 782321 545357 117197 101490 -673962 556423 577516 1205.33 27107.5 696050 -1.02671e+06 847859 -943298 -919911 323772 -121488 1.92916e+06 -44524.8 674936 267961 790136 -149839 881727 -593024 16072.1 -1.61991e+06 -110018 -664200 280782 129755 612767 16939.5 -186938 102520 557470 -1.06735e+06 -1.04859e+06 -337377 351351 659573 554841 422523 -497085 478670 -264475 -287194 182290 -248117 -25100 -303120 287483 459428 -57873.8 299649 -219142 121477 -83261.9 -76735.6 -287896 68641.3 -2295.5 -28581.9 3811.04 -20132.7 -40668.9 6081.26 
-1.57811e+07 -4.10769e+07 2.05504e+06 2.28772e+06 850143 -5.83024e+06 -1.91339e+06 -3.18498e+06 -5.11446e+06 -7.33038e+06 -5.68025e+06 -2.62376e+06 -2.42974e+06 -4.06639e+06 2.14781e+06 -3.98577e+06 -2.94311e+06 3.25976e+06 1.34038e+06 2.25407e+06 -2.00034e+06 -1.75568e+06 1.93888e+06 1.2074e+06 1.22974e+06 -1.59303e+06 1.27593e+06 -1.48041e+06 746676 -833620 1.6643e+06 996190 568625 -584985 266148 -205183 20310.9 -1.80851e+06 -876621 840854 836694 776517 193580 524693 -97652 -800327 2.13278e+06 -595198 131886 120380 350565 669629 -240719 99089.7 -152962 28702 282262 896564 85550.6 193551 83342 298671 -542545 -1.4974e+06 605610 -1.1678e+06 -246819 605765 234889 176983 490758 765862 -65243 -577504 286518 -980849 -678732 -307642 1.42054e+06 371081 702432 80708.4 -307552 -876287 120159 -263128 -380364 628882 -188422 -374863 -134266 198415 322736 -585570 -261197 -52733.3 -204199 262854 -233686 77.7668 183604 -64673.9 -45336.8 83077.1 94615.9 2504.13 35295.5 -36614.3 5434.94 
-3.01975e+06 -1.25162e+07 -1.9523e+07 -3.0024e+06 -1.30874e+07 3.91389e+06 -1.05054e+07 8.81619e+06 5.1313e+06 -1.42673e+06 -1.73001e+06 -3.3162e+06 6300.4 -1.44758e+06 -3.61229e+06 -1.51723e+06 -4.13251e+06 -2.14483e+06 3.37645e+06 -5.85124e+06 1.73245e+06 -832424 376762 -896471 -5.62183e+06 -818431 -478118 -1.37336e+06 552797 -531634 -1.34156e+06 -1.67174e+06 -668908 -766511 -277948 650352 -70719.7 340516 290840 111992 -411451 -813872 -174472 -448085 -532900 -1.02323e+06 405210 -1.07321e+06 1.34813e+06 2.25452e+06 1.03645e+06 -163727 1.38134e+06 284516 560144 512886 67385.5 1.81553e+06 -742091 -499577 -674818 874122 116082 -341283 1.03842e+06 858983 -109189 396959 107247 -583727 141151 -429440 720942 575279 -613850 -506606 486072 710524 124286 4974.86 68625.5 158178 158532 445087 -379025 -45089.3 181945 137767 -383693 -93628.5 -187188 -127533 12722 -50579.1 21534.4 251616 -226680 -263532 -272897 -97478.4 -47125.1 -158995 40179.4 279106 119038 66145.7 59855.4 23573.4 27148.8 
-2.63212e+07 -2.7692e+07 -1.81926e+07 -2.55181e+06 -3.74791e+06 -1.99676e+06 6.34116e+06 -3.25988e+06 -1.67601e+06 -1.87419e+06 -1.68587e+06 -573281 -3.05974e+06 -484772 1.74374e+06 -2.03516e+06 748521 -369528 -1.405e+06 6158.34 -1.88783e+06 -2.49911e+06 -1.97242e+06 747019 -511827 811608 -1.76633e+06 -1.76426e+06 -2.31849e+06 2.29758e+06 400298 -1.5119e+06 443503 -718410 -58328.5 -348932 -1.02924e+06 -448975 -1.67865e+06 -3.03563e+06 37871.1 347680 -405652 900639 -284864 398873 31770.6 742620 1.51588e+06 241823 1.68223e+06 -411609 229055 12576.3 1.1045e+06 228851 447386 699043 1.23387e+06 -1.69985e+06 -615098 122586 1.07519e+06 -275701 210121 83853.1 -744786 -804699 696310 -514466 136455 -132139 114656 -1.1121e+06 262542 -70147 -409731 -302100 -549510 375376 -755827 -170986 -291609 -80634.2 897054 -289954 464566 -702042 154686 -184819 497420 65517.1 -174659 127287 19265.5 54698.8 96940.8 119440 -179403 208720 -15217.8 618160 30160.4 -412709 -80649.2 49592.6 -17370.3 31421.8 21868.4 
-6.79638e+07 8.65284e+06 5.82112e+06 -5.16459e+06 1.98178e+06 -187617 3.90024e+06 3.93371e+06 7.79606e+06 1.56982e+06 7.10186e+06 -1.98253e+06 -956731 -2.38677e+06 -2.57478e+06 3.20883e+06 2.02264e+06 3.58015e+06 -1.39527e+06 -726763 -2.10444e+06 -2.83758e+06 1.90181e+06 888834 2.29524e+06 643229 3.68349e+06 812571 97817.8 1.13674e+06 1.62134e+06 301872 54049.6 -300832 -540494 -191263 -73265.8 1.51226e+06 1.48743e+06 -72211.1 -104084 -218298 352496 -401927 -114674 446202 -1.08029e+06 480091 420922 790928 847998 510565 692480 -451261 137171 411901 6700.2 800075 -87380.6 424817 -808635 191941 123315 -368651 27004.1 931301 343222 -298282 -383458 -82909.5 469161 208951 28509.5 -1.14735e+06 -698826 194047 -319448 -831405 -428624 841790 380903 -1.35443e+06 1.25502e+06 43375.1 -208638 -96835.7 -1.19006e+06 525800 90614.1 105325 -584299 -149798 -564031 -29210 9631.41 -4047.49 93098.1 224447 -29044.8 81962.8 -64715.3 -42971.3 38423.9 4076.63 16083.9 -51849.9 3568.45 -18457.9 -25871.2 
-2.66726e+07 -1.91621e+07 -2.36766e+07 -8.33434e+06 -8.92927e+06 -2.06626e+06 3.05535e+06 -327871 -515821 -12545.5 -1.41932e+06 -3.75298e+06 -1.94664e+06 1.58781e+06 1.70017e+06 629935 -2.737e+06 -2.32785e+06 1.45731e+06 -1.54706e+06 -2.35891e+06 262461 -612502 -1.35321e+06 -1.47162e+06 521063 -2.38287e+06 -997447 -150648 71752.8 -2.24361e+06 -244036 -170198 -533230 -126517 -588866 363951 -761145 470336 143884 -486526 -786320 432628 -692449 -202930 117740 -229480 12786.4 186533 -14831.7 -153154 887841 499295 -750338 -372286 -891723 460237 -21277.5 -122167 749234 151999 -382859 303764 93881.8 475140 -392435 638337 845309 107287 822568 115542 -384844 -169364 373082 -240924 63472.7 -66415.7 -597530 39021 -1.09188e+06 -153235 47061.4 95967.1 149052 382174 -590729 -829777 134073 1.60641e+06 218863 -437861 633988 -487698 -311516 37435.7 214637 -634992 97170.4 914450 93656.1 501366 421970 -45145 -377636 -191438 -27443.7 67057.7 -58682.8 17768.7 
-3.03309e+07 -2.29981e+07 -1.5744e+07 -1.16368e+06 -594696 -3.73742e+06 9.61957e+06 -5.90868e+06 -1.64907e+06 -804867 -414690 -227077 -3.02493e+06 1.11371e+06 698498 -2.6437e+06 -1.06567e+06 334179 -1.77243e+06 -1.06049e+06 -3.51506e+06 -2.19177e+06 -643876 341631 149334 -237373 980817 -3.04616e+06 -455719 930544 -867582 -1.92893e+06 822303 -539103 -818368 -470569 -1.80124e+06 1.0128e+06 630838 -2.32168e+06 -1.09798e+06 605353 -668531 -431492 -1.28433e+06 -235392 -2467.64 273625 -24237.8 -516409 51272.2 -233296 -117974 95239.5 -797745 265039 -110581 -760737 -466663 -925708 -94510.2 71458.4 -192647 1.07865e+06 422192 -435428 -403326 353496 -131154 -335300 -429917 20310 -996734 -443937 -191815 94702.1 612337 82665.5 656584 643014 169049 782655 283724 155558 -752850 507526 32028.6 345798 248602 603920 -248683 -90285 340552 -299714 378164 -434112 407832 -519948 893564 -377676 -333962 -526383 -303989 457235 -77967.6 -8863.21 -191684 -84320.6 17567.9 
-2.97164e+07 -6.7172e+06 -2.44972e+07 -9.88851e+06 -1.02551e+07 -2.65361e+06 2.77869e+06 -2.67493e+06 5.75576e+06 1.58838e+06 2.18891e+06 216140 640006 -2.53135e+06 -1.57151e+06 1.25321e+06 2.17301e+06 -1.15008e+06 -1.92795e+06 1.61695e+06 -178586 1.42181e+06 -1.55947e+06 736962 -1.74135e+06 -121279 -1.76749e+06 477107 -1.67994e+06 2.1018e+06 1.14639e+06 1.4627e+06 91096.2 -730361 1.75304e+06 -1.56803e+06 323498 -734494 -355385 1.29394e+06 205606 -819145 -56916.9 225726 -38319.3 -148962 321695 -516149 -128114 -1.29487e+06 -192795 -424614 198400 -485797 -526223 533066 -26648 -234118 -639675 -135537 550848 265198 -113352 -435535 284947 -296324 -478381 -134621 -157739 -349686 28882.8 241516 -395019 114912 -385879 -96992.4 258602 302256 153024 -2751.67 -269171 135448 163643 98386.6 63925 59725.6 -131444 -313771 -152842 225588 -264104 -210927 -218162 158767 546875 182253 -138649 355158 104448 399631 -68670.5 27535.8 -256511 -70367.3 1.48782e+06 -196137 -266194 -400536 -153091 
-2.52994e+07 -1.02527e+07 -2.49584e+07 -6.54628e+06 -1.10899e+07 -118241 1.37739e+06 -621434 2.28498e+06 1.40373e+06 2.3482e+06 -2.10684e+06 -1.06253e+06 -2.29604e+06 -353375 1.55923e+06 2.07586e+06 -1.90702e+06 -1.16736e+06 1.24458e+06 -145474 1.1572e+06 -1.38173e+06 707814 -2.11151e+06 -168999 -1.90937e+06 1.14182e+06 -1.72498e+06 1.74692e+06 321322 1.40301e+06 -588075 -435596 1.75574e+06 -609439 891808 -1.16115e+06 198326 1.68252e+06 175291 -627701 575603 156891 -83096.4 -260180 55736.2 -261224 167865 -1.30912e+06 -396554 -140880 788006 -486516 -421636 -409749 -28122 -40604.7 -316441 -148720 268761 542504 573009 -423330 30745.4 -60253.6 -79059 -451540 300392 -122193 80108.1 776297 -272987 -481319 -53877.2 -86757.1 215417 -389150 -190540 -58280.6 -43915.2 -240324 -135327 -6320.71 335927 -376008 -72965.6 -287028 154918 -274662 5321.79 326302 29222.3 664084 -282703 -727640 -592794 -404074 -369700 259166 -546797 -944142 -405494 765538 -838270 60375.3 62323.5 100479 80387.8 
-2.84123e+07 1.24303e+06 -1.86783e+07 -1.17594e+07 -1.01094e+07 -4.50163e+06 2.91243e+06 -1.13028e+06 7.5401e+06 1.4906e+06 4.73939e+06 768444 -245669 -2.95028e+06 -2.44588e+06 1.65397e+06 1.57249e+06 337782 -1.50622e+06 1.12491e+06 353242 1.38842e+06 -1.02978e+06 1.23206e+06 -1.12366e+06 243210 -737073 1.50178e+06 -1.33082e+06 1.53396e+06 1.69902e+06 1.37495e+06 -284319 99542 806790 -843429 308333 -189288 -511864 118113 169215 -232059 -559221 -3175.61 200825 -312187 583928 -762559 206576 -306851 -66888.8 -413365 -354405 -313935 -558263 597497 58754.2 -827746 -1.0485e+06 403564 -127773 321210 -635578 -236746 103293 -44983.3 -763296 777268 -351775 27689.7 290558 5413.45 266648 105782 -348946 -446742 213799 690086 743644 313871 95183.1 58745.5 110217 -612332 32298.6 9206.08 295628 -405588 -248842 267199 500485 -923836 -741175 -264088 202436 803135 566715 170727 528941 -502193 420631 231462 473654 -240206 -825883 79832.4 129739 325527 98100.6 
-2.16193e+07 2.14459e+07 -1.32138e+07 -1.27488e+07 -1.06865e+07 -4.09672e+06 -184639 -592099 1.42827e+07 -4.75674e+06 5.66892e+06 2.57668e+06 -1.42097e+06 -2.81553e+06 3.97894e+06 815975 472147 3.10186e+06 -472941 -75604.4 2.40811e+06 324912 -1.45184e+06 963827 1.60073e+06 381939 -1.14745e+06 817963 993285 -1.3022e+06 -672205 116330 -685849 134599 -1.79127e+06 283385 -226742 -136743 -670271 -1.71688e+06 341768 793056 -676997 -100550 705939 -170457 1.31855e+06 -189881 -651841 -55066.9 147496 961561 59387.2 450497 -801340 -534985 455834 115994 368900 -792571 465541 340487 655709 78217.1 -663547 -215742 -532059 310447 761389 -107420 -748477 89815.2 443627 225053 2.18444e+06 -504601 1.35698e+06 -105475 -540549 -191859 752500 -54175.8 -200787 567299 -685757 -170415 -782743 120912 -457313 -191868 -580032 217631 -197041 192332 300172 15734 -65047.4 -44682 -62514.2 71623.5 124245 134929 31154.6 -93178.1 -45308.5 82964.6 -37413.6 -4388.97 3312.35 
-9.95037e+06 2.56118e+07 -1.37035e+07 -8.15812e+06 -1.30897e+07 -1.43676e+06 -3.88583e+06 254892 1.29173e+07 -7.08819e+06 3.51789e+06 2.63134e+06 -1.53008e+06 -1.29562e+06 6.91501e+06 -484755 -224716 3.08887e+06 1.36279e+06 434127 3.76601e+06 1.09358e+06 -824360 -463283 2.18069e+06 -284019 -2.52897e+06 883123 2.49254e+06 -2.37132e+06 -2.70603e+06 -661807 633510 -628422 -1.91861e+06 614747 -177896 -228186 -1.18735e+06 232523 96533.4 998102 -77870.4 -678768 1.11566e+06 -487434 1.02191e+06 372942 -914460 -220490 -93540.3 54212.7 711463 279500 385307 -520573 -1.39382e+06 -755314 483712 -155733 -149769 -149051 -82002.6 1.00914e+06 1.07686e+06 -212998 956237 -385204 -105681 119317 58683.3 195306 -321968 -633989 -1.54937e+06 -1261.29 -869024 532241 317004 736748 -1.09917e+06 -455577 217583 -585205 324255 99401.7 526822 171251 -80847.4 36451.4 -30559.4 102782 -110710 47413.9 183380 -25593.9 -186686 -73038 42797.7 67358 31013.3 -40504.3 -113555 88325.7 5928.1 20870.3 34106.5 -65622.7 -30197.9 
-2.8125e+07 1.41702e+07 -1.20717e+07 -1.18032e+07 -9.96578e+06 -5.3703e+06 1.86326e+06 -105951 1.18978e+07 1.00752e+06 5.98594e+06 2.74679e+06 -752932 -2.63946e+06 -1.45124e+06 1.18676e+06 1.27024e+06 3.17012e+06 -1.25741e+06 83350.6 681319 238282 113420 1.57779e+06 1.28588e+06 55953.9 2.18563e+06 1.37084e+06 -686045 145409 1.70541e+06 352212 -528922 761246 -173422 503880 -569066 419044 -1.03202e+06 -1.83084e+06 550424 495311 -141614 154200 301750 370002 929694 -918036 98703.4 709971 -668440 -492334 -1.2649e+06 510736 949681 730448 1.00849e+06 293995 -816195 263445 -1.53917e+06 -330082 -180934 -317078 -474667 373133 921279 330460 -442513 293109 -207240 -982599 408767 201781 207784 382188 -486083 -171778 528276 -1.03924e+06 -117884 623973 8082.67 200378 229554 -239258 454580 -217359 932741 400112 672161 140149 444552 -662732 -605382 -487544 -273378 -355933 -284083 17671.9 -250356 -264543 -294661 69806.1 273492 34649 84762.3 15840.6 -10910.1 
2.22119e+07 -2.96302e+07 -7.05935e+06 5.39402e+06 3.23345e+06 -5.41505e+06 -6.89949e+06 7.24178e+06 -3.13809e+06 -773973 -2.87013e+06 5.58188e+06 4.95098e+06 -611249 -2.60444e+06 781226 -463078 3.50675e+06 -1.65663e+06 -3.52685e+06 1.30835e+06 3.79252e+06 1.31309e+06 1.57905e+06 -676360 -48255.6 -1.81394e+06 1.29887e+06 -1.50229e+06 1.89937e+06 -1.20782e+06 838366 333030 -221463 -992682 750621 -1.12742e+06 2.24659e+06 3.89264e+06 -2.56762e+06 -1.21927e+06 -171196 -349675 1.35693e+06 1.69779e+06 1.17662e+06 1.76562e+06 -569403 14659.1 -340737 732154 -42584 -401246 -470795 1.76784e+06 -539761 -16823.4 -1.2434e+06 528418 1.34202e+06 383835 431161 -376385 -367608 604091 -1.03974e+06 -958120 -89861.3 356377 353847 530309 -106566 -553191 412106 -171983 -372953 -265442 -300415 -38199.3 -201020 -76243.2 -98553.7 497879 314734 130688 141928 -84577.6 -15443.4 -161418 -155102 -185800 71039.8 48800.9 93571.8 -96650 -176588 57625.9 -22352.3 -133516 1929.5 -11224.3 33964.1 -115864 76541.2 -3126.45 7310.01 -16630.9 38132.3 24973.5 
1.91803e+07 -3.46295e+07 3.73608e+06 6.21848e+06 6.9909e+06 -2.97609e+06 -3.70816e+06 1.85029e+06 -5.06249e+06 -3.37459e+06 205221 1.17815e+06 3.49999e+06 -6.19968e+06 2.38948e+06 -973436 550617 4.2148e+06 -1.79062e+06 -2.34759e+06 5.8009e+06 -1.09214e+06 925353 297660 -804272 3.27563e+06 -844498 -959827 -244248 747749 -1.55242e+06 535842 -478801 550123 1.79165e+06 -1.4297e+06 476806 463207 268757 -199351 -579133 472465 1.76596e+06 -2.23225e+06 62522.7 -345545 -688529 1.05772e+06 366154 -172248 -487134 438877 607112 1.41751e+06 39012 -418974 -373389 -612208 -427054 -1.23935e+06 -969421 422367 -112577 -891716 -862138 568355 24462.3 -383504 -773706 65787.9 -643873 763522 -579908 230130 204856 -192039 291954 -86318 258060 -537341 -225508 -126614 -59786.7 -363194 624783 533747 -472650 212085 753837 -4329.15 -119962 -697841 710683 102907 170930 480272 90050.1 -281672 -217570 -51836.6 101121 -18209.2 199480 -124469 -23160.4 -34881.7 -59052.4 -45154 -60685.1 
-6.83705e+07 4.17855e+06 4.35299e+06 -4.52857e+06 -946320 32889.4 3.85571e+06 3.6738e+06 6.76206e+06 3.37552e+06 4.56727e+06 -1.41915e+06 -1.57744e+06 -1.74149e+06 -3.73929e+06 3.50838e+06 1.74673e+06 3.82672e+06 -732799 -714556 -2.4315e+06 -2.7932e+06 1.92862e+06 -29111.1 2.46128e+06 477561 3.71977e+06 261804 -402253 494783 954800 860035 926113 -805682 -76729.7 137522 538370 904762 1.87878e+06 639454 -941600 -1.08745e+06 144497 -1.04318e+06 -713221 -194971 -727420 1.20716e+06 1.26903e+06 1.01388e+06 849470 1.20913e+06 1.2922e+06 446566 -568385 -125636 -774381 -478864 1.1219e+06 272616 574328 -832874 190867 420573 -21754.7 -546187 -356852 6180.38 639338 867541 131692 -229660 -631301 804373 -166528 -435415 474454 836827 42755.1 -357310 -478889 746051 -1.27521e+06 -721801 120794 -324996 746512 -238574 -232702 -654278 45958.3 285624 274182 209281 -76118.5 206298 -281641 -105655 -2864.01 42719.2 95232.6 -3053.54 -18363.4 27930.6 68630.9 58991 -15842.2 -54742.4 -9779.77 
1.71856e+07 -3.76611e+07 5.72572e+06 4.02101e+06 5.71311e+06 -6.79207e+06 -2.19318e+06 1.28552e+06 -4.36541e+06 -4.80824e+06 830703 2.46092e+06 3.26311e+06 -4.91765e+06 -648203 -568779 1.65943e+06 2.76291e+06 200388 -878410 4.31626e+06 -848004 1.56806e+06 -116254 -1.31094e+06 2.37777e+06 -1.15216e+06 -1.08229e+06 566137 532032 -1.21966e+06 -994072 577009 962409 645492 -2.21733e+06 494485 1.39996e+06 -150811 572110 -530464 623512 644673 -1.90829e+06 143080 -19853.4 -506139 820401 -116688 -357754 -552703 -70018.4 619384 -315740 -1.16809e+06 478271 1.33478e+06 -37593.4 82013.1 438578 615555 -388633 -296507 -220032 382202 630072 -19601.9 -73343.1 -134137 -14243.3 140082 -1.37307e+06 444754 -266535 481675 316800 -1.02935e+06 -248826 -187922 355953 202758 209287 -454173 -319304 -546484 -490559 109448 -716259 -960709 401269 315723 1.01364e+06 -791742 -377676 -3779.55 -365177 46680.2 219359 347362 -28113.7 -179143 -185343 -186730 25063.7 55110.7 87136.7 64817.4 54463.7 39999.4 
-7.03024e+07 -1.34289e+07 -1.54829e+06 -5.71292e+06 4.93206e+06 2.52757e+06 -904292 -463148 -2.90401e+06 6.46502e+06 -965441 447984 984487 429928 266255 5.09584e+06 -4.38729e+06 -728972 48382.4 -136837 445400 3.03344e+06 133537 -1.77394e+06 2.26718e+06 -1.09886e+06 1.47819e+06 -432707 2.41448e+06 -1.20418e+06 -1.85458e+06 849506 1.21636e+06 -290378 -1.00403e+06 -576959 -994639 311004 -1.09984e+06 640032 -215279 -353276 244916 184469 -456899 -231099 -79858.7 46118.9 -356883 607415 210656 -1.32867e+06 -439756 473441 408543 697785 230149 371563 516070 -398131 694972 217371 2571.53 -1.80268e+06 -408930 -329667 1.02895e+06 99145.5 134321 -86326.5 260036 254355 -1.09653e+06 -376341 427803 -434225 -133411 -1.20577e+06 -396415 -378472 -1.22207e+06 744922 -81855.2 518691 -180850 -342084 288912 -402751 -543739 473396 -535480 -701520 -491290 -169146 -61105.4 618640 -42981.4 -232577 82280 -78213.1 -230380 -365128 57473.9 -64890.6 -118395 61946.5 -55709.8 -23354.6 -4559.58 
-7.3278e+07 -1.18967e+07 616380 -7.94984e+06 6.36527e+06 2.19021e+06 -1.31702e+06 -4137.22 -2.65885e+06 5.67864e+06 3.7817e+06 -2.72485e+06 245634 -842929 -330192 2.48519e+06 -5.915e+06 -1.19704e+06 -1.98139e+06 -701356 -870675 1.91449e+06 -1.06466e+06 -2.09456e+06 1.29097e+06 1.04297e+06 -906792 146366 1.737e+06 -921937 -2.27163e+06 625131 -1.30167e+06 779379 -1.23272e+06 -508845 -990928 993958 -514412 490889 122330 574626 141391 262559 520740 -196841 -377581 -60515.3 308957 1.34604e+06 640904 -1.05957e+06 -454152 -135934 -455973 859359 4337.56 -927332 -278478 678952 105159 78918.4 46231.7 74666.7 49956.6 -154149 -83542.6 -224174 -888804 -813397 -128654 1.03761e+06 717203 -328466 171860 -142036 264211 180986 -398779 431167 784553 324608 436913 -589539 285871 464666 -242534 -1.08266e+06 564282 -1.4018e+06 536594 787838 340058 -86018.7 53044.8 -30820.9 145345 188806 64049.9 -439369 187321 -69353.4 -188016 122088 193685 -17825 77281.9 -52957.8 3683.12 
-5.77122e+07 -1.22429e+07 1.18095e+06 -9.70034e+06 1.02224e+07 -1.36152e+06 -2.42635e+06 1.83598e+06 -6.08678e+06 -1.93907e+06 -1.75713e+06 110917 3.04838e+06 57648.3 -5.5064e+06 3.44075e+06 -4.51501e+06 1.1453e+06 2.58018e+06 444426 -153211 661108 722909 1.2937e+06 -1.86445e+06 -875287 -1.32261e+06 299037 -2.13772e+06 -22872.6 646190 -932835 597189 -1.99934e+06 2.402e+06 -179110 -1.02141e+06 493273 318120 -1.34897e+06 2.72581e+06 -4781.26 -46788.1 825.983 2.02784e+06 347646 -744248 219918 -748562 1.08286e+06 -2.33524e+06 1.41594e+06 -348710 787939 673990 -536037 -1.61542e+06 657033 -336029 48738.7 397447 -1.52117e+06 849785 938851 59347.1 472625 588350 191428 391793 508706 390230 901443 485338 -1.1261e+06 771621 418562 366959 413623 405853 338909 -113467 432793 216182 -18664.7 40753.6 -56609.7 43623 -131006 -173520 130861 71033 -126098 -253076 -96194 182271 79349.2 -138162 -114028 14378.8 -8790.65 6466.81 -131024 -2721.78 -58577.1 47633.5 6562.8 -33296.2 -34752 -10276.3 
-6.17096e+07 -1.87239e+07 -809671 -5.0148e+06 1.11987e+07 -3.15605e+06 964318 -2.36974e+06 -5.77583e+06 1.00109e+06 -2.72347e+06 1.44735e+06 1.03772e+06 -547320 -1.45987e+06 5.43449e+06 -4.21093e+06 129215 492298 1.23177e+06 -602625 2.09962e+06 -642374 1.02183e+06 1.86933e+06 -2.23268e+06 756174 87042.2 874773 -1.59114e+06 1.02554e+06 -240879 1.58168e+06 382815 333111 -1.60287e+06 -1.27421e+06 531201 -819468 685353 1.37137e+06 -210050 35434.8 441111 91962 -288808 290325 -594423 -1.75116e+06 -1.3653e+06 -811227 630622 1.03368e+06 440908 614743 -544607 5543.34 1.09559e+06 286419 -1.28209e+06 -1.73735e+06 920770 -13356.7 -329702 90550.4 -210226 -614749 -519263 1.01507e+06 541996 -253264 -1.41021e+06 69862.5 1.56148e+06 -910436 245066 187677 3523.05 -395379 162289 410050 -816268 -167619 -443365 -251885 430868 -155557 -364213 324217 -201786 231130 238651 -60510.5 210022 280741 48016.6 329179 -161036 196293 -84007.3 -58805.2 55269.8 -127606 125308 -45237 -51417 -25398.6 44021.3 6066.9 
-6.86284e+07 -9.05852e+06 -1.78059e+06 -1.00359e+07 6.67731e+06 1.16933e+06 -1.64966e+06 929646 -662426 3.61354e+06 3.62451e+06 -2.69015e+06 429148 156088 -2.08014e+06 4.88329e+06 -4.2127e+06 -1.90917e+06 -1.52361e+06 333170 -852637 1.03189e+06 -1.3884e+06 -927744 215344 2.10582e+06 -1.80761e+06 260743 329140 176759 -1.30604e+06 479081 257631 417782 -225065 -1.49903e+06 -233261 642887 -1.02343e+06 483650 914744 -179116 -753515 212340 440159 -289600 -1.52888e+06 1.00664e+06 -271356 503716 905185 -6011.4 -606937 -459615 -910147 -1.03794e+06 -392453 -458728 -164104 316678 -1.60792e+06 432360 -796399 354259 257876 -5242.48 -919261 464903 -607370 -149578 -86978 -67056.8 -282845 68109 572929 -352593 -1.12385e+06 411834 708445 281111 272529 -232722 -815965 1.33544e+06 362200 -281385 457005 1.22276e+06 -403186 468093 -147499 71397.7 384344 359804 -282291 -549689 83917 84842.1 -203352 420290 65788.3 264530 180924 -96672.9 -29233.1 -1537.06 -20843.9 36728.8 31011.9 
-5.25698e+07 -6.93605e+06 -1.28319e+06 -1.40755e+07 1.05485e+06 8.0913e+06 -6.58656e+06 3.78957e+06 -146292 -989061 1.17439e+06 -511840 3.64831e+06 1.50422e+06 -4.70246e+06 3.54592e+06 -3.99869e+06 2.51891e+06 1.94589e+06 -2.22665e+06 3.06563e+06 -2.18808e+06 -1.76369e+06 367797 -1.28401e+06 263952 -66522 -1.42241e+06 -174032 1.81722e+06 1.89756e+06 -4.18374e+06 2.48772e+06 -856145 -2.11236e+06 1.06731e+06 1.66841e+06 -1.4377e+06 -526744 53990.7 -41122.2 165446 -752900 655690 -725775 1.03442e+06 -1.19029e+06 -1.19322e+06 -327953 -2.1314e+06 644846 -1.22456e+06 -1.02536e+06 18322.4 -19264.6 -1.59454e+06 554505 -348845 754434 13333.7 862138 -42930.6 -217823 205112 -442319 -60988.1 143225 -642176 -999487 -1945.21 -797476 139227 -313220 -242863 -245149 -146950 459510 154868 -138629 -536046 470629 -422609 -69393.6 -916231 -274240 -131905 134088 223414 -7998 159920 -23219.5 -69081.5 24960.5 -365435 -370342 56921.9 -283165 333024 -264668 -163185 121140 -100754 -4937.37 -29219.4 17791.6 2965.03 34087 -20761.7 21004.3 
-6.62923e+07 -537832 -6.43707e+06 8.35271e+06 -5.76759e+06 1.9056e+07 -6.44089e+06 4.82146e+06 -655134 163448 -272776 -3.23072e+06 -2.34771e+06 -360708 -2.02411e+06 -1.64164e+06 5.74207e+06 324825 429256 1.29865e+06 948882 -1.6653e+06 1.91619e+06 981428 1.34809e+06 1.06869e+06 -3.25533e+06 697232 -38200.3 1.01508e+06 582682 -1.37983e+06 67297.5 645993 205754 -482958 857114 606365 -341154 -1.19492e+06 1.31057e+06 2.44853e+06 586016 1.21472e+06 -1.35334e+06 566025 267777 487793 -633656 524490 -1.27624e+06 -960387 -241995 -1.58741e+06 289045 455510 288232 990201 -837501 427953 -934036 -593626 -705909 99245.1 437553 -935274 798357 -443512 -393394 132954 207888 -517577 -410022 -21890.3 -210495 23520.6 404172 -469438 99285.6 -335565 -128957 683787 -728852 113911 -31840.6 887181 -357837 359827 -375339 -840790 -371855 89482.9 -155345 687274 320195 239920 -114185 -42687 104504 -155659 -64433.2 121566 66268.3 -89477.5 -79798.1 40162.4 50569 5646.79 87037.9 
-5.81891e+07 -1.56624e+07 -7.0136e+06 2.40217e+07 4.09229e+06 1.36554e+07 81190.8 -4.36604e+06 -3.74426e+06 -427587 -1.23255e+06 6.24778e+06 1.67625e+06 1.73018e+06 253547 3.57534e+06 3.7702e+06 3.41e+06 -2.19199e+06 -2.87668e+06 -529052 3.01097e+06 486007 -1.6567e+06 -1.96342e+06 -1.80031e+06 2.47931e+06 -67892.6 775376 -1.01619e+06 1.38094e+06 2.68022e+06 -3.09933e+06 -2.97453e+06 -309880 -298091 511488 -2.12628e+06 -322433 268776 -69184.7 1.44399e+06 -1.28566e+06 334491 1.65438e+06 -979057 106302 260343 487449 -146964 1.0883e+06 679006 168237 746755 -371730 -1.06413e+06 1.01662e+06 260657 -128781 -1.16175e+06 220621 -1.59966e+06 -582440 491297 841488 -119335 -39296 187277 -906044 -1.09376e+06 -402259 -637804 -202416 -51357.6 -353637 406851 149934 -67197.5 32095.9 -291722 149126 374755 391825 8048.57 241368 73440.3 -113895 -16850.4 -31273.5 104029 -58251.5 204068 -155077 152905 160568 -58256 37260.8 1744.79 -115305 168101 -101438 31109.6 20175.6 -183109 -140745 44371 47532.9 36798.5 -836.32 
5.27784e+06 -3.20954e+07 -2.74376e+07 -1.11762e+07 1.61088e+06 -5.65549e+06 7.71169e+06 70286.7 -1.10947e+06 240140 3.66746e+06 -3.34748e+06 977836 -104176 2.59581e+06 -2.05805e+06 -62395.5 -5.34488e+06 -2.78182e+06 3.77545e+06 -178935 1.41178e+06 -2.0687e+06 -758574 -487860 336330 1.30988e+06 -890030 1.13681e+06 -1.33225e+06 -1.41136e+06 -944254 -926650 -1.72619e+06 381019 1.16253e+06 -902546 1.14991e+06 350424 510894 -454445 575841 267163 -358439 -1.13447e+06 1.59532e+06 -166468 -539569 32462.3 -786770 1.00929e+06 845673 140974 117433 1.7676e+06 961491 405071 -958578 510147 30605.1 -1.02995e+06 -1.34487e+06 168732 531790 5107.59 84815.6 142783 -485527 -118774 513472 -279158 337865 1.12628e+06 714374 -175607 205440 -370936 -71829.3 357079 -576929 728100 740984 122209 -738368 224731 290574 -593966 256680 -1.00667e+06 386922 -205233 -232322 -199177 243566 -15717.2 225261 -397382 221807 -305706 253286 -244004 -170846 163444 -106698 -137415 -11631.2 -156603 -78961.5 5726.47 
-1.55026e+07 -1.23605e+07 6.99756e+06 -1.72289e+07 -9.2998e+06 -906152 -8.98937e+06 3.39534e+06 5.64947e+06 -3.99227e+06 1.28822e+06 -986341 1.34983e+06 1.10027e+06 1.50753e+06 -492801 -3.42802e+06 1.14422e+06 2.7285e+06 -1.15969e+06 892992 280062 1.07921e+06 -1.05632e+06 -1.05155e+06 644729 2.16987e+06 -1.6488e+06 461187 -575801 1.27045e+06 -925032 137385 -19989.3 -693881 794232 1.82924e+06 -1.0817e+06 1.44514e+06 396876 268571 -1.31965e+06 -400301 -430307 -241730 726729 -111741 -467292 367067 -223350 -502626 27167.8 -1.25146e+06 -80448.9 -950727 541515 831832 647920 1.08057e+06 164890 617153 -529415 -414826 -541510 -539741 -211815 121450 686788 178071 328404 103752 348533 458793 743462 46697 340687 -392293 -442833 214598 779278 -622811 218363 225126 367787 982939 727399 -417231 -133121 7743.89 -75083.6 638329 -119392 391035 664762 938966 -546458 652720 -23045 379020 408294 -639992 225027 -1506.2 -137579 -154712 1430.44 -31071.5 26338.2 -28370.2 
-2.54816e+07 -3.26303e+07 1.13609e+06 836796 -9.17935e+06 4.99954e+06 -4.34304e+06 -3.68084e+06 -2.57833e+06 -4.40769e+06 -139294 -1.21116e+06 -3.84383e+06 69044.9 2.44021e+06 -2.05808e+06 -2.29395e+06 481373 709817 2.26372e+06 -3.97672e+06 37730.5 396102 -401667 1.8891e+06 1.49633e+06 -1.90794e+06 -44755.5 -1.79691e+06 117795 -593700 837935 -328235 615315 625639 687311 1.15002e+06 310682 1.04703e+06 127682 -227979 -818666 -1.53624e+06 -1.62725e+06 299726 212577 -948297 205630 -675262 537227 -757566 750537 -1.07841e+06 -527909 -1.23267e+06 -744739 1.03041e+06 -72105.4 509952 -257506 -462558 45084.7 290650 186235 430442 -490552 -171194 73365 398149 -482196 -614643 -694106 -124418 560305 183061 304102 -457783 466241 -511068 295134 -1.05843e+06 222506 909853 19901.4 -794953 666658 -303282 -281113 -23891.6 -415346 190357 -899353 -148020 -467157 -697686 68810.9 -555607 424034 -753960 -104366 73867.9 -166797 237537 211389 26550.4 -28047.3 -65037.4 91429.1 -57786.5 
-2.54974e+07 -2.33002e+07 1.28458e+07 326758 -1.30914e+07 1.01365e+07 -1.17648e+07 -847228 1.00614e+06 -604886 1.84342e+06 -1.64667e+06 -2.23225e+06 -1.32775e+06 -21241.6 -3.9618e+06 -3.05302e+06 -2.11489e+06 -404708 1.61937e+06 -1.7957e+06 301204 183937 -573837 1.48826e+06 834931 337501 -912272 -252845 -1.11654e+06 -132274 1.11536e+06 -105201 1.53486e+06 177073 -788151 -520224 1.13374e+06 1.65831e+06 325228 -1.04696e+06 -536006 -528078 618749 370925 5177.66 -116563 -9444.31 -339368 -865622 -926896 -727374 -415430 172066 69787.4 481888 284058 -268124 -584028 -242904 508405 35341.3 213531 80186.4 101164 332234 41598.7 -672667 -20955.1 -135209 604377 -121380 -68144.8 -470728 -345395 472262 812101 383090 605665 -257672 228297 -425572 -25704.8 -315794 -676216 -393009 461210 -167722 146761 112016 -502061 679959 318123 -542400 371500 250510 502420 -607001 -656787 1.12997e+06 -119897 59158.2 244693 -760129 -261673 2256.15 -39957.1 58816.8 -102294 
6.0474e+07 -2.3092e+07 1.73181e+07 1.99233e+06 3.86398e+06 1.66271e+06 4.08798e+06 5.96995e+06 8.28364e+06 -5.09419e+06 -1.03382e+07 -3.56053e+06 -2.46235e+06 703455 -3.93121e+06 2.22429e+06 197601 2.32653e+06 2.63589e+06 2.60242e+06 -885872 -167986 -1.0854e+06 -1.62549e+06 -3.34406e+06 639465 928848 2.24237e+06 -1.49815e+06 -947371 106385 3.17624e+06 1.74001e+06 -671574 -2.58145e+06 -2.81055e+06 -539425 -974574 26352.1 626877 -3.03544e+06 735786 -1.36658e+06 -518961 379126 231346 17486.2 242311 -683088 1.10716e+06 -124860 -1.28111e+06 1.24832e+06 -2.11035e+06 587131 -523414 153652 -223199 194473 -323184 -687077 -230784 -331518 468342 -785253 -100643 841325 -705668 687044 305926 -615076 735007 575949 -129848 488663 98780.2 118683 -316941 317469 145297 158161 60093.1 -83964 -114292 -215474 348196 89747.9 -34664.7 127996 307527 292175 -104948 61407.3 63934.3 -133060 31019.4 185363 -64105.2 45203 12800 45077.7 25417 -15234.7 -11692.9 74880.6 -38373.1 23692.2 -23291.7 2374.59 
3.04198e+07 5.08004e+07 -3.31632e+07 1.6823e+07 1.04761e+07 8.27118e+06 2.96656e+06 -5.21248e+06 -1.78642e+06 -1.46085e+07 5.84418e+06 -552418 5.20186e+06 -5.47048e+06 1.11241e+06 3.17589e+06 -6.45789e+06 -543487 -2.69715e+06 3.05676e+06 -354638 -2.15442e+06 268444 -2.24262e+06 -3.52856e+06 844472 2.64227e+06 3.69336e+06 2.68986e+06 258213 -247272 -434192 488222 200874 2.3377e+06 2.13573e+06 -744904 -441571 175760 -1.31556e+06 60536.4 -2.50525e+06 933638 795267 -812357 448003 1.02508e+06 1.61155e+06 -466811 295530 -261231 -305519 -296543 -1.52866e+06 -211100 -660294 505629 -356765 365307 -7503.98 -79393 220683 252194 -650782 353595 -13417.8 221436 -388423 304331 -746874 41884.9 -241723 -264787 -141731 -12505.8 207735 143215 238368 205765 -197381 154752 120282 144569 -27291.5 -173535 27036.2 205042 155935 4615.28 -77383.3 242553 -36849.4 64664 83232.7 215724 31373 -150751 -14692.4 236838 -10029.9 101273 -10340.8 -115872 -166029 -27445.9 28623.6 -2099.66 -1520.74 23976.1 
8.0802e+07 -1.21619e+07 3.59388e+06 -1.11766e+07 6.49147e+06 5.08752e+06 1.96934e+06 1.89194e+06 5.5521e+06 -4.59234e+06 -3.05351e+06 4.04065e+06 -5.9686e+06 3.76607e+06 -5.02745e+06 -292705 532515 -1.09416e+06 -1.86577e+06 1.34128e+06 -1.534e+06 177902 989497 -921283 -1.44376e+06 1.92906e+06 210970 -105674 1.68789e+06 -915143 1.04215e+06 -982068 -466753 359967 -1.27751e+06 898069 5744.99 885889 107218 -484774 1.96855e+06 572275 1.73107e+06 -855602 188898 -746471 408440 401743 -453652 -925470 339097 194998 363391 672902 -478055 346231 356594 585800 1.04937e+06 175006 -22540.3 -51289 -365534 699551 28132.7 -83456.8 -950194 -688996 -671813 -207959 162600 921516 -401963 589106 -247541 992969 215740 -808017 1.66501e+06 -183290 -358720 -575150 -177999 1.09421e+06 -254632 -616906 -134710 -969231 -36146.1 -372164 170363 -178211 -197489 -38594.9 -203826 299515 -203520 -63245 -88005.8 -175836 283118 -76070.2 -21017.7 95762.9 26412.9 -3370.2 31814.9 -63400.9 1065.77 
9.064e+07 -1.13086e+07 -2.31759e+06 -5.73154e+06 4.88681e+06 5.94839e+06 7.33812e+06 2.32018e+06 4.98728e+06 -2.71141e+06 -2.63621e+06 4.01063e+06 -5.52675e+06 1.99307e+06 -1.44604e+06 2.45809e+06 -1.68402e+06 -1.445e+06 -1.55099e+06 -2.23242e+06 -3.5808e+06 1.43466e+06 2.74033e+06 1.2443e+06 -608428 425861 -1.38643e+06 -19155 530805 -381390 918904 1.91596e+06 558115 -562998 -276713 1.153e+06 531168 1.48362e+06 -2.01918e+06 180012 1.56501e+06 413908 1.17044e+06 -933017 -398533 663754 -276981 -622445 -44121.4 -9.94209 -1.69012e+06 -1.4119e+06 1.13008e+06 922165 -294608 351070 2.16611e+06 -739632 522319 608134 39088.7 -575387 366258 108679 1.40271e+06 913038 -209531 153292 376825 93640.5 290420 429600 -593034 -31306.5 352118 -985569 100092 408548 -1.04594e+06 -256051 106229 -225718 202399 -612485 251071 165425 286975 795297 53560.4 132941 -201040 -77935.7 352082 -52445.7 161466 -193689 174002 74258.1 -44507.2 -165497 -381665 228298 -103585 -175445 4689.21 18508.4 29432.6 103552 -6753.49 
6.21387e+07 -7.62459e+06 5.12851e+06 -1.15902e+07 1.17859e+07 3.80366e+06 -5.44998e+06 5.56959e+06 3.13182e+06 -1.38713e+06 -401955 -4.2612e+06 -2.5496e+06 7.44179e+06 -5.65346e+06 202632 6.80819e+06 2.29449e+06 -1.18423e+06 6.71951e+06 -1.22695e+06 188471 -1.37842e+06 -3.00104e+06 -1.51604e+06 1.37775e+06 523028 -851306 414491 19693.3 -1.99288e+06 -142515 -280519 2.06444e+06 -1.18248e+06 1.16422e+06 -660948 -584987 1.79634e+06 -968528 1.55701e+06 -1.02902e+06 187527 -790112 1.40279e+06 -993629 -290097 -923772 -193858 -1.05351e+06 -100656 381111 -407926 65863.5 -42845.8 349666 -1.4681e+06 427511 -219196 -1.01246e+06 62628.3 -192052 824582 -1.07989e+06 -135986 58807.8 377031 29083.6 -385808 -764743 20197.1 -1.01797e+06 -307877 -227485 33385.2 -1.52306e+06 -419964 319584 -378255 -261360 285837 356731 215358 -355093 303872 141888 -38283.7 287376 24586.2 -1484.66 119486 231174 -49664.5 -75282.3 43187.9 12526.4 186462 67970.6 235039 165806 95773.2 -87790.8 -20457.1 120532 -23840.5 28570.4 -8220.69 -6536.39 -1656.14 
7.56839e+07 -2.40431e+07 5.93567e+06 4.29234e+06 3.69179e+06 1.00232e+07 9.48282e+06 3.92474e+06 756324 1.06933e+06 3.43339e+06 -1.64199e+06 -974303 1.63823e+06 2.72071e+06 -1.2167e+06 -4.17436e+06 -29162 -2.45961e+06 -3.30835e+06 1.40547e+06 -969241 656220 1.58076e+06 1.19277e+06 -556332 168302 1.64077e+06 -101174 -266975 136813 253433 468201 78304.1 -487460 680881 1.25815e+06 414009 -1.1516e+06 135196 -324642 512088 318178 607895 -328803 458490 -244594 -554836 745494 392893 -897165 -101785 -455233 77675.7 1.15756e+06 -49226.6 158001 127891 -507507 -764289 203431 -608649 -169329 -281581 -259967 12444.7 -1276.77 -179188 -54470.5 327746 -14258.8 -298236 -541085 308412 109246 -84828.1 273699 226393 -87138.4 756236 25774.3 414985 119502 187080 223037 -322248 -35389.7 -21143.3 140183 -48773.6 356423 113999 -507084 105527 12472.2 -250773 357437 335033 260065 1.11348e+06 1.22811e+06 -437691 505189 782176 -8481.42 -40381.4 -173499 -130844 -27862.1 
7.86785e+07 -1.49315e+07 1.22488e+07 -8.42637e+06 7.12468e+06 1.28355e+07 1.03429e+07 3.19079e+06 2.58769e+06 3.22338e+06 2.11979e+06 4.3652e+06 -3.52845e+06 796259 -599705 -2.7302e+06 -3.37986e+06 1.49148e+06 -306173 -2.97341e+06 714477 2.02913e+06 -1.40086e+06 -1.54643e+06 1.85781e+06 -181801 -1.28863e+06 978230 -1.34276e+06 -413864 553494 -25849.6 -448369 -1.21534e+06 630540 -65203 -903611 1.11515e+06 298314 812946 -61483.3 -233910 -29253.7 255784 -1.5512e+06 80921.8 539806 496693 9524.38 -605454 206981 1.05947e+06 425058 -1.00948e+06 -1.20812e+06 -372552 -1.1733e+06 756573 405617 443680 67277.9 290395 -497158 -5023.24 -777635 -374828 -346675 656442 166025 -280232 -49294.3 -962170 1.04789e+06 -1.35475e+06 -123974 427277 -121838 -591753 -349081 -938873 104542 -156842 -113677 -10914.5 615776 398730 513888 194024 -169030 38700.5 -18292.1 -251335 436900 -699623 1.06337e+06 282206 -134521 214929 -348267 -86260.6 112109 -227865 -168714 251812 -31923.9 59500.6 75329.5 43498.2 13204.2 
2.7965e+07 4.1029e+07 -8.21011e+06 1.42194e+07 -460380 1.43171e+07 -566752 -1.1117e+07 922965 -8018 -624671 1.33253e+07 2.00076e+06 2.93476e+06 2.75467e+06 1.43298e+06 -4.40649e+06 1.22627e+06 5.31122e+06 3.58516e+06 -607293 -3.04625e+06 -3.07106e+06 4.78968e+06 1.00162e+06 5.11121e+06 -334581 -402002 1.84588e+06 1.96394e+06 -1.39334e+06 1.09233e+06 923225 -115779 796465 -100046 -1.21985e+06 266242 1.43186e+06 1.84183e+06 130020 357401 -637442 -407694 429003 171919 -1.4082e+06 -2.82486e+06 1.04001e+06 310260 393348 415440 856595 -20139.3 661473 593258 349192 534250 -496641 22259.6 81995.3 -88015 -65758.6 353031 -221800 -466945 -192694 -42441.1 66279 -25059.7 69496.5 -125305 -124557 -86838.3 8617.99 -282758 7322.94 -294541 259776 97007.8 185536 264535 -69844.8 183983 471861 -110445 -117389 -144113 -16669 79009 -9712.25 60092.9 -11886.4 18284.6 38703.7 -18851.7 13608.4 -115609 -26370.7 -200180 -75144.1 12879.9 31225.6 -5009.25 13045.2 3438.36 -35926.8 40529.4 21167.1 
7.63143e+07 -1.52077e+07 8.57385e+06 -4.90728e+06 3.41635e+06 1.17442e+07 1.49869e+07 4.88688e+06 1.23469e+06 2.03696e+06 2.65194e+06 2.10763e+06 -2.01705e+06 -2.00784e+06 1.76942e+06 -1.84075e+06 -2.43846e+06 2.15414e+06 425924 -3.3076e+06 -581683 656453 77707.9 -460661 -137366 -2.0092e+06 -1.09331e+06 1.26938e+06 -844721 -501175 -581555 6145.05 632310 -729606 1.17879e+06 1.47764e+06 599614 9162.65 -827865 926265 113918 -685050 249874 -153435 -564947 -535508 -288820 -41646.5 557366 -596632 -93528.3 715303 -327202 18386.3 104767 -509774 -978787 189671 -96476.6 484454 -272919 482523 419586 -142808 -541830 -893240 93775.7 48727.2 -654767 110596 -348392 -399942 370957 -685905 -302352 -748161 -144557 104438 457652 -7875.49 -160794 376125 170730 -168362 -970063 -59615.3 -597645 -613922 -19747.6 54791.6 -15175.2 227230 -92297.4 929384 -1.15872e+06 -277195 691718 -556428 132136 -153500 -575908 318911 216822 -592531 161561 -2210.33 -56411.2 -14002.4 7172.47 
7.69286e+07 -3.11836e+07 2.77788e+07 1.01669e+07 -3.12466e+06 -5.28624e+06 4.92186e+06 2.11548e+06 6.51405e+06 3.0371e+06 -208576 -4.88298e+06 3.52569e+06 337980 650162 2.89019e+06 1.61729e+06 -883591 -3.38537e+06 2.2483e+06 8236.26 2.08116e+06 323446 3.40054e+06 -1.68073e+06 976585 1.04404e+06 -3.52085e+06 3.87419e+06 -346075 -1.03046e+06 -1.92385e+06 486552 -255919 1.73703e+06 73402.9 1.06203e+06 -602897 -541960 -1.04529e+06 -36618 -1.49705e+06 -991832 473146 926519 -17642.4 349667 -84821.2 -1.43193e+06 910166 1.37811e+06 256527 273438 311673 -1.26343e+06 -490760 789984 1.00272e+06 -1.43761e+06 175812 -155465 873492 -810484 1.37345e+06 -600994 -880193 276006 -358906 240979 1.13294e+06 952529 169557 -407745 -771861 49383.9 277095 110433 126822 -664581 -560344 -171938 194976 355082 -289743 130776 -64911.4 152727 -12417.6 17310.5 -330657 161804 -81860.5 15562.4 74721.2 -67060.5 25513.2 280103 108585 -182597 70913.1 -87351.3 -63417.3 176937 10764.6 56294.2 -21475.2 9581 33265.6 -5436.67 
7.13748e+07 -2.3112e+07 2.08198e+07 4.32573e+06 6.50891e+06 8.39612e+06 1.20453e+07 4.96456e+06 2.52751e+06 3.40726e+06 1.72117e+06 -5.68366e+06 -1.0122e+06 333243 2.63136e+06 -932026 -91890.6 -360236 -2.03634e+06 -484974 2.1007e+06 -302182 -474875 1.4171e+06 900166 -194520 317212 572042 904280 -661999 1.16444e+06 413566 1.4839e+06 554460 -530841 30152.7 1.36932e+06 -1.16725e+06 396744 -52005.6 -316048 -779522 -919824 543020 936996 -368276 -967740 397883 -336872 62511.8 -421406 -525611 -839334 111499 1.24604e+06 179740 -491800 -48712.7 -380672 -273664 148485 -90109.2 -696741 -610453 -88958.5 97014.9 -709921 -441910 82491.1 -205719 236004 -121599 -55045.8 421095 -29929.3 360177 18620.6 1.28819e+06 -112897 1.16738e+06 -15893.8 406804 -387073 553208 526790 -365485 -851323 -120421 86158.5 194514 -423196 213352 -104793 -637226 472016 97472.5 -1.06029e+06 -273904 -143964 -701526 -430177 173997 -534836 -330932 -165026 -25305.5 5078.42 49774 9785.02 
7.37292e+07 -2.19971e+07 2.52856e+07 9.08857e+06 3.07758e+06 6.69094e+06 1.13764e+07 -1.98038e+06 4.6055e+06 5.13754e+06 3.58887e+06 -3.68395e+06 1.64419e+06 -1.69612e+06 2.63012e+06 1.86345e+06 2.00978e+06 1.9769e+06 -265944 1.41403e+06 984822 1.75045e+06 -645463 2.95408e+06 1.39558e+06 -1.17368e+06 -783341 -1.24974e+06 -650113 -962018 -43555.2 -2.08539e+06 1.18085e+06 325025 1.43629e+06 -1.65711e+06 418184 -1.5689e+06 1.82251e+06 -363240 607858 -294254 -625324 666996 1.17679e+06 951859 -436053 -442690 405232 1.94396e+06 -42657.6 -502769 -866608 181033 -699790 413591 -189956 -613620 605968 228587 192910 221313 1.66959e+06 -346391 1.55519e+06 666752 417306 648940 242240 -1.10584e+06 -1.04729e+06 429728 324178 816100 -608898 301306 33587.1 -1.27118e+06 565577 -324651 273614 -523436 -526357 -168069 -403644 54545 537744 209064 -91503.6 8594.25 -32256.8 4834.2 188050 211035 18491.2 141434 -11037.8 79637.9 177424 4576.35 108299 -12428 41656.7 21298.3 -13761.1 18885.1 7126.17 -61093.9 2399.6 
4.0058e+07 -7.97358e+06 4.04295e+07 -3.87793e+06 -735390 1.24846e+07 644392 -7.2829e+06 1.32223e+06 3.25698e+06 1.24219e+06 2.63584e+06 -1.186e+06 1.52012e+06 -1.52013e+06 -2.50022e+06 -3.30246e+06 3.54426e+06 2.53838e+06 -116753 2.0594e+06 -475687 -4.30539e+06 -3.08687e+06 -480106 941045 1.35187e+06 1.13147e+06 -1.85361e+06 -258141 658853 -2.42969e+06 -3.02341e+06 382.896 1.13206e+06 -1.96494e+06 -2.06358e+06 -1.05764e+06 1.11746e+06 -322772 1.39463e+06 613573 -454522 1.26968e+06 -1.07793e+06 -497032 2.16452e+06 26759 -33104.7 -123727 689936 21012.3 377326 90107.7 -865770 709583 -136389 -933179 -268595 -109953 -337783 -460953 -573069 -514160 429363 922917 37845.6 -340068 19893.1 1.12398e+06 819420 740793 -550019 759160 499265 455886 -426045 450978 -994077 298186 -461840 5785.38 -17309.6 -250786 -349692 -139200 -93291.5 383170 199770 -106800 -184051 21554.7 -189343 97514.7 -530681 -44981.3 -57190.6 131659 200150 30501.6 -159885 -55575.6 65455.7 -55517.8 35338.8 -66643.2 -20979.5 99685.6 3667.07 
-2.51286e+07 -374098 2.26073e+07 2.669e+06 599400 -1.02238e+07 -6.22051e+06 7.26087e+06 5.14259e+06 9.2895e+06 -4.71451e+06 8.98132e+06 -3.1091e+06 368144 2.52298e+06 -3.03728e+06 -901656 -3.54925e+06 -1.09255e+06 -1.00929e+06 2.78948e+06 -634512 1.8528e+06 -1.18043e+06 1.03235e+06 883212 1.37377e+06 399070 -376368 583399 230081 -318677 714938 1.07336e+06 470749 -18844.2 133424 -1.33586e+06 -38621.2 479833 1.18308e+06 -296839 -766517 583010 27672.9 -626623 -588835 250186 -52235 -331057 143463 278557 544097 -460763 -73077 -941935 -147371 -1.0096e+06 442730 409681 -710144 -108656 392027 -492308 560285 33002.2 591673 -861455 633695 -629256 274806 36633.5 -492442 -492586 62105.9 156365 225077 -21867.2 325462 -460603 785701 663178 490212 40656.3 -367218 -418184 -104183 91433.3 9452.56 -99563.7 711052 -65211.7 -139467 -149285 449494 -41625.7 -414076 -241381 200103 -47972.6 -533627 731905 870531 629388 72172.9 -186390 -73449.9 6699.47 33407.8 
3.63288e+07 2.59294e+07 6.59169e+06 -1.90039e+06 4.75253e+06 -4.48969e+06 3.32693e+06 -131512 2.45087e+06 1.32778e+07 -2.55106e+06 -6.52034e+06 2.76319e+06 -8.29697e+06 -3.58795e+06 1.95977e+06 -2.27309e+06 2.62059e+06 3.84978e+06 -2.19264e+06 -2.09405e+06 -4.5115e+06 -2.94482e+06 2.73344e+06 -511948 -1.38273e+06 -1.51908e+06 -3.36474e+06 1.26993e+06 -2.18689e+06 -700111 2.57961e+06 -3.78567e+06 1.96317e+06 -723943 951249 -1.61403e+06 -2.63368e+06 460108 -1.0624e+06 -717277 376550 1.11602e+06 -398027 -513511 -484934 -260009 973125 -421122 -1.09652e+06 -1.27792e+06 196848 -585713 24466.3 299149 -43398.5 519583 -195867 768231 793782 329916 -5440.89 -83554.3 309071 426346 -13766.2 -143481 -919311 -9953.68 -43325.8 223644 -632423 17632.8 -133571 -56977.9 -70297.3 38114.6 -49055.5 281093 -124493 44900.8 145020 274500 203164 299127 158704 220442 62738.1 -120827 95249 26879.5 -224391 -295448 253798 103730 54954.9 90180.6 182548 -260628 -21581.1 18376.6 27803.7 33868.4 132135 -9520.06 -14185.3 -73554.5 -13046.7 10218.1 
2.6277e+07 2.49639e+07 3.0654e+07 -9.2969e+06 -9.09714e+06 742377 -2.42371e+06 904846 -4.05878e+06 -1.82341e+06 718450 3.62535e+06 -1.02348e+06 337438 5.99257e+06 3.25623e+06 316126 4.97363e+06 350176 1.46448e+06 -2.14132e+06 881495 793031 -3.9018e+06 -1.89145e+06 -113595 -369558 -2.53384e+06 -950358 1.80689e+06 1.38553e+06 1.03792e+06 -390743 816002 800380 852496 -107184 194789 -831241 -642151 349748 921293 -1.29105e+06 858978 -17966.7 670614 -1.32933e+06 628234 -587133 951432 6212.77 -426272 88925 1.18169e+06 650895 593594 178470 125948 653438 397070 374692 1.3329e+06 -663196 129082 -441003 329709 191760 -33904.7 295661 -304786 1.10862e+06 47705.7 295652 -152433 -381716 8208.58 -583326 529826 187496 -498669 561343 123851 -539590 -252238 -556004 563036 -345917 -871221 151896 733254 -686717 -41344.4 381989 564057 165456 -86857.5 -505632 205759 208725 160974 451653 123817 22121.4 384403 -131018 140563 -117358 -52845.5 2026.19 
1.51682e+07 2.41768e+07 2.89471e+07 -1.09165e+07 -9.66614e+06 1.506e+06 -873598 816894 -4.93631e+06 2.97669e+06 -584058 1.45739e+06 2.18052e+06 1.24007e+06 4.6757e+06 2.03862e+06 -437767 3.19736e+06 792352 1.82199e+06 -58449.9 2.22783e+06 -397625 -2.16701e+06 -1.1022e+06 1.16598e+06 -1.17237e+06 -2.05729e+06 -1.59388e+06 85497.3 1.94329e+06 1.51555e+06 -719820 -452125 1.16606e+06 -399005 474919 1.00853e+06 -460049 -958859 -832983 -364311 -361727 174192 -1.76904e+06 348023 -375203 1.63409e+06 -924110 -754913 232450 -53410.1 258683 380877 535998 397927 -11118 728457 -698146 514461 61236.1 218872 792684 395460 103118 -336371 804291 -79112.8 249939 -393342 -628837 117613 -296996 720470 -429412 -247552 781423 -150795 -17698.4 254095 -134070 -195057 577168 216923 931310 -727476 -450331 630302 -1.19042e+06 -427111 630868 289624 230667 -788191 -496331 -121265 185752 -532204 317101 -144172 293427 11286.2 -24306 -91369.1 55603.8 -50858.3 164228 -106100 51792.4 
4.68796e+07 1.90921e+06 3.7497e+07 2.04053e+07 -1.02157e+07 -1.07527e+07 -5.32525e+06 -1.15299e+07 4.62798e+06 2.5833e+06 1.37338e+06 -6.76536e+06 2.6865e+06 239815 -431650 3.31622e+06 144723 2.25833e+06 594141 -132386 -2.77881e+06 851736 3.06337e+06 940043 -181053 -1.38839e+06 -3.11281e+06 -719440 -50698.9 -597879 379885 -1.85183e+06 278986 1.9983e+06 1.2563e+06 587426 -1.22705e+06 1.9361e+06 -814754 1.4691e+06 1.79556e+06 -649653 -55146.9 1.218e+06 -140343 -775515 -40357 80592.7 2.55986e+06 -689767 817552 -764501 1.02991e+06 -1.06425e+06 352445 -338774 -402033 -1.02998e+06 1.12124e+06 -1.07825e+06 -53727 -1.4079e+06 -1.2891e+06 -22041.1 -602481 -181431 817147 452125 -134764 -92.4596 -259734 -147601 110832 140937 492930 -357286 356241 217466 318955 -130424 -174630 -535818 492733 239647 -77927.9 313902 -398682 -183676 -130346 198666 218855 61178 -17736 -187763 101112 12457.5 -193477 -240647 -100304 33717.8 19152.7 -60455.8 -82317.7 -29018.5 -15607.3 96565.6 56110.1 -9586.77 24708.8 
2.97999e+07 -6.58516e+06 9.5437e+06 -5.42831e+06 5.84717e+06 -3.85425e+06 -2.91969e+06 1.13055e+07 -5.46786e+06 -995402 -4.93285e+06 -4.17388e+06 -2.78257e+06 -3.92903e+06 -3.44344e+06 -3.41042e+06 -216857 3.40915e+06 -65168.4 3.36294e+06 1.99269e+06 -424237 22204.1 937728 1.41443e+06 1.00986e+06 -943171 4.00032e+06 505400 1.12976e+06 -480583 513152 -2.67321e+06 158469 364015 -410084 -516865 893121 -1.5154e+06 1.70288e+06 714475 -689632 48501.1 -994924 -1.29171e+06 827380 -658804 -273506 706354 38512.9 2.16241e+06 660290 -2.07554e+06 998395 1.09535e+06 -211680 506797 598731 9463.49 -373175 461650 211248 -229145 895038 304655 -887251 1.05282e+06 727700 837400 -810435 118687 430057 -578695 386561 -33874.2 521531 595228 326544 -156222 -17222.5 279351 -371652 152445 19375.9 -184380 52812.6 689338 76606.9 384371 266533 -224362 99638.6 -409529 102268 182833 -145878 141381 172977 209041 -6332.19 -324969 145741 -260892 16047.8 -28767.2 30788.2 64863 74282.4 9487.7 
4.24728e+07 22769 3.76178e+07 2.5704e+07 -1.27709e+07 -1.29575e+07 -7.28287e+06 -1.30182e+07 -85928.1 -299364 9.01198e+06 997466 -1.90263e+06 3.56489e+06 -3.09835e+06 2.80242e+06 477928 -430683 3.04665e+06 860969 45117.9 3.22395e+06 2.49459e+06 138569 213218 -699639 -585322 3.53286e+06 -1.34259e+06 -2.37698e+06 -1.49762e+06 -1.55665e+06 -929155 -661665 -1.9668e+06 -877072 159074 -210980 137610 -1.72713e+06 -301620 -1.07427e+06 -705295 -1.09397e+06 -1.71691e+06 -722435 -1.18638e+06 221733 103146 -717527 -770745 1.27985e+06 -418102 -128846 867612 -222982 1.23296e+06 1.19444e+06 -88431.3 761268 -404209 404064 215640 -570567 -79638.8 -206095 -934166 -668363 -578884 -401901 -97278.9 839952 326920 -463327 -393847 -32206.7 189417 1969.9 -180031 249624 163226 493890 -677653 -452112 327693 -165583 309284 61651.2 186361 112899 -396372 -105916 -44862.7 -10257.7 -17521.2 -28292.8 54977.8 122490 229601 -14275.7 -104838 -6037.39 112854 93915.2 71723.3 -41646.5 -61998.1 -46587.9 3107.99 
5.85445e+06 -4.33434e+06 1.72291e+07 7.09571e+06 -1.3308e+07 6.35285e+06 -1.65074e+06 6.65452e+06 5.76699e+06 -8.99003e+06 -6.54502e+06 4.38674e+06 1.21189e+07 3.03762e+06 -1.87745e+06 1.62856e+06 2.5145e+06 -5.47083e+06 -4.00162e+06 -1.77917e+06 -3.35831e+06 -4.56718e+06 -3.10248e+06 -2.11554e+06 4.38079e+06 -673888 -1.64545e+06 326211 659194 -1.0476e+06 966060 -1.95654e+06 -2.12768e+06 -1.50541e+06 436751 -3.94265e+06 162509 -445233 -1.10348e+06 -676243 -904925 -2.16315e+06 268765 -771848 372788 199908 199422 -322346 299258 331412 -1.25021e+06 463661 12295.7 1.0415e+06 920522 466832 -232130 -370810 701427 600122 225361 167735 -569299 -250567 -513346 -342123 241250 325198 -45293.8 -328672 110391 -64268.2 -112582 -149459 -97344.2 -433181 -124628 83914 56449.3 -128941 280394 -277920 71164.1 129484 -143808 135949 -115067 -23121 -167958 -84988.4 183488 -40068.4 68397.2 -660.156 -116739 -108016 -63980.1 -2041.6 31526.8 -57160.8 -24768.4 11342.4 -26977.8 89593.2 -41897 25222.3 6329.61 32787.1 7130.77 
-5.73727e+06 3.30288e+07 -1.76016e+07 1.9408e+07 1.03214e+07 -4.50706e+06 -1.0592e+06 1.07677e+07 2.54686e+06 -2.30021e+06 1.88183e+06 -688014 -46411 1.0131e+06 -1.67116e+06 -33786.9 -3.6863e+06 1.00401e+06 -488521 1.66981e+06 -2.59726e+06 976717 267295 -1.17669e+06 2.19336e+06 -1.59818e+06 -1.2496e+06 -1.08076e+06 -2.90675e+06 -881159 -838749 -2.23959e+06 260764 302662 -1.39317e+06 1.24805e+06 1.63958e+06 -941477 -507110 724221 -1.52115e+06 1.63832e+06 370458 1.13318e+06 34475.6 1.58254e+06 -856687 -404245 44935.6 -391095 393977 2.23844e+06 753952 203026 -720008 810495 -333144 -314944 -1.9039e+06 156409 191319 339970 -1.45661e+06 -418252 629898 1.28516e+06 521.831 -754973 1.20837e+06 -786838 -42366.3 207466 -540931 204701 682196 -146307 -181100 -118836 404218 -540593 -326853 -99897.6 27674.2 -51850 274813 100249 -68759.8 -286321 27081 7337.55 374629 -159668 -217021 46503.6 27977.8 -203408 172329 -124871 -39633.5 -85066.7 -18785.7 -177590 -167962 -356932 29346.9 43990.9 9320.02 -29665.3 -15993.6 
7.39397e+06 2.0463e+07 -1.19128e+07 2.06816e+07 1.50509e+06 -1.58369e+06 4.64162e+06 5.79946e+06 5.40109e+06 -5.67301e+06 486559 1.41519e+06 1.14363e+07 -2.82574e+06 -2.69247e+06 -727794 -2.84672e+06 -2.93288e+06 -1.98521e+06 150313 -492488 2.52565e+06 -1.44199e+06 -2.04942e+06 1.88332e+06 -1.03418e+06 1.19193e+06 -1.24703e+06 -3.50944e+06 -279653 -803755 1.31718e+06 1.67807e+06 2.39638e+06 -459100 58388.3 1.36481e+06 -1.35572e+06 982602 -510596 2.66975e+06 2.89968e+06 -163942 -2.38873e+06 -1.79906e+06 -1.83024e+06 -267347 -73321.9 726045 -146460 1.16134e+06 -1.34835e+06 -335406 -166518 229079 -96110.4 -199410 603475 -552184 171864 235711 -385342 1.19579e+06 485017 230976 -954083 726.742 181076 166661 657725 560336 -59391.5 157924 98432.7 180568 414509 -137676 175292 -226592 82190.1 -46360 -384553 132760 -6494.28 54637.3 -51681.2 -166680 -152320 -34825.6 295633 -201931 6075.89 370395 -18080.9 44402.9 101110 43771.1 67411.2 -54094.5 -27859 56003.2 -16420.9 29745.6 71219.1 -19102.4 31332.8 -54739.7 31470.1 15832 
2.61667e+06 3.0246e+07 -1.54937e+07 3.20668e+07 5.28153e+06 -2.54314e+06 75077.9 1.80071e+07 -9.90694e+06 4.67727e+06 8.671e+06 -2.06986e+06 -1.18127e+07 1.27068e+06 1.16561e+06 1.54203e+06 -2.4615e+06 -1.52562e+06 1.95562e+06 1.98067e+06 295349 -753857 1.14199e+06 -1.15116e+06 -455039 -437635 -294813 1.45726e+06 618218 1.07721e+06 1.27668e+06 -1.50634e+06 -1.10495e+06 -724003 -399398 -1.85388e+06 -1.25003e+06 -1.22854e+06 -76855.3 -1.18229e+06 -957242 -42725.1 -385020 -148692 194703 -272634 607234 -741085 414662 317529 -717154 -760038 514137 786242 -651984 104973 234120 -693483 325820 -124879 50721.3 700140 1.34469e+06 733752 -460433 -702818 203433 777792 -924007 1.01903e+06 122525 -242289 -428975 313194 274114 -307743 -320267 139484 403917 -130468 -120637 -615306 148060 -149024 315588 118651 -530734 -316744 -421398 314228 299315 22035.6 -156712 -110570 355651 16765.1 -39810.5 -53490.6 -440027 96102.6 -138730 4963.53 -81696.6 77395.8 80959.3 23958.3 3653.85 33349.2 -36191.8 
-2.17448e+07 3.11502e+06 2.24089e+07 4.60578e+06 -854212 -8.99254e+06 -4.8842e+06 8.61624e+06 6.32308e+06 8.76528e+06 -6.5577e+06 9.41536e+06 -3.22033e+06 787753 2.92792e+06 -3.79518e+06 -61701.3 -4.41135e+06 -604306 -918847 2.81572e+06 20191.1 1.59546e+06 -722002 365137 676007 1.3134e+06 -641381 300816 596727 539432 7305.89 -116860 1.30051e+06 735954 -362811 -578512 -906181 7419.98 -237309 1.40678e+06 -1.25104e+06 -484035 497503 -301744 170052 -611133 163182 -173352 97316.5 122718 490196 441247 -665011 -19988.3 -883052 656241 -211938 530522 116242 -303809 -150446 439949 62375.8 173464 29561 201358 -244772 -21281.5 -92012.2 71347.7 -381622 223860 -126620 99345.7 -291385 287224 46536.2 276486 701114 249466 264089 94017.7 -62582.3 163601 332410 195898 49834.5 108733 33572.7 -219962 -383487 76568 410244 -396633 66906.6 157422 341341 139208 34809.4 711790 -957482 -961195 -853148 -22294.8 191759 53169.9 3675.09 12598.9 
2.65674e+07 1.56362e+07 -6.9834e+06 -6.94475e+06 -1.24846e+07 -1.82111e+06 6.54363e+06 5.8897e+06 -7.91038e+06 3.73772e+06 -6.81842e+06 -4.02357e+06 1.37587e+06 -388000 1.032e+06 1.91265e+06 1.15494e+06 -1.53173e+06 1.08786e+06 -785237 -48978.5 -1.70907e+06 559842 1.18376e+06 1.50777e+06 503221 1.61479e+06 2.20351e+06 -790339 -453339 -51281.8 -167869 -464579 -780940 -768736 1.15932e+06 309263 340561 697843 246250 420018 124224 98292.7 -17990.8 918965 -557589 775863 -662757 -112392 -508529 100156 337598 -510084 -426975 -599595 -490835 1.05102e+06 -90747.5 -333104 -545185 -412704 324477 -72023.1 76168 -108848 582715 -76113.4 43301.5 -138242 -230230 221949 -44563.6 72299.2 -378574 430501 54511.9 -39389.2 -18480.5 5353.33 126591 -217097 -820408 112676 -37947.1 727393 895285 553684 -566958 -666154 62852.6 -411521 591185 646856 -60036 -343547 252413 -817666 -427463 952387 -27651.7 53584.6 -450905 841847 -276401 197900 -88907.1 -331786 260583 17823 
2.80032e+07 1.92295e+07 -1.21831e+06 -4.54595e+06 -1.30227e+07 2.48387e+06 5.35522e+06 3.95129e+06 -5.03711e+06 4.69986e+06 -6.44973e+06 -3.45721e+06 4.29113e+06 -493853 3.11884e+06 2.50868e+06 1.61135e+06 -1.63064e+06 3.29694e+06 671610 259752 -1.62013e+06 815570 -223096 1.19233e+06 858147 1.13062e+06 643725 -479637 -789935 -241687 -633689 278876 -1.51818e+06 -398368 1.18116e+06 527631 873894 449403 193648 827421 118809 16620.8 -441980 538855 -173895 697445 -257261 -112542 -334593 273937 383709 114357 -504672 -371404 -435337 377204 -585860 -596994 168889 -712224 -38457.8 270310 -542800 296784 250368 -529745 328937 -452438 -166811 145584 68827.5 -437425 -257572 488805 517423 -55962.3 261860 -229347 72766.8 201409 149022 -224637 -96450.6 -81030.1 421190 74457.6 -460175 -105057 229158 -65959.8 -259667 -60424.8 -240168 -238334 388849 488816 -202218 -161211 443071 -31528.1 605948 -710962 385426 -257905 -40611.2 689023 -991728 34207.2 
3.3202e+07 2.58664e+07 5.1476e+06 -5.49264e+06 -1.3639e+07 132019 4.45611e+06 4.06556e+06 -4.93695e+06 2.59422e+06 -2.64488e+06 -4.13743e+06 3.91946e+06 438941 4.13938e+06 3.06546e+06 1.4044e+06 -1.28113e+06 2.98439e+06 949859 754962 -951552 1.1164e+06 -1.28237e+06 390913 265586 373163 -1.02964e+06 -637586 -419255 -360617 -26681.6 616146 -1.06589e+06 -373818 496300 323552 999022 -41978.4 172104 292174 268207 330062 -208547 239493 109333 615701 163854 -339416 -232511 387720 230562 428676 -354658 117546 -288478 -282461 -32102.9 -408951 250470 -385376 -596483 256575 -449078 -92289.4 221382 -392441 371119 -486452 -269279 -336200 295156 -578269 -102911 -57873.3 367368 47526.3 -191539 84805.8 -35711.6 202727 421617 -104599 -98869.9 -367478 -288511 44148.8 -25631.9 231827 -196355 111842 -148419 -227784 -34533.5 137719 58424.7 380739 94169.5 -367683 226440 91661.2 405713 -780762 239046 197897 65746.2 -636806 1.28733e+06 -50103.3 
3.23161e+07 3.19062e+07 3.16787e+06 -6.08679e+06 -1.07929e+07 -158390 2.55638e+06 6.83563e+06 -6.16267e+06 1.12842e+06 -1.64973e+06 -2.68011e+06 2.53148e+06 1.23645e+06 4.00883e+06 3.04612e+06 1.95018e+06 -754869 2.36197e+06 1.32122e+06 1.32674e+06 -533915 219767 -874278 614066 72840.6 76611.2 -945214 -334942 408746 -200024 521174 314496 -769089 -246443 57504.2 -168681 1.19561e+06 -139114 -106626 197400 -95534.3 -114344 -200837 102023 -469487 787185 479227 -192373 245136 166648 -598640 458195 -296454 457024 -198999 -464067 -102438 389586 -409288 39938.1 -504790 177619 -398733 406479 33326.5 -611503 230005 278166 -239970 216673 -15937.2 -34460.7 -34200.1 -283822 312235 313577 357855 265367 -512947 69615 18019.3 -699376 262877 -58141.7 -239878 -331274 60674.5 746698 -216274 -9614.86 -128253 -432319 -306273 286780 -976860 640234 941474 -384769 -555169 -417990 -936302 962188 -465026 57032.1 46665 76311.5 -274414 -8203.97 
4.09067e+06 3.38759e+07 -6.36374e+06 7.1167e+06 2.2648e+06 -4.31553e+06 2.3524e+06 9.19695e+06 355141 4.00712e+06 -4.35352e+06 2.09773e+06 1.9541e+06 910163 2.45123e+06 -1.43241e+06 -1.1258e+06 373651 47650.9 2.20708e+06 -1.62434e+06 1.10779e+06 -478968 981392 -1.57676e+06 -938282 -1.12072e+06 -1.33087e+06 2.44461e+06 1.53576e+06 1.43507e+06 1.27667e+06 192877 110024 -1.29041e+06 -536034 -862034 1.3451e+06 965859 -136187 358005 6392.57 -152473 -322300 -580087 -482898 102369 620503 541543 -67914.5 126492 -157887 -591582 958693 463759 32127.4 -118699 757927 -624340 328535 343926 -268316 -679469 -490662 9446.74 -54474.8 -1.04793e+06 87864.4 -715362 154055 -1.18412e+06 429115 676353 -414116 213909 175275 -593201 -27749.2 -693080 1538.16 -543406 -328531 -437674 -512289 -1.2626e+06 78399.3 161528 752576 309344 -465724 957276 -285506 -328767 232993 351324 21896.1 -884934 -500695 439081 569826 -27120.4 -168240 61921.2 -276777 -54061.6 -114721 57647.9 -121551 -61585.2 
-1.54094e+07 2.60006e+07 3.49794e+07 -7.08841e+06 -1.26457e+07 3.09008e+06 -857343 3.06308e+06 -8.63041e+06 -5.37295e+06 1.12435e+06 -265372 -1.53528e+06 2.16683e+06 1.27502e+06 166470 24048.4 -1.39443e+06 -1.30608e+06 1.43451e+06 1.91292e+06 1.31025e+06 -319406 2.58259e+06 274636 -1.96147e+06 1.62579e+06 1.25346e+06 -473152 1.47942e+06 -235066 -22017.9 263631 850862 -188675 -515232 -757167 -1.54765e+06 -300753 -307134 694173 401971 1.0362e+06 -1.63245e+06 -166144 -424703 -919035 271922 -219155 671163 201749 6454.72 -756438 -572579 -177098 268499 -72779.9 -669531 933832 -592653 579425 475074 -1.32253e+06 238413 349255 1.01356e+06 -1.33163e+06 360856 823746 716891 -65768.5 218294 256049 -544441 -836964 -469322 590742 -492176 -44716.5 -484420 -323082 742856 541618 406191 20753 483019 -312982 610043 17669.1 393573 650031 1.08731e+06 -215700 145880 -357857 732713 151365 -151300 -483470 -68061.9 71690.7 -43269.4 -102565 68903.3 73135.8 22166 24353.7 -33585.4 64351.6 
-4.467e+07 2.45031e+07 2.71541e+07 6.99661e+06 4.15133e+06 -3.44729e+06 9.3774e+06 -6.20197e+06 -3.17185e+06 2.40152e+06 2.05175e+06 -1.4707e+06 -427526 -1.64074e+06 -6.23451e+06 -3.14817e+06 3.71127e+06 -1.95307e+06 921721 1.13955e+06 2.10828e+06 -731536 252919 -2.81576e+06 -412802 5.44806e+06 525418 60373.3 302982 -4.69132e+06 -432288 1.76581e+06 1.81003e+06 -1.38234e+06 971802 -564026 1.30494e+06 -194451 -664002 -1.3416e+06 -23288.7 371301 136614 1.65343e+06 -413799 786379 -533676 -1.12283e+06 814511 -633851 290190 -1.06542e+06 61034.9 1.44654e+06 251177 -782992 -208877 -100980 420499 147288 631142 724413 -347069 -437723 532605 365217 -510182 729431 859367 794204 -645635 -322227 594164 -527359 -95225.3 107773 -96790.8 389663 568676 -399386 -506522 -12508.9 730134 162244 -93130.8 496109 -29817 14865.2 41276.8 -606393 -381425 -51070.2 -339804 -17521.3 -48420.4 -396779 -16019.6 -196816 132912 123095 104488 18555.1 -62925.1 116486 27388.4 -16206.5 40308.6 30132.6 21534.4 
-5.23525e+07 2.5791e+07 2.69829e+07 1.1449e+06 1.61442e+06 -6.25682e+06 1.13064e+07 -3.52389e+06 -1.15622e+06 -4.23522e+06 2.52117e+06 -680529 169793 1.92657e+06 -3.18563e+06 -5.33363e+06 2.24196e+06 1.1659e+06 1.36939e+06 -1.97679e+06 -617813 129609 -33061.6 -825907 -346747 644422 -490621 -714963 1.25031e+06 -505973 134149 -771971 -1.0306e+06 -352429 268721 119003 -200251 134531 1.16282e+06 1.38271e+06 -284126 -356924 698453 170780 -144071 118627 156913 -82627.2 -1.67362e+06 58643.1 363229 -187533 -706905 -331408 947753 -581150 396997 47950.6 -616235 190764 -791447 -388945 -107195 81613.5 1.06145e+06 209908 365711 660677 181831 476723 -582985 39730.5 -629796 -503991 -56716.9 -1.04773e+06 394333 -231152 -507076 339000 -33137.3 -100318 -450907 323691 -311714 -556091 -292749 -1.10816e+06 -178758 638625 512833 -49384.1 894037 323263 481912 50847.8 -124698 398505 -365377 -54812.5 255233 -87082.3 95904.4 -119627 -111097 -802595 199227 105153 -117816 
-4.91973e+07 2.59913e+07 3.00488e+07 1.15493e+06 1.36241e+06 -7.03824e+06 1.11161e+07 -3.39818e+06 -1.3472e+06 -4.02948e+06 2.17959e+06 696691 -80716 1.90851e+06 -2.49695e+06 -4.35188e+06 1.74323e+06 1.19732e+06 -400008 -3.15596e+06 -716397 286110 71034 -1.33593e+06 -1.02411e+06 256502 -550314 -1.10473e+06 1.44944e+06 219463 607815 -727198 -1.17898e+06 231468 -162085 77613.9 105667 64791 815258 2.55828e+06 -334535 -292096 404001 165608 377066 58511.9 71964.3 -499284 -1.56995e+06 381758 -188371 -369377 -479644 -563626 794447 -386628 159869 -119182 -607409 64183.4 -435193 -29626.5 706640 24370.6 22877.2 -162061 -370086 57193.2 88087 -15836.4 64307.2 137956 -282509 -29611.2 281290 64639.3 86230.5 -129572 -123639 116149 -172046 -276137 -224484 -88264 184128 90337 59067 102618 94329 1948.25 272568 -12003.1 -109862 -164196 -40303.9 148284 -5556.99 -127006 -82813.5 10615.4 -100409 185982 135323 62756.2 63492.5 1.48465e+06 -506795 -317722 185225 
-4.67563e+07 2.82155e+07 2.93012e+07 -1.01426e+06 -886377 -7.4579e+06 1.12565e+07 -1.84826e+06 300429 -5.60541e+06 799861 1.50564e+06 -82369 1.3168e+06 -945828 -2.35536e+06 893691 2.23463e+06 -1.31435e+06 -3.77858e+06 -1.63382e+06 26186.2 561734 -1.52945e+06 -651007 -1.07373e+06 -728788 -1.00642e+06 703825 1.09139e+06 -376027 -1.31911e+06 -834145 732405 104469 676567 242625 578075 215594 2.56166e+06 -379410 355908 -266542 39526.7 1.00906e+06 -306342 -444841 -863389 -510920 1.02148e+06 -615382 -612476 -186172 -254498 374045 90543.6 166745 -328839 410566 -812358 62784.5 700990 1.18122e+06 -214571 -620891 -780789 -603430 -768781 -208269 -560890 993045 -334.904 390597 251495 616181 960426 -3538.09 203097 447020 -691460 -368226 85647.4 -205204 -305390 541077 412138 147152 1.00367e+06 -157187 -177308 -152159 77446 -750044 -98859.4 -230965 12539 273017 -221806 192808 -23042.4 15212 -94541.1 -220418 34259.1 16258 -842224 258483 219393 -143141 
-4.69771e+07 1.87597e+07 2.40527e+07 -3.839e+06 -3.99087e+06 434304 9.81808e+06 300122 -6.13428e+06 1.24827e+06 -1.12418e+07 1.57405e+06 724397 -1.25384e+06 -3.2612e+06 528645 290954 -487645 -1.61714e+06 -709710 -1.85736e+06 -1.33557e+06 1.21544e+06 244438 39459 40439.8 146783 2.65129e+06 -770334 -118103 -2.35631e+06 -512685 740917 233560 723532 1.09767e+06 -36788.9 1.29046e+06 429723 -1.02093e+06 99422.6 1.09586e+06 -361882 1.07809e+06 1.08088e+06 -1.21669e+06 501615 -596397 1.01601e+06 -435034 -316762 614956 -348452 532581 -1.69495e+06 906288 1.05028e+06 -482773 -157317 -222319 146340 1.18299e+06 -94510.4 -101373 -461045 -524302 1.35455e+06 -1.02502e+06 -266325 -22641.7 -805300 311055 1.18458e+06 418119 -713475 -65689 78751.8 358702 -153808 204850 -765452 226547 -205800 -94544 -5802.5 -1.12716e+06 -425866 582805 -55501.2 493702 138266 93762.4 240755 287075 563705 11202.4 43169.6 508227 -269885 -72559 108837 40823.8 -83201 33122 -89347.3 236326 -21158.5 -23713.6 17244.1 
-8.36075e+06 -1.3895e+07 2.62378e+07 1.05917e+07 3.1613e+06 -3.39006e+06 -9.11114e+06 -6.10983e+06 -4.07162e+06 6.1907e+06 6.33255e+06 6.03992e+06 -2.31072e+06 4.5479e+06 1.36276e+06 1.19885e+06 247308 -524721 -2.55302e+06 710250 2.43532e+06 -8.53043e+06 -3.02828e+06 -787563 -3.09749e+06 -5.88887e+06 -2.06735e+06 25363.8 -1.33381e+06 -2.79907e+06 244119 2.78769e+06 1.92726e+06 -241604 -1.10808e+06 182561 1.45554e+06 1.68548e+06 890679 347968 1.63454e+06 -649188 1.12783e+06 -1.30074e+06 436004 2.3919e+06 971896 35851.6 -647208 408899 1.25658e+06 -223676 -487962 4662.06 -630239 362756 379849 -196919 -604654 -222897 -366698 154798 1013.36 180601 -118518 -437157 211790 46196.1 175216 -51704.4 136699 83112.6 210717 -122615 44018.5 14776.7 7559.13 76894.3 40048.4 -146216 -250044 -73734.2 -22900.5 32699 68654.3 -76286 -661.852 -18161 44700.2 37507.7 -62696.1 39568 33045.3 22371.7 75813.3 58715.3 -8548.63 -30855.4 59019.9 -36582 -53272.4 -16707.9 -1390.8 -7444.97 -1785.63 -12017 57322.8 9990.26 4015.25 
-1.59622e+07 2.90555e+07 3.99877e+07 -8.43422e+06 -1.08075e+07 4.38679e+06 507182 1.76725e+06 -8.43465e+06 -3.95904e+06 58917.4 -1.58849e+06 -707793 2.13223e+06 -1.65783e+06 -1.56464e+06 -771220 -190781 -2.2079e+06 459219 580251 1.05253e+06 34977.6 3.02035e+06 -741898 -2.76679e+06 460380 1.49194e+06 208829 1.25057e+06 -917731 -640637 526186 959708 224009 -301852 -1.58972e+06 -1.38525e+06 -310902 532750 -659393 736639 287028 -1.7693e+06 334600 89836.2 -164461 210230 -27440.2 302989 211063 -136721 -41322.2 -352222 -91783.3 -98280.1 82019.9 -649393 20864.2 -680558 482735 -239270 -425094 378532 354159 570800 156987 -305412 -200307 620781 14380.5 -692407 542107 -2545.86 -135849 -360669 -370971 -301301 -23888.1 -243511 635405 19891.5 80509.9 120253 208811 -748475 33121.1 -526319 -245345 -1.19276e+06 -761102 -1.47115e+06 281564 -336219 98902 -889577 -9547.17 -332979 446891 297384 -27835.2 314494 -164173 -84379.9 8072.67 32827.1 26221.6 -17085.6 -25647.3 
-4.37404e+07 2.35972e+07 3.43599e+07 -5.52476e+06 -5.01984e+06 -1.51159e+06 3.41859e+06 -1.81571e+06 -6.1215e+06 -1.2379e+06 244025 669444 -642342 1.59262e+06 -1.91202e+06 -2.91047e+06 -551594 -704496 -3.53784e+06 -742026 1.37469e+06 1.28313e+06 -1.47712e+06 2.77644e+06 -911802 841908 -553710 -291044 556122 -51179.5 -578284 1.35516e+06 1.14981e+06 354607 -1.22413e+06 912728 -174156 -1.13527e+06 -1.06696e+06 -1.07391e+06 -1.02735e+06 -636760 211296 231798 293506 555429 296207 370238 1.04524e+06 -115501 -366981 647517 1.11743e+06 -258417 -629770 427631 -670872 1.07237e+06 245530 724172 31028.8 -790143 296041 -252502 -190051 -216865 485392 378773 -371321 -526898 339690 270868 -484792 704399 188140 375412 -350614 256928 -193914 102644 152421 -429556 -145172 -214170 -360477 456598 1101.2 -142567 123699 322007 -17400.1 9863.06 73927 -118956 -48114.9 127357 91114.1 -10024.3 -259007 149937 -92402.8 -97508 51233.3 -50867.9 71273.1 -344803 -131638 -18662.6 1.17896e+06 
-4.38926e+07 2.17528e+07 3.46072e+07 -5.81422e+06 -5.43803e+06 -162776 2.6913e+06 -1.56586e+06 -6.96366e+06 -679281 -380714 946860 -289862 1.45025e+06 -1.80423e+06 -2.52747e+06 -714615 -853253 -3.81524e+06 -464176 1.47525e+06 1.36808e+06 -1.52206e+06 2.94986e+06 -1.14651e+06 1.09505e+06 -589238 -231368 376502 -189368 -476965 1.24795e+06 1.28093e+06 308673 -1.19884e+06 858494 -161918 -1.41042e+06 -988438 -1.30306e+06 -823765 -606194 353501 475572 -66615 560166 282210 368733 1.15975e+06 -296689 -215226 571668 1.08626e+06 -540042 -405956 328902 -618623 947484 157958 813197 -210984 -726846 148479 -185937 -13800.6 -188696 463431 426749 -310817 -424747 360377 113600 -350738 518623 257660 296191 -128377 188176 -122868 117868 214702 -413698 -237360 -75883.7 -212606 438556 13594.2 -65104.2 -22997 291574 57647.2 165968 12176.1 -19625.5 -246530 212444 49767 69051.4 -31481 -107956 -179338 -47811.1 107448 150999 -121172 207431 74205.5 22876.6 -1.2344e+06 
2.814e+07 1.78364e+07 1.81151e+07 -6.58731e+06 -1.68105e+07 846003 1.82036e+06 314948 -4.31763e+06 -1.55789e+06 4.37626e+06 -2.41331e+06 1.67545e+06 233869 2.57608e+06 -370337 -399003 -515936 -904550 -1.41905e+06 -967927 -338626 1.67522e+06 -1.75596e+06 -1.35694e+06 2303.62 626070 277060 -951761 -1.19123e+06 919014 -271274 257863 304560 1.01469e+06 -681980 -237343 1.24889e+06 -197571 -88422.8 -621561 1.07621e+06 -202004 146312 78642.1 358010 -106521 -457064 -130006 -514703 -82109 -192601 283211 547806 -78130.8 -454893 -515034 524735 -867329 -112739 664610 -301225 258491 517762 -906560 -66367.6 -270695 -614128 78517.6 147119 -220740 -582620 -467123 792303 667133 -761198 -863839 -1.09761e+06 535889 1.01945e+06 664625 333960 1.13218e+06 39695.6 -100119 -313002 1.45139e+06 298233 614264 -247839 -179965 215528 -105838 593308 306958 641027 -492825 464251 -278547 -394441 -358514 18373.8 94730.2 -121813 -45615.4 -88589 181848 -189583 -6642.48 
-779863 3.40268e+07 -1.1401e+07 1.3061e+07 7.22755e+06 -5.52056e+06 -1.82825e+06 1.13695e+07 3.83983e+06 -897094 -2.68799e+06 3.30654e+06 2.40717e+06 -2.08336e+06 1.33719e+06 -3.00689e+06 -2.05727e+06 -173255 -2.99473e+06 1.56046e+06 -1.52186e+06 1.71376e+06 511272 -897673 -1.01186e+06 -251399 -839587 -2.18877e+06 564046 1.51695e+06 708947 805985 -122314 190325 -47116.7 -517255 -452594 -127434 830840 425721 930014 -1.55589e+06 4761.3 1.20127e+06 -363746 1.10809e+06 639628 143679 -596606 -241520 -192808 494071 -274552 -240791 -589811 513883 423739 150780 155427 -591824 -141929 -762602 -352817 52891.4 -574927 879232 229849 144001 -566988 599480 -1.31175e+06 65283.5 651940 -103589 -413716 -415270 512369 -188329 69357.5 774058 -626512 143618 -589154 29531.7 477771 209061 540268 -252864 326701 -69233 -1.38933e+06 445689 -381851 -412218 -551293 -108220 314389 129993 -252068 -278636 -132012 504422 307448 592188 -41513.4 -180803 -32462.2 -3406.41 26932.5 
7.33014e+06 4.24269e+07 -1.4717e+07 5.54303e+06 9.26203e+06 -7.18016e+06 -5.67599e+06 6.57568e+06 1.12961e+06 -770544 4.13637e+06 -3.94568e+06 -4.42749e+06 -5.17002e+06 925810 -1.74499e+06 -405966 2.06e+06 -1.27089e+06 1.53369e+06 -1.28047e+06 -1.5337e+06 1.33598e+06 -420776 -901946 1.1848e+06 -2.08734e+06 -1.38566e+06 -965198 -885128 634568 -321016 823224 -2.25418e+06 -533095 -803501 45647.9 -486345 -631534 468995 -226169 -544980 32941.5 -331617 1.30689e+06 -252860 -293097 -1.53149e+06 534979 -1.1815e+06 -778125 -321386 179207 353815 94225.1 -44200 -508109 -629809 293551 -559498 -295683 -662344 -654135 -482851 43996.1 -721955 -275728 200902 114851 -295848 1.10522e+06 69181.8 629890 108473 -737941 1.24854e+06 38724.2 -720139 -1.46178e+06 177384 383868 766698 95443.4 709238 -392577 -652645 154987 284650 -188117 -159750 -57910.9 -62540 1.01037e+06 58403.6 -544504 465169 256886 152550 311151 -91948.4 157143 -87811.1 106484 -77493.8 -35511.3 61197.2 14662.1 -5484.39 25603.5 
6.37921e+07 1.43071e+07 -2.55452e+07 -1.09936e+07 -588947 -3.76116e+06 -924389 -5.87735e+06 -2.24565e+06 -4.11272e+06 -1.46726e+06 1.35678e+06 -5.60575e+06 783278 -6.25044e+06 3.28659e+06 -1.34764e+06 -3.42196e+06 -1.3053e+06 806986 2.74685e+06 -566775 77637.6 2.24812e+06 -124484 -851177 2.88468e+06 -3.19274e+06 -554976 -10671.5 -29041.6 -172335 -4.31245e+06 2.30326e+06 34008.7 -327070 1.13505e+06 855545 -887510 -208250 342322 1.38552e+06 -1.18525e+06 285562 -643173 1.57746e+06 101091 -406491 380385 1.2335e+06 -563859 448585 812646 -261007 353378 -2.1945e+06 -109406 -1.3098e+06 -1.03655e+06 -30941.2 558167 -325747 437012 -999988 -1.16247e+06 -652572 47500.1 387784 437596 -347716 -461613 247001 -32997.4 -217004 -1.10048e+06 92428.3 -635408 -36518.4 -239466 330112 -488508 -108325 -345225 216446 -401990 8702.18 -159939 -66608 -293331 -195981 -185648 275230 144502 -108161 150410 533.415 24857.5 -140097 -52511.9 -96828.2 17125.4 133534 16393.5 -108709 14424.8 -44661.4 68165.7 -39649.9 -32408.1 
2.5072e+07 3.80655e+07 -4.04833e+07 561039 8.89888e+06 -1.22144e+06 -5.391e+06 -7.59215e+06 -3.50143e+06 8.0676e+06 -801302 -2.61821e+06 2.7007e+06 2.91701e+06 882288 -7.12535e+06 -1.21839e+06 1.3159e+06 -1.85725e+06 130391 -2.69568e+06 1.33674e+06 -3.52806e+06 2.74992e+06 -2.7019e+06 -93906.2 256180 1.49723e+06 2.63824e+06 -322103 3.071e+06 -1.65064e+06 750532 -588300 -815567 -2.00804e+06 3.16825e+06 2.72729e+06 10952.3 55515.2 -321149 1.68188e+06 -2.35792e+06 -1.56252e+06 179823 -1.63552e+06 390768 1.25264e+06 430943 1091.91 -317525 509157 -466575 211897 -177713 -760488 -346878 -345054 874761 607003 -435999 434970 311482 -839524 17416.1 734593 872210 -248544 377700 150725 661881 70485.2 -53628.6 34238.8 -94751.8 -503910 366812 -35250.6 237070 -328236 13428.3 219212 262311 171110 214366 276841 112157 -247867 24662 -28350.1 -175864 136779 -93028.2 73916 -29757.8 -75112.4 170892 217925 -89855.4 32586.7 11438.6 -692.414 -166418 -29767 5046.06 40158.4 -52657.1 59534.4 -4002.99 
5.94428e+07 1.99492e+07 -3.07651e+07 -1.16287e+07 -972421 2.72597e+06 -1.27737e+07 -3.30692e+06 -1.58548e+06 3.92049e+06 3.0554e+06 -2.52015e+06 1.79562e+06 3.8777e+06 315107 -913524 350257 871072 -310134 -5.11891e+06 -1.69242e+06 -365818 2.84151e+06 -1.39291e+06 -1.32098e+06 836820 994218 608804 1.2406e+06 42471 291383 206243 2.25385e+06 1.71679e+06 334930 -3.1225e+06 -1.21226e+06 -1.69919e+06 -647884 374517 123869 595087 2.52241e+06 1.11601e+06 1.18562e+06 -880436 689428 -276784 967866 -326246 610353 593109 -1.43449e+06 -43708.9 42455.9 390916 505387 -57750.8 -426030 1.03494e+06 -663693 -393912 691557 1.41624e+06 -1.03722e+06 -31477.5 -488423 43824.6 1.68105e+06 -784253 -841807 129165 -421229 -243980 -428388 255717 -561462 221424 -343089 -93275.9 -236745 228785 -327125 -500283 -20067.9 128046 -563789 12878.2 -237308 55136.4 -322071 -230647 -70956.2 -147755 -37117.3 -3172.15 80766.1 -96057.6 -89931.4 46571.1 60810.5 -139415 39090.4 -30976.8 -18213.3 -68224.7 66292.1 -5707.76 -23340.4 
5.19535e+07 2.68664e+07 -3.50172e+07 -1.30257e+07 1.25084e+06 1.58416e+06 -7.41448e+06 -5.93708e+06 -5.67344e+06 3.03174e+06 -425672 -2.27004e+06 -855090 3.14635e+06 578512 2.22122e+06 1.4516e+06 -512412 -40034.7 -2.70034e+06 -7931.17 1.96706e+06 309102 -547605 317348 2.45381e+06 2.14586e+06 -545934 -644379 -826718 1.32084e+06 -20146.7 986825 1.98967e+06 -229376 -1.76944e+06 2.0231e+06 -1.07149e+06 234789 346030 149213 -442167 1.50535e+06 347508 -414137 1.36472e+06 275497 475493 -204038 1.07256e+06 -279134 1.75308e+06 523630 -367624 1.10947e+06 1.15326e+06 -301750 -754727 251863 -1.34075e+06 439458 878211 -630164 254640 1.82492e+06 -1.76532e+06 255316 -282029 -1.33536e+06 318405 121337 -317908 922135 -384641 1.01671e+06 89912.3 533150 -55486.3 -205232 226257 -203865 -348686 247279 -209095 -248458 -202210 359396 86220.6 195848 405317 88411.2 -124174 62568.5 42939 -42901.4 -124987 -50856.4 -56460 -125824 -123732 -85178.7 87470.8 29602.5 75798.9 15711.4 -13440.6 -79804.7 7932.11 29444.6 
4.4485e+07 6.99949e+06 -3.91175e+07 -1.16237e+07 3.6332e+06 -6.12342e+06 -1.00047e+07 -719475 -6.3822e+06 1.84351e+06 -3.82249e+06 -102270 3.19787e+06 2.27e+06 -131423 -1.77313e+06 1.32153e+06 3.22405e+06 -1.07961e+06 -2.42019e+06 -3.04088e+06 -619052 522178 650314 2.80701e+06 -816551 -1.16441e+06 4.61619e+06 314343 -1.53672e+06 -161490 -997741 -473429 2.82258e+06 2.41696e+06 1.32226e+06 -272556 -2.09479e+06 640855 -208564 -1.39944e+06 -343590 -1.60972e+06 -542928 -288507 2.01676e+06 -557076 -376298 -1.65279e+06 -154130 1.20756e+06 -2.31455e+06 2.0556e+06 1.62688e+06 -1.09327e+06 -199189 -355826 835476 -5932.62 179011 -803056 -1.01426e+06 147061 -351912 58286.5 -53646.5 -572230 345185 -362873 94204.9 -18606.1 283673 437792 -392306 -56920.5 158457 254000 -30584.2 166739 141487 -225570 383546 -182588 95947.7 27469.2 -109857 -208149 92706.1 -14143.9 125150 81846.3 150173 -162690 33115 52242.2 41782.9 -5202.54 -32371.8 30923.8 64397 87616.4 -43137.5 -12252 -14372.2 9506.1 19554.2 -51993.5 -33251 -4473.09 
3.98015e+07 2.78217e+07 -4.37915e+07 -4.18298e+06 4.12327e+06 -4.41902e+06 -7.94876e+06 -6.56958e+06 -5.21502e+06 -1.50704e+06 -5.75036e+06 -334157 -3.57867e+06 3.22599e+06 -1.06604e+06 634800 2.07836e+06 3.67824e+06 -4.4146e+06 744101 3.66666e+06 1.84294e+06 -2.97463e+06 36195.8 4.61448e+06 -122403 -2.65319e+06 -2.1876e+06 -2.27964e+06 -1.42376e+06 1.00709e+06 -284943 684326 -3.16574e+06 -649470 1.59842e+06 -809795 -515459 1.74729e+06 692422 -378898 -1.92128e+06 2.17228e+06 1.12514e+06 -1.15107e+06 -2.4561e+06 -830600 435575 485605 2.15613e+06 -303887 -948903 -149883 -75332.2 -331582 -755327 1.44995e+06 30518.6 -475222 -3206.29 -33480.6 61341.9 30650 160662 -721543 379067 226300 -299403 129717 498295 154152 -140015 85056.6 146610 -18145.1 39311.5 -237057 211238 457738 276007 494144 96708 334965 -93031.4 -220151 -138222 51082.3 2193.09 -11611.6 -2374.07 40529 -22628.4 -168291 204585 129381 -22030.2 -4320.19 36217.9 -39251.8 82752.6 -75387.7 82149 -67773.1 -45754.8 4734.14 1916.78 22600.7 9622.99 6866.53 
4.25955e+07 -7.85669e+06 2.4754e+07 1.48281e+07 1.57545e+06 -5.91497e+06 -8.33956e+06 -1.3048e+07 -1.00604e+06 4.29335e+06 -1.46107e+06 -6.47781e+06 2.1302e+06 15667.6 542841 1.11109e+06 -2.39869e+06 -1.01065e+06 -2.39238e+06 -2.97871e+06 -904979 836995 2.58193e+06 -442600 2.70496e+06 2.8514e+06 264366 -23275.6 788310 5.15356e+06 7200.67 1.93015e+06 -2.0348e+06 -3.42804e+06 -2.39288e+06 272163 981074 -513851 -289479 -460884 738773 92477.2 723469 -1.18266e+06 -1.02823e+06 1.61691e+06 1.61577e+06 -1.89665e+06 -1.16951e+06 -83364.2 14045.4 -673238 -526819 -302173 -1.02695e+06 -26055.4 -1.97761e+06 409289 223137 -436990 137647 247437 505359 331005 43552.9 813618 513347 -729650 424366 -16876 59916.9 -414410 565135 104614 -125373 -172921 -218445 306156 346425 1204.5 45450.1 76727.6 -303745 165559 -296011 -220741 -183320 36278.3 -4151.3 98122.1 222267 -56510.9 -78366.1 214739 27552.8 18550.4 -97584.6 -209177 32141.9 -55664 44554.9 34147.1 -97314 -150860 -13970.6 -10543.3 31593.3 -11183.5 -8329.72 
2.2646e+07 1.46337e+07 -3.85605e+07 6.34273e+06 -547052 -7.54648e+06 2.39944e+06 -4.7511e+06 -690404 -518800 -7.94057e+06 -757512 13437.7 -7.38352e+06 1.83897e+06 -2.08816e+06 3.92955e+06 -286823 858277 -4.61722e+06 2.3405e+06 1.17697e+06 -2.6335e+06 -2.23293e+06 -1.26815e+06 -1.17988e+06 1.56785e+06 1.7063e+06 223337 -2.2618e+06 260374 785790 331497 427328 -550844 -26148.2 -856696 1.5141e+06 -148157 -935252 1.24038e+06 -1.11701e+06 -2.06942e+06 605875 -620143 1.24348e+06 -2.48741e+06 -1.43188e+06 204225 335616 -1.18728e+06 425302 -1.00929e+06 -1.174e+06 -1.0563e+06 1.17197e+06 -618889 517767 311950 -1.09868e+06 337702 -253180 -373916 1.16262e+06 -59837.2 117156 -333764 -40099.3 -200911 114411 556042 442516 -1.13842e+06 146630 -301958 -636119 -646308 -397708 -171510 -462799 252166 -361585 -452925 -208252 -24110.3 -328468 -503942 -28753.7 -57895.4 -450263 206453 -71927.2 3426.55 -216303 -47569.2 620.62 -2589.13 -173945 -208152 16375.1 53805.9 9686.62 28908.2 -25292.3 34891.5 29070 78282.6 32069.6 -29779.2 
4.99823e+07 4.22134e+06 700143 -1.1944e+07 4.96474e+06 4.7283e+06 -1.98082e+06 -3.65975e+06 -7.6691e+06 3.25569e+06 7.29842e+06 6.83421e+06 519329 -8.95022e+06 -1.95409e+06 -1.97839e+06 6.14846e+06 -3.8735e+06 2.96735e+06 3.17025e+06 -1.27146e+06 2.49101e+06 -659871 -2.39638e+06 -88074.3 -2.40194e+06 1.81336e+06 -1.89425e+06 -1.30982e+06 1.7161e+06 -1.76822e+06 -1.22627e+06 1.13749e+06 -172865 -416565 591109 -403009 3418.77 -671876 1.07196e+06 -1.09957e+06 -745152 -288284 -1.08816e+06 402293 535615 1.62699e+06 -841159 1.49652e+06 1.57142e+06 -926753 -744411 -670165 1.23892e+06 -641712 -1.12992e+06 -338730 552274 709106 1.0651e+06 -952767 -434100 -1.25915e+06 310702 198711 -380487 108033 -1.25032e+06 158633 -197856 -269486 -260050 -351877 -141143 492509 -115746 729849 -5585.34 -102993 514113 -12482.6 -496435 -91746.5 106379 374024 -7566.57 -223231 152012 117036 96166.2 36928.6 84200.4 -142185 -76046.1 72288.8 26551.8 -82460.6 -87669.7 75231.5 51362.4 178309 41012.3 -25209.6 8990.76 -17128.2 -156.685 -21666.3 -9875.19 -2312.07 
6.25176e+07 1.08142e+06 3.37957e+06 -6.62336e+06 1.65415e+06 3.73708e+06 -1.82498e+06 -4.56368e+06 -2.19233e+06 -452094 3.31749e+06 1.12578e+07 -1.92275e+06 -1.04299e+07 -3.33361e+06 427728 2.2903e+06 -7.52858e+06 3.58656e+06 -1.58669e+06 -3.85474e+06 969028 1.97603e+06 1.07357e+06 1.42603e+06 585989 -2.99851e+06 -38385.8 960185 -971491 3.09203e+06 -832210 774655 -498494 -1.32289e+06 255427 -701717 -849877 1.04583e+06 -550028 -924189 1.14061e+06 1.18515e+06 -73757.2 1.35726e+06 307466 -822811 1.67263e+06 -1.18409e+06 45505.9 1.98365e+06 164967 -562258 -816166 68447.8 -49197.2 -393255 249260 -452135 -1.4606e+06 541344 286291 299360 -582606 -725960 372471 860491 656280 -273322 298855 290940 448120 27085.9 608474 -224985 -198866 -285565 595311 -183252 -159052 159151 310136 99535.8 -75825.2 -31640.6 113614 18471.3 162857 43302.5 -75582.3 145806 117853 -67249.3 -86301.5 -43028.2 -73667.6 37348.9 161131 183641 138172 -133467 -120283 1126.1 74670.8 -14676.3 -14324.3 22214 8725.97 -9129.05 
5.31054e+07 -2.06444e+06 -4.94553e+06 -1.57325e+07 1.0207e+07 6.93297e+06 -8.83417e+06 384563 -2.75021e+06 4.07473e+06 8.6842e+06 2.80714e+06 8.46025e+06 -695018 -1.73381e+06 -7.11232e+06 2.94773e+06 2.33953e+06 169694 1.21351e+06 -2.36878e+06 -2.62227e+06 2.5039e+06 681458 613020 -2.61185e+06 1.44973e+06 13176.2 -481498 2.33433e+06 -5.36017e+06 1.4892e+06 -234101 -1.93604e+06 -1.41595e+06 -722734 1.12975e+06 -357387 -1.90164e+06 -377657 1.01049e+06 -879056 -1.20412e+06 2.40046e+06 -474776 -1.27141e+06 -1.18178e+06 270272 -1.15331e+06 -273892 -308096 321398 1.22405e+06 -712893 683167 -11241 1.05085e+06 -536567 -10472.1 -533791 346579 406557 465288 232831 -97015.2 391820 -22495.6 820299 -333655 621237 142685 371258 205344 507827 173572 155944 -193611 -175702 285146 -20964 -206251 -354928 71337.3 129899 -193305 51442.7 105590 -9894.55 -10066.2 -209988 348746 -54207.1 112610 -136899 195831 146135 -119133 -32726.4 -38864.8 -79359.2 -82541.5 -38737.5 -78644.2 -23189.1 259.567 4470.91 20879.6 -8413.98 -1498.64 
