-5.36064e+07 -5.1631e+06 -1.60344e+07 8.61669e+06 -7.09177e+06 1.64449e+07 -4.38828e+06 668355 163631 479713 1.0012e+06 -1.35558e+06 3.07721e+06 1.86005e+06 298582 520488 1.51093e+06 -232164 -1.77461e+06 -911329 -1.5277e+06 -749749 1.40731e+06 2.36172e+06 1.93533e+06 -2.18091e+06 75437.9 -111713 -1.5366e+06 796455 -1.58834e+06 -101492 311312 987794 1.95681e+06 873900 564511 693940 379932 -2.26283e+06 18933.8 121098 625324 49723.1 -473856 -543085 -171677 278735 -237644 -744216 
-8.25774e+06 -2.71645e+07 1.76156e+07 -4.69235e+06 3.70015e+06 -5.38085e+06 6.32969e+06 3.36995e+06 1.87507e+06 -3.20488e+06 574901 4.31624e+06 -3.95544e+06 1.35917e+06 3.49719e+06 -1.10542e+06 1.33959e+06 390921 1.23697e+06 -1.31201e+06 -1.22222e+06 -256664 -665148 1.54554e+06 -1.19275e+06 23680.8 1.82824e+06 -932195 -1.56723e+06 547367 710931 1.78727e+06 -1.47902e+06 113492 -762740 2.01185e+06 286352 710827 467475 -1.30883e+06 -99400.6 -1.03345e+06 815040 -151876 -342792 -1.02024e+06 -195140 584440 -381777 838020 
-1.67911e+06 -1.85004e+07 -1.50932e+07 3.51102e+06 -4.63568e+06 -1.21243e+07 -257765 -4.02336e+06 -2.74353e+06 3.5915e+06 -2.98276e+06 -2.65378e+06 -1.31189e+06 -3.54329e+06 -2.8113e+06 -3.23936e+06 1.62038e+06 4.27145e+06 559663 2.15155e+06 -550278 578283 -1.04694e+06 3.38643e+06 2.04667e+06 1.23242e+06 -2.33966e+06 1.65212e+06 -1.16467e+06 -1.15972e+06 35776.6 516943 2.38518e+06 2.07492e+06 445948 2.44456e+06 572394 328993 -757580 3.03847e+06 779373 -435905 188484 -2.00647e+06 -528603 441529 -1.13555e+06 690616 747729 185394 
-1.72732e+07 -2.35598e+07 1.22973e+07 -3.78935e+06 -1.3997e+07 8.36259e+06 731184 -1.23234e+06 2123.84 -3.38844e+06 -3.25503e+06 1.24086e+06 456890 1.58666e+06 4.90811e+06 -1.16997e+06 -2.6557e+06 -622508 1.11182e+06 804482 561128 1.72141e+06 392363 -379727 -2.2576e+06 -1.17282e+06 104880 -517121 -1.7898e+06 -1.57423e+06 98514.5 -816577 242847 -1.35475e+06 1.49743e+06 145673 -28832 -1.26585e+06 -560934 829915 -85125.8 255598 -636204 830460 -387794 1.0326e+06 652852 268654 -735791 -492967 
-3.66864e+06 5.90166e+06 3.42399e+07 7.54895e+06 -8.77006e+06 1.01599e+07 1.9233e+06 145577 -3.20258e+06 -1.11434e+06 -2.00149e+06 -2.41476e+06 2.84249e+06 -4.85723e+06 3562.99 -2.13584e+06 -326829 -1.56854e+06 722876 -1.09056e+06 -519007 -1.48878e+06 -822212 -1.21076e+06 -2.2713e+06 1.36959e+06 166693 -1.53986e+06 2.15406e+06 753177 -1.41521e+06 556241 -978147 599628 2.0594e+06 203757 108512 978923 -1.04055e+06 368225 3.54296e+06 -1.987e+06 -426307 -859131 -140152 -1.20965e+06 -695071 1.39602e+06 44468.6 2.14563e+06 
-7.28456e+06 -3.4252e+07 690882 6.49037e+06 -7.69582e+06 -5.36965e+06 -3.87931e+06 -1.92197e+06 -2.10078e+06 -817563 -1.39714e+06 -2.84933e+06 831252 5.31908e+06 -2.97021e+06 777494 1.07196e+06 -2.29793e+06 327055 -1.20128e+06 973058 -612482 -645319 -400869 2.55461e+06 -839509 -366260 748876 1.37561e+06 -34142.8 -1.50266e+06 1.1954e+06 -1.52315e+06 1.65343e+06 -441029 521534 -30746 -715074 -201130 -369389 -471655 -671208 323332 932631 22795.1 -68802.2 -269308 416741 -770985 1.22756e+06 
-1.06225e+07 -3.18261e+07 3.4855e+06 2.69249e+06 -4.87266e+06 -6.18638e+06 -4.70384e+06 989178 -1.83113e+06 -1.86057e+06 -1.24114e+06 -1.47029e+06 1.36566e+06 4.82471e+06 -1.13537e+06 -102805 -716818 -3.47804e+06 439587 -273000 382006 -671321 4525.68 -836999 2.12031e+06 -812624 -899513 -199980 949387 274990 -1.26955e+06 752202 -1.03276e+06 1.58172e+06 347056 573072 -386395 -571372 -138752 -255543 -122609 -476873 -405291 732061 135746 -128216 -615260 219972 -645348 1.03582e+06 
-1.11563e+07 -1.86862e+07 -1.97134e+07 3.34074e+06 -9.98203e+06 -2.2041e+06 2.06743e+06 -5.1602e+06 -3.90828e+06 560250 2.39738e+06 10732.8 1.45763e+06 829908 642427 -1.25372e+06 2.36147e+06 987483 -2.23866e+06 -346944 -1.93447e+06 -93243.9 -1.2921e+06 -2.12253e+06 -182114 -1.95139e+06 2.17053e+06 1.98482e+06 -434109 -533037 2.08149e+06 -793114 530394 -360215 614192 20338.3 -2.39294e+06 -271414 -293579 -314564 -806443 -609952 -1.44909e+06 -406992 -528519 216816 -41830.9 1.43768e+06 -173024 -856235 
-3.88856e+06 -2.46572e+07 1.03178e+07 -4.2353e+06 6.63276e+06 -9.23643e+06 -695462 6.9591e+06 1.02923e+06 -1.0674e+06 1.19568e+06 -878162 -856393 722534 -924404 -332078 -13508.5 1.11914e+06 380125 -1.63525e+06 -2.71305e+06 -1.11971e+06 -484332 204042 -417210 380654 903422 25820.3 814943 2.12748e+06 -507125 -122667 -136053 251947 589593 91414.8 -734910 417373 254673 -239647 128846 -136868 -882925 494486 1.0176e+06 587586 -246731 -16974.9 993918 620370 
-180953 -2.61397e+07 7.99141e+06 -15990.4 7.34346e+06 -1.12997e+07 -3.53284e+06 4.73746e+06 -78060.2 965597 -122384 -4.74344e+06 -199247 -693495 -2.81522e+06 2.60663e+06 -947764 1.04312e+06 989782 -532298 -861856 -1.01758e+06 150166 -321602 -290840 -2.082e+06 138169 391185 1.47991e+06 559154 -1.07423e+06 -1.83001e+06 1.65195e+06 685625 909379 -1.57583e+06 541357 -1.10008e+06 129389 -202269 942576 351423 465532 -221551 204121 162845 -195385 729023 636930 639708 
2.30577e+06 -2.42677e+07 1.25181e+07 -523232 7.9117e+06 -5.99155e+06 6.28443e+06 7.02093e+06 1.69728e+06 -1.24309e+06 6.46683e+06 62049.6 -7.24698e+06 2.88521e+06 -4.00702e+06 -781267 3.19233e+06 1.07462e+06 311053 1.917e+06 -1.76133e+06 -576056 1.74965e+06 216946 1.84674e+06 1.09037e+06 -309098 -3.3707e+06 -720290 -1.17107e+06 -1.38691e+06 -1.96413e+06 243560 1.03395e+06 887389 220142 1.67947e+06 -342134 -123140 1.09082e+06 1.89531e+06 414736 752977 470550 -922997 -391522 1.7731e+06 -1.00797e+06 -676070 -578195 
-4.40019e+07 -1.33011e+07 -8.93016e+06 1.49106e+07 -8.00564e+06 2.06909e+07 -8.13901e+06 2.08127e+06 3.59841e+06 3.0596e+06 1.43213e+06 -3.44593e+06 -1.23718e+06 -2.00833e+06 -1.31845e+06 2.84296e+06 1.65622e+06 2.75027e+06 1.32813e+06 -1.82638e+06 -1.99709e+06 -566397 -53784.1 -804704 -650118 285353 1.41417e+06 -1.0967e+06 -3.33689e+06 324969 1.72159e+06 -2.11109e+06 -207860 1.15064e+06 -425097 -32541.5 -514124 123818 1.63061e+06 2.01653e+06 133009 1.57836e+06 -268715 -537856 1.56631e+06 -560161 -263071 -1.15904e+06 -265725 1.30067e+06 
-1.6321e+06 -3.06448e+07 2.03654e+07 1.88332e+06 9.02688e+06 -7.05539e+06 -803471 7.37404e+06 758410 -3.01476e+06 4.12893e+06 527128 -1.82106e+06 4.16574e+06 -1.74589e+06 619930 997459 1.76885e+06 -1.97346e+06 -1.12344e+06 1.23144e+06 1.10133e+06 2.0296e+06 -713734 -1.40491e+06 449265 487736 -942109 1.1065e+06 679832 103297 -1.01208e+06 -263122 175741 -534682 880221 -626257 252983 -807430 -367900 1.1096e+06 -528724 -932599 701962 -592980 -542008 578526 -1.03881e+06 1.2086e+06 236091 
-9.97266e+06 -3.02177e+07 -8.06001e+06 8.76676e+06 -6.77688e+06 -2.60232e+06 -6.55023e+06 -7.00487e+06 -513958 3.75435e+06 -514060 -3.05879e+06 -1.91163e+06 2.78108e+06 317763 763782 2.69537e+06 1.55927e+06 1.0191e+06 2.8572e+06 2.7968e+06 803292 -21072.7 -1.29229e+06 948033 -273031 -298018 1.24606e+06 317828 170820 1.83111e+06 -1.27917e+06 -4369.42 -361034 -795146 1.46896e+06 164018 -247284 991742 440829 -1.18466e+06 -1.19281e+06 273727 -876727 -637211 -621097 480336 -244742 -1.85362e+06 1.73567e+06 
-1.80457e+06 -2.65107e+07 -1.95509e+07 1.27647e+07 -3.86015e+06 -2.0582e+06 -2.08596e+06 -3.05762e+06 -1.3942e+06 2.05494e+06 4.03632e+06 3.29958e+06 -838090 1.71016e+06 2.88396e+06 -3.61149e+06 1.88891e+06 4.10019e+06 -457713 -1.31822e+06 -311983 188401 7507.84 -1.55417e+06 9562.23 -117117 -718286 -1.57713e+06 1.24427e+06 -137390 1.39539e+06 -1.36061e+06 900298 -640024 -1.04752e+06 -1.64679e+06 644638 647826 -562225 -148911 -937438 -266511 -164327 -1.20823e+06 -703173 -711726 -2847.96 -295046 690246 -549399 
-3.75686e+06 -2.3611e+07 -1.80135e+07 1.93618e+07 -2.09913e+06 -3.45665e+06 -3.94396e+06 -1.57739e+06 1.07985e+06 -1.64653e+06 5.69505e+06 6.05453e+06 -175833 -468536 1.44411e+06 -2.22733e+06 -1.82989e+06 1.34529e+06 -859896 -1.67259e+06 893050 481245 -277672 -1.82626e+06 -2.23515e+06 2.10849e+06 -2.87495e+06 -891563 467498 -2.02802e+06 -1.49207e+06 -319132 -1.33914e+06 288805 828932 24180.6 -1.13198e+06 599003 -2.00115e+06 -1.162e+06 -152088 1.45906e+06 -828752 412664 -947895 637022 -665804 558902 644265 -323987 
-5.67742e+06 -2.9013e+07 -1.43257e+07 1.38021e+07 -9.53629e+06 319170 -3.45759e+06 -6.48134e+06 2.48061e+06 3.05798e+06 2.72136e+06 3.82158e+06 -558393 -74016.2 3.59012e+06 -1.17111e+06 428963 2.95149e+06 576655 -483913 -235184 -459732 -1.5489e+06 -407381 -2.1581e+06 2.59452e+06 -1.19381e+06 -1.47057e+06 1.86587e+06 -311218 -831502 -160067 -1.03244e+06 -1.00139e+06 -2.73572e+06 -3.25552e+06 2.17651e+06 -311243 -2.63349e+06 507226 86888.2 -34820 967224 -219558 1.48523e+06 -1.22417e+06 57086.3 153015 -919048 308715 
-2.91085e+06 -2.42729e+07 1.2227e+07 -9.96703e+06 6.8568e+06 -5.30896e+06 9.74828e+06 5.81981e+06 2.40825e+06 -3.60487e+06 3.7874e+06 6.05868e+06 -3.48279e+06 1.02117e+06 3.00205e+06 -2.63194e+06 2.61828e+06 313835 1.38894e+06 -988086 -2.62858e+06 -506902 -433561 1.72033e+06 -618296 -414029 1.56782e+06 -843576 -2.94941e+06 -275408 1.49849e+06 1.65045e+06 -593246 -111042 -712206 1.00126e+06 -186047 540484 660265 -529157 86247.8 102576 1.46469e+06 -280499 159814 -700426 446489 -748512 199559 -52267.2 
-1.67763e+07 -2.50143e+07 2.82048e+07 -631446 1.28484e+06 -4.61822e+06 -4.34455e+06 -769433 5.26971e+06 2.27127e+06 -8.28116e+06 -2.30137e+06 3.14271e+06 348631 3.89465e+06 3.69946e+06 -2.52599e+06 869354 -163941 2.69e+06 -1.05826e+06 -279673 1.77928e+06 681842 -2.10844e+06 190798 1.9393e+06 41097.2 1.94762e+06 -864601 -666355 152793 700861 1.4988e+06 -356551 -367595 344316 -615617 436853 -1.40249e+06 144398 719444 719630 563512 -382250 246235 -239817 358496 -859880 484327 
-1.61386e+07 -2.60399e+07 2.77259e+07 113840 2.69946e+06 -3.60593e+06 -2.9265e+06 885263 4.99803e+06 1.96164e+06 -8.38926e+06 814841 3.44132e+06 -1.75223e+06 4.17185e+06 2.79736e+06 -1.60259e+06 2.79007e+06 848201 2.94292e+06 -624947 -598218 153185 512830 -2.15827e+06 -324698 2.4768e+06 -265480 -241723 -797838 1.25709e+06 1.10364e+06 820060 1.93023e+06 -1.17819e+06 903318 -149623 142048 -640555 132827 1.21003e+06 874902 653765 -243982 -385774 1.3808e+06 -309980 278525 914673 -879159 
6.53433e+06 -2.21339e+07 -1.54137e+06 -2.83946e+06 -1.23358e+07 1.1028e+07 8.98639e+06 1.23889e+06 1.06999e+06 1.7612e+06 -2.1509e+06 4.23689e+06 2.88171e+06 -3.87953e+06 -631522 -3.6008e+06 2.9926e+06 464365 3.03604e+06 -2.2047e+06 6.38433e+06 -2.66953e+06 -1.84231e+06 590533 890622 -397497 597668 2.20677e+06 -972717 1.53052e+06 -147353 -346191 -1.51725e+06 -193900 259111 -1.0057e+06 240360 -489725 929248 567180 1.431e+06 -337914 2.4132e+06 -107061 30889.8 -79709.6 -717703 1.71413e+06 1.2845e+06 -1.22709e+06 
-1.84955e+07 -3.11502e+07 2.76133e+06 -3.56175e+06 -3.27272e+06 -6.75909e+06 -3.61886e+06 -278356 1.83962e+06 249743 -2.59113e+06 -1.24111e+06 1.98844e+06 1.71173e+06 1.93597e+06 -288093 632591 -2.22687e+06 -1.18451e+06 3.01955e+06 981155 -1.50897e+06 -1.09183e+06 -216174 1.66377e+06 2.84166e+06 -1.73945e+06 -807225 1.49273e+06 460021 1.64482e+06 -258414 681526 -1.44561e+06 -1.85904e+06 178223 945210 -78514.2 1.74215e+06 -912030 202241 592312 477546 1.30336e+06 1.23173e+06 182659 -139170 1.55116e+06 1.2938e+06 -1.32284e+06 
-4.9696e+07 1.18625e+07 -1.36162e+07 -3.96422e+06 135219 -1.59881e+06 7.04246e+06 -1.92e+06 -1.18482e+06 -4.43441e+06 4.56795e+06 139658 4.04163e+06 -792240 -3.04332e+06 3.97728e+06 2.47657e+06 212775 -1.60903e+06 4.17242e+06 -559640 2.97364e+06 -263191 -1.75328e+06 -2.05738e+06 -355195 2.02023e+06 -176176 1.32071e+06 44658.1 -190301 432600 -83445.2 -973911 1.58914e+06 -184621 157900 -494985 133439 -189696 -880832 -390350 745612 194185 547105 -1.21692e+06 -665545 -88342.6 534970 -172028 
-1.42011e+07 -2.89724e+07 -5.45517e+06 -8.72457e+06 -7.65497e+06 -3.69576e+06 -486235 110822 -569642 -525370 -3.79387e+06 3.78817e+06 1.06743e+06 2.29099e+06 -629806 -2.13194e+06 -622718 -1.62856e+06 2.5245e+06 520810 2.13431e+06 -643371 -139911 1.47512e+06 2.06767e+06 75147.1 -1.73418e+06 800450 -1.04592e+06 542499 345972 398916 115260 458543 108287 -628915 -963702 -783804 423659 528805 -206729 -50776.1 217546 248204 -19961.5 139367 -557365 -1.03925e+06 -563418 -511973 
-2.17844e+07 -2.61573e+07 300473 -1.90282e+06 -341720 -1.04903e+07 -5.13662e+06 -1.91119e+06 774514 -932645 -1.65761e+06 -280944 639673 919503 2.49994e+06 -421356 31198.7 -1.42496e+06 430617 5.05686e+06 2.71557e+06 -131211 -112802 -1.54973e+06 -202965 551728 -940534 -25352.4 543961 1.08432e+06 2.22385e+06 -1.85676e+06 629642 -2.17152e+06 396851 670482 160799 -32468.9 1.6662e+06 203092 13501.4 -572296 -382307 -263201 -158289 -94123.1 552728 -171569 337167 -253583 
-1.30849e+07 -2.13212e+07 -1.38315e+07 -1.02294e+07 -8.84238e+06 -4.18066e+06 3.30435e+06 -5.02762e+06 -1.66756e+06 -553054 2.44899e+06 -1.70901e+06 1.53303e+06 -1.09774e+06 -608543 313238 -680113 -2.83575e+06 -1.36854e+06 -1.35867e+06 -2.24673e+06 -985832 -2.06379e+06 -623939 2.46323e+06 1.8636e+06 956231 411816 -815101 -1.36566e+06 54446.8 1.60621e+06 1.18931e+06 648946 -622389 -1.1403e+06 -993587 152910 -491864 526116 606380 371153 -1.16433e+06 99108.9 321884 167474 580760 -396053 551834 -125345 
-1.03562e+07 -2.41403e+07 -1.08632e+07 -7.10775e+06 -1.02321e+07 -1.16425e+06 1.30662e+06 -2.15278e+06 -1.60323e+06 -2.13795e+06 691351 -536098 2.6579e+06 602989 -878313 -214706 -187033 -2.87804e+06 -1.17909e+06 -1.74376e+06 -2.04475e+06 -1.11212e+06 -2.39082e+06 -284025 2.28955e+06 1.18015e+06 308546 549876 -983571 -1.27513e+06 -523052 1.78252e+06 193358 1.35569e+06 -237434 -724553 -1.64798e+06 -64932.1 -564758 123825 513587 143330 -980240 606395 271171 -14530.7 331845 -295174 -190934 -443456 
-1.12824e+07 -1.1595e+07 -1.52606e+07 -1.15816e+07 -8.48155e+06 -5.24829e+06 6.54055e+06 -5.07503e+06 -1.85475e+06 -2.59416e+06 3.0032e+06 -2.12286e+06 1.94087e+06 -2.10614e+06 -1.18821e+06 1.1651e+06 -269920 -1.68275e+06 -1.21507e+06 -1.39243e+06 -2.20183e+06 -263754 -2.02127e+06 -890662 1.45041e+06 1.08764e+06 974785 -547235 119332 -1.19062e+06 -758974 1.19966e+06 446697 -100671 -518965 -347040 269639 90176.8 -46109.6 566061 638544 432100 3078.32 -44352.8 -50757 379858 658766 -529506 273201 512961 
-2.09953e+06 5.72914e+06 -2.21136e+07 -1.23343e+07 -9.22546e+06 -3.0001e+06 1.29058e+07 -8.93646e+06 5.13807e+06 -2.43706e+06 483578 -4.19877e+06 634224 1.35825e+06 -675050 3.69199e+06 -1.45603e+06 507086 -1.06792e+06 -1.72983e+06 25581.6 -864334 1.27345e+06 613281 -711445 -2.20329e+06 -1.81154e+06 -1.92756e+06 1.16853e+06 714381 146656 245581 -157076 -742748 -693126 1.03532e+06 1.00628e+06 428130 73185 42826.3 262034 739912 17413.9 -198141 -435741 1.04774e+06 -663814 -138794 -244179 -879506 
8.98629e+06 7.68048e+06 -2.13455e+07 -8.10644e+06 -1.18684e+07 1.15605e+06 1.22454e+07 -8.14579e+06 7.66742e+06 -1.3285e+06 -2.01751e+06 -3.8009e+06 -1.15533e+06 3.24247e+06 531074 3.22366e+06 -2.30419e+06 2.52861e+06 -376718 -3.33778e+06 141680 -1.18642e+06 3.26304e+06 2.24427e+06 -155012 -3.46183e+06 -2.74235e+06 -148909 790275 1.50551e+06 974236 -680383 58258.8 152295 -775511 1.0771e+06 100218 1.22332e+06 -1.42607e+06 344155 296527 559549 135278 -363728 -12251.2 -109166 -655718 552254 -1.23055e+06 281166 
-9.38306e+06 1.91317e+06 -1.90305e+07 -1.10923e+07 -8.43872e+06 -5.03368e+06 1.1109e+07 -7.10679e+06 -1.02209e+06 -2.54245e+06 3.18497e+06 -3.51999e+06 1.02222e+06 -1.99183e+06 -1.06163e+06 2.99212e+06 674955 594295 -954480 212434 -1.5277e+06 1.12208e+06 -597331 -1.74743e+06 -1.63576e+06 -13493.4 521339 -1.39744e+06 1.1281e+06 -639453 -506908 -24304.6 -504725 -1.215e+06 -950525 236820 1.20284e+06 71786.8 738678 -595100 159052 908231 762936 -563566 -849915 1.19632e+06 430772 364359 809069 1.17097e+06 
1.93939e+07 -2.52916e+07 2.14917e+07 5.31311e+06 5.29757e+06 2.0791e+06 5.43906e+06 7.37327e+06 -93482.9 4.48632e+06 936217 -1.19551e+06 -4.23109e+06 -5.24412e+06 -1.44759e+06 3.05228e+06 469508 -114113 660586 -2.25208e+06 1.10445e+06 1.9306e+06 -3.02687e+06 -1.48352e+06 2.88032e+06 -1.18893e+06 -1.89144e+06 -716167 9516.18 -1.08356e+06 2.07061e+06 478427 -1.54979e+06 -3.48656e+06 3.52521e+06 400492 1.15033e+06 -1.24218e+06 -239121 -464906 -224359 2.25094e+06 -333774 425068 -296568 1.63996e+06 -281930 358210 -906667 788211 
1.23489e+07 -2.12509e+07 3.02518e+07 4.40388e+06 8.59953e+06 1.08623e+06 133761 4.90596e+06 3.2276e+06 1.8735e+06 746892 -1.77847e+06 2.35309e+06 -1.36804e+06 611464 5.87963e+06 348353 788629 -4.40527e+06 -3.98709e+06 4.66348e+06 1.05921e+06 -529251 251572 65864.3 7864.72 -1.62923e+06 -511226 -427789 -406962 -1.31967e+06 121752 1.73434e+06 -1.4209e+06 -518016 537215 -2.87649e+06 325807 -553007 595706 -664293 -637748 448239 236285 -338350 -1.45732e+06 -504814 328780 -853909 -554375 
-5.03921e+07 7.74734e+06 -1.19048e+07 -3.39724e+06 -2.5817e+06 -1.71552e+06 5.75877e+06 -1.60053e+06 -3.2565e+06 -2.92263e+06 3.39936e+06 30731.8 3.48159e+06 -1.55239e+06 -3.55589e+06 3.38395e+06 2.86057e+06 822536 -964077 4.60125e+06 -607620 3.04066e+06 439653 -1.41455e+06 -2.31354e+06 568530 1.44321e+06 573774 343293 -187215 248398 706946 -108953 -366744 2.07517e+06 -36392.2 -432890 -988631 -30342.5 1.74881e+06 -501532 -999461 1.0917e+06 838796 255998 -1.92221e+06 -1.37177e+06 15754.4 -615877 -886710 
1.00451e+07 -2.16391e+07 3.3025e+07 2.29682e+06 7.93965e+06 -2.98975e+06 1.10714e+06 4.68537e+06 3.75947e+06 799534 2.03042e+06 -2.12237e+06 1.91598e+06 -2.6843e+06 196128 3.71978e+06 976673 1.70446e+06 -2.69256e+06 -3.27264e+06 2.96955e+06 414560 -407744 1.2731e+06 682304 111199 -555852 855563 220580 200141 -1.24519e+06 -1.5027e+06 2.4042e+06 -668603 318538 -117906 -1.85409e+06 737990 -190524 479992 -573530 -305850 -1954.47 280745 -284077 -669583 -87028.2 -1.15238e+06 707617 -584520 
-5.43513e+07 -8.8196e+06 -3.4294e+06 -5.30404e+06 4.58909e+06 2.82846e+06 -1.96788e+06 1.40376e+06 -7.40646e+06 487843 -1.07748e+06 1.33691e+06 -1.95608e+06 -222655 -4.06247e+06 -521962 -3.74277e+06 587133 1.99304e+06 -1.48069e+06 273692 1.64479e+06 3.39463e+06 -1.0294e+06 -879613 -2.44891e+06 -272851 800949 -870195 98743 1.349e+06 -808534 1.03847e+06 322489 -365548 -729735 556088 -65496.3 -531322 276778 475692 -460500 149685 -861351 370884 -259380 565809 907312 1.08463e+06 -296838 
-5.69522e+07 -6.08124e+06 -3.77301e+06 -7.19958e+06 5.94731e+06 3.07067e+06 -559398 1.03808e+06 -6.71366e+06 -3.77249e+06 -449218 3.84352e+06 665494 -947382 -1.48879e+06 -106434 -4.49904e+06 -2.45094e+06 671781 -771793 1.8564e+06 1.45529e+06 2.43654e+06 284831 852637 -2.56473e+06 -1.43428e+06 -334442 -1.06073e+06 578791 -831687 -808145 -202932 -121281 -40778 -822732 1.30341e+06 212421 -674193 -810698 -51050.5 -378671 1.28883e+06 -319928 196216 -427990 801304 97177.1 576463 422749 
-4.3983e+07 -6.12449e+06 1.05575e+06 -8.52465e+06 1.0584e+07 1.24701e+06 -1.18246e+06 5.87498e+06 -566742 58191.1 -1.52488e+06 3.41228e+06 -1.71077e+06 -6.79973e+06 -3.55896e+06 -482631 -1.40061e+06 1.88943e+06 2.08263e+06 -561817 -766259 -1.82545e+06 -2.7586e+06 1.61287e+06 221065 1.60386e+06 676568 2.00348e+06 161660 -752491 1.06954e+06 1.90784e+06 -26994.6 -2.32429e+06 -1.55439e+06 -682849 253502 1.72681e+06 -362892 -1.64932e+06 -1.44405e+06 -81866.6 110359 -110944 -2.39055e+06 -622956 -1.28279e+06 -197498 -1.3294e+06 1.00089e+06 
-4.88163e+07 -1.20071e+07 2.73052e+06 -4.6553e+06 1.16384e+07 -2.74487e+06 -3.53797e+06 2.87632e+06 -3.16977e+06 700546 -2.88238e+06 566044 -1.95016e+06 -3.1474e+06 -4.59588e+06 97954.5 -4.0085e+06 312342 2.10891e+06 -275194 -2.24054e+06 -721760 918708 -90917.5 -1.72585e+06 -1.55508e+06 1.70535e+06 359860 535726 -1.46413e+06 1.16622e+06 -926460 1.7775e+06 -328134 -828580 -1.00925e+06 -268183 900878 -574052 -631127 149187 154104 -1.73596e+06 -753765 -60474.7 812047 -927543 441848 -313027 -656330 
-5.21261e+07 -5.81258e+06 -6.29777e+06 -8.99062e+06 6.29016e+06 2.74481e+06 1.18664e+06 817142 -4.93306e+06 -3.89309e+06 185052 3.69444e+06 411583 -1.54067e+06 -3.9617e+06 -1.07164e+06 -3.31578e+06 -2.76088e+06 -107612 -545015 413117 718985 675718 1.16434e+06 1.52396e+06 -48341 -1.27586e+06 97046.2 -166249 -21030.4 -784856 -58776.1 1.64402e+06 53654.6 -559343 -821310 1.48981e+06 785854 -565712 -255533 -908648 -1.19793e+06 256462 119098 772604 -725858 510921 -853997 -836458 -580114 
-3.86315e+07 -4.59413e+06 -4.24276e+06 -1.33212e+07 525979 1.04381e+07 2.26244e+06 2.84024e+06 165218 -667494 1.28729e+06 3.64826e+06 -2.24928e+06 -5.53499e+06 -4.61909e+06 -19582.3 980680 2.26997e+06 -174107 -444475 2.88391e+06 -2.85711e+06 693572 -358116 251907 2.84698e+06 454008 913056 4.76186e+06 2.77155e+06 623015 -1.05002e+06 -409192 1.17904e+06 -335722 1.07523e+06 -182938 -576524 994500 -99231.5 -280304 227114 -2.39028e+06 5186.11 1.599e+06 1.14802e+06 2.02663e+06 -12048.7 -1.26051e+06 -442255 
-4.80472e+07 -4.3104e+06 -1.30275e+07 8.64136e+06 -1.07037e+07 1.76395e+07 -4.24968e+06 1.84859e+06 2.04008e+06 -1.11808e+06 1.34852e+06 -999104 2.8837e+06 196927 1.1299e+06 250987 3.78681e+06 1.49606e+06 -2.78069e+06 287633 -2.61735e+06 402384 -410798 2.8263e+06 2.1368e+06 733964 -685488 -596921 1.21033e+06 -209085 -6965.24 -568497 1.2135e+06 377961 723811 1.22964e+06 -103173 976556 1.47519e+06 -3.27507e+06 -783290 108279 268818 -567710 -648763 579698 651897 -216481 1.74329e+06 452735 
-4.67401e+07 -1.59828e+07 -1.16472e+06 2.24048e+07 -923896 7.50647e+06 -9.87531e+06 -684968 1.35666e+06 1.22178e+06 4.39522e+06 -6.02893e+06 -6.40051e+06 597945 -3.15259e+06 4.06548e+06 -392542 -80313.7 1.60241e+06 -335720 1.18866e+06 409048 -214772 -2.63988e+06 -423775 -1.05136e+06 2.47604e+06 -340802 -2.93697e+06 1.74629e+06 -880801 3.57833e+06 -1.72568e+06 18478.6 -2.08997e+06 879360 748517 -56462 -1.13669e+06 501596 216707 -323635 -79398.6 1.39729e+06 460296 1.47824e+06 -531121 99781.7 -98156.4 -2.0548e+06 
7.3554e+06 -4.06304e+07 3.5875e+06 -1.15324e+07 3.39868e+06 -8.54985e+06 -290282 2.31971e+06 105612 -1.60216e+06 2.21778e+06 2.44546e+06 3.08664e+06 4.2359e+06 3.0939e+06 -3.42667e+06 -2.90989e+06 -3.40535e+06 -2.27823e+06 -998510 -1.4107e+06 230757 779829 -1.67772e+06 -603908 -408679 255284 1.39641e+06 -3.02903e+06 2.57936e+06 541942 -1.83162e+06 -870433 -613561 679051 450710 -100167 -282146 854329 333059 -800777 1.05362e+06 -447597 -673678 1.6771e+06 114662 -1.20988e+06 389248 -301077 1.41278e+06 
-9.12186e+06 -2.58337e+06 1.13778e+07 -1.75168e+07 -6.69827e+06 5.615e+06 9.68327e+06 -1.63723e+06 2.68605e+06 -202143 -2.19147e+06 2.97698e+06 -1.22875e+06 -194364 165532 -30764.2 -55351.9 2.65807e+06 2.4287e+06 -877330 2.59278e+06 287699 502590 -177737 -1.56711e+06 1.52898e+06 1.55127e+06 309858 489566 1.11661e+06 -565016 617616 -823351 1.41743e+06 1.14171e+06 -162611 -579475 -700900 986337 1.0644e+06 -389204 280448 -436523 221883 -394987 207554 716713 -1.00368e+06 473501 294416 
-2.27471e+07 -2.12464e+07 1.982e+07 -1.69249e+06 -9.1469e+06 4.28594e+06 -3.25196e+06 -1.82988e+06 2.70719e+06 -2.58916e+06 -4.66147e+06 249581 955144 1.32795e+06 2.79809e+06 111277 -2.62122e+06 216202 1.62063e+06 2.98145e+06 -1.08558e+06 1.11645e+06 138972 1.80104e+06 758860 1.57572e+06 -2.16954e+06 -909247 32085.4 -877252 -1.05798e+06 1.03767e+06 -1.05859e+06 -351952 1.05228e+06 -320519 -125361 1.11738e+06 193137 1.42757e+06 -1.1112e+06 -919554 -198234 -438518 -553219 162572 232774 -2.23261e+06 -371033 -852760 
-2.22235e+07 -6.72773e+06 2.11341e+07 -1.91889e+06 -1.32567e+07 1.3507e+07 744222 -3.4405e+06 -427226 -2.43284e+06 -1.71356e+06 762221 2.01472e+06 -725418 4.29363e+06 -2.3091e+06 -2.57228e+06 -515562 781492 1.34175e+06 351847 1.28913e+06 1.03465e+06 468989 -922879 82323.8 -290126 -1.05692e+06 -977076 -1.18281e+06 -616612 -748146 130563 -838910 1.64962e+06 -719841 131914 -300981 -615308 144399 -132104 -423223 -1.47345e+06 259928 -875628 394847 803988 -190184 362701 534288 
-1.67833e+07 1.68456e+07 1.22419e+07 4.54066e+06 2.99649e+06 -1.38621e+06 1.26261e+07 1.26683e+06 -9.45088e+06 6.11089e+06 -3.67136e+06 -5.79985e+06 -2.36686e+06 1.74217e+06 2.84261e+06 -4.53638e+06 1.586e+06 247311 -976108 -1.31283e+06 1.7984e+06 2.79676e+06 652989 451408 -737050 285993 356157 -130458 1.25526e+06 -1.20756e+06 213218 133665 -12676.9 1.46594e+06 -348789 -342893 -223413 1.04348e+06 435790 -754469 167762 -636423 -566273 826073 826222 410061 -400861 -416960 -919361 -711539 
4.09936e+07 2.19331e+07 -5.55178e+06 -383018 7.04519e+06 -2.61283e+06 -458277 -1.93736e+06 -1.05214e+07 4.92179e+06 3.26235e+06 5.098e+06 1.0685e+07 -2.57147e+06 -2.72705e+06 3.53606e+06 1.48814e+06 481654 1.74565e+06 2.82249e+06 2.68641e+06 -5.67533e+06 314811 -340361 -1.80228e+06 -2.05113e+06 -2.13318e+06 -5.20913e+06 -2.92069e+06 -456311 516012 43595.9 -774638 1.20863e+06 -1.54918e+06 505893 -1.52465e+06 -840208 566309 -336408 -414628 -1.04195e+06 -1.06806e+06 430666 -1.25241e+06 698175 121869 -587779 68902.3 502303 
2.84438e+07 3.84495e+07 1.12236e+07 -9.51742e+06 -6.89613e+06 1.92895e+06 -763218 3.30237e+06 479805 -1.1545e+06 -1.43229e+06 -3.71958e+06 -2.83347e+06 4.99684e+06 -1.43077e+06 5.26728e+06 -2.97956e+06 2.72552e+06 1.42618e+06 1.91247e+06 1.70304e+06 -444363 615642 -1.06643e+06 2.38888e+06 3.53256e+06 669673 277771 -1.17025e+06 -989864 -1.06091e+06 113065 -930632 -55459 -759690 329675 2.09708e+06 457703 490828 -783511 -974616 -910030 -437744 -337510 -382056 -442318 -353079 957666 290063 348824 
1.98798e+07 3.69226e+07 7.62706e+06 -1.10331e+07 -7.33713e+06 1.86339e+06 -2.49513e+06 3.76417e+06 -3.17056e+06 958093 80691.1 -109604 -3.06858e+06 4.0829e+06 -482631 3.66154e+06 -2.82998e+06 2.07584e+06 580061 -1.04494e+06 124515 -618878 484606 -376681 1.08416e+06 3.92925e+06 -266502 -1.55668e+06 -1.74885e+06 -264584 -641699 556574 629096 -1.4189e+06 233690 -352077 185981 -155525 639194 490593 -805139 -1.10381e+06 -1.28987e+06 -514303 563529 161398 -462286 1.0599e+06 1.23573e+06 -7647.85 
4.00425e+07 2.65722e+07 3.56611e+07 1.66322e+07 -6.76199e+06 -5.10388e+06 -243585 -1.37504e+07 -2.67585e+06 -824806 435190 6.46719e+06 609234 205330 -3.13172e+06 4.08752e+06 -687111 937426 1.06495e+06 905636 -1.76849e+06 -472223 -2.5604e+06 2.13768e+06 1.5035e+06 -372852 1.06083e+06 267278 -1.24135e+06 -1.41739e+06 1.10755e+06 -3.43902e+06 834639 829178 897923 -1.66687e+06 84126.4 1.97695e+06 679800 -1.23956e+06 1.07255e+06 685664 771724 2.53886e+06 1.94705e+06 -609264 398764 624014 -1.01184e+06 -35092.8 
2.64969e+07 2.8819e+06 1.54992e+07 -3.28452e+06 7.1944e+06 1.93283e+06 2.41619e+06 1.10799e+07 383743 2.52976e+06 -5.05001e+06 2.00774e+06 6.87937e+06 -3.83638e+06 2.42545e+06 1.34004e+06 2.1541e+06 2.42177e+06 -3.98376e+06 -179422 -3.84725e+06 1.29975e+06 -406122 -689175 2.03265e+06 -1.35996e+06 -826636 -351916 -658160 755140 -2.89973e+06 -1267.31 -461295 -21517 -1.15459e+06 -1.69168e+06 1.49693e+06 -979639 -478640 1.83963e+06 -2.03807e+06 -674075 1.1433e+06 -913608 1.95456e+06 1.69153e+06 686541 450176 89372.3 158512 
3.72651e+07 2.49041e+07 3.93852e+07 2.16621e+07 -9.11079e+06 -7.3955e+06 100441 -1.1973e+07 -2.33417e+06 -1.03084e+07 1.64292e+06 321381 -4.41494e+06 -1.30165e+06 -2.73561e+06 -808746 -970135 2.25726e+06 2.73023e+06 -2.53549e+06 -3.42563e+06 1.11015e+06 -2.09032e+06 2.39426e+06 -934640 -2.07117e+06 -1.54375e+06 1.04219e+06 743336 1.6151e+06 -302873 36437 -172316 -1.00285e+06 -350398 -1.02039e+06 -197330 -1.17339e+06 2.80003e+06 813256 -422956 -1.55697e+06 -485706 285816 -557563 1.24538e+06 -641766 -879757 725440 -225066 
5.52699e+06 9.07158e+06 1.70331e+07 4.61374e+06 -1.46397e+07 5.23876e+06 3.96388e+06 2.81827e+06 9.76425e+06 1.27481e+07 8.08656e+06 1.33853e+06 -4.90706e+06 -834624 -3.25296e+06 -3.43667e+06 -26167.4 -6.64475e+06 -1.86137e+06 5.49577e+06 -1.39362e+06 -489044 3.55205e+06 2.92659e+06 216699 -745370 743739 -669883 523872 2.29787e+06 -1.32181e+06 660267 1.73858e+06 -1.54349e+06 -1.73047e+06 -2.96169e+06 -1.57922e+06 -736540 768905 709977 333150 418979 -290954 144592 -1.50505e+06 207001 -939510 535799 -101465 606771 
1.28164e+07 9.97617e+06 -2.71434e+07 2.23807e+07 7.9229e+06 199579 7.99552e+06 5.22351e+06 3.35622e+06 -1.48117e+06 -133880 2.54834e+06 -179076 -2.23764e+06 -504763 -216710 -4.93024e+06 669820 780817 3.38831e+06 -1.06902e+06 128846 100142 927895 109006 1.0963e+06 -1.67802e+06 1.66964e+06 617965 718868 -379329 -1.39806e+06 -2.17135e+06 1.321e+06 278457 1.18393e+06 -23258 -1.8083e+06 -136645 -716760 -44575.7 1.22623e+06 -647139 -160222 988792 -985899 -1.63418e+06 -1.63846e+06 471488 -563988 
1.86229e+07 4.79491e+06 -1.36882e+07 2.0104e+07 -853399 -3.07713e+06 4.9032e+06 2.05888e+06 7.26938e+06 6.493e+06 9.59451e+06 3.12878e+06 -119849 -3.93826e+06 -235700 -484426 -7.40816e+06 -3.1486e+06 519389 -901184 873898 658716 767311 -1.2599e+06 -2.08166e+06 405022 -729964 1.76113e+06 1.07026e+06 -3.58088e+06 -491562 655153 29649.7 1.3788e+06 -113061 2.82821e+06 -959775 734739 2.08408e+06 269214 -988956 -1.68406e+06 1.99586e+06 106779 1.07968e+06 947859 1.57389e+06 738944 350578 283567 
1.8776e+07 9.21805e+06 -2.21783e+07 3.47926e+07 1.85303e+06 1.40174e+06 3.97391e+06 1.66172e+07 -4.84656e+06 -1.31313e+07 -4.41603e+06 -445229 4.09743e+06 4.21701e+06 -935523 -3.34905e+06 -1.14235e+06 2.20049e+06 -531901 1.12921e+06 281408 508029 -364973 480819 1.63952e+06 -1.2504e+06 1.57696e+06 -192268 1.56445e+06 1.10825e+06 -447586 203749 -337090 -1.23147e+06 -1.72303e+06 -176355 -210146 -1.05543e+06 496420 473098 652765 -59223.4 -341748 355769 -1.43819e+06 260298 387060 782221 -25093.4 -12686.4 
-1.36589e+07 1.90234e+07 1.00288e+07 6.5316e+06 954961 -1.28402e+06 1.26577e+07 1.82888e+06 -8.21906e+06 8.11364e+06 -3.5493e+06 -6.32215e+06 -2.02522e+06 2.62219e+06 3.41589e+06 -5.55773e+06 2.06549e+06 487674 -481777 -1.62256e+06 1.86465e+06 2.23712e+06 462554 -250325 -376914 361919 666055 -1.11775e+06 198336 -1.21421e+06 372602 -83349.4 341931 951117 -344636 -1.36869e+06 -41324.2 610515 1.20108e+06 -834483 -471844 -395797 -465577 524125 542243 541774 -622617 -351017 -534523 -698438 
3.49594e+07 5.87719e+06 -7.52784e+06 -6.5886e+06 -1.05171e+07 -3.99071e+06 -5.18632e+06 9.49932e+06 -3.23349e+06 5.37326e+06 -2.15616e+06 3.20899e+06 2.55017e+06 2.20213e+06 -2.14093e+06 -298904 2.37315e+06 -762358 -340773 98389.1 -1.28661e+06 1.15611e+06 -787128 329226 -2.33339e+06 -1.16585e+06 -243048 138750 1.41523e+06 302478 169632 1.13459e+06 -1.29174e+06 -123768 690872 236543 14051.1 204884 -899054 22229.6 536058 474298 184399 237620 253464 1.2095e+06 372850 -1.0186e+06 -170152 -325021 
3.50774e+07 1.18895e+07 -6.02762e+06 -5.0323e+06 -1.16918e+07 -612135 -5.45137e+06 6.62503e+06 -3.05168e+06 7.2358e+06 982314 3.48647e+06 2.44163e+06 4.78328e+06 -2.31815e+06 176991 1.13235e+06 1.05815e+06 390161 -691930 -1.14163e+06 365757 312851 1.25501e+06 -2.38562e+06 168933 -288704 918737 974221 887620 797191 933005 -378774 -178916 930802 315335 -96139.2 896538 -502335 155551 108072 613046 349431 40015.4 403225 380347 -90991.3 -742746 -544684 -215541 
4.03546e+07 2.09941e+07 -4.58633e+06 -5.96204e+06 -1.17739e+07 -1.53409e+06 -3.73207e+06 6.24565e+06 -1.35565e+06 3.50014e+06 1.38134e+06 3.89306e+06 1.45335e+06 5.74867e+06 -2.55795e+06 625368 -301605 1.54689e+06 11903.4 -1.05208e+06 -16040.1 -137300 591340 952096 -1.41458e+06 792793 -153430 1.09325e+06 65104.2 272084 1.05229e+06 417617 352959 -29.3234 789806 34836.3 -111448 655002 -348755 -147971 189129 722722 170749 -276593 345394 -171186 -383453 -25644.9 -181897 -282339 
4.16212e+07 2.37509e+07 -9.05276e+06 -5.5804e+06 -9.15328e+06 -98257.7 -2.08473e+06 8.89085e+06 -234640 1.69245e+06 400427 2.38888e+06 245623 5.27759e+06 -2.4813e+06 573135 -84141.9 1.35094e+06 -631804 -1.22027e+06 -618388 -353982 863950 116796 -565401 678271 -314750 377941 -27408.7 -54855.9 1.0718e+06 458065 716378 -239348 743143 -428339 164138 1.11014e+06 -151001 13511.1 538749 169085 408294 -129683 -101524 -232695 -72038.5 657442 -78598.9 -323210 
1.94059e+07 1.86228e+07 -2.0845e+07 9.4349e+06 2.00726e+06 -2.14583e+06 4.47238e+06 6.76007e+06 -2.62638e+06 5.35429e+06 -457323 600445 -944073 1.94657e+06 2.33521e+06 552920 -2.00624e+06 606799 927024 468802 -459205 -1.99281e+06 -450253 -1.4868e+06 2.15029e+06 -627558 1.82735e+06 -1.66218e+06 -452276 246795 1.15199e+06 -139942 1.76384e+06 -284398 1.3951e+06 325071 1.14575e+06 -63410.7 -116931 884978 -631375 -763256 597698 41238.1 -531888 -196690 498111 525383 -109063 435840 
-5.56746e+06 4.3119e+07 6.56937e+06 -7.76834e+06 -1.20861e+07 2.4879e+06 -3.99915e+06 7.02741e+06 3.45275e+06 -3.68233e+06 -2.87225e+06 -687818 -2.64476e+06 335792 399521 -1.80182e+06 -921552 -50502.6 -1.39138e+06 -1.22741e+06 -1.6916e+06 -105750 -1.43044e+06 -2.72198e+06 -630254 -1.7233e+06 -42819.1 66962.8 1.56642e+06 -1.09731e+06 305804 20885.7 229248 625301 -1.71143e+06 261458 -1.33919e+06 -39470.8 483933 -108532 -693261 -895153 1.08186e+06 -425349 99168.2 -541562 277385 -863031 -278518 553233 
-3.03916e+07 3.66518e+07 -3.97398e+06 7.41457e+06 2.84163e+06 -9.50476e+06 -7.79616e+06 -2.19435e+06 -2.29768e+06 -2.72514e+06 4.31677e+06 -428247 3.10863e+06 -3.39169e+06 2.62179e+06 -1.38883e+06 2.71714e+06 -593697 -1.27584e+06 -3.6015e+06 -29332.5 1.85064e+06 2.66808e+06 4.50018e+06 -2.96396e+06 2.98609e+06 -273398 1.26463e+06 -2.59655e+06 783583 -1.09243e+06 910472 1.67074e+06 -631903 -510282 1.64545e+06 1.7988e+06 -2.26733e+06 516093 -147004 136048 347493 -835809 311898 111179 148846 1.03084e+06 1.3274e+06 -1.28328e+06 20970 
-3.59487e+07 3.79283e+07 -6.36521e+06 1.88394e+06 701690 -1.27781e+07 -3.46753e+06 -835067 4.61588e+06 -2.71206e+06 2.35363e+06 1.15908e+06 -504997 -2.37283e+06 3.96788e+06 195939 3.30253e+06 247201 1.47046e+06 -124995 912372 174400 1.06271e+06 688456 752598 172164 470205 -244460 -996268 1.05899e+06 -111355 -454328 -839192 301374 946082 -968574 -1.09884e+06 36278.7 -949598 -581984 -706529 -520412 -426829 -1.28178e+06 231313 1.20963e+06 66289.2 282830 -234806 397912 
-3.39166e+07 4.0301e+07 -4.0369e+06 1.85815e+06 735752 -1.31185e+07 -3.05466e+06 -665406 4.02207e+06 -2.34808e+06 1.89618e+06 -4158.71 -1.65194e+06 -2.24323e+06 3.17483e+06 632422 2.621e+06 -773539 1.19383e+06 138558 2.34549e+06 231379 862591 67553.4 1.56428e+06 42344.9 1.33027e+06 -202943 -813309 964633 -612526 -751091 -1.16127e+06 1.20405e+06 986630 -1.42975e+06 -1.01723e+06 499822 -1.36218e+06 -644314 -287740 -235473 -277731 -1.28684e+06 55201.7 1.00513e+06 65128.3 -23632.8 -146522 332929 
-3.11528e+07 4.14564e+07 -5.39666e+06 -369887 -1.32508e+06 -1.32269e+07 -926000 -401968 5.2458e+06 -638801 653584 -739444 -1.97401e+06 -1.68657e+06 1.30892e+06 1.86182e+06 1.51234e+06 -825459 1.30055e+06 1.67403e+06 2.80886e+06 265151 409175 -468757 2.1837e+06 -421111 734650 1.0649e+06 -360131 352719 -846879 -1.24664e+06 -1.85178e+06 982359 722548 -1.23695e+06 -603359 1.36862e+06 -1.16798e+06 -787059 521637 -147027 282383 -618707 -155079 285662 194972 -228311 181044 -336961 
-3.28388e+07 3.11984e+07 -3.83283e+06 -3.29249e+06 -4.81794e+06 -6.33285e+06 -8.62179e+06 5.38662e+06 -2.40094e+06 9.11127e+06 -2.57905e+06 -1.28189e+06 443633 -3.1534e+06 -920825 -610324 1.61134e+06 -1.29686e+06 155958 1.91427e+06 -661600 1.22231e+06 -1.53861e+06 1.12726e+06 29720.9 -1.25836e+06 -1.499e+06 2.1753e+06 343875 -801938 -481385 59791.6 -655508 -1.39037e+06 552379 1.53815e+06 1.57799e+06 14384.6 -812369 -322998 1.38202e+06 45876 375631 1.02901e+06 -517210 257907 459229 -1.18837e+06 421044 163395 
-8.02575e+06 8.75612e+06 2.85475e+07 9.41712e+06 4.9681e+06 2.12924e+06 -333953 -3.64016e+06 -7.97485e+06 -6.68261e+06 908312 -3.85399e+06 -6.99264e+06 2.25129e+06 -153386 -1.69728e+06 1.19803e+06 -426436 -5.41812e+06 2.70314e+06 2.10989e+06 -9.30286e+06 1.51908e+06 1.82933e+06 -2.35695e+06 -1.1213e+06 31945.7 1.80586e+06 731433 -2.71577e+06 71127.2 2.16155e+06 -368658 -202819 1.93843e+06 -691370 332040 -715646 -782587 665810 -2.21927e+06 1.92864e+06 1.07976e+06 -1.19826e+06 967650 -49675.1 395528 -91553 439802 149029 
-7.13879e+06 4.88835e+07 6.40902e+06 -8.74744e+06 -1.0595e+07 2.53604e+06 -6.06019e+06 5.89501e+06 2.35032e+06 -2.66505e+06 -2.00522e+06 933496 -2.2494e+06 -2.45135e+06 1.73979e+06 -1.48821e+06 18838.7 -221048 -1.17827e+06 263756 -1.03732e+06 -588708 -2.12508e+06 -2.53687e+06 839543 -2.64801e+06 -96217.7 433383 712894 -877613 467194 -1.5461e+06 -545146 168434 -1.7603e+06 541526 -1.38736e+06 184104 -311621 810029 -591836 -64218.6 545164 -124715 92570.7 -269697 67211 -357636 -242683 -84929.8 
-2.97954e+07 4.16586e+07 1.74674e+06 -5.46924e+06 -4.63482e+06 -3.86015e+06 -4.80222e+06 2.25154e+06 -290681 -2.27291e+06 -1.69485e+06 -436099 -3.02313e+06 -3.44843e+06 3.16916e+06 -948632 248822 -2.50196e+06 -1.46329e+06 -1.95071e+06 623908 -572566 -632603 -1.14502e+06 -32756.4 -345006 -1.41606e+06 -1.91144e+06 118514 -5857.57 1.24612e+06 -292052 414432 620412 -692356 872947 670946 -1.05691e+06 280909 688332 902144 1.14259e+06 -25083.1 931702 -268956 -1.51902e+06 -827069 -178311 482750 -325254 
-3.05112e+07 4.05177e+07 2.97413e+06 -5.92475e+06 -5.11242e+06 -2.44545e+06 -5.45868e+06 2.96561e+06 -992102 -1.6864e+06 -1.7962e+06 -589150 -3.25311e+06 -3.44999e+06 2.99124e+06 -961031 -15675.8 -2.695e+06 -1.62284e+06 -2.16021e+06 498195 -595822 -955074 -983919 -137774 -122828 -1.42717e+06 -1.96543e+06 129547 34183.8 1.39986e+06 -293352 612194 738317 -743846 1.07214e+06 621688 -1.29933e+06 617803 453211 813552 1.1007e+06 -50573.6 1.05799e+06 -6161.02 -1.27697e+06 -730724 -103897 407898 -119262 
3.14174e+07 2.48039e+07 8.05244e+06 -8.09025e+06 -1.47789e+07 -787606 -2.57324e+06 2.34136e+06 1.0222e+06 -3.27981e+06 2.18056e+06 2.02051e+06 -339971 2.75535e+06 899036 1.12056e+06 -1.03124e+06 -837263 194788 340514 2.09966e+06 750832 -813890 887438 -677976 213498 1.61481e+06 1.25851e+06 -414922 -772479 -1.17787e+06 -831960 -330233 -1.71496e+06 -245984 328046 93368.8 4691.82 -201283 -313551 105333 411602 -617634 -272159 79706.4 8673.64 255611 632937 76235.3 -536160 
1.64366e+07 1.50987e+07 -2.30492e+07 1.568e+07 6.11527e+06 278037 9.71864e+06 5.6698e+06 1.59802e+06 5.03783e+06 -269291 -1.22325e+06 -388988 -1.00812e+06 3.55822e+06 656330 -4.04638e+06 -1.2039e+06 8634.35 707068 1.00365e+06 262219 -506023 -646349 2.06474e+06 643794 1.51495e+06 -403128 -1.02012e+06 -566463 1.0734e+06 525494 925498 1.21987e+06 1.03381e+06 -1.14223e+06 622763 -275707 87984.4 -52075.5 -375927 683486 -960963 -399928 -272358 -474086 -341527 -235354 171568 525868 
2.75222e+07 1.8486e+07 -2.78695e+07 9.06337e+06 9.71777e+06 1.84353e+06 7.27256e+06 1.71704e+06 1.01324e+06 -5.87594e+06 -3.67137e+06 -194606 5.19112e+06 -974577 2.47293e+06 3.53689e+06 -2.00762e+06 -683290 -1.48914e+06 1.03827e+06 760613 -468685 -907795 3.16798e+06 188815 1.39161e+06 1.17098e+06 1.34564e+06 -241840 1.12817e+06 1.32711e+06 880129 370974 -71979.1 -861226 -758416 -307624 -344842 -317534 521935 1.17806e+06 982503 -500567 422487 -199614 -509629 573853 -674415 -1.1712e+06 441902 
6.78299e+07 -9.46822e+06 -9.40158e+06 -9.50676e+06 2.63184e+06 -2.69002e+06 -4.13019e+06 -2.46593e+06 2.71908e+06 -2.64178e+06 -3.04378e+06 -3.67348e+06 462591 -5.07781e+06 -4.61069e+06 -6.54774e+06 -781976 1.20673e+06 -2.20908e+06 1.50747e+06 847866 -112921 -1.67118e+06 -2.99065e+06 -1.96633e+06 368463 230286 -2.04676e+06 -2.1886e+06 1.28787e+06 -3.27617e+06 -1.10428e+06 165314 1.21786e+06 544605 -282501 1.15136e+06 1.34527e+06 2.16778e+06 -1.73132e+06 -912986 1.13928e+06 803197 -488942 -802137 375505 -602346 62257.1 -1.79329e+06 -1.17569e+06 
4.64791e+07 -4.22266e+06 -3.77882e+07 3.46038e+06 1.09162e+07 3.49602e+06 -5.64796e+06 -5.15952e+06 -5.60468e+06 -925902 -1.35713e+06 3.75722e+06 -4.96e+06 -1.44148e+06 8.17445e+06 1.84371e+06 -57767.7 -3.15158e+06 1.89977e+06 -460534 -1.4708e+06 -3.30328e+06 -391168 -1.01109e+06 229330 -270225 2.44531e+06 -782497 2.35806e+06 2.77018e+06 -2.70524e+06 -366655 2.66679e+06 -1.85655e+06 1.91809e+06 1.98541e+06 153295 2.68449e+06 -198438 1.64689e+06 226535 -877615 496148 782190 -6634.42 602841 -336035 -579887 -418004 -735715 
6.85118e+07 -9.60526e+06 -1.55366e+07 -9.53202e+06 2.60787e+06 1.12684e+07 -745896 -3.88572e+06 -2.69003e+06 -3.73973e+06 710713 3.21806e+06 -4.79202e+06 384265 814859 1.05004e+06 3.17859e+06 -805774 2.11329e+06 916485 3.51329e+06 2.67299e+06 -228372 991808 698486 -980065 1.83269e+06 853399 432221 -1.92989e+06 -185301 -1.07409e+06 2.52035e+06 556614 -2.04101e+06 284068 -307920 -2.49652e+06 -1.8807e+06 -948363 315565 329500 1.20132e+06 878178 -11510.1 1.43399e+06 522999 -504338 268523 1.25864e+06 
6.47588e+07 -7.80304e+06 -2.38941e+07 -1.05918e+07 4.60761e+06 6.53496e+06 -6.50015e+06 -2.31458e+06 -2.12114e+06 -3.067e+06 -2.41749e+06 621307 -3.95592e+06 659112 -2.08975e+06 -28780.5 1.27223e+06 -1.43386e+06 1.91475e+06 -1.42372e+06 794343 2.74284e+06 349849 71497.3 -1.53333e+06 2.01796e+06 648740 -682539 561309 -727546 -1.71249e+06 -395213 1.77569e+06 1.5587e+06 610152 -94975 -885818 -1.80311e+06 264520 -510894 -1.19537e+06 838731 616080 -392496 -95214.4 -65639.3 -2.42474e+06 -208479 559679 669209 
5.63045e+07 -2.38011e+07 -1.41319e+07 -9.12764e+06 8.38186e+06 3.67898e+06 -472004 2.16542e+06 -1.90703e+06 1.64453e+06 -3.98266e+06 1.87789e+06 -5.80644e+06 -2.84358e+06 1.72865e+06 3.36946e+06 3.43865e+06 -2.06349e+06 1.61637e+06 2.09028e+06 -3.09932e+06 1.67593e+06 427359 3.03315e+06 348698 -2.52914e+06 -616489 -349302 950402 -2.7648e+06 -2.02348e+06 -1.00401e+06 -3.49844e+06 281007 -952316 649754 -1.05683e+06 241308 975790 732456 -341444 465607 -2.44287e+06 -1.00512e+06 142330 -2.19312e+06 844918 2.54361e+06 -134166 -1.25737e+06 
5.78863e+07 -1.34083e+07 -2.99285e+07 -1.01173e+06 7.19083e+06 2.16307e+06 -5.13204e+06 -3.25704e+06 1.8856e+06 -678448 -8.9447e+06 -2.25784e+06 -6.13384e+06 -4.16567e+06 -1.39579e+06 2.07194e+06 -441188 -1.26629e+06 -4.45093e+06 -1.30965e+06 -3.1103e+06 -870.834 3.19393e+06 626683 -309726 2.84939e+06 -1.4936e+06 -1.11352e+06 -754197 870634 4.28317e+06 475429 -1.99465e+06 87900.7 1.75393e+06 -2.03174e+06 -1.63964e+06 -1.69178e+06 -414026 -1.19318e+06 598771 -3.14208e+06 1.80448e+06 605944 -244299 642131 574629 158789 7985.49 -502635 
3.59225e+07 1.09441e+07 3.30689e+07 1.23388e+07 4.90903e+06 632070 -5.81846e+06 -1.15188e+07 -4.13831e+06 513893 -1.4472e+06 6.34765e+06 477197 232019 -1.33438e+06 1.52842e+06 -1.18746e+06 -1.97871e+06 -1.12101e+06 -27755.4 1.69363e+06 5.03901e+06 38035.2 -1.82812e+06 2.10258e+06 -581102 131905 -1.81951e+06 1.71303e+06 2.61296e+06 1.69147e+06 4.51661e+06 633665 1.2076e+06 191593 17591.9 -205464 688532 766575 -71995.4 358319 2.38496e+06 309282 -3.27674e+06 -196391 -895605 1.42726e+06 150143 -14823.3 -369717 
3.91761e+07 -1.82419e+07 -2.24735e+07 7.10203e+06 1.55378e+06 -6.31637e+06 -3.40125e+06 -3.427e+06 1.85927e+06 6.55247e+06 -3.7385e+06 -3.86283e+06 3.55436e+06 -917446 764053 2.95407e+06 2.47728e+06 -3.49778e+06 2.21841e+06 -5.28415e+06 1.38987e+06 -1.4839e+06 1.76596e+06 260346 -2.19518e+06 -1.46916e+06 1.66595e+06 2.01538e+06 263222 -1.42203e+06 -646437 532858 -1.13078e+06 -1.15824e+06 -128659 -1.88266e+06 2.66614e+06 -77896 2.18465e+06 -323797 -254664 -444309 -1.21022e+06 -618344 -238017 -1.49497e+06 670845 -2.02837e+06 1.19201e+06 112925 
4.78245e+07 2.32044e+06 9.34168e+06 -1.12653e+07 7.47427e+06 4.71217e+06 -6.87742e+06 3.03001e+06 -2.38091e+06 -4.18899e+06 9.959e+06 -1.02702e+07 5.49106e+06 -95470.8 2.93336e+06 -1.61865e+06 -1.70313e+06 245256 3.03813e+06 -985123 -1.96662e+06 -340630 1.47675e+06 -2.08151e+06 317087 1.60727e+06 -717944 3.4185e+06 177473 -105643 1.15111e+06 -1.17232e+06 -977541 1.16008e+06 69793.1 -1.55074e+06 -470043 317347 307827 1.18302e+06 675244 1.26612e+06 1.44582e+06 38195.4 -2.70584e+06 -365829 1.45143e+06 401127 -724529 -977883 
5.57462e+07 1.90709e+06 1.5694e+07 -6.86424e+06 4.09322e+06 3.29368e+06 -3.51335e+06 -534086 99844.1 -546037 7.92772e+06 -1.27206e+07 6.26221e+06 -2.54065e+06 -596877 -4.92685e+06 -1.75859e+06 -1.4071e+06 6.14946e+06 910092 -190983 572424 -673930 4.19996e+06 1.1269e+06 -249026 1.5463e+06 -3.45943e+06 1.76902e+06 604801 2.10411e+06 -74501.5 -536849 -1.31953e+06 -89797.2 1.49086e+06 -733194 -211515 -2.35202e+06 -793608 -1.63082e+06 -212876 508957 -496939 2.23871e+06 -621753 -235467 -234841 483890 -529122 
4.91532e+07 -5.77903e+06 9.07602e+06 -1.42719e+07 1.26031e+07 1.19116e+07 -469146 1.96253e+06 -1.46593e+06 -2.4479e+06 1.24634e+07 -2368.04 -1.4376e+06 -1.2274e+06 7.65936e+06 2.00969e+06 1.64698e+06 2.50913e+06 -775756 4.27654e+06 -108137 430534 -159980 -1.87397e+06 175450 -2.41411e+06 -3.88309e+06 3.08624e+06 -160712 555147 907770 2.70927e+06 1.11522e+06 1.67657e+06 -355013 -1.20287e+06 1.77583e+06 540143 771011 -1.25793e+06 1.63671e+06 -1.5082e+06 -1.54972e+06 461221 1.0032e+06 394459 -1.44846e+06 -230681 -249251 306311 
7.95113e+07 -5.23469e+06 -1.49942e+07 823787 -4.12403e+06 -949403 -1.24516e+06 -3.25845e+06 7.34607e+06 -3.57047e+06 -6.21297e+06 -4.21582e+06 -1.35015e+06 -3.65908e+06 -4.67899e+06 -6.09468e+06 -311045 2.52545e+06 -3.65301e+06 3.35145e+06 2.79623e+06 1.24622e+06 500795 -1.00014e+06 -810747 -1.67275e+06 386507 959426 -3.10953e+06 433973 -171676 1.42754e+06 595231 -1.29153e+06 -69259.8 510757 56324 2.25543e+06 -1.36583e+06 -200129 528613 -99214.6 -1.60087e+06 1.45159e+06 1.13668e+06 -1.09932e+06 1.65493e+06 -296463 1.16916e+06 1.142e+06 
4.22799e+07 4.82896e+06 3.69835e+07 -2.5523e+06 5.96695e+06 6.21364e+06 195985 -1.22836e+07 -970301 4.66708e+06 2.43603e+06 5.12954e+06 3.14966e+06 -582866 -1.31186e+06 -2.00068e+06 -1.18752e+06 -1.53468e+06 -6.88514e+06 -1.3537e+06 -883703 -214884 1.54107e+06 -291506 2.83994e+06 798751 3.76004e+06 1.53298e+06 408147 -143504 1.13552e+06 -2.94123e+06 -2.53378e+06 456559 -1.10508e+06 2.3811e+06 2.72987e+06 -678046 -1.66912e+06 534376 -194564 -1.07667e+06 -662291 -303507 -1.51481e+06 368339 -1.52191e+06 -852105 408675 -638788 
1.66201e+07 1.92226e+07 3.01107e+07 1.76499e+07 5.52271e+06 5.91153e+06 1.26116e+07 -65480.1 7.12814e+06 -3.42325e+06 -7.62737e+06 892720 3.0277e+06 1.62772e+06 -3.50161e+06 333653 7.43922e+06 -6.12914e+06 5.74378e+06 -188494 -3.59595e+06 -1.49246e+06 2.23313e+06 -5.19287e+06 -1.06836e+06 2.09088e+06 -3.01728e+06 1.98037e+06 -1.00718e+06 145720 663000 -420396 2.39338e+06 -105701 -588118 1.22622e+06 644934 380484 -1.97068e+06 -696975 -1.28744e+06 110013 -527727 -330997 17545.1 35148.9 160943 222951 30556.3 -477941 
-3.17618e+07 1.94605e+07 -7.04571e+06 -4.1308e+06 2.47086e+07 6.50706e+06 -1.92689e+06 -3.76157e+06 9.10889e+06 2.92928e+06 585572 -940329 538648 7.12441e+06 -2.84146e+06 -2.41255e+06 -407131 -2.00704e+06 -1.75131e+06 -396252 462646 322387 -6.63886e+06 1.894e+06 -3.02923e+06 -482084 -380931 -962786 41032.4 258031 784414 -605537 503731 909127 763770 -180984 1.05394e+06 -822355 -289218 1.04926e+06 -145253 -1.31162e+06 -703684 -354437 -471407 547011 979900 1.1367e+06 -989054 131626 
-2.83736e+07 2.14056e+07 -8.56339e+06 -5.31447e+06 2.50033e+07 6.6976e+06 -808407 -4.60938e+06 8.18158e+06 668710 -844287 -298439 -357448 7.56215e+06 -743020 357231 -77710.8 -1.58889e+06 250103 -75725.8 1.08187e+06 233808 -5.40859e+06 1.11703e+06 -1.40269e+06 -807635 -835729 184127 24580.5 94721.5 -10262.7 -292675 -468537 789949 624251 -1.13975e+06 309009 174202 -36240.6 322414 108092 -122849 -112650 -286944 -491475 -12978.5 50595.4 -91866.4 1.67084e+06 -344174 
-3.06766e+07 1.28885e+07 -7.36233e+06 2.41612e+06 2.18149e+07 8.08649e+06 948432 -3.88461e+06 -8.86122e+06 -1.01935e+06 -2.03214e+06 -2.62082e+06 112656 2.89683e+06 -676096 812382 1.37917e+06 -2.69807e+06 -1.35976e+06 1.30028e+06 470526 1.6953e+06 1.2642e+06 759658 -771730 2.61385e+06 -1.20857e+06 522393 -859003 -583084 -476234 -1.55943e+06 -2.3325e+06 -2.21028e+06 -2.18803e+06 160068 -2.10676e+06 3.15224e+06 1.00994e+06 1.28909e+06 1.6598e+06 1.14525e+06 1.25129e+06 -510565 602771 1.74129e+06 -712033 -259626 285914 1.23521e+06 
-1.64207e+07 2.55619e+07 -5.03006e+06 -4.44679e+06 1.73365e+07 1.40366e+06 -4.28948e+06 -7.86163e+06 8.59498e+06 1.16922e+06 -830065 2.53094e+06 3.9113e+06 3.71349e+06 -1.16631e+06 -4.66806e+06 131863 4.39425e+06 1.21485e+06 -1.07165e+06 -738127 -1.88136e+06 2.75014e+06 -2.43866e+06 3.25243e+06 -707912 840156 -381181 490412 -3.65627e+06 -1.64081e+06 1.62199e+06 475051 -3.34168e+06 613070 568096 -1.50568e+06 -2.39358e+06 1.33797e+06 -893020 3.29197e+06 -439667 40475 -1.42307e+06 1.47973e+06 -113669 -625459 -651558 -1.12888e+06 -502372 
-2.37273e+07 2.32979e+07 -5.62634e+06 -6.82389e+06 1.83366e+07 204296 -4.84936e+06 -8.23891e+06 5.01564e+06 1.72647e+06 -1.00531e+06 3.60193e+06 3.13831e+06 -202913 4543.24 -4.20205e+06 1.50873e+06 3.72647e+06 1.75982e+06 -1.44431e+06 -852830 788161 3.94869e+06 -383734 2.39822e+06 -670931 37725.1 -492338 1.84652e+06 -315909 475725 2.0534e+06 -917450 611568 745929 -585230 -9331.79 1.15054e+06 522744 2.10969e+06 -2.34159e+06 1.25854e+06 -80154.8 4.20963e+06 -688953 -214953 -242803 1.26012e+06 866542 1.12353e+06 
-1.91389e+07 1.57197e+07 7.03079e+06 -4.82802e+06 6.4223e+06 155142 6.50406e+06 -1.08776e+07 -8.35333e+06 1.29187e+07 -2.48773e+06 -2.51218e+06 -3.46866e+06 1.61479e+06 2.53157e+06 -235455 -3.1556e+06 4.12095e+06 1.07798e+06 1.02078e+06 -3.34608e+06 -991975 -2.0516e+06 -1.55714e+06 -234592 552205 -1.24932e+06 2.07826e+06 -1.35048e+06 3.84567e+06 -2.84623e+06 -243636 -217152 -951137 -574995 1.07236e+06 -2.29437e+06 -2.32979e+06 -1.14165e+06 -1.73959e+06 -297105 787670 696988 571416 -490151 -1.48895e+06 1.67616e+06 -128879 650989 105858 
