-2.62895e+07 -2.8772e+07 -1.0248e+07 -3.26026e+07 4.62484e+06 -6.98543e+06 -4.63387e+06 -4.95889e+06 778462 -1.81347e+06 8.3255e+06 5.55656e+06 453841 -1.21969e+06 -2.07008e+06 -3.19257e+06 1.55509e+06 -2.2331e+06 3.71475e+06 -305412 2.01451e+06 6.11667e+06 1.92004e+06 2.37828e+06 -632379 -1.75345e+06 -230640 548101 2.91843e+06 1.30096e+06 -1.07835e+06 642478 -1.08443e+06 2.0532e+06 -1.18491e+06 -1.70146e+06 1.91493e+06 -933878 -892831 -1.74955e+06 734373 1.22036e+06 1.07049e+06 -404025 430473 -294308 417791 134124 560124 -522918 -636369 -305750 736474 -910740 -541571 -1.8442e+06 -17994.4 -400267 -163149 -263602 54533.3 -368919 66970 438793 -461662 47500.5 -94494.5 796396 -576500 930076 -146405 -435107 -756114 -205039 19151.7 755386 -665953 1.28263e+06 278013 -970269 -343439 -449455 481917 -90267.9 503463 69315.3 -744260 37587.7 -637297 -444898 -157734 -1.16179e+06 -834441 669000 377619 699088 113736 164122 -797161 -452622 
-2.93969e+07 -4.65153e+06 -117532 2.66875e+07 8.85547e+06 -7.84661e+06 2.3262e+06 9.70624e+06 5.84031e+06 -5.16382e+06 -1.98145e+06 -1.32484e+06 -2.59746e+06 -2.78531e+06 -1.2827e+07 1.73713e+06 2.16607e+06 -647435 1.30637e+06 739340 -657793 -652986 -581159 -526872 888882 -422075 -898520 -596855 14741.4 591932 -1.5631e+06 1.27003e+06 -1.60816e+06 67185.9 -95243.9 -1.33595e+06 1.71188e+06 -43382.9 77714.8 1.09825e+06 205854 1.50714e+06 -3.30123e+06 -82293.2 84544.3 656067 -267719 262905 604775 819628 -430402 246582 -571766 -78048.3 -64571.4 174275 -667459 367529 678161 781245 131222 -459826 -590762 -153780 151340 1.46076e+06 -461824 586271 -176247 -60526 839201 -295700 -372385 -434181 718252 -105492 518225 -333600 175868 -243592 358972 22167.8 -376904 -83030.3 -158235 -127937 686318 -460076 1.03607e+06 73983.5 -339980 129200 -493505 -649984 -152300 -1.65974e+06 578010 -480741 -1.04214e+06 -649454 
-2.53174e+07 7.05214e+06 -984393 2.61022e+07 7.88575e+06 -2.64336e+06 1.32509e+06 1.00118e+07 5.76494e+06 -2.87445e+06 -3.07017e+06 2.27483e+06 -4.30425e+06 -1.96205e+06 -1.33105e+07 -644479 3.29716e+06 23949.9 4.75057e+06 -288666 -1.48789e+06 -564207 1.50407e+06 295330 483583 -1.26876e+06 -1.6168e+06 -980638 -1.20549e+06 257913 -1.24425e+06 550135 -2.96232e+06 -1.10176e+06 286028 -2.21779e+06 2.1396e+06 496885 1.46704e+06 1.23648e+06 677889 2.24505e+06 -3.5276e+06 -1.67519e+06 -368271 152946 254204 -1.49849e+06 942139 845074 206480 686458 -489654 -31054.5 1.0298e+06 -430405 292937 1.15751e+06 609045 39727.8 -298795 -289098 -475113 608900 810947 681430 -803053 -475960 515534 -74829.4 361986 -128979 -647814 441669 -177509 -396797 -777951 386958 -219996 625616 -386518 -318441 -455778 186401 738374 287178 -198240 1.04498e+06 -480069 -567757 1.29718e+06 -444678 35304.6 153836 102471 282740 -620944 477989 1.16208e+06 8883.72 
-3.27692e+07 -1.36508e+07 -1.40308e+06 2.14313e+07 7.77061e+06 -7.04547e+06 574284 1.02574e+07 4.70658e+06 -4.73194e+06 -2.18878e+06 -5.95253e+06 -1.7019e+06 -4.26797e+06 -7.8425e+06 4.79576e+06 -912008 -783555 -1.77336e+06 1.16693e+06 253284 -752249 -1.09436e+06 130399 730319 1.48893e+06 793226 -926340 828955 253438 -2.55689e+06 1.62386e+06 -681537 2.22205e+06 428141 69655 1.60441e+06 -729188 -1.49999e+06 51777.7 -77697 -81146.1 -724187 244494 -27563.8 531902 -290100 1.49542e+06 159614 75440.1 -374177 9117.23 257664 834711 -552190 499603 -110571 -824521 117240 908484 978026 364431 -768922 -526010 113067 335666 3990.68 394686 -506832 202273 690089 357514 -469825 -46519.6 121578 201347 -211904 466392 154454 78865.1 -226106 757055 676767 -103900 -1.93686e+06 75711.9 107985 -215800 259743 -611777 -53524.5 897335 -889652 747343 -74177.8 1.06254e+06 51932.5 584311 154141 448786 
-1.74202e+07 5.6844e+06 -2.26814e+07 -2.76875e+07 -7.12227e+06 -2.92722e+06 -760198 -1.53036e+06 -9.49281e+06 3.60422e+06 -4.16537e+06 3.28639e+06 -266583 -224826 -1.42328e+06 2.34484e+06 -2.33943e+06 -3.38114e+06 920746 -1.97895e+06 3.10502e+06 -3.77935e+06 289300 1.25104e+06 4.65057e+06 647170 -685867 -1.8265e+06 -1.27772e+06 -540969 -1.04449e+06 286124 3.57239e+06 977421 2.53919e+06 1.5404e+06 -1.39912e+06 333249 1.28964e+06 144715 -2.12785e+06 -684622 -934631 -2.0243e+06 54093 540739 -275473 -262439 917584 1.93842e+06 -406608 -2.4188e+06 139120 235420 -61848.1 2.64453e+06 -603039 -1.95303e+06 -1.18368e+06 1.22831e+06 798610 -1.19885e+06 -365464 1.65298e+06 -208496 677468 -332542 1.28027e+06 -641223 244489 1.47873e+06 -1.78228e+06 -176097 224031 -342045 -109048 -993307 556780 204579 -728158 -567711 -110766 -657591 144063 301384 -657245 -1.04979e+06 -474572 36468.9 534215 482545 278920 802857 -786969 298659 723500 -238288 -75157.5 -6429.14 258329 
-1.9103e+07 1.48794e+06 -1.37142e+07 -3.45194e+07 -2.74409e+06 -4.46117e+06 -1.08061e+06 -7.44216e+06 -7.98234e+06 1.32541e+06 3.33669e+06 4.69808e+06 -1.20204e+06 2.53636e+06 -1.54703e+06 1.02873e+06 3.79432e+06 -2.6231e+06 -1.47326e+06 -121155 2.5995e+06 -815365 402698 1.38012e+06 2.12739e+06 796225 -1.39409e+06 -3.49267e+06 -810555 565121 -2.31172e+06 4.10633e+06 -1.77638e+06 -2.37146e+06 1.45638e+06 -873653 -2.74587e+06 -78150.7 915287 549741 -1.48344e+06 -1.3377e+06 -1.42296e+06 8898.65 2.0505e+06 -99389 381947 653183 212881 -1.70412e+06 -714242 136275 -1.35151e+06 -124936 -17004.6 302267 -248800 1.34144e+06 -897658 -828817 -1.88393e+06 140172 -438777 903813 161367 -271093 237361 -57275.1 594104 -363555 -793270 192151 -343253 -314104 152590 -221293 436845 -424942 -6641.76 1.5994e+06 72232.2 30732.2 -412216 -439198 -1.04876e+06 740887 -635626 516254 68134.8 -35440 109737 345853 -909150 -497414 548979 205519 838208 107102 -429175 -511530 
-2.17286e+07 -1.60659e+06 -1.29835e+07 -3.74859e+07 733886 -4.39647e+06 -911549 -7.08996e+06 -6.93812e+06 1.56747e+06 3.46229e+06 1.84782e+06 2.47918e+06 780080 -3.02165e+06 630825 2.08717e+06 -2.70884e+06 -1.20699e+06 1.4466e+06 2.49233e+06 -2.26788e+06 1.49147e+06 1.71334e+06 2.40149e+06 1.36718e+06 -1.27317e+06 -2.8452e+06 -735463 -426044 -1.44962e+06 2.99653e+06 -404346 -2.36696e+06 1.25951e+06 -826112 -982909 314115 1.8373e+06 -338474 -705984 -529598 -778513 -41432.6 824673 -1.96729e+06 579903 663499 205704 -1.82437e+06 -279282 -82574 -1.3703e+06 -278679 40014.4 -310687 339347 1.24637e+06 -490709 -270667 -612689 479629 -122637 133794 36563.3 934947 -215490 -334676 88690.9 -323024 -727399 181142 463573 -607316 659852 173874 822216 -232139 -679429 -388868 456916 -597605 -50653 -50582.3 -57322.6 -292015 -15941.4 -543328 13859.4 134126 21143.9 279394 657661 1.7682e+06 -225823 31155.9 -280842 599154 228227 492748 
-5.33137e+07 -6.49416e+07 2.23044e+06 194905 84405.3 -3.38056e+06 3.06442e+06 -698160 915425 1.0255e+06 -3.73251e+06 -1.44245e+06 -4.2422e+06 390879 5.25851e+06 2.79436e+06 -1.62967e+06 2.10936e+06 575907 -1.53117e+06 215175 699074 -3.30468e+06 1.49411e+06 2.43982e+06 -2.66496e+06 -1.96252e+06 1.97398e+06 -1.12262e+06 -563074 -443476 -1.65579e+06 -2.20435e+06 -2.04901e+06 1.00807e+06 426277 1.94315e+06 -131099 -405102 805137 1.21551e+06 -1.19151e+06 19475.4 -1.95677e+06 -958947 -1.3295e+06 1.72518e+06 -420300 967779 586096 803424 285497 212184 600293 -287138 -410230 -170735 -835974 258742 270413 -28558.3 286266 339932 -396189 499865 -680610 30803.1 -751299 229528 720336 726573 213080 -560620 -447395 -664358 -40424.8 245733 -215488 -636710 933751 -34610.7 -42680.2 -393109 5422.15 -36458.8 322901 12925.1 -1.08301e+06 22187 1.01712e+06 445276 437859 8706.51 -71862.3 -126694 232091 624814 87755.6 -125464 727076 
-6.1186e+07 -6.57808e+07 5.34356e+06 1.15919e+06 701720 -4.8957e+06 4.07457e+06 -762967 -346773 -27241.1 -3.11321e+06 -3.46972e+06 -4.0236e+06 551191 3.15146e+06 1.72843e+06 593127 2.09774e+06 -3.19354e+06 -3.01116e+06 1.51718e+06 16441 -4.05903e+06 1.54574e+06 -613395 -4.10693e+06 -1.53815e+06 2.52316e+06 -633790 105679 -12645.4 -767186 -1.30407e+06 -1.85555e+06 -368309 -1.43465e+06 -151420 -512903 -48575.7 1.36552e+06 -90074.5 -323297 -968780 -2.20584e+06 71505.9 -1.32164e+06 1.0785e+06 -809118 -283591 1.40896e+06 -205691 -1.07645e+06 -757568 439933 -964369 -636044 204300 41299.5 -217524 330870 856425 -339340 -124107 -384904 431629 -734660 -698321 200458 73496.4 262443 177488 31321.4 551847 -397528 -686555 490942 130360 45463 -1.08187e+06 -233613 -249248 -131658 -164796 463284 -424614 274841 -532805 -164819 24160 -51565.6 -681690 -137052 -246292 -4424.37 226296 -118734 -878989 -200714 40260.6 -866798 
-4.70333e+07 -5.62845e+07 2.06049e+06 -2.48542e+06 -734993 -7.18555e+06 7.28643e+06 -4.54696e+06 -2.9659e+06 8.05654e+06 -619641 -2.02932e+06 71637.6 -2.32497e+06 1.85083e+06 -1.13281e+06 -2.20327e+06 -619276 -1.12878e+06 -2.67218e+06 3.00595e+06 -1.32856e+06 -1.30722e+06 4.30994e+06 1.37284e+06 -1.22787e+06 -730544 -302343 1.47772e+06 -840800 2.76217e+06 -130162 1.06798e+06 -76510.2 2.08185e+06 2.22377e+06 -159828 28699.5 1.75505e+06 -625316 342355 158027 1.56149e+06 1.33358e+06 -363987 2.1207e+06 -1.29105e+06 187802 112654 -1.2185e+06 -84181.5 -144914 262594 3.10898e+06 1.17428e+06 434209 427972 383983 -128451 2.13859e+06 -1.20389e+06 -800902 -1.12808e+06 614903 530458 44897.7 -656529 561140 73364.2 449430 -838465 1.41098e+06 222296 -11204.9 1.03543e+06 415011 47202.3 1.52446e+06 1.67288e+06 314038 -726098 -756152 248876 669089 537045 113806 918453 1.13026e+06 408341 -711959 -95932.6 116371 -151273 -78405.5 -669410 -618934 -839163 -69433.6 365157 -450836 
-4.63452e+07 -6.19005e+07 -744216 -6.1714e+06 -1.49393e+06 -5.741e+06 5.26525e+06 -6.50668e+06 -1.93046e+06 2.57667e+06 1.63675e+06 -2.74606e+06 7027.83 -1.64464e+06 3.2623e+06 1.01169e+06 -2.52533e+06 -871234 1.69272e+06 -1.29906e+06 1.22745e+06 1.21832e+06 -1.82167e+06 2.94459e+06 3.13438e+06 -2.57578e+06 -1.68307e+06 2.98011e+06 936136 162427 547361 -1.1799e+06 -433615 -1.15658e+06 636023 1.94643e+06 3.08479e+06 -565602 -328510 1.27155e+06 298316 682312 1.29086e+06 201399 -1.46544e+06 -127939 797107 875736 925732 -1.37905e+06 6184.31 856304 47249.9 1.12762e+06 107349 -905388 -340847 -1.18372e+06 533441 431825 -117187 803128 988685 1.46491e+06 299204 147055 240562 -540956 1.28681e+06 363282 254902 -644334 -595233 124596 1.28435e+06 -721893 66971.3 -849283 919240 404415 91313.4 721435 587025 -958480 -118753 -80685.8 548136 610863 -239487 506186 389340 498555 11995.8 -617577 548963 55775.6 591512 893538 -170293 -242015 
-2.9009e+07 -2.9012e+07 -1.21743e+07 -3.28224e+07 3.42916e+06 -6.11185e+06 -3.93727e+06 -5.46464e+06 -1.38046e+06 -593242 5.89851e+06 4.97817e+06 687433 -2.89709e+06 -1.69763e+06 -5.10362e+06 1.65597e+06 -3.05989e+06 2.93537e+06 -1.17356e+06 2.87716e+06 5.65793e+06 1.04186e+06 2.81075e+06 -1.29209e+06 -1.75406e+06 1.32276e+06 -46957 2.90974e+06 -541075 -285581 662160 -686145 2.2115e+06 52861.8 41255.3 1.21332e+06 1.40837e+06 64153.2 -1.49693e+06 1.72033e+06 406522 1.12356e+06 -159659 -142524 611689 1.42729e+06 704673 256283 36775.9 -805633 858730 856262 -618523 -214927 -1.35794e+06 -23256.4 -64520.9 1.68016e+06 -552179 -358399 311739 -299433 411233 659424 -514975 126566 -347861 -883998 362697 1.55383e+06 -51250.6 -1.42277e+06 -843490 -126890 -653672 -299581 -910448 -167097 -81461 52588.9 49272.2 461172 -28006.4 -220582 -309162 -260362 -237560 962656 165671 550769 798697 720769 -328816 -675514 189389 -479539 -762449 -328084 518321 
-5.90809e+07 -6.20033e+07 3.76085e+06 3.77718e+06 -634429 -6.32651e+06 5.80836e+06 -233105 573395 1.403e+06 -3.30505e+06 -3.89217e+06 -2.74976e+06 -743738 370133 874448 -1.1035e+06 1.55568e+06 -4.0779e+06 -2.559e+06 450568 -529493 -3.43686e+06 877910 -27875.3 -2.41298e+06 -2.9443e+06 2.77516e+06 -82888.6 -316635 1.09117e+06 -1.05655e+06 -396355 -1.94028e+06 -576636 -954634 -6647.36 -826612 764583 1.06654e+06 -1.40932e+06 -27150.3 101331 -114098 773542 -853171 434137 76112.7 -616629 -489546 275679 -528611 -638739 325254 -959556 -186749 170947 449012 432963 673992 277946 -1.17966e+06 384244 127632 296623 -618238 11011 -290053 786503 386308 -746157 -235605 1.78519e+06 -339929 -500959 -463639 288338 -40020.7 -293403 -418835 153105 236055 131829 -350216 -795342 263968 -922968 789684 -300489 -313670 -294450 124049 249796 734741 59859.3 142737 -196389 -967339 -246423 14646.3 
-5.63724e+07 -4.78245e+07 1.89862e+06 2.31953e+06 913350 -7.03351e+06 7.57161e+06 4.76424e+06 2.76811e+06 7.50123e+06 -6.2118e+06 798999 -4.14892e+06 1.91952e+06 -1.32028e+06 -1.57182e+06 -219958 720676 -4.07224e+06 -3.1769e+06 828274 -1.69632e+06 -1.17498e+06 4.951e+06 2.29574e+06 1.96118e+06 -165039 -3.30064e+06 459324 500834 1.83481e+06 -548150 1.68208e+06 -379787 1.41013e+06 -784347 1.99675e+06 -4779.95 838410 774749 -391545 -647841 -1.0297e+06 2.56499e+06 -319293 -383542 -3.33e+06 -2.07117e+06 2.06968e+06 -1.0192e+06 1.75095e+06 1.43837e+06 1.63854e+06 -1.8591e+06 -508931 -605087 22987.8 -264760 542957 353455 -836069 710002 513290 -1.91893e+06 -458499 1.56413e+06 1.93159e+06 -265947 517913 585363 -57279.8 585098 503486 994526 -463182 -191352 -1.07778e+06 494257 -418077 -1.00152e+06 1.01213e+06 84207.7 38404 156874 153443 259966 -892484 -820257 -147927 -260045 622298 -225740 265249 -281881 401570 -242555 669373 127779 -414380 163883 
-4.7826e+07 -6.39377e+07 3.35532e+06 1.21619e+07 -1.08973e+07 8.15602e+06 -4.97188e+06 5.5072e+06 4.73985e+06 3.40124e+06 -3.52691e+06 7.02613e+06 -8.6371e+06 5.1014e+06 202479 -1.08961e+06 4.08423e+06 294113 -2.64415e+06 1.97512e+06 -646818 846876 2.30267e+06 -599717 -326350 99933.5 698902 1.27659e+06 -1.34406e+06 -496240 -327486 543869 -1.52327e+06 -1.14674e+06 -1.89436e+06 -993561 -1.38626e+06 810401 -480932 794503 999595 2.01505e+06 465060 -318894 275218 -723278 991586 -1.00598e+06 -742150 1.52366e+06 -36494.1 -2.03208e+06 575091 -1.08168e+06 441976 47994.6 -1.02398e+06 1.05998e+06 -183297 592046 -1.64918e+06 -318513 346688 1.04695e+06 -287152 341010 -206532 1.57075e+06 839306 -346540 536709 1.2228e+06 509723 -194732 423492 287317 1.05686e+06 1.01526e+06 -408133 -1.74316e+06 322850 -381349 749687 348665 255321 -588639 741953 344820 681645 766987 -190311 -14734.2 1.0356e+06 -496033 219319 407385 -512004 453658 -728266 -7137.33 
-2.84748e+07 -5.82338e+07 -4.11032e+06 3.24098e+06 -1.78552e+07 1.1322e+07 -6.18525e+06 5.19366e+06 5.75694e+06 8.06867e+06 -4.2071e+06 1.05903e+07 -8.63659e+06 6.95085e+06 1.6355e+06 -1.16851e+06 5.61622e+06 -985169 543333 1.34309e+06 861540 -336846 3.07171e+06 2.30134e+06 2.56198e+06 2.69726e+06 3.15516e+06 1.02159e+06 -382826 -832731 -847098 216710 -1.86675e+06 147290 2.12316e+06 2.25024e+06 203575 712411 -1.41345e+06 -1.15074e+06 57124.4 416045 778794 1.67846e+06 -1.8573e+06 -188828 2.4616e+06 -785964 -546782 641584 193608 38617.9 37344.8 -1.23749e+06 -382285 1.22248e+06 -642133 -72907.7 872709 -224421 1.21414e+06 1.46087e+06 934499 378206 -121225 1.31996e+06 57645.5 -1.61432e+06 -590638 -1.21899e+06 -692625 -425183 56386.9 314868 -660378 820373 -575965 1.14039e+06 336331 531028 159502 -249716 -89846.2 -1.0652e+06 -971096 -241746 -226158 504695 -898094 -265031 -504970 274218 -291647 -360623 -677380 41122.2 -129138 -301541 268028 -573911 
-5.34576e+07 -5.29394e+07 1.90134e+07 1.67339e+07 17900.4 -2.96421e+06 343072 3.33899e+06 -332834 -3.09994e+06 -982767 -4.38698e+06 -278014 -2.43098e+06 -5.70705e+06 3.43673e+06 1.56765e+06 -163763 -5.85363e+06 -161733 -852223 107098 -2.7208e+06 -989600 2.07515e+06 2.17476e+06 1.53123e+06 -1.75524e+06 2.52849e+06 -1.07487e+06 -3.12553e+06 1.25214e+06 217125 2.23198e+06 -2.51212e+06 559924 1.16271e+06 242672 -1.46391e+06 -1.10944e+06 507966 -1.82061e+06 185007 -891599 -328712 -1.09832e+06 -219009 899177 285124 -777096 273259 -312929 390213 276835 -259687 141185 -532146 -189304 -1.23238e+06 207673 -520234 -785074 509815 298791 -1.28506e+06 -1.03436e+06 -239621 125222 -414868 -516519 -814.657 596339 194913 -244927 -495621 69852.8 145522 173679 493060 102787 54406.2 -88210.9 821921 -592728 -261772 -487236 134213 702469 -1.15365e+06 158396 96728.7 -113958 -283183 774675 212522 599140 -46185.6 75205.8 560204 -147049 
-5.33431e+07 -5.54012e+07 1.53936e+07 1.34369e+07 -266097 -1.86945e+06 -1.50563e+06 4.78087e+06 1.12404e+06 -1.9645e+06 -1.72385e+06 -4.33112e+06 -1.04233e+06 -3.36527e+06 -4.03849e+06 4.06741e+06 -155296 -1.07906e+06 -4.90643e+06 -219248 -1.3111e+06 1.05451e+06 -2.64548e+06 -555427 2.05893e+06 2.9893e+06 2.24087e+06 -1.65568e+06 2.23232e+06 -1.51736e+06 -2.39897e+06 390804 -324870 1.47522e+06 -2.44886e+06 375366 990646 302782 -944104 -2.28289e+06 524276 -2.09408e+06 143008 -1.16938e+06 -96938.8 -943135 415336 688536 -53585.7 -966389 533778 -251365 666594 -231545 959166 482528 -955507 -14177.6 -1.07846e+06 -683803 -380340 -951741 175897 345506 -1.0967e+06 -1.53399e+06 -348251 198346 -491717 -458028 -1.35633e+06 72010 -126529 39710.3 -362118 -882610 225688 -382905 858426 159804 358274 -428905 -1.00746e+06 540600 942881 -263514 -379011 -294874 -189225 -150235 397920 -875197 970079 -897312 -821183 -651176 810779 -54478.5 -706113 69923.4 
-1.59261e+07 -6.14506e+07 -2.2844e+06 -5.59865e+06 -1.63348e+07 1.56731e+07 -6.547e+06 1.50127e+06 1.62315e+06 -1.71269e+06 1.55043e+06 7.36936e+06 -1.71726e+06 9.13182e+06 3.53839e+06 2.86837e+06 3.32694e+06 1.83677e+06 3.00744e+06 -996910 1.16442e+06 -1.27472e+06 -1.13112e+06 270357 4.92654e+06 3.29968e+06 707097 3.59318e+06 718339 885573 -1.54121e+06 -17879.6 -256522 727683 1.7422e+06 814078 -478532 1.08277e+06 -2.36577e+06 808497 1.31084e+06 -1.35544e+06 404243 -358593 -1.24895e+06 1.38837e+06 -1.71029e+06 1.60377e+06 -2.29502e+06 1.13581e+06 -1.44738e+06 1.17706e+06 1.08946e+06 873756 634156 129613 768475 1.38836e+06 599720 284587 383956 -1.03203e+06 -303255 -256974 1.45481e+06 142614 429938 770038 -814703 -568717 117758 -363817 406396 413972 443270 -1.78072e+06 255385 -2.16322e+06 -633521 -283106 105443 159578 111436 815712 -101041 788841 -438848 58354 315300 -21299.6 410209 -984731 70693.1 633388 342360 -438159 -71886.2 424118 320565 -222395 
-3.52126e+07 -1.14768e+07 -4.00677e+07 -1.24401e+07 8.65471e+06 -1.23517e+07 838187 -950801 -1.34175e+06 -3.32274e+06 4.89646e+06 -3.11723e+06 3.08718e+06 -573282 1.40804e+06 -514482 1.91456e+06 1.32368e+06 -2.98852e+06 804991 -1.13521e+06 -383263 1.88617e+06 -3.12085e+06 -4.11121e+06 -2.38903e+06 -1.92659e+06 1.61417e+06 -3.40803e+06 -126849 1.62262e+06 39885.8 205897 -108523 -1.5629e+06 171723 201266 -149590 -1.33902e+06 999949 -1.10476e+06 -2.05586e+06 -196477 -860160 -3.02464e+06 -1.66566e+06 1.33522e+06 -1.78689e+06 -1.80561e+06 400890 -705694 897618 298519 228544 -185160 274845 -792905 -1.10663e+06 -631442 -378499 194977 -159880 -138185 363097 -143920 811532 -24479.8 -639045 -495829 -1.20454e+06 57494.8 80170.7 -541883 1.38768e+06 -154434 -124716 -436877 750252 46158.6 461131 -15265.6 841452 -454789 1.06517e+06 -777354 391500 51001.9 539090 -299157 -896894 -231105 -76136.1 144427 -305984 -554440 149317 171317 587692 -211763 62765.8 
-2.99015e+07 -3.40962e+07 -7.68558e+06 -2.39595e+07 2.19617e+06 -3.77808e+06 -7.14661e+06 1.81304e+06 7.80498e+06 2.55469e+06 -549338 3.45953e+06 -1.89863e+06 782125 -2.5787e+06 -2.63417e+06 2.84107e+06 1.01319e+06 1.50884e+06 -1.6234e+06 89979.7 2.85535e+06 572910 389215 -2.9423e+06 -1.71026e+06 768823 1.6454e+06 1.43299e+06 -1.61895e+06 515107 -1.95463e+06 -231861 2.02989e+06 -1.34895e+06 -1.32155e+06 -603745 -1.65488e+06 1.01117e+06 -1.9419e+06 -694834 -119989 -1.5096e+06 -135925 2.05482e+06 438215 1.01901e+06 -403365 179855 519871 -1.58185e+06 -1.15967e+06 -1.15901e+06 103852 866947 709034 -340341 1.00076e+06 281066 541603 818614 -1.18407e+06 652515 497119 -196074 240724 521767 -1.45e+06 39869.6 794043 -1.1712e+06 -473027 677101 24323 709559 -499566 238833 -102325 628454 -723663 877102 842752 812133 -97608.6 682744 -128250 -183223 -483730 137576 -238985 -402063 242776 27834.4 173538 635415 -326381 543639 175120 891717 697230 
-3.14733e+07 -2.24502e+07 -1.88825e+07 -2.3105e+07 6.04446e+06 -7.44644e+06 -747778 -1.12118e+06 -5.93325e+06 -885621 -1.55729e+06 -4.38514e+06 2.53486e+06 -1.37877e+06 -3.14314e+06 -2.88682e+06 -875592 1.42599e+06 1.18047e+06 -3.20704e+06 265953 -4.02716e+06 2.8622e+06 -2.04743e+06 -2.20545e+06 -1.24963e+06 280938 -653075 1.35299e+06 -233242 556956 -396798 -1.54175e+06 2.00017e+06 809761 115223 230004 2.34102e+06 850487 259729 992472 -541932 225879 210506 -1.43067e+06 2.38038e+06 130874 -518016 -1.38212e+06 1.12605e+06 -1.49288e+06 597585 385993 -234380 -72477.1 -165855 -877630 1.22928e+06 -254317 -142840 -14433.6 -6260.7 -7040.14 -667967 -407502 -513238 -215282 976251 -104599 449545 -473435 815060 272971 485992 143418 367491 -346674 449512 -733468 631594 -663480 -397214 -606579 32828.1 -463001 421396 -64522.1 71756.9 82962.9 501025 60271.9 -569268 -764.956 -331846 822058 -18845.3 88379.8 -27611.7 -224564 19319 
-4.39078e+07 -4.66126e+06 -2.31107e+07 -5.61179e+06 1.66576e+06 -66522.7 -3.83862e+06 1.24917e+07 1.40162e+06 2.73411e+06 -1.12023e+07 6.33816e+06 -6.37434e+06 -3.41292e+06 -4.75292e+06 -5.87846e+06 311510 560041 -3.8836e+06 1.33505e+06 1.94424e+06 -1.76939e+06 -1.21109e+06 2.19311e+06 -381896 154037 1.50148e+06 -3.44236e+06 405903 692237 3.61531e+06 -134140 1.27677e+06 -1.56963e+06 2.58678e+06 -987731 -2.78825e+06 283365 2.28534e+06 1.85317e+06 1.44731e+06 -632634 1.00027e+06 1.14822e+06 -1.46491e+06 -828864 -231669 -1.95096e+06 -903087 -96082 92116.5 -138767 544866 165255 1.26416e+06 -117368 138292 -63596.5 -1.66809e+06 -855388 1.8567e+06 330821 -780198 -366851 -914529 -1.52239e+06 -711316 82759.3 -421132 214559 792905 369558 -1.39873e+06 -1.13977e+06 -754852 -72046.6 622120 -1.43501e+06 90375.4 -52060.6 260239 530605 1.0067e+06 -244762 165237 232364 869942 -340710 -338834 357036 -325935 -508546 -841217 670694 -193101 327796 -84270.6 -62164.7 -250483 -45483 
-2.58789e+07 -1.66191e+07 -2.29188e+07 9.10655e+06 1.45386e+06 3.45602e+06 -5.01026e+06 1.5432e+06 5.31204e+06 -4.92031e+06 482797 -1.8307e+06 5.73631e+06 -5.47321e+06 503749 1.52373e+06 -7.51763e+06 -2.20527e+06 3.7047e+06 2.20281e+06 31101.9 2.75158e+06 -1.38263e+06 1.96188e+06 765925 2.26373e+06 1.4722e+06 -105041 -781314 -3.23302e+06 2.21278e+06 -749893 -1.01241e+06 -1.7059e+06 -40765.9 906102 -412309 1.07435e+06 3.56802e+06 -1.40184e+06 252866 1.566e+06 306963 -631350 2.14246e+06 -454678 3080.72 645113 -691501 -1.18403e+06 1.05694e+06 -346774 668858 -1.91471e+06 1.96907e+06 2.13722e+06 -241782 668581 1.61475e+06 -199948 65949.8 -802889 445444 -891634 1.74741e+06 89323.3 586696 -1.31207e+06 -681890 27638.1 1.30017e+06 1.25218e+06 -276086 -44109.6 11133.7 107189 915316 400277 504808 949228 -588354 625528 -493380 1.08572e+06 -1.1336e+06 -119891 -389300 8.19714 -497913 260885 -500759 -1.46111e+06 361202 -219041 97126.1 282266 -101119 243400 -590245 -107373 
-2.30645e+07 -6.42944e+06 1.66283e+07 -3.32061e+07 -3.95113e+06 6.36808e+06 -6.56294e+06 5.20264e+06 560183 9.9111e+06 -4.52372e+06 2.4409e+06 -6.17649e+06 -1.94175e+06 -1.97512e+06 1.27781e+06 -1.98163e+06 -1.01048e+06 -2.52941e+06 2.97223e+06 1.84525e+06 2.18733e+06 -1.26095e+06 656527 -4.33296e+06 228220 -160786 -201158 1.51655e+06 2.04146e+06 -926692 -334763 1.03496e+06 1.14837e+06 1.1679e+06 -1.04202e+06 649829 -295805 257373 448419 879251 829392 -2.78804e+06 1.80846e+06 664243 -299963 -612411 508697 414833 730528 -426822 -332115 903407 -195920 372320 -129543 -994435 -580543 -1.52723e+06 -735442 567275 2.26677e+06 411467 -92641.6 -1.06186e+06 -1.63561e+06 606454 -643948 602893 60258.2 282152 -711018 298608 896501 170590 -370058 605524 239034 -435749 961080 -1.6459e+06 731638 654495 1.74113e+06 -208627 164744 562005 676709 536267 365750 -341498 124142 772242 -278194 276550 -618961 87150.5 189960 865300 -115528 
-3.2893e+07 -2.44862e+07 -3.00586e+07 -1.14919e+07 528760 3.95007e+06 -1.08928e+07 1.82579e+06 6.21754e+06 -5.52939e+06 1.94718e+06 1.9903e+06 733481 315423 -272211 3.03745e+06 1.32819e+06 1.26659e+06 1.25679e+06 190636 -2.94505e+06 825363 -1.5281e+06 -3.57359e+06 1.33779e+06 -760577 -717901 1.40584e+06 -1.156e+06 1.27443e+06 212550 2049.09 589948 -1.1203e+06 253658 -735185 -1.80808e+06 -1.35721e+06 -246245 426750 94561.1 1.77103e+06 856690 -271554 492624 185551 -2.26217e+06 276159 -226812 -20635.2 -301872 -401273 811997 -997035 271952 -363647 1.07241e+06 -153797 -495083 -573038 -446722 -625122 -910137 -475249 -758118 31186.7 204168 785375 -3119.06 456695 26476.9 538205 594035 564203 326412 -101119 -954695 34530.8 591663 603901 -862303 -18909.8 -9307.74 -309079 -459440 228813 475742 110075 -466100 407790 326374 418286 -33587.9 186147 -334220 436392 668130 105966 -149306 254174 
-3.65451e+07 -2.70977e+07 -2.70746e+07 -1.24753e+07 2.49929e+06 -134325 -9.76918e+06 -231094 3.56971e+06 -3.11474e+06 3.07227e+06 197411 1.80504e+06 805662 1.19421e+06 2.10403e+06 1.9239e+06 1.29875e+06 859081 13947.5 -2.2865e+06 1.31281e+06 -1.26218e+06 -3.33045e+06 -258106 -1.73156e+06 -814214 2.40591e+06 -951679 1.06239e+06 150599 -621779 1.62626e+06 -1.30422e+06 -299231 -897350 -1.3778e+06 -1.47222e+06 -695297 619743 22112.8 1.02301e+06 -117107 -376354 577442 -94769.2 -1.51318e+06 -123825 -101959 410358 -540148 -94432.7 534864 -1.25525e+06 -76387.4 -189020 569831 -236044 -394261 -575560 -542796 -553749 -348737 61033.3 -690522 155713 522885 545460 -253224 280477 128336 370308 385478 678870 -150850 -252583 -243391 456829 648545 437001 -795999 -77347.3 71030.7 11467.4 -186999 40660.6 420015 427144 -551688 339623 171829 381472 311770 61362.2 -205083 -126253 648188 296282 -272421 228563 
-3.38192e+07 -2.42887e+07 -2.01794e+07 1.36255e+07 250266 4.40521e+06 -6.78774e+06 7.56613e+06 6.35838e+06 -6.29793e+06 -2.41513e+06 -2.0815e+06 -1.7263e+06 -1.39899e+06 272821 1.22291e+06 -1.25409e+06 -1.73074e+06 -1.85849e+06 2.29049e+06 -2.22134e+06 635168 994425 -1.30608e+06 -904470 385768 547204 -1.51607e+06 -1.75393e+06 -217162 -1.5275e+06 1.35198e+06 1.10038e+06 1.23472e+06 -116499 2.21244e+06 441322 1.93369e+06 -395563 1.37927e+06 377369 -1.20936e+06 2.46936e+06 -444025 -1.52751e+06 -321119 1.05157e+06 -181552 1.27696e+06 -646531 593777 667625 181698 -83727.5 1.00207e+06 440744 6587.15 339627 -251011 -726481 -1.6712e+06 240792 440927 941678 -16626.7 546096 -490336 484737 1.66934e+06 426716 76580.3 -135130 -762725 759485 992431 655276 -414723 -197202 -82256.4 193259 814336 44979.4 37970.8 684759 1.36393e+06 967848 121828 -281058 -73610.3 886613 -155018 326887 -862188 234218 399987 80425 -548083 -416781 42987.6 606113 
-3.5721e+07 -2.01368e+07 -2.16194e+07 -1.64825e+07 3.94625e+06 -5.5346e+06 -269902 -4.8995e+06 -4.48154e+06 2.84689e+06 3.66017e+06 -3.46639e+06 5.93612e+06 -1.2177e+06 -200848 1.62885e+06 -397231 -687924 1.56548e+06 244298 229112 -1.77538e+06 2.39672e+06 -1.65508e+06 1.27829e+06 -618159 -1.31062e+06 363063 -1.06835e+06 -1.04662e+06 1.30613e+06 417991 532053 422804 -230136 749481 1.2813e+06 15912.3 -416156 -277610 1.15778e+06 -168741 -1.10458e+06 907746 -1.04933e+06 -524513 -1.0234e+06 69594.1 -173723 -353458 208424 523050 427483 -37278.2 -15217.6 -719228 371675 486598 -73763.2 -124953 -406059 1.15656e+06 442164 -114131 -608469 1.0613e+06 -121023 300728 -374182 -593872 370635 184238 495541 1.03317e+06 52886.1 322165 -331069 -312710 -666665 -953680 -40845.6 -484244 -303400 437750 -329262 -331973 418252 -699307 -419090 221175 -190324 -564082 471358 911926 -664991 -40907.6 -218892 -521756 888718 293938 
-3.14494e+07 -1.61202e+07 -2.40747e+07 -1.5064e+07 2.28149e+06 -2.97765e+06 -1.13853e+06 -5.88136e+06 -3.52867e+06 -832854 6.8667e+06 -1.14654e+06 5.85651e+06 -1.09722e+06 790226 4.57723e+06 -552736 -1.31261e+06 2.79283e+06 887449 1.12685e+06 521762 534656 1.1066e+06 4.40258e+06 227028 -1.20869e+06 1.3552e+06 8105.73 146763 141165 1.30666e+06 542669 -1.2782e+06 31188 738232 1.2134e+06 -1.40831e+06 -720793 730459 1.76336e+06 1.46457e+06 -290800 -295501 -429472 -1.72953e+06 -217133 621186 1.19484e+06 -672100 1.79132e+06 -1.00787e+06 340488 -383555 -310772 -901768 395530 -429348 -357865 -513740 996720 770714 279118 -1346.33 -675663 -194031 -1.03353e+06 -61672.8 30414.4 -536606 795362 -123885 -177921 -242616 81640.4 673135 302784 -71090.6 -436120 -617730 -715394 -1.10161e+06 -1.09645e+06 25151.1 771020 -197567 821097 -77686.6 -130151 87225.7 -740794 -773032 -559112 486244 -151920 -944694 -63201.7 493214 492116 -405910 
-2.42944e+07 -1.22267e+07 -2.0842e+07 -1.74862e+07 -1.14393e+06 -7.05999e+06 1.30319e+06 -2.11173e+06 -1.00563e+07 559436 -2.87981e+06 -4.82207e+06 6.75264e+06 2.45275e+06 -2.24531e+06 2.28387e+06 -2.54409e+06 2.65294e+06 1.17125e+06 -1.63901e+06 -4.64297e+06 -5.18037e+06 2.61441e+06 -1.23048e+06 3.83115e+06 3.4872e+06 351069 164293 1.16993e+06 -860035 -138141 -2.44892e+06 -934031 298715 -1.11607e+06 728495 -307158 800711 -2.08447e+06 868886 -38891.5 2.14206e+06 191785 946571 2.63543e+06 -1.15096e+06 -261541 -917706 -364327 1.2047e+06 1.06858e+06 174884 -140685 -1.25084e+06 -451125 323977 -1.02766e+06 255836 1.34529e+06 -140300 1.15747e+06 740959 -790403 -354585 -350480 -413796 411594 -529286 407196 -317232 154406 -526146 1.0195e+06 -1.76137e+06 -662362 -498150 543068 238760 1.01476e+06 38350.7 -397447 726799 909269 -22571.7 1.69716e+06 692419 319196 475481 495798 -376839 1.16247e+06 377627 -843193 76689.1 -273414 311384 -283975 -1686.67 209570 112288 
-3.56842e+07 -1.81147e+07 -2.42899e+07 -2.87065e+07 1.50659e+06 -2.26175e+06 -1.41848e+06 -6.19211e+06 -8.71073e+06 -195377 3.76354e+06 -3.17012e+06 5.71857e+06 2.29843e+06 505981 2.06787e+06 2.12442e+06 2.68442e+06 52809.5 -1.27102e+06 -2.43504e+06 -2.17359e+06 478505 -1.36e+06 2.27631e+06 1.30642e+06 -1.25777e+06 -1.84982e+06 -1.12654e+06 379032 -1.56712e+06 271161 -2.12073e+06 182889 -394389 1940.97 1.1103e+06 1.00216e+06 -323333 529192 -325331 -488008 -1.05292e+06 74136.6 270675 -532498 -816161 -818818 278157 -158000 -252302 2.07725e+06 -392141 455412 -376265 -926968 -71668.3 330581 321115 -629336 -695386 1.02785e+06 -65936.2 -561955 347926 -321308 452088 -263110 -704961 -115963 -302094 -562861 613495 509084 -299177 395579 815744 -118961 640829 -199.871 245933 307605 962360 547585 95083.6 -1.06217e+06 473017 437978 992903 -319834 -954854 -37284.8 637282 -1.10273e+06 -155209 1.07597e+06 -445743 -641121 -895568 224526 
-2.24236e+07 -2.57987e+07 -2.67012e+07 -1.16759e+06 -4.5086e+06 4.56348e+06 -7.71319e+06 2.29536e+06 9.25593e+06 -9.32844e+06 2.00862e+06 4.24825e+06 418326 1.18256e+06 3.54718e+06 688564 670330 1.22711e+06 3.38774e+06 344224 -1.90221e+06 2.3784e+06 -159624 363366 1.72398e+06 3.31949e+06 3.04498e+06 -1.0808e+06 -80870.1 866388 -66368.1 -1.52727e+06 -160105 698916 590235 2594.33 -966758 195076 1.17157e+06 -317365 -944310 184738 906564 -1.07976e+06 -1.52882e+06 -509926 -8360.15 -710160 1.10158e+06 -880511 10623.8 -119860 -647532 -139875 -1.28647e+06 1.31555e+06 -333565 772464 -245972 -570031 -352822 -745990 -594605 -811700 -895675 -398491 -744569 -666833 776776 1.08002e+06 -394626 342310 197084 380574 749233 -228574 -1.25568e+06 -18755.8 -648792 872974 -995100 -610706 84153.5 12059 -129308 -469841 175970 -9591.4 1.09684e+06 -516156 443708 1.17442e+06 -234566 171441 -239487 -222424 164468 -693856 424268 -560405 
-4.10762e+07 -3.32261e+07 -2.40726e+07 -1.09068e+07 4.1097e+06 -7.15528e+06 -6.13033e+06 1.69511e+06 3.39167e+06 -5.34272e+06 4.34667e+06 1.31615e+06 2.28722e+06 91305.1 -483394 -1.74738e+06 1.08696e+06 127952 1.29587e+06 251823 142445 2.95079e+06 206393 -489419 -1.23722e+06 568280 477857 575581 364500 695799 2.32374e+06 -367225 2.66867e+06 268795 -748126 -1.5241e+06 -821915 -920584 -819785 -1.85872e+06 -2.28902e+06 -207203 -406939 1.6522e+06 275123 520643 -848868 85552.4 354157 -343152 1.25287e+06 428622 -1.07892e+06 725041 -1.09487e+06 1.30257e+06 -1.25178e+06 -1.04755e+06 1.07269e+06 401889 -1.01327e+06 -133486 -865140 -681568 938267 148667 531646 1.72277e+06 -370094 -702045 361361 359509 -762689 -277993 -1.49254e+06 904217 1.04413e+06 -262028 -511195 28795.2 1.13575e+06 361591 421405 -833768 -242626 292703 1.02428e+06 547198 -782953 1.02955e+06 433173 -172546 78525.1 -638192 369305 64514.7 -328482 147528 931368 -519637 
-3.04538e+07 -1.90397e+07 -3.01336e+07 1.01586e+07 -4.73845e+06 1.08122e+07 -6.96627e+06 1.63548e+06 2.33493e+06 -7.39139e+06 -3.10649e+06 -650514 2.07373e+06 215762 5.53809e+06 -3.58305e+06 100065 68281.8 -187053 2.49889e+06 -2.22361e+06 -1.26702e+06 2.52662e+06 -83701.2 -386728 1.07605e+06 246998 -2.91371e+06 -1.44182e+06 -1.72591e+06 -631436 -457226 -779724 2.03844e+06 1.33133e+06 193047 535819 1.03355e+06 -291679 1.31122e+06 -994060 117875 -720420 256849 92147.7 1222.08 969650 -25616.8 1.41095e+06 53795.5 1.35011e+06 392265 -1.63268e+06 1.49434e+06 -878618 -380487 386513 283366 686031 685086 679869 -620656 512053 -86174.5 509499 -521223 -263039 -99876.7 568579 211393 581260 785535 240257 2176.81 762322 490319 804083 596101 -63734.7 121180 462403 39098 -128949 -163376 -205873 -343172 290820 -1493.12 152048 -20535.4 -539805 375311 866798 682008 -20573.7 258848 349622 -122199 -116391 941568 
-2.16094e+07 -2.12621e+07 -2.6749e+07 9.26517e+06 -8.83997e+06 1.56453e+07 -8.34927e+06 -48696.4 -665060 -6.028e+06 -839623 -3.39549e+06 4.38982e+06 1.2806e+06 5.49181e+06 -4.2556e+06 3.2557e+06 -389196 -2.05635e+06 21655.9 -1.33571e+06 -2.43477e+06 -324045 1.15376e+06 -2.43834e+06 650498 -1.56426e+06 -2.35989e+06 334129 -1.11751e+06 -273318 147102 -302201 368079 832956 1.02034e+06 410596 -1.63022e+06 -688303 508516 -2.08197e+06 -1.06275e+06 -2.68807e+06 -2055.76 2.06635e+06 819829 638621 -111534 -1.16221e+06 331799 -1.33884e+06 173831 -59636 -497662 948880 -1.35087e+06 644998 -2.09424e+06 442200 208613 -358900 428691 -181496 1.73266e+06 316978 367250 188120 1.03466e+06 1.54691e+06 434212 741910 -249486 -201757 -318558 988009 302453 284748 -14130.6 576791 318408 -94263.1 919232 980926 312965 -274654 -913243 -304092 -982430 -1.40978e+06 -436373 378458 -884525 -344138 136939 -363278 -1.14665e+06 210289 -662078 380954 -49748.1 
-1.41607e+07 -2.35919e+07 -2.83271e+07 5.57581e+06 -6.23145e+06 1.01349e+07 -8.97676e+06 5.78211e+06 6.62008e+06 -6.50758e+06 -2.38091e+06 2.63268e+06 879626 -425323 4.17124e+06 -6.28672e+06 1.75544e+06 -927399 -157332 1.34155e+06 -852900 -1.25298e+06 2.7253e+06 948253 -1.50868e+06 1.37184e+06 489742 -1.43634e+06 1.61193e+06 -1.35306e+06 284067 1.4061e+06 -1.55375e+06 3.08399e+06 836294 -975207 350073 -811601 -129556 -133298 -1.95555e+06 526606 -1.46458e+06 1.36302e+06 1.40426e+06 1.09648e+06 -182518 625836 310814 161791 858424 658132 -555778 2.75765e+06 -796476 -1.94763e+06 1.6859e+06 -2.12035e+06 -506026 556350 1.40283e+06 -581271 -469463 -1.43954e+06 354022 -1.25622e+06 -163854 -1.13347e+06 231234 -472214 -553382 -28216.4 353514 168738 -279937 151204 182888 -294474 -187536 -474320 -917750 -1.17888e+06 -1.34647e+06 154617 884988 952870 -683310 405487 -459824 550694 -77954.5 133082 368076 -439040 -7059.83 442601 43615.1 692120 -668807 -229655 
-3.73399e+07 -1.61139e+07 -1.98074e+07 -1.64392e+07 6.38985e+06 -1.20785e+07 3.36412e+06 -723968 -9.10906e+06 703.976 -3.85531e+06 -6.23331e+06 4.25674e+06 -1.18759e+06 -4.01696e+06 -3.0692e+06 -1.04344e+06 1.45933e+06 -1.25816e+06 -2.55179e+06 -856328 -6.05708e+06 3.75245e+06 -2.29068e+06 -2.01968e+06 -1.11717e+06 807780 -779106 528069 -1.132e+06 1.5898e+06 -1.21025e+06 -1.46822e+06 1.63161e+06 586525 815462 -8425.17 2.38899e+06 85414.2 41295.5 1.63448e+06 -898740 1.27077e+06 129174 -1.3939e+06 2.62848e+06 1.77729e+06 21949.7 -1.23348e+06 1.38527e+06 -451063 267721 -86125.1 65354 308275 104110 -371924 1.06622e+06 206321 -236002 -4091.28 281147 445776 100533 -54486.7 -313804 -177289 43586.2 -418169 201698 -224239 725879 317147 -922827 -406094 112281 -147788 467957 -382852 231334 -275037 -72869.2 -215961 -826518 -59419.8 -331220 -509499 -501636 -523844 324134 211744 -37530.1 -270238 -36171.9 461508 -940669 696853 293483 90445.5 -233234 
-4.8994e+07 -2.9152e+07 -2.65517e+07 -2.33758e+06 6.7354e+06 -6.81958e+06 -4.87517e+06 5.63583e+06 5.64145e+06 -2.04957e+06 -461438 569045 520700 -2.21596e+06 -285575 -3.1978e+06 -533787 1.55646e+06 25295.3 -1.93106e+06 -872406 1.24935e+06 -1.10187e+06 -1.30325e+06 -651267 -2.02036e+06 -651824 998311 243767 -845597 2.82407e+06 -2.03222e+06 835483 -2.05948e+06 239433 -557950 -1.97273e+06 -852225 1.86827e+06 169034 442074 -290902 397233 -168028 671645 -59057.5 598386 -1.38075e+06 -17455.4 445863 129865 -405548 -476358 -127500 21863.9 110317 570067 237283 -422463 -747308 158589 -506970 -145604 22501.4 -413145 594823 -478178 -459187 -705593 -160230 -738481 -498534 -393677 25507.7 421648 -741200 -257482 -489484 512544 -402538 468375 -303118 -369814 -83157 557417 -212217 -258739 -380277 96879.8 -1.03002e+06 496727 43157 -128260 76856.6 -890498 648891 393486 59081.7 -189905 409260 
-4.21009e+07 -3.52084e+07 -1.94966e+07 -7.24403e+06 3.87168e+06 -4.94348e+06 -4.64091e+06 163282 2.50719e+06 -7.8189e+06 6.61545e+06 -1.39194e+06 4.90765e+06 -568828 2.00255e+06 -945798 796132 531920 1.95786e+06 -771765 247185 3.11541e+06 -1.07882e+06 1.22605e+06 -1.44152e+06 1.09368e+06 2.0178e+06 543474 1.42341e+06 1.4147e+06 1.08681e+06 -1.6276e+06 2.13872e+06 724421 -1.07023e+06 28605.8 -559079 99216.7 -95644 -589558 -1.3431e+06 -1.38621e+06 -1.23204e+06 -420027 -1.35276e+06 -1.07896e+06 5607.76 -731586 1.11208e+06 -728016 779536 261789 -1.59735e+06 561307 -1.21687e+06 1.66012e+06 -1.88864e+06 345158 -152627 -320786 185470 -26075 -649402 -430528 -229657 126718 -308402 62774 468912 -239611 -412131 -483893 -165320 -8316.48 -432811 -397926 -35342.1 -696937 -547474 234280 536482 253243 -356868 78139.8 229467 -816743 -41887 -222364 631279 -445274 -556444 -354651 -168203 -108521 642532 -1.15866e+06 -838426 19795.6 535432 -162085 
-3.15169e+07 -2.64823e+07 -2.09179e+07 9.78314e+06 6.13098e+06 -7.70312e+06 -1.67244e+06 8.77299e+06 8.09454e+06 -3.42977e+06 -399637 -2.56731e+06 -1.17538e+06 -1.57656e+06 -2.71244e+06 2.93783e+06 -908597 -2.45212e+06 -2.3515e+06 950735 -424069 -900137 36361.2 -1.33729e+06 -1.57341e+06 8778.94 -2.53471e+06 1.48404e+06 -1.17928e+06 66361.7 46969.4 422942 2.70517e+06 82474.7 561776 393727 -676970 474245 24916.5 -833016 -129428 -377905 1.89398e+06 1.58393e+06 1.43615e+06 605189 137582 1.96456e+06 -511720 -235578 71083 20075 -187954 -289647 258566 -264956 1.08272e+06 306964 518878 -31921.7 118214 1.04059e+06 946000 315691 751344 235115 320699 -343901 -221125 -195071 -224060 -892651 217868 1203.14 1306.88 115740 -284765 -180739 -547918 232055 147564 -275349 -314156 -349542 491062 -63157.5 -115583 -304642 556404 250471 -371187 83810.8 108682 29525.9 29492.9 -37071.4 -342805 32120.5 -31902.6 -88197.4 
-3.75495e+07 -2.52203e+07 -2.40562e+07 5.01944e+06 4.11227e+06 -4.54128e+06 -4.78534e+06 7.60365e+06 7.93963e+06 -267971 -877566 -1.30048e+06 -1.67834e+06 -1.04944e+06 -2.72346e+06 1.87055e+06 561996 -1.25121e+06 -2.92816e+06 519985 -994215 47365.9 172025 -2.45548e+06 -2.01235e+06 -919883 -2.28739e+06 1.18655e+06 -1.143e+06 360477 500002 756263 2.05797e+06 -145330 444372 810456 -1.42962e+06 -77417.9 212588 -257162 123080 58608.4 1.85057e+06 1.27642e+06 1.60681e+06 903899 -202855 1.02875e+06 -800512 317714 -300505 -427979 121318 -924268 614200 -218044 1.28847e+06 442057 307297 -647945 -583856 927668 788390 439893 504355 180165 364496 -202275 46910.5 -142014 -507127 -963730 128263 64406.6 63942.3 215163 -94530.2 -235108 8131.71 67908.5 176035 -505889 -123828 -618977 660480 141306 232017 96776.6 -54188.8 301389 32892 469992 -235644 -531247 -241508 -110187 138.523 -109662 119598 -253547 
-3.6997e+07 -2.1004e+07 -1.30164e+07 1.3433e+07 7.64011e+06 -7.15977e+06 -409148 9.24932e+06 6.76091e+06 -3.21642e+06 -1.20217e+06 -4.62007e+06 -508796 -2.91538e+06 -5.37992e+06 4.38104e+06 -803265 -2.10238e+06 -3.12335e+06 850581 19280.6 -1.2695e+06 -491938 -742858 -844769 149961 -1.73957e+06 469856 -595174 -243259 -807922 954083 1.59083e+06 1.00735e+06 759752 -188874 -30166.8 -239857 -564193 -199437 -184307 238544 1.02724e+06 1.3292e+06 992987 790705 -142710 2.2246e+06 -589002 -263373 -110195 -368913 149821 -178870 -177137 373749 467016 254867 325100 418829 962710 686284 519249 52476.9 306241 942.147 115898 -124769 -469979 -116736 170086 -604288 445345 -433844 -71987.8 -13378.4 -307290 6689.21 -379117 53727.6 -562591 -316495 104944 -199271 -572172 -314095 -551150 -551348 930137 -468619 -522844 45635.9 396307 305977 143028 323895 -910098 -121188 24463.6 -149632 
1.05571e+08 1.27015e+07 1.69927e+07 -3.12e+06 -2.72482e+07 -5.73828e+06 -3.68751e+06 1.30755e+07 -1.39287e+06 -4.096e+06 2.05802e+07 5.753e+06 -1.99643e+06 -2.1665e+06 -883369 3.56415e+06 -6.69278e+06 7.09114e+06 -4.97203e+06 -1.93446e+06 -2.82984e+06 -1.29302e+06 674944 2.75703e+06 1.11533e+06 -1.51144e+06 -968404 -1.38434e+06 -145100 -73391.4 2.22358e+06 597916 -1.67073e+06 2.30532e+06 248279 -1.83389e+06 -1.6094e+06 -821701 -403548 -99325.3 1.08527e+06 -239011 438559 -53903.8 -185937 490935 155321 -164123 114289 340103 792936 746242 -482406 -800821 -63758.2 30651.4 427789 65382.8 -165361 -210220 44948.4 -291056 189092 341037 46649.2 312861 -402192 -344873 321925 -193203 190715 -76063.2 123140 -42656 118452 -163935 347234 -78439.8 163088 -141886 15181.8 -38241.7 122892 -21322.4 -192839 78037.5 99864.6 97641.4 43740.5 -22107.4 152789 66349.8 -128656 36868.5 -190430 -22490.5 84758 8104.32 -47240.6 -206249 
1.15341e+08 -5.64721e+06 1.09406e+06 9.39037e+06 1.30147e+07 685881 2.81502e+06 -9.84472e+06 2.31809e+06 -2.07658e+06 -6.34309e+06 9.84736e+06 8.7351e+06 5.19483e+06 -1.40376e+06 4.07842e+06 -623155 1.11233e+06 -5.08456e+06 -1.96755e+06 1.55431e+06 -714347 -1.45788e+06 -2.80621e+06 849559 -1.62133e+06 -501802 471161 -358142 -45674.8 1.01588e+06 3.62997e+06 249464 724119 1.20508e+06 -189820 1.18295e+06 2.17589e+06 -504944 -1.99798e+06 1.99208e+06 317600 -513766 70883.4 -662450 885645 -987157 -1.6947e+06 435361 -249955 -1.29055e+06 -3.25949e+06 -1.63429e+06 -676570 -1.44961e+06 125738 741821 -1.81458e+06 1.1341e+06 -42490.5 -925133 413563 -850800 -1.29353e+06 399707 -808849 -948201 -1.72936e+06 41386.2 -416299 -572492 555932 -36892.4 1.17474e+06 1.27312e+06 -1.76854e+06 638726 231998 -134235 59524.4 -138100 619940 412509 -450522 358805 -885660 474283 -960622 -708720 308723 203780 -252099 -587431 -445126 495389 399539 -862118 175887 -285833 -309497 
8.20624e+07 1.17599e+07 3.65201e+06 348121 -4.13014e+07 -1.69845e+07 6.2198e+06 8.32415e+06 846047 -2.11668e+06 -1.15052e+07 -5.49958e+06 5.17171e+06 1.02806e+06 2.67227e+06 584794 1.355e+06 -2.10946e+06 -889190 693766 -520346 505403 -1.30078e+06 -4.21969e+06 -207672 -1.96903e+06 2.18445e+06 -163689 -1.12194e+06 -905748 -432444 658750 1.46329e+06 -1.40093e+06 3.33087e+06 -145122 -2.86521e+06 -2.58051e+06 -3.19099e+06 -2.06087e+06 762023 75640.8 -827689 -1.67722e+06 -546242 1.08109e+06 -1.24294e+06 -872644 1.79191e+06 -765215 -338132 -472617 647343 1.14952e+06 2.59627e+06 -2.42992e+06 -3.48885e+06 373202 1.92756e+06 -1.00044e+06 17145.7 -434308 -588991 325094 679833 -605466 1.75851e+06 -796454 456550 -127861 88466.2 45207.2 -446342 -477542 -77983 334737 -391211 277895 -697712 -164358 -50167.2 -804854 -203800 24978.9 21799.6 -553455 -82358.2 108571 199353 -378541 -243821 30006.4 -92318.5 280679 27649.5 210797 14275.1 84445.6 -60557.6 -129481 
8.03112e+07 1.44136e+07 3.54722e+06 -5.87028e+06 -4.95255e+07 -1.6205e+07 5.86887e+06 9.35748e+06 3.06264e+06 -308626 -1.40704e+07 -3.28125e+06 7.82228e+06 415759 2.03515e+06 1.74137e+06 3.58787e+06 -2.25346e+06 4.66956e+06 1.57174e+06 -457497 2.34492e+06 -299090 1.48382e+06 -872671 -1.82875e+06 -107561 -473030 -766754 932946 832106 892197 -449817 351303 -1.54655e+06 -399122 1.34277e+06 1.43153e+06 1.04082e+06 229218 360957 -946294 588044 264602 239667 -140475 -172298 493595 -1.0372e+06 212890 525440 -189349 -475405 -426100 -915591 112542 1.06894e+06 273604 -736279 120558 -66118.7 233498 20486.2 -120288 -210502 68139.2 -286449 188116 -390919 -120219 82710.5 -27694.6 105942 167346 147575 -265761 32055.1 78253 366532 -217661 168325 432578 89774.6 -121060 182549 79415.5 -245670 -83483.2 -199879 -55578.7 40818.2 -26092 28176.5 129762 -111064 -119868 -147993 73673.9 254670 71294.8 
8.06555e+07 1.34673e+07 3.02534e+06 -6.60711e+06 -4.9765e+07 -1.55315e+07 5.58514e+06 1.00138e+07 2.8897e+06 283677 -1.46558e+07 -4.66724e+06 8.58572e+06 1.4237e+06 1.92316e+06 1.33218e+06 3.75868e+06 -2.33071e+06 5.27182e+06 1.37842e+06 -86116.8 2.97736e+06 11083 2.06054e+06 -1.01408e+06 -1.34234e+06 -836055 -360694 -138319 1.23941e+06 767070 720342 -849963 346689 -2.07351e+06 -453334 1.54431e+06 1.62548e+06 1.61358e+06 760216 111927 -548706 425991 516606 440985 -557991 -143521 552899 -884616 182560 584552 331082 -478219 -751924 -1.33192e+06 552235 1.26876e+06 -70507.8 -1.12245e+06 508088 -116769 -27605.3 90686.1 -275938 -569040 331445 -672908 803490 -365333 67264.7 -60978.1 -20047.7 30367.4 142896 37307.5 -79900.3 162850 -144250 449755 450768 53462.6 185376 143671 94605 -220874 149803 231626 59967.7 193113 107888 39419.6 45427.6 7275.13 -220696 46336.5 -2540.96 156458 -82268.3 -90445.8 -15555.5 
9.71377e+07 -1.54002e+07 1.53823e+06 6.48417e+06 1.34772e+06 -1.56476e+06 911449 5.77159e+06 126122 1.27879e+06 7.20277e+06 2.954e+06 -1.03144e+07 -2.36138e+06 -672812 -770923 6.33601e+06 2.32533e+06 -807575 -259397 3.9863e+06 -743537 3.85035e+06 -1.22188e+06 -1.48687e+06 -5.03741e+06 1.15143e+06 -4.05047e+06 -1.88412e+06 -534735 1.34519e+06 -5.48272e+06 -1.18957e+06 -1.43566e+06 -1.73075e+06 5.61666e+06 -1.62857e+06 3.16708e+06 693403 -2.93974e+06 702872 114112 -3.36679e+06 -1.87198e+06 -730551 -2.26494e+06 -3.33117e+06 4.26668e+06 -932701 -561599 778830 -531399 -767729 328882 -267733 -777495 -267427 -621905 103509 -397505 108533 413517 41550.4 -529472 403564 -130485 175460 106128 -117919 -159433 217659 183102 383747 252979 110277 234230 -15818 -239090 561470 -314004 -379500 -83306.6 144019 -244791 168875 307900 -93404.9 -176907 -57870.4 38457.4 239870 373525 -442135 -148179 45556.8 137606 -41961.6 -386793 -16379.3 263232 
1.29876e+08 -1.00961e+07 4.15269e+06 9.36425e+06 1.42237e+06 -7.21393e+06 -1.1898e+07 -1.11412e+07 2.80596e+06 3.46494e+06 867347 -5.67266e+06 -300068 4.26314e+06 -2.1817e+06 -3.4958e+06 7694.99 1.9451e+06 -2.2106e+06 1.22713e+06 406240 1.57137e+06 -892128 -898559 3.39497e+06 -1.80887e+06 2.2308e+06 -1.68663e+06 -1.79673e+06 -273065 -816749 -1.13202e+06 1.3194e+06 374198 464701 -1.13597e+06 -1.22003e+06 531079 -328711 -411924 9272.94 709688 -394541 -30801 503663 -735331 851794 427931 -638643 -832767 -643356 868360 1.54114e+06 814023 -817542 252125 1.70873e+06 972178 315136 -414656 1.00669e+06 -268775 1.36277e+06 51871.9 -269788 1.03209e+06 568271 369504 22705.3 903981 -412162 279385 -442704 524877 -588647 907998 305314 361678 402814 50412.3 -368064 826671 -693114 342941 773014 -705758 27175 -71377.3 153729 158387 91956.7 250588 -322696 169473 1.96565e+06 -252916 67593.6 309060 -398338 -1.03939e+06 
1.44515e+08 -7.6081e+06 2.21205e+06 8.7246e+06 2.38632e+06 -7.03233e+06 -1.25974e+07 -1.36327e+07 2.9838e+06 1.81813e+06 1.45565e+06 -4.11669e+06 83541.9 2.99049e+06 -2.12238e+06 -1.8401e+06 -2.12686e+06 -1.15789e+06 -1.30256e+06 3.22702e+06 -476468 1.50652e+06 898759 269077 2.76911e+06 -1.31978e+06 2.04895e+06 -969008 -1.91519e+06 1.60772e+06 -1.01984e+06 -280911 1.00764e+06 -261037 -1.47859e+06 381261 724149 -1.56366e+06 1.87398e+06 1.84085e+06 639956 130913 37776.2 1.72077e+06 457771 -183494 488469 -300045 -489804 118247 -900961 -257945 394289 -264330 -30210.6 96417.9 -441705 -358110 85767.8 13852.4 252642 476549 -803432 -239722 262647 -1.42795e+06 -419063 52780.5 653771 -486357 89194.3 133958 481424 -545832 366481 175674 -1.16975e+06 -213815 -982195 -40164.5 -627386 -196068 225061 -1.12143e+06 -476268 -433206 -161656 333922 -457018 93980 374186 160474 599523 -42513.7 -732172 -1.27392e+06 -326395 -1.1967e+06 -1.16221e+06 287182 
1.36887e+08 -1.54604e+07 3.82984e+06 8.43886e+06 8.73396e+06 -7.17747e+06 -6.67482e+06 -9.42133e+06 3.70574e+06 713639 1.80743e+06 2.80716e+06 -3.06693e+06 392655 1.12868e+06 -1.2552e+06 1.12259e+06 -1.59851e+06 692221 2.89733e+06 1.2229e+06 -1.2171e+06 1.01085e+06 869879 -197935 -3.62016e+06 622205 947755 -3.06045e+06 710504 -2.78826e+06 -362894 1.54785e+06 711264 -797724 1.86751e+06 447480 -570188 240100 1.32726e+06 352608 -796762 -189851 1.41404e+06 1.29137e+06 1.03697e+06 -1.58371e+06 -1.61892e+06 -737016 410822 1.36909e+06 3.03574e+06 282450 -1.81129e+06 443614 775201 -1.89485e+06 -1.72298e+06 -389673 1.52832e+06 -1.31329e+06 -835402 -817074 42669.5 1.27304e+06 -916499 -1.72993e+06 -872812 -723692 -688600 -1.1561e+06 -768502 -261913 -1.21e+06 406352 -686856 -450379 918886 -280474 -277712 281327 83375.5 73384.9 202969 119224 517763 -146628 345607 740510 739794 -617354 -607062 -33621.3 1.17655e+06 364546 373933 930138 1224.85 259686 -90471.6 
1.41949e+08 -1.12631e+07 5.16268e+06 1.10802e+07 5.10247e+06 -8.31035e+06 -1.05008e+07 -1.19565e+07 1.31851e+06 2.04249e+06 -147864 -4.56794e+06 -684241 5.99149e+06 -3.10201e+06 -3.91647e+06 -1.37864e+06 -315354 -2.31402e+06 2.6842e+06 -322122 1.24501e+06 1.21317e+06 1.10369e+06 3.18941e+06 -1.48201e+06 1.68853e+06 -1.30832e+06 -448531 911834 -402325 -239763 456121 -163375 -615543 -505400 403801 -1.05334e+06 1.90721e+06 626872 79603.7 -746711 2180.73 -304686 -114438 242135 378729 -50328.5 -128010 146510 -1.30031e+06 -709815 561748 1.13381e+06 -126280 761089 -262816 -136593 1.38598e+06 -190282 70559.5 100739 189309 67909.2 32057.7 -216416 -172386 583485 69766.5 -341548 318791 -342568 350794 118325 -375834 -59549.6 525947 -401200 305373 116748 586644 -481548 -159696 731431 105655 844279 128312 -209281 -36993.8 -381420 -239607 -255327 -262824 -714226 -902058 690348 -18756.8 628337 928448 575042 
1.40181e+08 -7.84508e+06 5.59078e+06 1.0982e+07 3.05822e+06 -8.04151e+06 -1.23768e+07 -1.09243e+07 740238 2.37937e+06 124904 -6.12237e+06 674109 6.04266e+06 -3.37555e+06 -4.16442e+06 -2.39771e+06 211217 -2.77618e+06 2.20216e+06 -680865 1.50805e+06 592984 625103 3.9332e+06 -856136 2.05306e+06 -781733 -228765 746744 -162838 -174143 99974 67084.9 9368.46 -1.10842e+06 477630 -1.66334e+06 1.60695e+06 482044 14651.8 -618574 44726.4 -230924 -190598 61503.7 1.2981e+06 230642 -31798.9 61882.6 -1.80539e+06 -829345 909850 1.18871e+06 -536398 201438 487157 683212 1.32283e+06 -211926 467710 461149 465464 -438265 -338914 -180932 331399 487036 153788 -186738 455526 -44536.7 605918 729989 -179996 584767 54581.2 -482650 353085 138243 379588 -56635.2 1528.2 481387 56365.5 513040 135408 -126703 -61289.1 -244199 43233.2 118618 -44481.4 701.036 -410942 406300 316887 115649 376343 73241.8 
1.07299e+08 -1.83573e+07 -1.0048e+07 -1.1182e+06 1.37315e+07 1.16022e+07 1.85473e+07 1.4986e+07 -5.20739e+06 2.59469e+06 6.66671e+06 -3.57087e+06 -2.25918e+06 -3.50113e+06 72153 -1.42506e+06 980320 112978 2.02115e+06 1.05211e+06 -1.35028e+06 821640 -1.16793e+06 119843 3.62464e+06 -2.43355e+06 3.84847e+06 366503 -708733 2.83526e+06 404285 3.25194e+06 2.70549e+06 -273125 1.4561e+06 -7184.05 353983 1.31058e+06 289678 -906948 -2.4335e+06 245326 1.14164e+06 -1.34703e+06 1.4915e+06 456024 2.66805e+06 -1.07537e+06 -2.3664e+06 -218923 1.61442e+06 -118799 -1.59054e+06 430899 1.92942e+06 -2.16268e+06 -1.25844e+06 149482 563403 1.36403e+06 -600429 -373549 1.29967e+06 -2.71213e+06 -2.23399e+06 1.24219e+06 -237390 523142 -448198 -489557 169607 -907464 -193175 438634 534115 -490420 564638 -490654 -114747 -254685 -1.21182e+06 173215 516756 31824.8 -71253.7 241613 -298215 580766 -304247 75896.3 -36394.9 173142 -82765.8 -317712 185218 -142856 87680 -482704 113745 410956 
1.27171e+08 -9.96788e+06 1.00538e+07 4.66768e+06 -1.56758e+07 -1.22793e+07 -5.39613e+06 1.99649e+06 -2.10477e+06 -1.60037e+06 4.72012e+06 -1.07606e+07 -3.99937e+06 1.6532e+06 -452203 -4.30772e+06 -3.56741e+06 247186 -553725 -1.81335e+06 2.51666e+06 1.78715e+06 1.69174e+06 -6.22901e+06 -2.72843e+06 5.38683e+06 -582386 1.34357e+06 4.04923e+06 -2.09261e+06 1.65238e+06 -1.34558e+06 -544523 -1.67358e+06 4.19196e+06 8985.93 153100 688529 -2.02786e+06 -1.4287e+06 -3.40392e+06 3.0862e+06 -763522 -665026 -2.0119e+06 -2.00111e+06 661470 -571005 1.14296e+06 -1.39281e+06 -1.79913e+06 384972 1.13676e+06 -1.78155e+06 794624 577640 1.43335e+06 -433335 -1.29755e+06 2.08445e+06 -1.29241e+06 1.09949e+06 558818 -574237 599998 -88755.4 -2.28296e+06 231861 -18270.6 187025 -362101 -378834 -530.124 -663348 -113987 -486927 631238 -192865 -403857 -492248 -178096 -44670.8 115421 -9273.08 -200946 284694 -287104 95204.4 115598 98760.9 43868.9 87156.6 -40736.3 -166958 -90728.7 3691 242631 111622 -22796 312842 
1.40175e+08 -1.75377e+07 3.73255e+06 1.38135e+07 6.05283e+06 -7.10256e+06 -7.12221e+06 -7.23645e+06 -563470 2.19425e+06 -1.82048e+06 -5.38722e+06 -3.99339e+06 1.90457e+06 65268.4 -4.86474e+06 -2.48654e+06 -2.03453e+06 -1.45995e+06 984173 672969 -431748 3.46954e+06 -102716 -2.72961e+06 5.3478e+06 -3.24298e+06 3.01812e+06 3.24109e+06 810421 1.87812e+06 1.1294e+06 -2.52741e+06 -510622 1.36278e+06 649769 1.23002e+06 -309228 857621 -146930 32175.7 -371423 998866 -1.49341e+06 557458 -480265 -298879 442379 570364 2.0325e+06 1.48706e+06 -728789 -2.04192e+06 875478 370868 -614250 -768443 -338568 -1.05715e+06 -684831 204652 -488232 -590189 336756 -882538 1.01315e+06 1.81003e+06 -92405 -6952.12 -93534.8 537627 90224.2 133764 752322 241369 -795198 -726257 -480114 901716 53432.1 401720 150150 -819058 -463964 -365710 28432.2 1.08813e+06 32074.6 776986 677624 83618.5 -779637 235583 757701 283662 905080 396936 -1.60747e+06 169916 -1.14432e+06 
8.83484e+07 4.9829e+07 2.51527e+06 -7.03826e+06 1.54163e+07 1.21743e+06 -1.61971e+07 -6.03852e+06 -1.28626e+06 -4.86983e+06 -1.13033e+07 -3.05494e+06 -7.29685e+06 -7.23572e+06 4.54962e+06 -353170 6.92856e+06 9.53052e+06 5.64007e+06 -415429 6.14268e+06 -2.49656e+06 -8.676e+06 -2.17587e+06 2.50095e+06 -431227 -1.88632e+06 -6.06496e+06 1.66657e+06 -101853 2.52122e+06 -1.58549e+06 -1.46378e+06 1.25393e+06 -986332 -2.48614e+06 721282 -2.64755e+06 -2.47993e+06 -540637 -235092 130851 2.36643e+06 2.00284e+06 -2.02924e+06 70334.8 1.20058e+06 820312 -307735 691548 1.2848e+06 -382338 -888712 -286104 284944 526739 -165399 716344 16090.7 -475130 -1.23373e+06 -201585 432948 -222388 705284 443615 341011 62932.2 264068 -1.22853e+06 647327 -912578 298240 -284459 832198 -129542 110440 591492 317321 209639 -517728 -325801 105537 476101 54369.6 -374523 -147003 -291296 71113 107517 83514.4 -116267 237793 321552 29163.5 136766 -16000.4 101636 -84523 -38993.3 
1.37716e+08 -1.72815e+07 -4.75318e+06 7.59233e+06 8.07036e+06 1.91874e+06 -1.01867e+07 -7.21349e+06 -1.79714e+06 5.70953e+06 -908576 -5.72638e+06 -2.16456e+06 -573374 1.79106e+06 -2.19879e+06 -68658.9 32168.3 -484676 1.90258e+06 28584.4 871226 3.58955e+06 1.05174e+06 -2.06292e+06 4.19411e+06 -2.01132e+06 3.27531e+06 1.31778e+06 721479 768868 1.47589e+06 -2.39267e+06 -158637 193216 817637 447500 -2.02347e+06 668375 1.6582e+06 1.33217e+06 -1.61629e+06 1.46882e+06 -1.43108e+06 827605 -1.49692e+06 -3.07033e+06 880614 804510 2.28668e+06 1.94845e+06 -260764 -1.59001e+06 36912.7 1.06534e+06 -30554.4 -285434 529772 109715 -462278 -380461 -227869 -128271 -144125 -511457 473606 308902 438818 -916425 -80541.1 -685038 164407 -915210 -463293 -79049.8 159113 -143687 407278 -718660 822247 -325991 206047 1.06224e+06 -112331 218468 -487466 -1.29498e+06 -39847.1 -736857 -369490 -273372 763176 -118577 -520368 194018 -951433 -978520 1.51605e+06 -382833 766281 
1.33797e+08 -7.11098e+06 2.85382e+06 1.06237e+07 7.79798e+06 -8.40614e+06 -5.73797e+06 -1.29087e+07 3.94984e+06 1.06908e+06 -1.34475e+06 1.24686e+06 -3.28161e+06 -588514 2.37319e+06 -199962 1.70305e+06 809148 -540764 -826148 375423 -686663 -2.10858e+06 107683 908570 -181250 -1.14958e+06 237889 -1.46106e+06 -748360 -1.45126e+06 121828 2.10757e+06 480468 155315 34836.9 -298044 3.23888e+06 -2.23324e+06 -1.22485e+06 -74899.8 1.34112e+06 -12163.6 67944.4 1.47959e+06 1.15055e+06 369654 -771766 -1.3096e+06 -1.14513e+06 1.56726e+06 2.47036e+06 720992 -26103.2 -974013 -703647 921666 202292 -2.71037e+06 -632301 1.37749e+06 -1.43277e+06 -469286 1.71329e+06 -887940 1.39543e+06 1.34631e+06 -786291 923711 1.21919e+06 107374 996654 -944003 -1.02116e+06 -534475 -1.20708e+06 1.02501e+06 378380 -1.26116e+06 -135443 -590384 228908 -561843 -259156 -365719 -602716 439224 48556.8 98512.7 -423498 52391.1 -220610 -82629 -951126 -702740 70248.7 -701224 51653.3 488328 519526 
1.21116e+08 -2.77554e+07 -1.4196e+06 1.73967e+06 1.73014e+07 7.31885e+06 1.44626e+07 2.04138e+06 -1.88946e+06 336425 -6.53056e+06 4.5908e+06 1.02773e+06 5.25887e+06 -637147 -384448 -1.7904e+06 -2.94077e+06 4.15339e+06 2.49095e+06 -2.40458e+06 2.39192e+06 1.9555e+06 2.26234e+06 -1.08144e+06 -365851 -7.52662e+06 -3.99526e+06 6.6073e+06 287016 -239254 -929102 2.16997e+06 -720075 -1.06028e+06 -1.09937e+06 -4.168e+06 -352536 -2.74023e+06 931401 -85600.5 -661304 -323316 -4.31844e+06 597812 2.27481e+06 -328664 -624799 -1.05396e+06 -718281 2.0988e+06 931228 1.62885e+06 106336 -1.15832e+06 1.11247e+06 -284670 621064 1.39033e+06 -198078 907508 1.20604e+06 1.09283e+06 514841 100158 -568277 -1.4954e+06 -251877 377923 -613934 -188448 597699 275414 945376 -73252.6 73713.7 -98170.2 104871 419758 -311623 -52917.1 -338389 304307 -19638.2 -542330 -230373 47349.8 -188757 20289.4 405933 54166 209768 -91547.3 142253 -182244 -184805 246903 3852.55 -207921 51651.4 
1.29037e+08 2.21565e+06 -732628 4.8635e+06 1.7886e+06 -6.3712e+06 -3.12632e+06 -1.52743e+07 8.06014e+06 3.20702e+06 -967592 6.75999e+06 -871228 -1.1718e+07 2.16089e+06 5.20168e+06 301191 -3.58643e+06 3.5646e+06 -1.43189e+06 -3.91006e+06 -4.25871e+06 -1.58761e+06 2.68454e+06 -1.36798e+06 2.58995e+06 701902 2.05441e+06 -281918 -462659 -1.20294e+06 8986.79 -35541 -188878 -1.19088e+06 17686.5 -972668 -632673 164378 569350 -1.374e+06 701112 -1.08407e+06 924880 -1.29795e+06 201424 2.84942e+06 -66202.2 -167630 -824135 677670 558111 -531797 -975438 1.24365e+06 -1.09142e+06 -1.86567e+06 916407 -1.5764e+06 895663 87453.9 908320 -1.01914e+06 635734 1.5222e+06 -1.02979e+06 168219 454468 -1.30018e+06 905851 300641 1.20126e+06 1.46907e+06 2.03014e+06 -197128 859538 -318003 -1.39975e+06 482574 -972179 -514314 246214 401958 -355548 589888 206430 -166285 -933360 -376119 -518912 -193103 421153 -509769 -451579 152343 337127 -147670 248829 21938.7 -241940 
9.7553e+07 3.50745e+06 1.02941e+06 -1.03539e+07 -2.54546e+07 2.1526e+06 -2.21972e+06 1.61818e+06 -137808 -701617 1.88788e+07 3.69726e+06 -9.35508e+06 -5.62727e+06 -1.29283e+06 6.50896e+06 4.53538e+06 -980648 2.55768e+06 -5.26818e+06 4.86718e+06 1.00184e+06 -2.28615e+06 -5.24774e+06 -4.42012e+06 4.63045e+06 -239761 -2.9231e+06 -109927 -3.28172e+06 -538139 -385606 2.88445e+06 -2.75769e+06 -1.84796e+06 1.906e+06 4.20848e+06 848859 1.33158e+06 5.42412e+06 -244286 365925 1.00958e+06 -147527 1.69331e+06 2.18038e+06 177681 -2.16041e+06 -354971 -375551 -3340.97 -1.36848e+06 556274 2.06385e+06 -418721 -30577.4 104763 204272 1.86594e+06 -567609 775002 218353 -26.8062 -52843 -778863 -525356 266293 -139170 -179265 -191372 -465106 197585 -184328 16293 -482238 -31751.6 42947.8 324116 2840.47 41928.2 304432 -1804.32 -39903 -43654.9 -6031.88 -96023.7 53503.4 -379021 -78227.6 -56924.5 14721.1 -132075 -25183.9 162499 133874 61937.2 124559 141678 -33452.9 -133352 
1.2555e+08 -1.08589e+07 -108224 1.08806e+07 9.92255e+06 1.17577e+06 -3.1941e+06 -1.24362e+07 5.26505e+06 3.22309e+06 -5.37548e+06 8.24992e+06 2.979e+06 -2.06061e+06 1.49233e+06 3.43892e+06 1.65971e+06 1.2716e+06 -2.37706e+06 -1.72713e+06 338080 -2.78117e+06 -2.15549e+06 -471026 -1.89643e+06 47895.1 -1.78585e+06 2.56238e+06 503793 -1.57922e+06 158682 2.98978e+06 1.29245e+06 257858 -70583.9 830374 675205 2.9136e+06 -1.44618e+06 -2.43892e+06 756127 74295.8 -402150 -651341 -605433 1.47886e+06 -604525 -1.6252e+06 210560 -512665 -377842 -1.60056e+06 -1.51686e+06 -924633 -944032 -118947 543509 113969 -122103 -530785 99133.2 54268.7 46507.8 -891917 -235399 365973 -143198 -165350 -29155.2 1.50353e+06 1.28538e+06 -728495 -141823 -1.13032e+06 -601031 2.4969e+06 -218792 -832694 932711 639986 1.2001e+06 -729232 456262 1.25299e+06 -227823 936946 -572987 1.40759e+06 279390 -245207 186547 139948 811383 516904 -184967 -802429 748190 -6063.82 72127.9 357595 
1.16272e+08 -1.3834e+07 -6.82101e+06 5.71539e+06 7.34981e+06 1.32196e+06 3.00295e+06 -9.70042e+06 6.67407e+06 6.26705e+06 -7.14931e+06 7.40568e+06 777106 -1.37692e+07 3.34349e+06 6.85797e+06 1.85423e+06 -2.01525e+06 3.93862e+06 -2.28386e+06 -5.78265e+06 -6.85168e+06 -259704 3.63132e+06 -3.95368e+06 824211 2.61133e+06 2.52452e+06 256994 -250311 1.23383e+06 -122396 -2.32165e+06 290188 -1.35998e+06 -816139 -3.27815e+06 -402657 1.15597e+06 378047 -979645 -1.47684e+06 -678992 286540 -800127 -1.36469e+06 -476356 751562 2.03504e+06 -938472 -2.64978e+06 460444 1.75254e+06 1.14658e+06 8990.61 328028 1.03009e+06 -743444 2.11872e+06 -332811 -514471 388760 1.35283e+06 -282963 -1.64489e+06 332691 -94374.3 1.1014e+06 610492 -795930 -175104 -939389 -853430 -772826 -237205 -1.16933e+06 536415 797883 -339087 -138229 -231815 17618.6 -638741 -630929 -197102 -121384 262454 506112 434996 276875 19971.1 -445135 55272.6 215117 105677 149553 -69997.6 -98058.1 -158136 205855 
8.77045e+07 -2.09398e+07 -2.05e+07 -1.00632e+07 1.14249e+07 2.71942e+07 6.38388e+06 1.00198e+07 -6.74822e+06 9.94615e+06 4.09215e+06 -1.17565e+07 -2.72767e+06 -5.79864e+06 -301792 819535 2.51232e+06 1.62705e+06 3.08887e+06 2.57642e+06 -3.45235e+06 465899 -3.07254e+06 -563212 238447 -1.81218e+06 5.72159e+06 314719 -1.54214e+06 3.34571e+06 5.20172e+06 3.88441e+06 -1.7612e+06 724471 1.66364e+06 -1.11831e+06 2.95298e+06 734195 -316616 -892548 -2.79996e+06 -501477 535530 -2.22698e+06 725083 397613 -2.259e+06 70433 -319987 -356878 -448078 -727717 1.18384e+06 -776653 -1.3711e+06 570898 -84546.9 577282 -793746 -432950 1.0832e+06 1.26186e+06 -606569 2.38112e+06 1.67821e+06 -873298 63157.9 -632149 -156865 325864 -148810 421354 415136 -185458 -339222 -389414 -237843 683396 -134413 -147381 1.24631e+06 -336348 -176854 -208731 369844 303051 435857 -254347 106950 -183890 58408.7 198580 250896 275895 35332.1 -90631.4 161072 68357.1 -146313 -169154 
1.0264e+08 1.7518e+07 1.86408e+07 -2.53936e+06 -2.63143e+07 -5.25605e+06 -3.24786e+06 1.46486e+07 -2.67336e+06 -3.95281e+06 2.01975e+07 7.53555e+06 -2.39642e+06 -2.16924e+06 -784999 3.47786e+06 -8.36904e+06 6.04824e+06 -5.14163e+06 -2.03451e+06 -3.20568e+06 -1.89917e+06 783532 3.84926e+06 635085 -1.81403e+06 -1.01707e+06 -608342 -664194 53506.2 1.9061e+06 945741 -1.81903e+06 2.25845e+06 737146 -1.75477e+06 -1.28147e+06 -947716 -369775 -458530 1.2763e+06 -511790 333554 105641 -83138.8 432786 75004.3 94656.3 723324 562428 450005 392822 -322322 -63032.5 -34167.1 378228 -198580 -272200 -141463 -141342 55289.9 -32176.5 127709 523560 105394 311301 -217550 3659.61 157634 -17617.4 285552 -175142 59847.1 90017.7 213527 344173 -249800 -20834.1 20037.4 83161.2 81588.6 36750.1 -3463.21 126526 -125907 -151578 -30724.1 -32836.8 -218550 131930 -114816 -24906.7 370306 -75365.5 162913 -223008 -134503 -59312.3 83781.1 255161 
1.05159e+08 -1.59643e+07 -1.14052e+07 -2.64548e+06 6.65592e+06 1.07108e+07 1.93363e+07 1.46024e+07 -4.41488e+06 3.36033e+06 -319329 -3.46837e+06 3.73398e+06 -1.09046e+07 2.44055e+06 -4.78117e+06 1.5133e+06 8.14404e+06 -536738 600694 2.06643e+06 3.99899e+06 3.44016e+06 1.4787e+06 2.57697e+06 1.55648e+06 -588019 1.73052e+06 -719213 -877680 -3.93943e+06 -628571 1.38685e+06 -1.1741e+06 -274833 -1.43666e+06 -354396 678679 294152 520738 200718 419361 -96144.7 1.51078e+06 -719243 754578 -139223 218260 614784 1.03533e+06 -1.35123e+06 -439927 -630765 -244006 500455 325728 578807 -603926 -488913 -758610 -621767 -355428 230820 -103476 345436 -1.07527e+06 558967 -345388 394055 384869 -458253 288273 507035 617049 -272107 1.07088e+06 -313269 -46173 327740 -349221 324168 1.4157e+06 -923179 -67195.7 -171289 -1.72267e+06 -941532 606151 1.23981e+06 1.37655e+06 481534 -343259 -1.01169e+06 485388 -1.14892e+06 -40205.1 -86679.2 595045 299952 -58427.2 
1.08999e+08 -1.33823e+07 -1.28964e+07 -2.59451e+06 5.735e+06 9.89008e+06 1.7518e+07 1.28382e+07 -3.83956e+06 3.5608e+06 -1.8603e+06 -3.70809e+06 6.09261e+06 -1.09968e+07 2.58384e+06 -3.60031e+06 1.37513e+06 7.92793e+06 -1.15062e+06 -153005 1.58254e+06 4.14522e+06 5.20292e+06 1.0387e+06 1.93394e+06 1.91369e+06 -2.74545e+06 964494 288095 -624673 -5.16477e+06 -774079 1.0885e+06 -1.69299e+06 -1.09868e+06 -297333 -1.73143e+06 354555 -79382.6 762377 708375 448763 -208927 1.80685e+06 -1.27037e+06 108168 617219 703137 880099 -47453.5 -1.15519e+06 -332733 423198 -455467 -320481 547871 410541 -311348 70898.8 -127848 -94462.1 -1.14793e+06 -727447 318427 115140 156476 615773 -288279 -207997 -271220 140653 -203370 -233033 -604393 142573 -505859 -56540 152767 -492294 358861 339047 -1.13682e+06 620219 147348 78691.2 1.86533e+06 1.17223e+06 -1.00982e+06 -1.20815e+06 -1.30652e+06 -460641 253143 979356 -511886 869533 97211 -103594 -535002 -118806 -383358 
1.049e+08 -8.66542e+06 -1.87971e+07 -9.46625e+06 3.08236e+06 1.58826e+07 4.76227e+06 1.08822e+07 -9.96057e+06 3.44342e+06 5.25737e+06 -6.98132e+06 -3.68689e+06 1.2079e+07 -1.69831e+06 3.12007e+06 -1.29184e+06 -9.71162e+06 4.95947e+06 -1.67647e+06 -2.10141e+06 -2.81109e+06 -5.9001e+06 -1.18899e+06 -883965 -1.11861e+06 -651584 181840 -417568 -1.26982e+06 -2.65158e+06 -2.22267e+06 -181745 1.12153e+06 138853 -1.87451e+06 -1.22805e+06 -1.26981e+06 389155 89003 1.39842e+06 -211482 101719 2.1906e+06 -1.08195e+06 -1.16318e+06 -246856 200133 1.16834e+06 710415 -1.10598e+06 29393.8 -1.0408e+06 844775 368012 -337271 1.13486e+06 -302261 -854402 -89236.2 -939942 -1.71964e+06 81065 -198778 687894 354949 -95760.6 -1.51389e+06 -952120 194310 159303 634208 -1.25791e+06 1.16369e+06 -1.99669e+06 484944 729043 652889 644089 -101433 34497.7 -622657 883722 -561041 -57436 217598 155388 -268482 367916 438557 145411 -103613 -268597 20174.5 -10401.1 -684640 -52295 -655808 33444.7 480689 
1.00663e+08 -1.21433e+07 -1.93712e+07 -5.43081e+06 6.8096e+06 1.52302e+07 7.62513e+06 1.5847e+07 -9.66195e+06 8.10348e+06 4.16405e+06 -7.88e+06 -6.74759e+06 7.67385e+06 -1.30771e+06 2.1585e+06 -2.40555e+06 -9.64117e+06 2.37045e+06 -48878.4 128755 -238807 -3.40018e+06 -675186 -3.78695e+06 -1.84568e+06 -911641 -17942.3 1.00702e+06 -887632 -1.00266e+06 -1.77277e+06 -2.3248e+06 1.18961e+06 -1.4729e+06 1.02502e+06 -1.96607e+06 95086.8 -143970 -1.49154e+06 2.53498e+06 111235 209847 2.28834e+06 -2660.97 -319279 1.30314e+06 -1.79644e+06 609225 -1.3098e+06 510828 -100346 -126476 -651332 -1.10952e+06 925381 -83735.6 -282844 -85087 294640 342730 123997 -1.05512e+06 -883875 -141712 -41920.7 1.01595e+06 1.5028e+06 920013 1678.97 240608 -159782 770647 -1.16693e+06 2.17176e+06 250571 -817812 -1.01179e+06 -673953 439209 333769 551149 -1.17622e+06 408882 280311 -560790 -123701 308311 -581697 -753939 -38051.2 -140309 140671 -81278.2 -69609.8 804071 -176273 625378 -12086.6 -303265 
9.47146e+07 -4.82011e+06 -4.64495e+06 2.6091e+06 1.36995e+07 9.86839e+06 1.60627e+07 -1.2436e+06 2.18584e+06 -5.72958e+06 -5.26062e+06 1.17148e+07 1.39207e+07 7.94313e+06 -2.27862e+06 4.64046e+06 -832696 1.8849e+06 -5.7503e+06 -4.32911e+06 1.34575e+06 4.08001e+06 -574214 -4.0824e+06 -1.11378e+06 -698127 1.38313e+06 -3.42518e+06 1.49527e+06 -445082 1.46079e+06 -2.21743e+06 -1.11156e+06 -418048 1.20818e+06 -1.04209e+06 1.99418e+06 -44084 983439 528962 -481466 895096 521632 1.445e+06 -102207 -1.68084e+06 811696 713591 279277 -664252 808542 -103918 318321 425361 779127 343087 -707393 545849 -749848 -188218 1.0461e+06 207198 -672222 1.49288e+06 409186 360235 764336 1.04865e+06 250578 -691414 426631 -189804 -308977 619625 126283 -149596 -540050 72545.1 211252 -236901 -639061 434600 -54516.1 -1.76957e+06 18403 1.33445e+06 -981348 1.04172e+06 611758 -3914.55 -656207 -618030 613594 194584 39733.8 -501465 -62605.3 194450 35268.8 665205 
1.0576e+08 -1.22084e+07 -2.10137e+06 3.75334e+06 1.51458e+07 8.38948e+06 1.82791e+07 -402496 3.79037e+06 -5.34362e+06 -3.55924e+06 1.51382e+07 1.03585e+07 5.56359e+06 303350 4.60239e+06 -486302 -1.06913e+06 -2.46988e+06 -3.49719e+06 976666 2.68778e+06 564798 -2.95493e+06 -2.1715e+06 -811519 2.52827e+06 -805491 166342 1.204e+06 497283 -1.72373e+06 -2.00769e+06 656702 2.19922e+06 1.10985e+06 1.44084e+06 -1.90449e+06 1.2424e+06 1.61693e+06 -886197 -565135 1.00051e+06 548673 1.0882e+06 -1.33422e+06 90490.8 1.66585e+06 -354920 1.62798e+06 367149 1.7172e+06 290081 262704 1.0775e+06 -498325 -83766.1 459172 -548306 1.11784e+06 -674041 -62097.8 740651 282290 -452932 79840.5 -355808 216235 -395605 971630 -364853 -397899 466143 -1.16955e+06 -794163 608777 263012 113291 -575435 322774 661760 -513806 -352741 1.91727e+06 -138027 -1.3312e+06 854932 -833295 -440297 -224242 599525 671145 -411429 -99896.6 -270728 542831 310470 -21707 60922.2 -815849 
-1.71011e+07 4.77223e+07 2.78741e+06 1.36986e+07 1.16779e+07 -1.31049e+07 -2.72202e+06 7.39579e+06 -7.4873e+06 -7.6015e+06 1.11568e+06 342833 -164047 1.89799e+06 4.77802e+06 918024 1.69035e+06 1.11384e+06 -176491 63652.2 -803862 1.76841e+06 -2.22643e+06 2.18008e+06 -1.45347e+06 219449 806538 248430 1.15176e+06 2.51029e+06 -1.8543e+06 35467.5 -535779 130471 1.17181e+06 2.81713e+06 -306895 851265 386495 332535 252183 -715295 458747 58322.9 818501 -9470.42 24287.5 -1.20708e+06 1.69829e+06 255678 -581140 -349961 332946 -1.00944e+06 -84847 345025 -103903 588928 355393 43579.4 599790 -82384.2 167228 229832 475197 236197 301810 -153390 509650 206323 161931 -439979 411755 358326 232919 120322 430635 541658 -217372 9768.78 -593840 265248 -160309 8948.44 299395 736363 -119042 -361100 -178467 367477 -323495 127433 -181291 -249612 -405013 49203.9 343521 -67827.5 247602 -245674 
1.60148e+07 1.6953e+07 3.55346e+07 -1.18251e+07 4.50035e+06 2.10478e+06 2.67073e+06 1.48764e+07 423104 -5.73802e+06 -5.02019e+06 2.68995e+06 1.37199e+06 -2.8475e+06 -304670 -5.87068e+06 -1.6297e+06 -4.19324e+06 -1.09674e+06 -102086 7.3739e+06 -2.58573e+06 -547429 -1.30244e+06 2.28584e+06 3.34589e+06 -825590 3.45287e+06 -2.74732e+06 1.37463e+06 3.02179e+06 -447210 -249911 970894 -2.27417e+06 1.6316e+06 -660074 -1.96373e+06 -655536 -218734 716956 520622 -511348 -438662 748585 -114269 26330.6 -2730.78 92354.5 -907822 -440016 1.6821e+06 594652 1.04436e+06 -419278 666339 132539 326157 458141 -793864 -13395.9 -202796 -584133 1.02523e+06 -1.25117e+06 -335916 -729520 -747556 -1.34715e+06 916424 1.62096e+06 -879848 1.29654e+06 1.57245e+06 1.03957e+06 634627 1.64105e+06 679186 -1.69358e+06 633470 966397 -268638 185160 -676687 616674 -119456 -348771 954727 -217755 -241654 546319 -431388 -624611 -188142 -45866.7 10224.7 376007 -364470 -489166 262317 
-2.10129e+07 3.95996e+07 -3.38738e+06 7.63112e+06 9.164e+06 -1.5328e+07 -2.75026e+06 4.7163e+06 -1.27246e+07 413785 -3.28461e+06 3.75551e+06 -1.28834e+06 84389.8 210737 871574 -1.25488e+06 -348049 -529230 2.32722e+06 308905 146557 1.46058e+06 62369.1 -1.4555e+06 -3.39523e+06 4.33022e+06 3.34516e+06 -754921 -1.83197e+06 -879121 -422654 -2.99506e+06 -2.13203e+06 234131 571813 -686993 -880167 -2.51577e+06 1.88072e+06 -2.69343e+06 1.64049e+06 308511 779780 1.21532e+06 1.08255e+06 505641 874331 -211610 -1.99785e+06 734569 409913 264087 1.03516e+06 -156792 492162 48460.1 475531 -1.28603e+06 -792622 699428 -605922 -199409 -908355 -1.22697e+06 -349043 -536325 -989716 189547 -427936 59059.1 -451112 55485.7 376090 686765 503724 -1.10041e+06 -154815 1.04089e+06 350902 1.1748e+06 -851279 1.0146e+06 -38121.1 -838150 -220720 64479.2 -1.04803e+06 205093 909518 1.45529e+06 -865243 1.09309e+06 -305823 481143 -268730 -899753 672287 96128.7 -76749.8 
-4.31358e+07 -1.34706e+07 2.38407e+07 -7.39025e+06 2.85222e+06 -1.07642e+06 -4.10722e+06 -2.90736e+06 -9.27417e+06 -4.94462e+06 -9.07315e+06 2.06957e+06 -5.01651e+06 -2.47687e+06 -30945.2 5.38979e+06 -9.78186e+06 1.81088e+06 3.69058e+06 4.67263e+06 1.63691e+06 1.51306e+06 834933 -2.33304e+06 -1.10574e+06 252802 -747551 -2.89702e+06 -1.41053e+06 562064 -1.98788e+06 -1.20855e+06 -1.08941e+06 488762 186227 -615751 520508 64951.6 1.53025e+06 28789 -829701 241376 487249 -165958 -459886 451155 -1.04874e+06 -318489 -644672 -118527 -393779 200280 -981230 -742074 -41925.4 -1.17007e+06 -8182.85 -438735 610220 -343546 -249879 10250.7 379386 417112 -48875.7 -99278.4 518675 71636.1 -567147 1.12048e+06 -727709 -474002 74184.8 34019.4 -304791 -703306 -248242 -435690 -56338.2 -436655 687558 -564821 -566795 132433 -351882 194580 63785.1 908239 -663834 269003 136171 440129 -100259 -514860 -10664.3 -289944 -664066 31089.3 389248 46118 
-3.86393e+07 -9.2633e+06 2.46219e+07 -4.01874e+06 3.39533e+06 40983 -5.71415e+06 -1.28916e+06 -1.0379e+07 -4.82547e+06 -8.86841e+06 3.96593e+06 -4.98434e+06 -2.63388e+06 717222 4.65318e+06 -9.48306e+06 1.346e+06 4.80431e+06 6.26021e+06 665516 1.35606e+06 1.2695e+06 -2.71693e+06 -628764 170567 -151271 -2.50064e+06 -1.3987e+06 582106 -1.3086e+06 -1.31366e+06 -1.10996e+06 742284 862149 -349654 -737704 633769 518237 345721 -1.21323e+06 -150740 798026 484455 -626281 305761 -446782 -725843 -583327 -327683 -526310 -453938 -1.35403e+06 -330819 -550886 -1.07238e+06 -243506 -800208 788577 24963.8 275601 -71149.5 790998 540504 -107516 46874.6 222104 350921 -334062 941378 -773195 120310 -152246 428352 -171815 -312170 354493 -356609 52558 -962020 674432 97620.6 -350004 -193592 90432.4 159696 242108 445012 -496248 -310500 -272462 -116008 -139661 265381 -252907 -324018 -247255 -79066 -187066 -40673.5 
-5.64928e+07 3.58944e+06 4.54906e+07 6.50982e+06 5.54169e+06 -1.27045e+06 -3.45509e+06 4.66175e+06 5.12817e+06 1.60613e+07 1.13318e+06 183141 2.92189e+06 2.73209e+06 258169 -1.08573e+06 298805 38012.2 1.67205e+06 -2.6012e+06 -378291 1.43165e+06 786886 1.73883e+06 -2.96936e+06 -731889 1.85428e+06 -1.15338e+06 -1.22663e+06 -530943 -788961 885556 2.29136e+06 346613 1.40923e+06 209756 -23178.4 -705165 -642592 1.8554e+06 -1.02259e+06 213868 991332 -1.25061e+06 -2.09792e+06 766455 318030 1.53363e+06 570655 174227 580678 356609 -1.55279e+06 -864607 203188 531271 726890 -62484.6 202733 -754820 35524.3 -209947 -500436 -88871.4 427487 491202 -188220 -207036 173023 -72583.5 -251037 296959 415144 -27600.1 -314282 -23540.4 970769 -465581 -42322 335604 -600005 134287 -485376 -133980 435399 -246004 1594.92 75302 -215341 -683664 435399 -198599 -145119 314806 -67064.1 414786 -303141 102087 -391385 639536 
-5.54667e+07 -2.2456e+07 4.33011e+07 7.57008e+06 3.51197e+06 -2.24107e+06 -3.46246e+06 2.90352e+06 3.08154e+06 7.72821e+06 2.88319e+06 -1.2296e+06 2.48878e+06 2.19125e+06 2.36171e+06 748133 -2.75623e+06 -291042 1.81756e+06 -1.82311e+06 2.66662e+06 209670 120357 613051 -2.65222e+06 -942932 22392.7 -315931 -1.03249e+06 1.20112e+06 -531744 477389 896884 -1.09706e+06 1.61354e+06 -923366 -297588 215941 -329896 565358 -1.66856e+06 280033 -1.08248e+06 826784 -897762 1.36816e+06 731510 1.16012e+06 48224 739540 687976 147133 -289868 -1.2307e+06 -1.22796e+06 651798 -636019 -395707 310628 -503300 355766 -367594 -496351 -266366 394843 95136.6 288678 845311 -577074 -1.00323e+06 236054 -1.0641e+06 -158796 -61651.9 -621035 13487.4 496425 -12131.2 616801 620440 -362483 -679866 120929 156090 656535 -771792 527994 192827 -439142 -581665 427012 309833 -172660 597790 -309919 -79660.9 303512 47085.4 -982864 -313432 
-4.53678e+07 3.7791e+07 1.65395e+07 -1.227e+06 8.16504e+06 -2.80116e+06 -6.52369e+06 9.78901e+06 5.0245e+06 7.63784e+06 478925 -1.42008e+06 3.15949e+06 2.73182e+06 691147 -367343 3.75286e+06 1.36701e+06 -753504 -2.2301e+06 -430099 101529 270576 -1.01981e+06 -1.43917e+06 743902 -1.3029e+06 176726 1.80694e+06 568873 -453277 1.35727e+06 -385370 517766 -866822 110231 -286590 190906 1.72872e+06 529352 356837 -582452 1.12278e+06 -1.31844e+06 130872 -61760.9 -657003 -718385 -413952 -723458 -877667 28077 -358910 682623 278450 248560 -982191 -463217 -1.08337e+06 545617 412379 225133 -97283.7 72374.1 630102 370046 446853 -489150 791681 -235254 -92501.3 -432534 -367421 215513 197137 519717 264863 -549565 237774 -593811 -295854 -487567 -331648 210514 -63037.1 295383 448610 -277239 481113 159029 62899.2 -27360.5 -523207 -151094 257498 144212 -200075 269002 -1.04679e+06 688738 
-2.25561e+07 1.43022e+07 2.15262e+06 2.88854e+07 -8.62373e+06 6.22709e+06 -5.11961e+06 -4.27779e+06 -1.59513e+07 -1.69612e+06 -1.39418e+06 4.61443e+06 -2.5197e+06 -1.42764e+06 -345300 -115844 -1.83602e+06 -643554 483602 957889 1.94767e+06 -689200 958294 1.12963e+06 -294058 -1.34414e+06 -863843 1.23221e+06 108362 -693352 -520023 -112603 2.23257e+06 1.16203e+06 688547 344806 -703037 1.58792e+06 555114 -1.00866e+06 -1.093e+06 441983 773560 -21515.6 602643 -1.64812e+06 176563 2775.24 -131415 303283 -727443 -16578.5 -417844 -636627 104240 -1.1874e+06 -297775 -260736 147887 460742 556272 -712930 804005 145201 -3626.08 50138 324835 276158 -330205 -270573 -48412.9 -15233.5 91953.3 639319 33841.7 -344882 -29863.8 413715 139218 653140 215837 681043 122761 -281430 -224386 45593.7 926362 -665148 523158 -1.14589e+06 40692.2 -728504 -46784 786654 -341717 -535031 493225 619844 -424547 -91317.8 
-4.64264e+07 2.61561e+07 444836 3.08909e+07 -1.01106e+07 7.85292e+06 1.12261e+06 -1.0364e+07 -6.97767e+06 -1.23849e+06 -211932 -1.48777e+06 -2.15837e+06 -1.74225e+06 -8.17286e+06 178559 2.32919e+06 -1.56299e+06 -3.12789e+06 -897104 3.50381e+06 2.64e+06 912117 821207 -1.34406e+06 -1.3133e+06 -1.46099e+06 891971 2.17429e+06 -300531 717818 1.21384e+06 36669.6 222055 -1.47068e+06 -1.6061e+06 -2.09661e+06 -75015.7 1.9079e+06 -1.51928e+06 -402327 -478148 1.26231e+06 530048 -641603 565133 23950.3 -490819 293714 -34300.4 960035 986772 702815 736888 184803 -920671 56936.1 325814 47851.9 84861 -644269 1.08563e+06 -228369 -18878.1 679112 -14718.6 30450.7 -441646 -839056 333683 -160590 -874452 254174 796350 -329080 -835460 387641 756454 -199901 845495 -294081 -178341 196487 87888 397460 -475140 -150400 -501454 126584 -93464.2 12023.3 555788 734498 21743.8 -140532 124591 297033 -68594.5 721097 15010 
-4.88791e+07 4.36864e+07 7.35515e+06 8.26048e+06 -794861 2.42441e+06 4.30509e+06 -5.09751e+06 -1.69419e+06 -1.01065e+06 452216 -3.6261e+06 -3.03409e+06 -7.34909e+06 8.57268e+06 3.01197e+06 1.27041e+06 -7.05082e+06 -8.6649e+06 2.65736e+06 -1.88976e+06 3.5582e+06 -3.46778e+06 -453208 3.29862e+06 -446154 3.31774e+06 -1.80642e+06 5.02099e+06 -740167 3.51623e+06 767773 153919 -3.39676e+06 582098 1.18581e+06 -1.65704e+06 1.35297e+06 -1.55458e+06 1.78708e+06 1.81051e+06 1.36717e+06 -2.40889e+06 440169 924106 792215 1.61184e+06 756512 761352 3.34926e+06 -1.26916e+06 2.39034e+06 -1.26894e+06 -677609 -1.8389e+06 -10823.5 337944 448700 527388 -992189 -507312 -53806.9 -623072 -310047 529885 430163 -152821 832593 -1.09956e+06 784228 -1.15962e+06 -339399 -605437 404717 231373 -120834 -453015 233559 365069 -176358 46580.4 -58610 -292109 8152.97 250769 6102.73 -115445 296615 -441886 310760 -200640 -239015 143916 128208 -80269.5 60611.8 -314729 -155169 219272 311460 
-697531 3.77556e+07 619562 -1.39683e+06 1.18434e+07 -1.17469e+07 -5.94532e+06 1.43638e+07 -1.01829e+07 -6.92302e+06 -1.88256e+06 7.04537e+06 -2.48229e+06 4.46967e+06 1.07608e+06 -2.07495e+06 2.34955e+06 1.34069e+06 -640513 80047.7 1.42125e+06 -1.86455e+06 -910461 2.32773e+06 -671893 -1.23667e+06 1.1178e+06 4.78612e+06 1.46075e+06 456418 -1.94578e+06 2.23226e+06 -2.26881e+06 -1.51028e+06 968364 -1.22435e+06 742621 796235 -1.20763e+06 1.16045e+06 -53783.9 3.00865e+06 707274 241600 -251970 -256636 -1.89965e+06 -144520 -2.39096e+06 -995201 516999 686225 977613 1.11314e+06 583437 1.34466e+06 595168 -825883 853530 -325635 -1.34894e+06 479108 -373194 -50002.2 -312702 -1.33888e+06 341894 1.09593e+06 267841 -285518 361492 393261 -592421 272520 -713077 -28769.6 -16642 -235900 1.1693e+06 -156835 421840 592257 -1.38389e+06 -122409 803730 -810668 -779393 -396630 -395251 -1.03426e+06 -1.47108e+06 849861 56443.8 204914 197607 -137378 74340.7 -846734 436396 555810 
-4.04597e+07 3.91589e+07 3.09721e+07 338024 5.50455e+06 -5.72018e+06 -1.96074e+06 1.48329e+06 3.51832e+06 9.9756e+06 837212 1.09435e+06 -1.42134e+06 833416 -995367 4.62846e+06 3.7722e+06 3.69512e+06 4.97004e+06 -4.26943e+06 -1.3591e+06 2.2605e+06 174973 -183603 2.70108e+06 2.54942e+06 -1.48463e+06 443423 919887 -1.17773e+06 1.19818e+06 -149098 254791 1.35805e+06 820960 -1.18899e+06 -315627 122949 347151 -2.00095e+06 70039.8 428173 756376 25691.3 2.01128e+06 -1.65688e+06 -889941 -151124 -1.30131e+06 251251 -1.97887e+06 1.0651e+06 333098 617411 -161237 -398834 -1.15741e+06 -306776 406610 1.01867e+06 837456 -576284 -489107 -542235 -326206 -410398 -195887 980787 377914 719804 -352961 800703 98968.7 93053.4 759819 515120 -643496 455677 -886450 839482 496905 -202124 -59697.5 -219336 -609339 247391 11356.7 -657601 -862528 888813 45677 67411.7 -54524.6 97810.7 -457535 53678.3 -355586 -470424 337683 529910 
-4.45172e+07 2.92361e+07 3.03546e+07 2.89907e+06 6.19611e+06 -5.61007e+06 -1.33935e+06 3.1295e+06 4.01706e+06 1.01036e+07 -537619 -1.22395e+06 -2.2141e+06 1.57683e+06 3.68868e+06 3.12592e+06 1.4754e+06 1.16572e+06 2.99958e+06 -3.9232e+06 -899606 1.32047e+06 1.77903e+06 -2.19916e+06 2.63884e+06 623448 -2.85678e+06 60075.4 151937 -2.01018e+06 1.74401e+06 8159.38 -430065 239313 1.6134e+06 -1.03793e+06 104918 627977 -135851 -1.30086e+06 -306593 -1.08802e+06 -734247 1.30355e+06 2.27351e+06 -648974 -21824.1 340817 -859851 -191552 -1.1729e+06 1.01619e+06 -459383 701647 -329975 622561 -1.28922e+06 195172 -576092 300193 574707 -194291 1.00737e+06 -152213 176617 -536337 -78718.3 -445454 314051 -719855 -171722 -670440 -1.20875e+06 639976 479267 691139 -1.04435e+06 -285145 42235.7 -387649 593080 228012 -197114 510083 195223 163514 692870 294727 -48074.7 22769.3 -640347 42380.3 -720494 -230437 -597001 -251251 -314586 320625 -688369 -33740.6 
-4.55365e+06 4.87893e+07 3.0661e+07 -2.99507e+07 -3.7953e+06 1.13344e+07 -7.51804e+06 -1.61266e+06 7.14439e+06 -6.42516e+06 -1.40798e+06 -3.95615e+06 1.67648e+06 -4.22687e+06 714401 -2.88209e+06 658453 -4.5612e+06 -2.58747e+06 -3.13877e+06 -4.68418e+06 -45303.1 -1.75393e+06 1.23206e+06 1.6075e+06 -2.29893e+06 -838194 1.28018e+06 2.32636e+06 -1.32059e+06 -2.34304e+06 904452 389650 373172 391808 1.25662e+06 -104278 817815 2.17733e+06 -1.89548e+06 632512 3.73535e+06 1.27933e+06 732721 -1.11418e+06 -1.71849e+06 350608 -231688 -2.316e+06 442686 1.71431e+06 -649566 -1.56344e+06 1.05896e+06 615573 630798 -302833 -1.61866e+06 921481 -840265 -57652.5 1.13097e+06 -65657.9 1.11762e+06 42978.4 -161588 194070 453864 899406 -777533 -1.20399e+06 -218081 673237 365521 -1.11019e+06 -57667.3 66929.1 589578 -895509 -342032 445818 -297075 -204861 779818 -925476 588611 185059 -353485 510287 -288062 1.68859e+06 -219993 -414612 185857 408598 -378937 230858 89428 -239559 131831 
-4.75023e+07 2.18361e+07 -2.72451e+06 -1.50659e+07 925971 -4.9241e+06 791236 -8.86124e+06 -8.30911e+06 1.08478e+07 -1.91556e+06 4.72522e+06 446488 -5.66996e+06 -1.18702e+06 -392886 201754 -6.00518e+06 -2.73336e+06 -646277 2.76231e+06 2.37822e+06 2.19874e+06 -707141 -1.70893e+06 -512488 1.30029e+06 -1.91194e+06 -2.22181e+06 -3.72822e+06 565388 3.24148e+06 -1.83569e+06 753562 -1.47246e+06 -1.11551e+06 -1.0668e+06 -1.40831e+06 -3.69907e+06 547642 -824040 -266158 1.56408e+06 -145106 557301 -1.23837e+06 141517 946586 728139 194381 1.28038e+06 -1.53774e+06 374169 60613.3 235064 390314 1.54555e+06 511203 695726 768196 246888 -1.4063e+06 171868 -478346 731507 131882 -4365.47 -671260 37501 -961261 745067 940058 472069 -113657 -221932 -678535 -1.19359e+06 -56830.7 -852985 -698786 -87384.1 1.34209e+06 -295787 1.05367e+06 379285 736840 342354 427177 -106083 350732 -2482.21 577762 -970531 -663089 -320981 -664676 637918 -883138 420281 -68557.9 
8.52649e+06 4.26282e+07 3.08054e+07 -3.41469e+07 -2.29495e+06 1.97707e+07 -1.03239e+07 -2.05166e+06 9.19889e+06 -2.63671e+06 -3.12463e+06 -7.66515e+06 8.09195e+06 -2.98403e+06 -4.44532e+06 876183 -1.31789e+06 2.53151e+06 -525029 -840847 549725 -2.31337e+06 -376523 -193106 359126 -3.54404e+06 -1.49218e+06 2.56e+06 237933 -451351 -1.83648e+06 -168707 -1.5238e+06 726098 1.22189e+06 2.71736e+06 329013 -645814 708735 650072 283560 1.41848e+06 -1.48194e+06 -429538 -739896 987186 -194393 -373646 1.18881e+06 -1.19909e+06 1.26953e+06 -271232 905460 1.08759e+06 505381 1.91885e+06 -253323 1.56796e+06 -489272 -478090 1.39514e+06 -194839 166145 -775085 47517 1.08724e+06 195757 48125.4 -840986 278590 -1.53481e+06 -71058 -1.33176e+06 -175481 434472 -308828 243372 -265390 -162275 -1.2461e+06 153290 666618 639466 225174 40227.6 -367201 -25841 333975 -1.23889e+06 932529 -673931 794878 432287 185797 -468332 225553 456596 -591866 -109346 -351203 
7.95267e+06 4.61141e+06 1.38221e+07 -9.54637e+06 1.76623e+06 -3.01233e+06 -6.28414e+06 1.58298e+07 -5.5169e+06 6.84578e+06 -2.1346e+06 1.15091e+07 1.28115e+06 5.60389e+06 633374 -6.15703e+06 -3.87595e+06 -665193 -2.82502e+06 1.82013e+06 -6.04906e+06 -3.89411e+06 991714 -184767 2.23059e+06 2.10855e+06 2.08676e+06 1.66264e+06 1.34518e+06 -660455 -19886.2 -2.92321e+06 2.54156e+06 -3.64341e+06 -5.93054e+06 -1.46434e+06 2.68763e+06 -177743 -1.27756e+06 -822591 -1.28253e+06 -754719 -6233.93 457638 -860725 1.00954e+06 -721912 256733 548994 -1.22026e+06 279765 -1.77969e+06 -1.39123e+06 1.06315e+06 -298028 -1.47988e+06 73012.6 1.66299e+06 -897849 423541 241280 1.03058e+06 255382 53151.9 1.94448e+06 180661 26028.5 766658 -983805 800450 -321582 -979625 -1.36376e+06 -516580 851392 -497244 341.212 1.21573e+06 -434250 564955 -722247 465511 -791335 599499 -565023 43135.9 253634 -367638 -218525 279160 178379 193343 -182047 284787 -202355 42688 162319 -262950 -172639 108707 
-2.84666e+07 6.50457e+06 -3.63484e+06 2.8139e+07 -1.44908e+07 1.57377e+07 -2.91804e+06 -6.90543e+06 -1.33831e+07 -1.88128e+06 -3.66014e+06 1.77636e+06 3.30144e+06 -2.26171e+06 -3.24755e+06 -1.05715e+06 351494 1.67749e+06 -1.68221e+06 -2.14467e+06 33174.5 313633 241560 3.85292e+06 -1.01314e+06 -1.80362e+06 -642484 210181 1.79618e+06 -2.62014e+06 486155 -946120 1.92978e+06 264960 -1.72388e+06 1.26001e+06 2.3756e+06 -1.97166e+06 622460 -1.08828e+06 -1.37703e+06 711486 -437517 -183395 561488 -677379 -47272 -2.30243e+06 -222409 707147 -1.3431e+06 509085 1.88177e+06 -1.21772e+06 495633 -643208 38973.3 129042 -963569 -493924 639353 -547879 -102195 -176986 624075 874908 222375 -82240.3 -911061 -1.84307e+06 -49314.3 350907 848859 -78800.9 296111 28582.9 -183118 -1.19917e+06 82732.2 1.00306e+06 287686 -1.23028e+06 -902174 -98071.9 -89868.2 -960201 849726 859301 13161.1 745175 -199734 1.03147e+06 -824382 125119 1.22215e+06 -31628 -507528 -252707 -124223 1.067e+06 
2.26922e+06 1.27562e+07 -3.91274e+06 1.70166e+07 -9.16534e+06 1.03216e+07 -6.45741e+06 4.70116e+06 -1.3429e+07 -2.50627e+06 653528 3.60221e+06 3.76668e+06 1.26905e+06 3.05047e+06 -2.67449e+06 2.60554e+06 -2.57503e+06 -2.61455e+06 1.90214e+06 -698473 -5.12722e+06 -3.17545e+06 3.23526e+06 -949305 -1.00246e+06 -3.96787e+06 -1.36723e+06 1.71959e+06 -325049 241690 -1.39991e+06 1.04694e+06 -490911 289541 227744 4.42136e+06 -3.14878e+06 539270 -678763 -1.22026e+06 -451066 49954.5 -1.76214e+06 -228546 902819 537776 3.02666e+06 -1.8234e+06 -914411 -1.98379e+06 255162 -193122 -2.17619e+06 1.19087e+06 1.19559e+06 -514205 49163 738762 -1.71803e+06 -583884 -505668 -866010 -1.34442e+06 -1.3828e+06 296849 -576236 -828181 427871 1.08129e+06 -451382 396207 -490535 -316689 -434838 489282 -663889 269691 -1.0311e+06 -1.20147e+06 -1756.85 651050 -48471.7 -422832 396975 875071 585195 237752 657075 -122258 -208953 155565 220900 -583629 -422882 451126 -475421 414399 118808 -631607 
-6.34563e+07 1.20614e+07 -7.86188e+06 1.8012e+07 -1.50447e+07 3.03511e+07 -1.91306e+07 -1.17643e+07 -1.65049e+07 5.06557e+06 -5.78129e+06 -2.83429e+06 3.03193e+06 -338900 -5.41828e+06 3.05051e+06 2.63384e+06 6.34836e+06 -2.12413e+06 -148088 -186052 4.8163e+06 123529 -728094 -1.32462e+06 -2.13899e+06 96854.5 2.65872e+06 -1.5887e+06 -2.23825e+06 622551 -18538.3 -265842 851350 -1.07647e+06 232030 -2.05872e+06 548737 -299896 1.41779e+06 406043 -277056 890458 258382 347088 511675 -1.4704e+06 -401428 1.74265e+06 -1.03927e+06 926622 441953 -148416 521015 -191944 -540899 -797257 349171 -92341.7 1.01219e+06 -2316.73 955992 -140304 -539134 -111146 639255 -1.24571e+06 848506 321470 654613 -36094.8 -574240 -583037 177487 -212444 548605 529684 -403523 -77210.8 -239837 -353774 -39460.2 -42671.2 -568044 -473578 343130 -1.0411e+06 -380682 693907 -618746 431422 -703765 -659794 -602451 -617448 520732 63051.2 -357776 8574.19 -750540 
-5.52896e+07 2.9854e+07 -1.06595e+07 7.37207e+06 5.83688e+06 -1.23489e+06 -7.38181e+06 5.44986e+06 1.02692e+06 1.10539e+07 1.84255e+06 1.59241e+06 3.0937e+06 -2.22592e+06 5.73415e+06 -166772 -2.10014e+06 -3.49558e+06 -827958 -693484 -2.39838e+06 3.26433e+06 99339 -4.45531e+06 2.14641e+06 -635009 234812 -2.01641e+06 112761 -73311.7 73590.6 352800 -771277 148211 -1.7242e+06 703334 -242202 -1.4268e+06 774326 120498 301310 -213135 -356070 -716872 -1.42975e+06 1.5577e+06 -691626 -272630 113063 465956 509611 180612 1.00014e+06 108725 343338 99515.4 963055 -1.1583e+06 -341030 386003 -587283 75819.9 -18120 351356 -541878 448525 610999 -467706 -584208 205586 718497 -294494 829927 -1.06943e+06 49533 -97737.5 415451 -823233 345963 -524834 -36213.3 254083 289943 -302330 -787356 85854.1 -273154 104731 405181 -221644 23268 240824 -436781 209877 607351 -451243 -253188 248615 59886.8 -60703.9 
-1.38244e+07 4.67331e+07 2.66067e+06 9.55251e+06 1.2315e+07 -1.3023e+07 -846096 4.91973e+06 -7.71533e+06 -1.01993e+07 3.55882e+06 245941 552470 1.11867e+06 2.60207e+06 -1.036e+06 3.51146e+06 522851 216010 660748 -1.20958e+06 837152 -1.31642e+06 1.45564e+06 -1.52596e+06 -686680 245763 -172331 939788 164962 94285.5 1.04525e+06 2.24454e+06 576525 154076 1.08857e+06 64135.1 492765 146240 153453 -327807 -693901 388659 392540 -7189.17 -294017 -474234 -331463 1.53053e+06 786703 5709.69 191391 441103 763717 198200 408331 258800 405511 -45673.3 724984 -252258 470384 874558 367753 809291 -501162 481460 585804 -370263 -65794.5 119579 1.20921e+06 51122.9 466885 67369.8 -79271.6 299923 -461935 -1.15903e+06 -704813 234488 906524 331376 342580 -290903 366540 -63877.3 1.03047e+06 -207721 -262633 1.21057e+06 340223 513598 251897 55735.1 330117 -301231 -12842 -724265 -400616 
-4.75513e+07 3.25565e+07 -2.95296e+06 7.81652e+06 5.69082e+06 735124 -6.2254e+06 6.56588e+06 2.62295e+06 9.7258e+06 676857 2.4248e+06 352634 -1.30458e+06 7.58819e+06 -822069 139826 -2.57476e+06 -802361 347551 -3.98044e+06 2.12225e+06 1.40963e+06 -4.16732e+06 3.4247e+06 295596 -1.06519e+06 -1.83284e+06 -272989 -632873 925311 -47078.1 -1.32548e+06 208093 -1.48994e+06 166704 629749 -864647 1.87694e+06 -915107 579839 -16135 -850435 -494244 -1.22539e+06 1.09128e+06 265457 -1.05228e+06 -419969 -146291 346343 352788 1.00843e+06 416955 409236 -27968.1 632941 -641504 -236975 587089 -1.05346e+06 137487 -155370 335743 -929261 125806 177700 -927276 -692864 107157 322215 -32729.1 268260 -574979 38985 -309467 76334 -471967 153377 -442674 176883 -300904 191468 -281509 -635622 -216296 -691870 98105.9 422229 -402213 -359887 316592 -16929.5 272724 630808 -62822.4 -139166 236813 275377 -784450 
-5.13265e+07 4.30112e+07 4.89838e+06 1.44993e+07 4.3738e+06 657294 -4.5923e+06 4.94228e+06 -470958 1.21724e+07 264799 558918 2.24934e+06 207243 2.47394e+06 -308864 987968 319844 257267 -1.6517e+06 -3.65081e+06 1.70774e+06 1.50053e+06 -3.20488e+06 3.0781e+06 147094 -2.64892e+06 -1.42239e+06 -1.11314e+06 -132854 677594 84937.4 -799665 16433.9 -472582 -100558 133556 358680 952612 -499216 523791 209399 -420086 9641.14 129441 -35431.8 715683 -617315 -456503 41743.1 469657 619870 -127459 553729 659239 40339 -38923.7 -592408 474093 349579 -744829 316897 -324573 380777 -481688 -794213 -298506 -141915 -47041.5 50551.6 394302 149512 -393855 -24884.5 -285886 -145399 290640 345389 80263 73877.8 329914 49742.5 -348952 -268648 56490 51756.2 -446.751 -236180 207248 16871.3 -400005 -180801 670418 -95716.2 -111388 -14975.8 31340.2 -62210.6 555822 -303522 
-3.99995e+07 1.85546e+07 3.91804e+06 2.55816e+07 -3.57637e+06 5.99853e+06 -5.06441e+06 -2.80366e+06 -1.02208e+07 912408 -2.06287e+06 2.50354e+06 -286856 -1.01895e+06 3.20993e+06 980007 -2.09966e+06 -2.09217e+06 1.50931e+06 -233058 -789643 518977 2.34527e+06 -1.49858e+06 1.88898e+06 -1.28665e+06 -368782 988218 109252 -1.45505e+06 1.17724e+06 -142003 2.23592e+06 1.64442e+06 1.30161e+06 -719252 24562.4 2.3901e+06 -17574.6 1.05845e+06 325193 879823 299486 -339900 -2360.77 -2.00181e+06 443198 760728 241004 137307 13905.5 162910 -59424 98488.6 -972051 477469 -1.04158e+06 284932 723124 -93716.9 -65359.4 -885032 -587782 -124662 -1.01007e+06 -1.10471e+06 348019 -70178.4 -326651 534612 279956 -56126.9 -167045 202035 294407 304605 108772 763376 -246163 342174 -355682 592888 161793 -92879.6 487173 419124 44469.9 -471580 313798 -186459 -559746 906428 353884 795393 744310 -146711 622362 421109 -235367 -18177.7 
-5.27071e+07 2.99821e+06 4.00854e+07 5.63028e+06 5.77161e+06 -1.42675e+06 -5.60564e+06 5.62662e+06 4.12876e+06 1.63285e+07 982409 1.05964e+06 3.10814e+06 3.42032e+06 -2.25349e+06 -505381 -192076 1.91881e+06 2.46062e+06 -1.99957e+06 -1.02682e+06 1.87022e+06 1.14518e+06 -8283.97 -2.54047e+06 -1.63664e+06 -400908 -877699 -1.34868e+06 350762 -956396 640355 676892 923018 1.70433e+06 1.02623e+06 351371 -1.2982e+06 -1.10944e+06 1.42474e+06 -1.07306e+06 108644 201297 -801547 -1.20385e+06 1.19315e+06 912049 1.59996e+06 1.22837e+06 -655416 -34158.5 7775.68 -795472 -647584 -282127 -345719 179719 -188670 616484 -895054 -523058 160670 -595589 -270875 -497918 35497.2 -40935.5 604019 -314416 254772 -479321 1.24316e+06 1.15901e+06 -453477 -186398 -86499.8 279551 -63065 -188330 671272 -306230 511149 -211459 -370473 419391 -327520 108698 46321.4 138605 231275 -75156.4 -1.17607e+06 635039 12468.8 157871 202918 397415 -406292 400688 584963 
-4.59382e+07 -2.60396e+07 3.98447e+07 1.11033e+07 -1.44583e+06 1.03392e+07 -1.10057e+06 -2.68212e+06 1.69436e+06 -1.48509e+06 7.1146e+06 -4.77068e+06 8.12384e+06 -810216 4.55944e+06 1.92223e+06 -674618 -2.56325e+06 -3.44966e+06 2.59361e+06 4.44978e+06 -1.02727e+06 1.78607e+06 -595425 -2.07414e+06 2.32184e+06 -568213 227772 -1.61383e+06 888427 491399 290508 -5.02087e+06 -3.50192e+06 -976013 -1.88679e+06 -357912 749013 1.46099e+06 -2.0142e+06 -10857.8 -1.03476e+06 30215.9 973669 44115.2 2.62752e+06 1.13516e+06 -135945 -1.97456e+06 -1.18158e+06 517482 -499109 1.72285e+06 -387124 -1.47449e+06 413.04 -1.62719e+06 -773184 -225942 206780 24947 -1.20495e+06 -56724.9 -797331 588303 431600 618921 969763 869911 199105 585887 -456384 -312797 549055 -791914 -250800 118356 286518 -296750 -200589 -623836 -271580 355020 -274993 790891 30652.5 115258 -563342 532413 627842 282482 721893 -473740 375039 -220093 -52571.9 336577 417809 477208 505083 
-4.53666e+07 -3.04974e+07 4.15456e+07 1.6782e+07 3.33939e+06 2.30215e+06 -3.26143e+06 -1.35683e+06 122570 -1.32827e+06 6.83833e+06 -3.90172e+06 1.05067e+07 -1.23839e+06 670439 -1.58902e+06 834167 -2.42621e+06 2.00004e+06 -210687 2.54594e+06 -2.98878e+06 829055 -26336.3 -1.72334e+06 524526 3.30857e+06 -1.21718e+06 219403 -29709.2 -823109 -868297 256074 -1.18216e+06 292748 -1.14048e+06 -1.3134e+06 1.02196e+06 66205.8 67008.9 384904 -571649 -58410.4 164915 71424.3 -359182 -386820 -627054 13541.8 1.03597e+06 -63580.6 57028.9 345572 520717 -30560.1 -429235 614486 101343 -343757 -632340 71954 -123750 498329 140704 -162653 -1154.45 -447124 -479603 599363 -416817 419943 149772 -546337 278237 293322 -535704 -1.10818e+06 52252.6 -64074.3 -716864 392801 295365 702677 437526 -353452 -94971.8 99079.8 703414 124397 -589711 372778 92895.7 207269 453236 -44176 151657 -362075 -60963.2 -168253 -113709 
-4.54461e+07 -2.68538e+07 4.38626e+07 1.52567e+07 3.71468e+06 1.50628e+06 -3.87549e+06 -1.3963e+06 -773521 -1.43305e+06 6.79882e+06 -3.49277e+06 9.84818e+06 -347245 795985 -286254 301015 -1.98598e+06 2.88318e+06 -780393 2.47559e+06 -2.87268e+06 -704899 545308 -1.42861e+06 1.08907e+06 2.82113e+06 -833959 379774 683107 -1.44769e+06 -780475 959247 -1.17762e+06 251440 -1.47606e+06 -1.85313e+06 910697 26438 283590 422967 -82393.3 505554 26329.7 -232721 -855404 -1.21415e+06 -609852 -607124 1.33527e+06 59941.4 -163236 -69101.3 -24578.7 142968 -1.10347e+06 852366 156891 -367161 -781944 424459 351809 568136 144422 54165.1 24046.7 -539401 -890226 479496 -200045 467773 -291383 -129312 -3361.54 980478 254486 -627849 301298 347251 -424006 309407 144084 226784 -8284.12 -286548 172982 -189767 201691 -31444.4 -24616.8 -431865 127202 212023 -355885 170736 314692 54065.7 108665 108930 -292769 
-4.24523e+07 -2.30596e+07 4.36549e+07 1.75872e+07 5.14842e+06 -732346 -3.79987e+06 599067 -950608 -1.19462e+06 6.20799e+06 -1.68827e+06 8.89047e+06 -1.3296e+06 -983084 318923 663816 -1.69277e+06 4.42792e+06 -1.81369e+06 1.26139e+06 -2.06628e+06 -2.31136e+06 1.37351e+06 -220306 1.19426e+06 2.38215e+06 -1.25839e+06 526268 514777 -1.10854e+06 -539590 1.94489e+06 -965238 -482982 -1.45871e+06 -1.49391e+06 -376270 195246 -106914 561611 321042 1.0968e+06 -646319 -455599 -1.36403e+06 -1.49034e+06 -771199 -1.26819e+06 1.4567e+06 364746 425280 -712252 -99133.5 879356 -924916 499578 -119604 -484953 -418933 323150 902062 -265011 169378 265401 -70326.1 -540103 -439021 416793 189052 273189 -143760 499469 -822776 907965 639893 454441 437376 400547 166929 570546 138033 -490490 -403508 -242380 544914 -735833 -481362 -277805 703319 -617575 282288 288697 -1.22781e+06 338756 241623 278280 -341178 663477 -420833 
-2.66062e+07 -8.95517e+06 2.04877e+07 -2.68998e+07 157417 7.39434e+06 -3.06973e+06 -1.09967e+07 1.68462e+06 -1.99987e+06 -4.4872e+06 -5.1801e+06 -2.8627e+06 8.55323e+06 -1.41516e+06 5.25636e+06 -3.7867e+06 3.35187e+06 418236 -809573 -2.13822e+06 244655 840740 1.96851e+06 -799408 1.32229e+06 -549125 -953167 1.92281e+06 6.41548e+06 4.67355e+06 438927 1.14617e+06 -432182 -4.00503e+06 106423 -589118 4.83761e+06 -952194 2.36961e+06 -547813 2.00018e+06 -1.3465e+06 317298 -148843 1.14553e+06 1.53966e+06 1.95425e+06 1.33909e+06 -799230 -461119 -393329 674931 -75721 3.36762e+06 -734947 757287 -1.72356e+06 -386177 -78155.3 -152274 -2.05112e+06 -376166 -291527 -67116.8 -318261 298915 -813286 -203156 -1.41637e+06 -14952 75041 -162210 -94421.9 302878 922477 -361543 392952 -779980 84658.1 1.08515e+06 21083.9 -76121.7 60021.6 -226450 -252832 -491667 -373034 255269 -453563 -52354.8 532653 -249697 35380.1 -72483.8 143894 53203.5 8066.19 273631 -204125 
-2.46095e+07 4.35874e+07 2.31062e+06 1.60457e+07 1.22659e+07 -1.23784e+07 -3.6292e+06 6.96882e+06 -7.70767e+06 -2.52702e+06 760388 -778921 722700 2.23541e+06 5.12577e+06 1.35807e+06 2.26609e+06 2.00677e+06 732795 -936600 -1.4989e+06 1.66369e+06 -805972 1.02042e+06 -1.75885e+06 -766364 375851 179439 1.05494e+06 2.68188e+06 -944789 638341 -645638 190424 72820.8 2.63447e+06 154212 593724 -71724.4 580803 787631 -992011 18135.8 271454 1.53721e+06 -320022 650267 -575603 1.71949e+06 72636.2 -829875 -545992 123011 -169376 53140.4 536041 427293 836526 -317466 527649 589081 -203802 563712 277041 421788 315766 330802 -658551 -277175 -496414 -68795.2 -315074 464661 215504 -174513 194089 562906 91803.3 -258876 -481469 -901616 -542318 518681 -235838 271536 354765 165070 -107379 -7452.38 593715 115516 -715474 -158704 -73102.1 -327246 86901.7 343248 10262.4 419805 45663.9 
-2.98358e+06 6.17025e+07 1.12015e+07 2.79631e+06 2.90601e+06 -1.42182e+06 9.64288e+06 -7.71846e+06 -1.67763e+06 -1.06641e+07 2.22952e+06 -2.13893e+06 -4.70227e+06 651599 -7.52097e+06 2.11327e+06 6.23716e+06 -5.69646e+06 312109 -2.43503e+06 -2.59822e+06 2.55218e+06 3.12642e+06 1.25941e+06 4.06498e+06 1.32332e+06 -190916 2.26317e+06 -698866 -1.14299e+06 2.08769e+06 -2.67297e+06 -727167 -154402 1.14995e+06 -765042 -246922 89645.2 95680.9 1.0916e+06 -1.26693e+06 -1.86841e+06 494750 288110 -2.2544e+06 1.52261e+06 -618492 181632 -591200 -519160 129507 -775944 -497563 -1.26838e+06 10607 -610607 363035 -921194 -216170 -364744 385954 -391301 191006 165409 -175490 -313022 451383 -371048 617448 396147 -129424 -18618.9 248609 -272522 245355 3613.2 572529 -18852.6 136391 -1268.7 -275034 95406.8 82182.6 521594 118779 -11311.8 212980 466544 -296635 167430 -643455 -122926 354590 121180 -101288 -31407.1 153825 32802.3 -59028.5 59677.2 
